encog,BasicNetwork,java,3.3.0,1,1479642787574
[BASIC]
[BASIC:PARAMS]
[BASIC:NETWORK]
beginTraining=0
connectionLimit=0
contextTargetOffset=0,0,0,0
contextTargetSize=0,0,0,0
endTraining=3
hasContext=f
inputCount=675
layerCounts=11,101,121,676
layerFeedCounts=11,100,120,675
layerContextCount=0,0,0,0
layerIndex=0,11,112,233
output=-1,-1,-1,-1,-1,-1,-1,-1,0.9999999712,-1,-1,1,1,0.9999995513,1,0.9999940643,-0.9999418475,-1,-1,0.9999991901,0.9999999975,-1,-0.99992184,0.9978928559,0.9905377738,0.9997174496,0.9885446889,1,-1,0.9999999999,0.62594322,1,-1,-0.9544194323,-0.9999913129,0.9999997284,1,-1,-1,0.3111385211,-0.9889991444,0.9523234643,0.5916719917,-0.9999999914,1,0.8986662447,-0.999911745,-0.9967998225,-1,-0.9999999067,0.9999998591,-0.9999998591,0.999999768,-0.9999999945,-1,1,-0.9999999896,-0.9924318813,-1,-0.9578915641,0.9999999661,0.7766823642,0.8648095808,0.3825281168,1,1,1,0.9999999999,-1,-0.9999765189,-0.9881572012,0.9999982713,-0.999854395,1,0.925014269,0.9999999988,-0.9999999973,-1,1,-0.9987432257,-0.3973122956,-0.9999997157,-0.9999999987,0.9999756472,-0.9999920826,1,1,-0.9999997687,1,-0.996911691,-0.9975593937,-1,0.9999999176,0.9999752822,-1,1,-1,-1,0.9999999999,-0.9999990486,0.9997833969,-0.8922557237,1,1,-0.9999999985,-1,-0.9999999997,-0.9999999994,0.4575941378,-1,-0.9999999999,1,1,-1,-1,-0.9775670329,-0.9999999997,1,-0.9995971125,0.9999999998,0.9999999919,0.9833407803,0.9999491645,-0.9999929689,-0.9999999984,0.9995865104,-0.9999604784,1,0.9999999994,-1,-0.9999999991,0.9999999986,1,-0.9999999943,1,1,-1,-0.9999999549,0.9999724503,0.6472379175,-1,-1,1,0.9999909873,-0.9999999898,-1,-0.9999610856,-1,-1,1,1,-1,-1,0.9985451543,-1,1,-0.9999999914,1,1,0.962405511,-0.5324908685,1,-0.9999999455,-1,1,-1,-0.5180264127,-1,-1,-0.9942226613,-1,1,-1,-0.999999999,1,-1,-1,-0.9998506006,1,-0.8375232143,1,-1,-0.885109221,1,0.9501301311,0.9927552001,0.9999999986,-1,-0.9999999999,0.9999598878,1,1,1,-0.9999998608,0.9853400523,0.999998653,0.7371367832,1,-1,1,0.4821380559,1,-0.9999947734,-0.9999245452,-0.999999987,1,-0.9999999188,-0.9950929249,-1,1,1,0.9999999992,-0.9999999985,-0.6718721543,-0.9999957276,1,0.9760750009,1,1,1,-1,1,-1,-0.9993298457,1,0.9999996125,1,-0.1628891672,0.9999999927,-0.9999997832,-1,1,1,0.631372549,0.631372549,0.7098039216,0.8901960784,0.9294117647,0.9607843137,0.9215686275,0.9529411765,0.968627451,0.9843137255,0.9843137255,0.9921568627,0.9921568627,0.9921568627,0.9921568627,1,1,1,1,1,1,1,1,1,0.9921568627,0.9921568627,0.9921568627,0.9450980392,0.9450980392,0.9529411765,0.9294117647,0.9294117647,0.9450980392,0.968627451,0.968627451,0.968627451,0.7411764706,0.7333333333,0.7882352941,0.3490196078,0.3176470588,0.3882352941,0.0117647059,-0.0431372549,0.0196078431,0.1764705882,0.1450980392,0.2705882353,0.3882352941,0.3803921569,0.4980392157,0.662745098,0.662745098,0.7333333333,0.9921568627,0.9921568627,0.9921568627,0.9921568627,0.9921568627,0.9921568627,0.9921568627,0.9921568627,0.9921568627,1,1,1,0.9921568627,0.9921568627,0.9921568627,0.9137254902,0.9058823529,0.9215686275,0.6235294118,0.6078431373,0.6941176471,0.5058823529,0.4823529412,0.5764705882,0.8039215686,0.7882352941,0.8274509804,0.4431372549,0.4117647059,0.4745098039,-0.0823529412,-0.1137254902,-0.0352941176,-0.0823529412,-0.1215686275,-0.0901960784,-0.0352941176,-0.0509803922,0.0274509804,0.1450980392,0.1607843137,0.2705882353,0.3568627451,0.3803921569,0.5137254902,0.8901960784,0.8980392157,0.9215686275,0.7568627451,0.7568627451,0.8352941176,0.9607843137,0.9607843137,0.968627451,0.9921568627,0.9921568627,0.9921568627,0.9058823529,0.9058823529,0.9137254902,0.662745098,0.6235294118,0.6705882353,0.231372549,0.1764705882,0.262745098,0.0666666667,0.0431372549,0.1294117647,0.2784313725,0.2392156863,0.3411764706,0.2235294118,0.2,0.2941176471,-0.0823529412,-0.1137254902,-0.0509803922,-0.1607843137,-0.1921568627,-0.168627451,-0.1137254902,-0.1215686275,-0.0431372549,-0.0509803922,-0.0352941176,0.0509803922,0.3333333333,0.3568627451,0.4666666667,0.5921568627,0.6156862745,0.7254901961,0.4745098039,0.4745098039,0.5843137255,0.9215686275,0.9137254902,0.937254902,0.9607843137,0.9607843137,0.968627451,0.4666666667,0.4352941176,0.5058823529,-0.0823529412,-0.137254902,-0.0745098039,-0.2784313725,-0.3254901961,-0.2705882353,-0.2078431373,-0.2392156863,-0.1764705882,0.0745098039,0.0352941176,0.1215686275,0.0980392157,0.0274509804,0.0901960784,-0.0901960784,-0.1137254902,-0.0823529412,-0.3254901961,-0.3725490196,-0.3568627451,-0.2941176471,-0.3333333333,-0.2784313725,-0.1137254902,-0.1215686275,-0.0509803922,0.2549019608,0.2470588235,0.3568627451,0.537254902,0.5607843137,0.6784313725,0.2705882353,0.3019607843,0.4039215686,0.7411764706,0.7490196078,0.8117647059,0.7568627451,0.7568627451,0.8274509804,0.0980392157,0.0823529412,0.1843137255,-0.3411764706,-0.3490196078,-0.3019607843,-0.4039215686,-0.4039215686,-0.3647058824,-0.4274509804,-0.4352941176,-0.3490196078,-0.1843137255,-0.231372549,-0.1529411765,-0.0588235294,-0.1058823529,-0.0588235294,-0.0117647059,-0.0588235294,-0.0039215686,-0.4588235294,-0.4901960784,-0.4823529412,-0.2470588235,-0.2862745098,-0.2235294118,-0.0117647059,-0.0509803922,0.0431372549,0.0666666667,0.0274509804,0.1137254902,0.1450980392,0.168627451,0.2705882353,-0.1450980392,-0.1058823529,-0.0274509804,-0.3098039216,-0.2941176471,-0.2156862745,-0.1137254902,-0.1294117647,-0.0666666667,-0.3254901961,-0.3098039216,-0.2549019608,-0.4745098039,-0.4509803922,-0.4196078431,-0.5137254902,-0.4901960784,-0.4588235294,-0.5921568627,-0.6,-0.5137254902,-0.5137254902,-0.537254902,-0.4666666667,-0.0196078431,-0.0352941176,0.0509803922,-0.3098039216,-0.2941176471,-0.231372549,-0.6941176471,-0.6862745098,-0.6470588235,-0.4509803922,-0.4274509804,-0.4352941176,-0.4901960784,-0.4431372549,-0.4352941176,-0.3882352941,-0.3647058824,-0.3490196078,-0.568627451,-0.5450980392,-0.5058823529,-0.5607843137,-0.5607843137,-0.4980392157,-0.5529411765,-0.537254902,-0.4745098039,-0.4352941176,-0.4509803922,-0.4039215686,-0.5764705882,-0.5529411765,-0.5058823529,-0.6862745098,-0.6549019608,-0.6078431373,-0.6470588235,-0.6156862745,-0.568627451,-0.537254902,-0.5529411765,-0.5215686275,-0.5843137255,-0.631372549,-0.6,-0.5137254902,-0.4823529412,-0.4117647059,-0.7647058824,-0.7098039216,-0.6392156863,-0.7176470588,-0.6941176471,-0.6549019608,-0.2235294118,-0.2392156863,-0.3411764706,-0.168627451,-0.1843137255,-0.2941176471,-0.0509803922,-0.1215686275,-0.2,-0.0588235294,-0.0901960784,-0.1843137255,-0.0509803922,-0.1058823529,-0.1921568627,-0.1529411765,-0.137254902,-0.231372549,-0.1764705882,-0.168627451,-0.2470588235,-0.3098039216,-0.2784313725,-0.3254901961,-0.1921568627,-0.2470588235,-0.2862745098,-0.7176470588,-0.7568627451,-0.7019607843,-0.0196078431,-0.137254902,-0.137254902,0.1921568627,0.0588235294,0.0666666667,-0.0509803922,-0.1137254902,-0.168627451,-0.1764705882,-0.1764705882,-0.3176470588,-0.2549019608,-0.2156862745,-0.3647058824,-0.2,-0.1921568627,-0.137254902,-0.0901960784,-0.0666666667,-0.0117647059,-0.0901960784,-0.1058823529,-0.0509803922,-0.5215686275,-0.4980392157,-0.4431372549,-0.5921568627,-0.568627451,-0.5137254902,-0.5921568627,-0.5921568627,-0.5215686275,-0.3960784314,-0.4117647059,-0.3490196078,-0.2235294118,-0.1921568627,-0.1764705882,-0.1058823529,-0.0823529412,-0.137254902,-0.8117647059,-0.8196078431,-0.7882352941,-0.6470588235,-0.7019607843,-0.631372549,-0.5058823529,-0.568627451,-0.4901960784,0.262745098,0.1294117647,0.1137254902,0.1450980392,0.0431372549,-0.0039215686,0.168627451,0.0588235294,0.0117647059,-0.1921568627,-0.2,-0.1215686275,0.0509803922,0.0352941176,0.1294117647,0.2392156863,0.2235294118,0.3176470588,0.4352941176,0.4431372549,0.568627451,0.0823529412,0.1058823529,0.2,-0.168627451,-0.1764705882,-0.1058823529,-0.0901960784,-0.1058823529,-0.0666666667,-0.1450980392,-0.168627451,-0.1607843137,-0.137254902,-0.1921568627,-0.1921568627,-0.8352941176,-0.8823529412,-0.8431372549,-0.6705882353,-0.7803921569,-0.7411764706,-0.7647058824,-0.8352941176,-0.7960784314,0.2549019608,0.0980392157,0.1058823529,0.3098039216,0.168627451,0.168627451,0.2705882353,0.1215686275,0.0980392157,0.1450980392,0.0901960784,-0.0745098039,0.2078431373,0.137254902,-0.0039215686,0.231372549,0.1764705882,0.0274509804,0.2862745098,0.2156862745,0.0823529412,0.3176470588,0.231372549,0.1058823529,0.3647058824,0.2549019608,0.1294117647,0.3882352941,0.2705882353,0.168627451,0.4274509804,0.2941176471,0.2235294118,0.4352941176,0.2862745098,0.231372549,-0.6156862745,-0.6941176471,-0.6705882353,-0.6941176471,-0.8039215686,-0.7725490196,-0.7647058824,-0.8588235294,-0.8352941176,0.3411764706,0.1607843137,0.1215686275,0.4117647059,0.2392156863,0.2,0.3803921569,0.1921568627,0.1529411765,0.4117647059,0.2470588235,0.1529411765,0.4117647059,0.2470588235,0.1607843137,0.2784313725,0.1607843137,0.0274509804,0.3019607843,0.1843137255,0.0431372549,0.4431372549,0.2941176471,0.231372549,0.4352941176,0.2862745098,0.231372549,0.4352941176,0.2784313725,0.2156862745,0.4117647059,0.2549019608,0.2,0.4039215686,0.2392156863,0.1764705882,-0.262745098,-0.3647058824,-0.3568627451,0.0274509804,-0.1294117647,-0.1450980392,-0.6549019608,-0.7333333333,-0.7098039216,0.3960784314,0.2235294118,0.168627451,0.4431372549,0.2549019608,0.2,0.4039215686,0.2156862745,0.168627451,0.3333333333,0.1607843137,0.0352941176,0.3725490196,0.1921568627,0.0901960784,0.4117647059,0.2156862745,0.1137254902,0.4117647059,0.2392156863,0.1529411765,0.4352941176,0.262745098,0.1921568627,0.4274509804,0.2549019608,0.1764705882,0.4274509804,0.2470588235,0.1764705882,0.3960784314,0.2235294118,0.1529411765,0.3803921569,0.2,0.1294117647,0.2078431373,0.0352941176,-0.0196078431,0.2784313725,0.0823529412,-0.0039215686,0.2078431373,0.0274509804,-0.0431372549,0.4117647059,0.231372549,0.1607843137,0.4196078431,0.2392156863,0.1764705882,0.4274509804,0.231372549,0.1764705882,0.4039215686,0.1921568627,0.0980392157,0.4352941176,0.2235294118,0.137254902,0.4196078431,0.2235294118,0.137254902,0.4352941176,0.231372549,0.1450980392,0.4352941176,0.2470588235,0.1607843137,0.4352941176,0.231372549,0.1450980392,0.4274509804,0.2470588235,0.168627451,0.4274509804,0.2549019608,0.1843137255,0.4352941176,0.2549019608,0.1921568627,0.4274509804,0.2470588235,0.1764705882,0.4274509804,0.2470588235,0.1764705882,0.4117647059,0.2156862745,0.137254902,0.4039215686,0.2235294118,0.1450980392,0.4117647059,0.2,0.137254902,0.4039215686,0.2078431373,0.1529411765,0.4274509804,0.231372549,0.1450980392,0.4274509804,0.2078431373,0.1215686275,0.4196078431,0.2078431373,0.1215686275,0.4352941176,0.2392156863,0.1529411765,0.4352941176,0.231372549,0.1450980392,0.4274509804,0.231372549,0.137254902,0.4039215686,0.231372549,0.137254902,0.3803921569,0.2156862745,0.1215686275,0.4274509804,0.2549019608,0.1843137255,0.3725490196,0.2,0.1058823529,0.3960784314,0.2078431373,0.1294117647,0.3725490196,0.1921568627,0.1058823529,0.3647058824,0.1843137255,0.0980392157,0.3960784314,0.1921568627,0.1215686275,0.4039215686,0.2,0.137254902,1
outputCount=11
weightIndex=0,1111,13211,94331
weights=##0
##double#94331
   1.6981217703,-2.4254724883,0.96333785,0.8168101674,-2.0530452598,1.0940367146,-2.1242899646,1.7825448841,2.6501435551,0.3235222586,-0.8705381559,1.5030778843,0.0101374564,1.1169326887,0.5754737337,-1.3725826973,-0.4769792719,-1.3043125668,1.2748891267,-1.6494148778,-1.2034397786,0.1645465012,0.6152456684,-3.3510351707,0.501059796,-0.8544647318,-1.0445745915,1.3868543779,0.3482219597,-0.0624589699,0.2476453327,2.6467354572,1.9544790671,-0.0917134662,-2.4364904591,-3.6583912058,1.7639303664,2.172754174,-0.1212071904,-2.3635487786,-1.6717504929,0.3459972863,1.3179441001,-0.0406796761,-0.1270658434,0.966563743,1.0478852199,1.3162226865,0.7632631192,2.5355074691,-1.4196288485,-0.9476860813,-3.0550677367,-0.5378090241,-0.442093244,-0.2100998366,2.1300523881,1.3591474238,-1.3828192489,0.0400022718,3.1455232006,2.4230353328,1.662740203,2.4136592339,-1.6084217063,-0.9938585137,-4.1109159889,2.5793006691,-0.4126581374,-2.1686321783,-1.5938514946,-0.141682087,-0.0834021356,1.7399638894,0.169384364,-0.4988116253,1.8756042964,-0.9229465904,2.7449329193,0.753730628,2.253037293,0.7435378666,-0.4873240829,1.8440114059,-4.7338160839,-0.4299263806,-0.330964589,-3.6632568113,-1.1157318343,-1.2274607776,-0.4870494916,2.4877094254,1.3749632796,-1.9040951506,1.2927844872,-1.6994978543,2.446907176,-0.290585757,3.268270642,2.9458256088,-3.4837348314,0.4948631669,-0.8907598071,0.0486029574,-0.8416633383,-0.2139658847,0.2628874202,-0.1851327507,-0.1419086024,0.5739084333,0.9794108035,-0.4260698776,-0.2099754434,0.8607702048,0.6124731907,-0.7551371928,0.1694095802,-0.8040143357,-0.2819996172,0.9639809644,-0.2309599885,-0.4937481383,0.6051979711,-0.0009675933,-0.6532277238,0.1504801946,0.6338142259,0.1593655457,0.2308180628,-0.2756878969,-0.6888569304,0.1030336175,0.3564714109,-0.1565022143,-0.9570743314,0.5942818827,0.3371167522,0.3323505418,1.2586655627,-0.5340599768,0.2158712612,0.766536567,-0.104234475,0.8492719482,0.6682158755,-0.6063457888,0.9536359209,-0.2746417205,0.1527423482,0.2060428128,-1.4124929343,-0.5327201116,-0.1932272771,-0.069212497,-0.2642415561,-0.5005850503,-0.5088018293,-0.1571888817,-0.5476885439,-0.4115719368,-0.0846634752,-0.5283442684,-0.239487966,0.5611946909,-0.3726972265,0.2712067478,0.9549220464,-0.1995136417,-0.2067905327,0.7013249258,0.6302870755,0.5125044699,0.5168534309,0.7049648501,-0.3818807962,-0.753913859,-0.5897598528,-0.3349631179,0.5335354148,0.4069150245,-0.5356334421,0.9734842068,-0.8805995041,0.5272438615,0.5664196114,0.8731549176,-0.2222082787,1.8854667244,1.1288765905,0.0453388254,0.6574882951,0.0965781201,-0.2726186114,-2.4228212404,0.0401597415,0.1088048813,1.0800685597,0.0500210794,-0.4202252689,0.8706607154,-0.6689459089,-16.2706654604,0.0766624685,-1.0190666372,0.978040203,-0.5762334912,1.3659352288,0.6787761347,-1.0835589465,-0.332721699,-0.6913076832,0.3541863908,-0.4516627184,-0.1210154987,-1.5772985329,-0.3028319826,-0.3835659046,-0.9035510037,-0.5634271949,0.9006184236,0.5562753026,0.1064830927,-3.2688574232,0.3234088326,0.1511277811,0.2547337884,-0.0383686391,1.7849690183,1.3462967463,0.7623374478,0.4546811846,0.0765898156,-1.3165412327,0.7094831122,-0.457051076,-0.773949769,3.307400358,-1.2350066094,0.0076078229,1.2907975727,-0.4323176685,0.5705535232,1.0527903813,0.6369099577,-0.5907675393,0.4790687598,-0.1263540313,-0.9393576488,0.8421570362,4.2728829385,-0.7548737792,-2.6505832104,0.7715242064,0.7479764631,-0.1571052382,0.3630064892,-3.2251203363,-0.9636599285,0.9673432282,0.4145634677,-0.368019543,0.170988647,-0.6255409276,0.0554384629,0.8542151999,6.4958160546,0.1515425895,0.2107913207,0.1222074815,0.0649446191,0.8195022374,0.3072387759,0.6578765674,0.7303788182,-0.8102496493,-0.0865038156,0.3930745024,0.9239446599,2.2229319325,-0.7465495724,2.8485327804,0.1875745776,0.9677445061,-0.2503994243,0.7730421981,0.9583858491,-0.0426187553,-0.0763515116,0.489941439,1.125014112,0.3165391398,-0.9297598256,-0.5353639143,0.6098519648,-1.5595651353,0.5081377179,0.9396857148,0.2566403381,0.5282435837,-0.5237292686,-0.7355426096,0.3985841603,-26.5940677535,0.2144795216,-1.5102207752,0.132698312,-0.1591475543,-0.5440316862,-0.9161652147,-0.353793925,0.4019787172,-0.5792997828,-0.2006849669,-0.3922800271,-0.8296605185,0.5111825746,-0.2882359745,-0.5382548426,0.6272344469,-0.1900581145,-0.4021524427,0.4103775726,-0.6514342545,0.0011659256,0.7040645735,1.2794785878,1.7271913013,-0.5867193348,0.5420163305,-0.4060689364,0.4709941011,0.2882470503,0.4937812151,0.1561114575,-0.7777214556,-0.8911352516,-0.945748643,-0.1341204272,0.4681385097,0.8451832905,0.4130818736,-0.7660821795,-0.1397853449,-0.603769132,-0.8910104067,0.6217979846,0.1299194859,0.2806030327,0.7624253895,0.2487820722,0.920656342,0.7583688487,0.0922410799,-0.9930733036,0.9670686001,0.3443702192,-0.4937307204,0.6734276996,0.7125313996,0.094148345,0.656293703,0.7477284317,0.5913961638,-0.3890803979,0.8950848932,0.2983948965,-0.7559637448,-0.1789797358,1.1541173898,0.0187187371,-0.6314187651,-0.8191984902,-0.2732105083,0.7564672633,0.1744739564,-0.5343925443,-0.3983454076,-0.315230026,-0.354860516,0.8812410753,0.7014226786,-0.6426139024,-0.8277729222,0.3417460789,-0.6827774742,0.5710980616,-1.0406928342,-0.7557993606,0.9917782445,1.176737558,-0.3374105328,-0.3248089811,0.7293922546,0.1722056648,-0.4437742042,-1.4560003499,-0.440773342,0.2424154233,0.8465262576,-0.3543941818,-0.1344056722,-0.1594036422,-0.3276392375,-19.0168277086,0.6568292029,-0.7848327872,-0.5285887957,0.7032214115,-0.176626806,-0.3147093361,-0.6302691343,-0.2210054011,0.0493505191,0.2875857149,0.546210263,0.3872171904,0.5762375965,0.5719880212,0.8891912915,-0.0182261153,0.8886587135,-0.3596755367,-0.186778199,0.2901722725,-0.7666500193,0.8146350624,-0.5165302804,0.9505879191,-0.6440652546,-0.8475465193,0.854199716,0.2424521896,0.7431710772,0.3920097956,-0.1044008072,-0.7241514105,0.6129949519,-0.6640051375,-0.3347913569,0.5306904459,-0.4134392146,0.3777585159,-0.3851530272,0.3394481139,-0.1303131226,-0.7287095116,0.7762930491,0.976058145,-0.3287756414,0.4229944345,-0.3705302865,0.6139255975,0.9563559725,-0.8081724968,0.9152741713,-0.734656925,0.2273151321,0.670340343,0.4032999751,-0.0020625055,0.7953492307,0.0007510887,0.5710682412,-0.2032218935,-0.3717031379,0.5817900552,-0.2463254991,0.220961436,-0.3554548378,0.260285089,0.7847235258,-0.5037490385,0.7016289917,-0.3636160584,-0.4942203121,0.5630586868,0.012932304,-0.0430850403,-0.4607872823,-0.6240430912,-0.8039842515,-0.0431461385,0.8201273788,-0.7193505116,0.9335404961,-0.6819709545,0.1187388231,0.3845615874,-0.2221307435,-0.736234743,0.1652177071,1.0505604224,-0.2456649219,-0.9333606851,-1.0312231839,0.5746504384,-0.4169584004,-0.0957438134,0.784566384,0.7198268526,0.7971723877,-0.7761897854,0.4995173496,0.6769337679,-17.1057377173,0.3128332383,-2.5439680302,1.124756113,-0.6989349727,-0.9190551731,0.4496700924,0.0355469906,0.2521015744,0.1992103947,-0.3758392281,0.9408232744,0.5338018347,2.3597453394,-0.3998824146,-0.1227527595,0.5809095739,0.2214925763,0.0747734252,1.6228333099,-0.3156433607,-1.4545009893,6.0336719295,2.0937181109,1.0501105704,-0.0640763138,-0.5245995644,0.8633218886,0.8263210416,1.9203269405,-0.6056602946,-2.4334863557,-3.3296349112,-0.2668417147,-0.7183401198,4.1788743396,-0.2913736093,0.3112854923,3.45961044,-0.9718788233,0.2143688235,-0.3255587869,6.2308638026,0.0181531821,-0.7837818007,0.517453946,-0.2621332221,0.3130041317,1.9602125469,0.3315055212,-3.283388652,-0.4114834894,0.5957325969,0.4530593749,-0.1118050516,-0.979640332,-0.2441801932,-2.8235819723,0.4038891584,0.3445258202,0.3044781248,1.4340483361,0.2112518155,0.3926723911,-0.9780424414,-0.9268147669,0.5139789313,0.5100381138,-0.2761997739,0.545366509,1.5841983004,-0.0027272634,0.2728373539,0.4481604524,-0.3660417388,-0.07685452,0.1211515115,0.9439367566,-0.0981779258,0.7230011802,-0.088622128,-0.5693599055,-4.2968569711,0.3873607196,0.7815855286,-0.280834781,0.1324201773,1.330792943,0.0708244264,0.1620097701,0.1431392288,1.0349421099,-0.1809936084,-1.0932872473,1.3557742497,0.1048444643,-0.5692875365,0.6496815925,0.7673423745,3.8053605934,1.9765859995,-27.585065264,-1.1648493781,1.2964966465,1.2145051569,1.1973421312,2.981588487,-1.8294733308,-0.0554168209,-0.0042401925,0.6349728458,0.0254364748,-2.5512443954,2.2775698403,1.4845296847,0.3928130636,0.3622122333,-0.8595792993,-0.9752157019,0.9897759305,0.2188015556,-1.3670167959,-1.2764306559,0.6964681494,1.0770994133,-2.6374079458,-1.0164358755,1.4036022147,-0.546918632,-0.2976199845,-2.0281144636,1.363048632,2.9819108621,-3.5506418644,1.8938159611,1.4505901099,0.2725727207,-0.1969512152,-0.2503581598,-0.4404248008,-0.2613383836,-1.1111241131,1.8856313142,-0.4050658114,-2.6006008535,1.5161845286,0.1347079147,-0.4941735624,2.435309532,0.3507419214,1.0293543135,-1.7553353684,0.7842200152,2.7599299616,1.3900699139,-0.6546894139,0.9068877773,-1.8102092141,-1.7614476001,-0.6121450858,2.6133408762,1.9285106129,-1.0451111846,0.7449538214,1.3186830663,-0.5252233902,1.6367534853,0.7448823384,0.6563131259,2.1083130302,-0.3514947166,0.6125450624,2.0373467924,0.6333631579,1.7833346741,1.3535077132,0.4831812878,-1.4918073965,1.5400480353,-1.4711359834,2.8832382954,3.3144150888,-0.2648662478,1.5351803725,-0.4371524238,0.2402617909,3.1772304837,2.8634120383,2.0253345854,-0.9820683109,-0.3207284747,0.1502021353,1.769924715,0.4866656379,-0.765213864,0.8292036139,-0.4810516146,0.864616327,-3.3962218716,0.2391472865,0.8419627603,-1.9385026507,-1.2219783656,0.8935620019,-4.0535093362,0.0815081004,-1.3177773627,0.1449395295,-0.5090102202,-0.7911706437,0.5524457611,-2.0592812048,-0.0077772918,0.1507416297,1.2368626117,0.5607962508,0.6707848983,0.8450330404,-0.8033085869,7.4425893611,-0.5088348866,0.0592048487,-0.640248493,0.6084286501,0.0321640313,-0.0157609092,0.7690708872,-0.6369173154,0.9817275143,4.2941696844,0.2075572532,-10.1965643466,-0.7258630858,2.5273073071,1.1067148766,-0.209375659,-0.5318121241,-0.2854620581,-0.3783511693,-0.2191664519,0.7160556449,-0.3724054498,-0.1144042868,-1.4093488417,-0.2124248901,0.7284709193,0.6261853426,0.1564370728,-0.2624885119,-0.234718893,0.6969198938,0.7303527073,-5.9977773476,-0.2449248252,-0.8403455811,-0.5643401649,-0.7823849717,0.156991664,-0.9885797175,0.0334807587,-0.7202588338,-2.1007176862,0.0802032319,-0.18860105,0.0476428209,-0.3770328675,0.5415582714,1.874210127,1.4598676872,0.0742533354,-0.6817205509,-0.9811612823,-0.1366324575,-0.2467286342,-0.591112907,0.2035329177,-0.3523414464,0.4426444326,0.5258918376,0.6791582519,0.3802216917,0.980786849,0.2118994808,2.0261238906,-0.5608493097,-0.1208076509,0.6892473989,0.5802787134,-0.1731686856,0.6482605631,-1.0041114245,1.5063753486,0.1761490555,0.8233782556,0.2139663884,-0.7117598669,0.3044033417,4.3585630743,0.0836517843,-1.6247223269,0.3477866917,0.927500243,1.5149922704,-28.8286186959,3.1788330846,-2.4575323116,0.3073041309,-1.8878174557,-1.6885366419,0.6813444716,-0.2798073684,-1.9063555916,0.2430392134,-1.1223322484,2.5206801216,0.6611572727,0.3576837185,1.1508295675,0.8856020043,1.7986405582,-2.9582561646,-1.1711620185,-2.568256352,1.0197081392,0.9370430906,0.9050355453,-0.4701565781,1.1148479807,0.5085425466,0.3406362469,2.5853187275,-0.5603826363,1.9894980279,2.3310617671,0.6224929202,-0.0299554831,-1.2619114427,-0.7725254345,1.4261365598,2.7148869658,-1.1278358521,-0.2003309408,-0.7985795212,-0.4847123375,1.2312216014,-1.6788613311,-1.1267245676,-0.0260761814,-1.6826034503,1.4681293889,-2.4722520581,-0.5514610271,0.9018147772,1.4808825293,-0.0482348296,0.5065248574,3.374939612,-0.8777980398,-1.1582726517,-0.3971002779,0.7222656271,2.3904621855,-0.278696247,1.5918187906,0.4970003814,-0.8810379617,0.2714185091,2.2113510701,0.7780544535,-1.7834610598,0.2356911819,-1.5681160783,1.0894460123,-0.7590509534,-1.0100061615,0.2171032505,-3.3740012892,-2.6485756242,1.5394220983,-0.5660360681,-0.5688263159,0.3569248355,0.0106574758,-1.9669298451,0.0223987824,-1.1015993348,1.2008968482,-0.2868681198,1.5165850744,-0.8724542017,0.2368925608,4.0277536645,-0.4559069812,2.4027101192,-1.7522894428,0.744105591,3.6584006367,-2.076174329,0.2739116887,-0.6698595583,1.5118541391,-0.4200367987,-0.0029448108,1.7138979874,-1.103911058,-0.6062214304,1.5756520664,-0.1163067106,-0.5937964683,-1.1851535276,-1.7351265142,2.1635232178,2.1650519144,-0.1858006791,1.2001971889,1.0894488784,2.4080134642,3.2623554401,0.4233878938,-1.3193664194,-1.7347482914,3.2372094908,-0.171521541,-0.7707858803,4.1331840208,-1.0812207407,-0.4989682378,-2.6983120086,2.2743394186,-2.7478662321,-0.05415231,-1.7120266712,0.0137500426,1.204201395,-1.2974139788,-3.5304877512,-0.3151368451,1.2930267722,0.4520248217,-1.808232687,-4.3578445338,-1.4953082286,2.1880949349,1.6020360404,2.3292464712,0.4425533852,0.1593739356,0.7716579682,-0.5730550195,-2.4736436547,-0.7425365077,-1.6563146115,-0.0592612428,-0.0631818071,2.2166850723,0.0886176119,-2.1901520261,-1.7488043735,-0.8102176359,-0.2493064123,3.7939632734,-1.2299452526,-3.6769875366,-2.0722347027,-0.0227601058,-2.6084606538,1.243235999,-0.8797201907,-2.4916785256,1.5711479227,-2.4917448796,0.7304707951,-0.4695749741,-1.1707530877,0.9341776285,0.3770043165,0.430111444,0.2434298603,1.4732126022,-1.2017690659,-0.0595651045,1.5118341094,1.3911069029,-1.3144767742,-2.0579400269,0.5744644598,1.1649307006,-1.1472490182,0.3258804281,1.2932354693,0.1854295256,0.6511352787,0.6351773599,-0.1286646508,-2.0828430923,-0.0607633706,-0.3579933056,0.626048649,2.5355129544,-0.2441139053,0.6127622949,1.5139777823,-2.8117990614,-0.0011173299,0.3274756704,-6.3974763008,-1.3096065634,-0.5312288021,-1.701291981,-1.2212701195,1.4247311067,2.5662377758,0.0140375264,-0.6851305619,1.9369673097,0.7280023907,-0.2369598123,-2.7518391778,-5.0964935901,-3.4493577401,-1.0572793655,-1.1395018502,1.3702593588,-0.2977532602,1.9893463342,-1.5150987174,1.3583193725,0.8779399939,1.4082034785,2.6695365867,0.2914151737,-0.33942581,1.0507650841,0.7684118816,0.6576928601,-2.0626574972,-2.7423295386,2.1153004051,-2.7674197988,-1.0976356235,-1.3705534543,3.7010741064,-0.3047678894,-0.4743476807,1.0141751885,-0.4211584805,-2.4040467142,-1.0010839721,2.5769087813,1.3259554625,2.1224303222,-1.0813324299,-0.2409427855,-0.6209472824,-0.9742832347,-2.3655330184,-1.5424273226,-0.4084719882,0.2537812233,1.3298083556,-0.4216662841,-1.0585762148,1.394630456,-1.5663539703,-1.354621082,-0.2884824254,1.6578663632,-0.3870443673,-0.0218100249,-0.8289728233,0.1009582252,3.2076845883,0.101602859,-1.1903976127,-0.9824813368,0.9150679459,-0.2880453516,1.4093248129,0.8968809415,-0.9125977523,-0.5053187169,2.9428805815,-2.9636847901,-1.630061586,-3.7770817608,-1.7052810813,-0.7066984694,-2.9773547689,0.4433866297,-1.4819365089,-2.302382045,-2.3888660214,1.845251266,-1.0965154442,1.7091290577,0.0949412051,2.4733986332,-1.3501337385,-2.0124197545,0.0297756547,0.3391748482,0.1926486454,-0.6898917661,3.0016621585,0.0194162941,-1.555048361,-1.114345688,-0.3337704489,-0.7016875909,-1.0328745589,-0.7170993439,0.4320324035,0.5402939945,-0.4023437451,1.0182181544,-0.4161654483,0.155472201,-0.641706969,-1.2281325042,-0.4638611744,-1.3827294694,-0.1151794363,-1.1887864058,-1.1440404574,-1.0095994665,-0.1213562421,-0.4133284267,-0.4563519946,-0.9937469942,1.0623769458,-0.1176406441,0.2638363565,-1.1680080999,0.1784970845,0.9827442756,0.0037341631,-0.927661547,-0.0839072636,-1.2151928307,-0.459157785,-0.6616982565,-0.9209183068,-0.6759371128,-0.6001373848,0.3760911619,0.2287238758,-0.3333501567,-0.4261713212,0.0725967725,0.7288926619,1.6714887721,0.0841389119,-0.7216632706,-1.2293344105,-0.276656694,0.8110231024,0.1149101898,0.0525351316,0.5002702046,0.2440555244,0.1336938164,-0.0323266612,-0.3178549797,0.8851071118,0.33544239,-0.2975416107,-0.0539503032,-0.3571152784,-0.9122139461,0.8095661195,0.3793849402,0.6540644035,-0.8648324929,0.8959093156,0.3292419105,-0.4299341224,0.2596417176,0.4640313357,0.0990874096,-1.1384381624,0.4805748821,0.1283730167,-0.3145302344,-0.3871882559,0.1059500872,0.8678550801,1.0212049749,0.5708462209,-0.3859449298,0.3834612753,0.3584843754,-0.3496382625,0.2867494754,0.956003273,0.1432827227,0.8322976334,-0.9723613934,-0.4383330542,-0.0788076467,0.216973569,1.2768800322,-0.0611221771,-0.5194044914,-0.3070716623,1.0537690013,0.7052355888,0.8882652811,0.5646882516,-0.2714908165,-0.5975066854,0.3840022998,0.0341055432,-1.4396898335,-0.1515262652,0.5647029254,1.3999411686,-0.5388147155,0.5420247237,-0.6036004506,-0.2573897563,-0.5453170488,0.5111111853,0.1176774336,0.6119122834,-0.0113037303,-0.9160127527,-1.1243015669,-0.0048540289,0.2048754437,-2.7343934051,0.1678150078,0.464139576,-0.2223391168,0.2051309534,0.9248582001,0.0963253305,0.5598684696,-1.9141086253,-0.3565403591,-0.6444040642,-1.0003661852,0.292688169,-0.537649264,-0.761765519,0.8744731655,-0.1469301716,0.4636116867,-0.1583762654,0.8869761837,0.6632497335,-1.3900946413,0.5087180824,0.2318138597,0.7540443179,1.0080818182,0.0508827876,-0.9545098997,0.0265553077,0.4831023339,1.5294252171,0.1313716037,0.8450433481,-0.1351576069,0.8715441188,-1.1734832445,0.5148152729,-0.6377840644,-0.9388095311,-0.2581479886,0.717952813,0.7974401955,0.2486481993,0.4964453647,0.567667101,-1.60753449,0.1610945637,-0.3211569647,-0.7580705784,-0.8250927235,0.8603172136,1.0836651355,-1.8873643473,-0.5752532952,-1.75887191,0.1058048907,0.9293442911,-0.5736703115,-0.7954615432,-0.1144838827,-0.6744714477,1.4896254485,-0.464970056,-0.5760309388,-0.4078171168,-1.046211965,0.524325228,-1.3220707427,2.2224731402,-0.3998013511,-0.3995534322,1.0768647744,0.3062390647,0.8657259341,1.7780543805,0.5397498428,-0.247592678,0.3373079445,0.1225602111,0.3235692271,-2.2696745234,0.3584489167,-0.0767142271,-0.3574109703,0.8870095927,-0.7634718273,-1.1512633406,-0.6737108487,1.7627520483,1.126279578,-0.8820041286,-0.6942252816,1.5310990732,0.9317567081,-0.9809694091,-0.7919145882,0.502965232,-0.0364326576,0.1646424754,1.4267376226,-1.1203780331,-0.0196524891,-0.30001382,-0.6321379083,0.2586283049,-0.0786356844,1.2003663358,1.1615720916,0.5378092716,-0.387445075,0.6000665044,0.1868417263,0.4812176148,0.4451034189,0.0878773623,0.2407888266,-0.2561515593,-0.9611991988,-0.1882077253,4.9190628743,1.1894755827,0.7275808727,0.8675666238,-0.3815098324,1.1958625472,-0.9729021079,-1.4799004947,0.1585858083,0.4467999822,-1.0260805818,0.2333449762,-0.8284818196,1.3415467835,0.0734105992,-0.6188760273,0.0246685805,-0.469331903,0.3344304951,-1.8293881639,0.9988853764,1.0514577151,-0.675019966,-0.0576258847,-0.9896390531,-1.6691344,-0.442263935,0.6849476607,-0.3043452796,0.6108286324,-0.8857031793,0.3719249163,1.0570215153,0.4691004829,1.5200036371,-0.2044761506,-0.4092809401,0.2828949819,-0.2850252844,0.4348225375,-0.2889146599,0.2580783083,-0.885466944,-1.0870426787,1.2488662281,1.3444225252,-1.5382515628,0.865763097,0.1938954665,1.1163599455,0.9765394811,-1.9590064016,-0.3188999124,-0.0150211522,1.0011019498,1.0729111156,0.3490752813,-0.4336706806,-0.367151919,0.0132726907,0.9136808207,0.0990941997,0.74566889,-0.1421992896,0.2699483492,-1.0790822274,-0.9233050078,-0.0908751662,0.2085788291,0.6534336403,-0.287509634,-1.1133252663,-0.7961945056,-1.0419263236,1.7371224883,0.45070619,0.144317258,-1.1977415964,1.1543378111,1.6863612516,0.6255963248,-0.044979857,1.4587467687,-0.5482545403,0.1055206255,-0.5640594121,0.6112860401,0.0539381352,0.1579674319,-0.2897166351,-0.7797793534,0.6289964602,1.0727806396,-0.293688032,-1.0573067509,-0.1276563163,-0.2240672678,0.5281622414,0.9336659487,-0.6085207398,-0.2372763354,0.2843291547,-0.366590699,-5.9414762215,-0.264156777,-0.1357182297,-0.1956894211,-0.370424243,-0.2341690046,0.5001743191,0.2394497231,-0.7980649563,0.0278612421,-1.2921641322,0.2098331332,0.2785131726,-0.1536517629,0.9832044431,0.7823805583,1.0080403278,-0.5813165642,-4.4954124485,0.0373159578,-1.778326835,-0.5077989244,0.6133362143,0.4848249541,0.1370194087,-0.8116179939,0.1583447356,-0.3242554932,-0.1850045138,-0.004799364,0.0922074317,1.2663864764,-0.3946520304,-0.1008334109,-1.8073999006,0.3568608773,-1.3604439544,-0.4357549643,1.3966730106,0.3855094915,0.5757831275,0.1851212638,1.1013836988,-0.3151851789,-0.2955337237,0.3285190091,0.9398776252,0.8263086733,-0.229459305,-0.3273180672,-0.1649576299,-0.9739660719,-0.1179423641,0.7160368013,-0.1236656713,-0.3352294534,0.0222830095,-0.412165217,1.156270417,-0.326794944,-0.8024026758,-0.8075240191,0.4015863384,0.0523317104,1.0255128758,0.5397829814,0.2039180124,-1.1804180334,0.3785618584,0.1293656341,-0.6760790141,-0.6485892012,1.0038171245,0.5734090049,-1.2882511357,0.1565214819,0.3903789676,-0.7893957234,0.0103791999,0.125405867,-0.6160319037,0.512873485,-0.0847973594,1.0687064663,-0.4249580455,0.2033234645,0.6226794362,-0.6175861753,-0.9664811653,0.8820772491,0.6542371085,0.8593983106,-0.5482851021,-1.0537786779,0.0004358693,0.6784885058,-0.2608223725,-0.5325805823,1.0500413152,0.6112392439,0.8390903742,-0.0845392969,1.3898922491,-0.0044111533,0.9820536756,-0.2551166563,0.3687498961,-0.3679197418,0.7670695923,-0.3678577583,1.8354952063,-0.1199821208,0.9916320413,-0.1726974934,-0.5780841379,-0.5178949334,0.2120421585,0.1586946143,-0.6493326983,-0.9437334531,-0.145245302,-0.9478105569,0.9306046427,1.0840131382,-0.3482896328,0.0312669495,-0.7323467494,-1.5436766885,0.8653787442,0.30125677,0.2126185717,2.3279284862,0.4674391009,0.605293536,0.6856999195,0.1671368982,-0.9298058478,-0.6465882974,0.9660064538,3.8097675013,-0.5379018189,0.3196225187,-0.1300397112,-0.6141493097,-0.631174667,0.8943404154,0.2123706077,-0.4612723875,0.8572650089,0.9069222704,-0.2366785534,-0.9135825688,-0.4769634673,-0.7179492659,-0.8630170439,0.198515091,-0.9826152509,-0.1191088269,-0.1074047486,1.1876253666,0.7411521298,1.0886826447,-0.5895639735,-0.2921029931,-0.4803187949,-0.5097519054,0.5923047793,0.1405886438,0.1473222093,0.3557462442,0.0624106317,0.5388596486,-0.3223467844,0.7791483307,0.4285637739,0.7495714029,0.3357702237,-0.3945917425,0.2610728708,-0.7367229512,0.6966565063,-0.4192811647,-0.7510126917,-0.4134769891,1.0882301648,-0.8390130126,-0.8184408659,-0.0309922775,0.264788903,-1.5380852664,0.5690469441,-1.1843575585,-1.5541971135,-0.1725447057,0.7404814557,0.4601647436,-0.4410867553,0.6476529575,0.5441223311,0.60380934,-0.2009588395,0.1755386297,0.8580905873,-0.5732388562,1.1258639449,-0.6616884695,-0.9420280912,0.3249845042,0.7355180593,0.5699139132,-1.1829829249,0.0365609073,-0.1533911702,0.6751506385,0.438221747,0.7207176817,0.6988696248,-0.3865132835,-0.160548041,-0.3918773999,0.7847840532,1.0016572449,-0.9430881744,0.2778056013,1.8658484469,0.7279514646,-0.9251009886,-0.1287073214,-0.673474205,0.9579973288,0.28960809,-0.9365588162,-0.9034787637,-1.1910272318,-0.8914057118,-1.3093425034,-1.1269698441,0.3102169362,-0.825996096,0.1879633074,-0.5495074902,0.8099313716,-0.7216121885,0.552958939,-0.1740005959,0.6432701468,-1.2919726127,-0.6858294122,0.1548704516,-0.0362358999,-0.6446368112,-0.1430599037,0.3874600076,-0.50761272,0.5099014215,0.4135951286,0.7954592448,0.2155772023,-0.2498361651,1.128768226,1.4692960533,-0.4600744214,-0.3881383239,1.1356631122,0.9537170838,-0.1554341647,-0.5320982469,0.6699415174,-0.4269469433,0.4654225345,-1.0054188415,-1.0756707837,0.3286835775,-0.502839965,0.4041049259,-1.137212771,-0.2286336268,-0.110915299,2.1616201401,0.0747750057,-1.0422594521,-1.2322852764,-0.4660897229,-1.2729295442,0.0488341568,0.8222812366,0.3412261863,-0.8976586609,-0.4698238378,0.4241734334,-0.3712435764,0.4653985611,0.9431226064,0.5481305307,-0.8975617688,-0.4934909353,-0.2134986629,-0.5639745059,0.1478739735,0.0319323887,0.6486560186,0.191975753,0.8077678646,0.426387401,1.329391598,0.5463037162,-0.1526910669,1.5662307843,0.3863824993,0.5676764995,-0.2096535587,-0.4042232775,-0.1707878894,0.343722616,-0.5441743363,1.5741639125,0.0006028672,0.4661468838,-0.3254474217,0.909154888,-0.5752016092,0.3518355533,0.9545429487,-1.1368116304,0.3099632252,0.9449233082,0.4385445965,-0.2611583291,-0.8680099374,0.3198277514,0.0884692918,-1.0647582811,0.6801764408,0.0806207378,-0.4011717485,0.079122118,-0.2045647598,1.2200983457,-0.1399008115,-0.5504079946,-0.7945035037,1.0975892477,-0.379355124,-0.6206313145,-0.2461581705,0.5791007684,0.4384302802,-0.5091446122,0.6246177563,-0.3047864546,0.4837508993,-0.2107548507,-0.095983204,-0.9210683706,1.6415219071,1.1142511852,-1.5580281354,0.9485171461,-0.8409836601,-0.5798520814,0.0140719105,-0.2661772713,0.5703317673,-0.2400984538,-0.8636950623,0.3126412456,0.56502498,-0.1169491792,1.0349761134,-0.3530682597,1.305998967,0.751253357,-1.7688737,1.0214354053,-1.3748599133,-1.1444932283,0.9795230541,-1.2115823074,0.1917872535,-2.6823793367,-0.4072966637,0.1929634431,-0.9841559261,-0.3520285712,-0.0202812311,0.5913957513,0.5995189726,-0.9103573237,-0.2710172851,1.3337966962,1.3535963834,0.8707853146,-0.3311775099,-1.5764481783,0.7742900271,0.6327522188,0.2034761184,0.6865969652,0.9924547255,-0.4571738688,2.1352404625,-0.9571094107,0.1595296799,-0.0125138986,-0.8523048174,1.5154807895,1.8571450445,-0.1262027685,0.5195440541,0.1528069606,-1.0521348458,-0.4568808387,-0.2840800507,0.6187926663,0.2032720915,-1.1083646896,2.6517649827,-0.7497284157,0.9380478351,-1.1697633224,0.9225465631,-0.7918254339,0.232068306,-1.4767028561,0.0593706542,-0.0515360517,3.390215607,0.2862658959,-1.7143272216,-0.6516529281,0.9159185789,0.2120816035,0.2364292379,-0.1087973489,-1.0154698824,-0.0919104652,0.6072627171,-0.3532952399,-0.4334906264,-2.4402243324,-0.1272025202,0.6876196038,-1.8329646369,-1.1286037507,-0.6031446131,0.5215400939,1.766728135,-0.0210234652,-0.5185057282,-0.58812641,-1.4367279972,-0.0592147199,-0.4577181563,-1.0923644619,-1.4161659344,-0.4231382429,0.361830556,2.8921173028,-0.661782734,-0.6566851944,-0.5409264048,-0.5134052238,-0.4120343431,-1.1999259882,-0.2565239491,-2.273651289,-0.9137956809,-0.3044735181,0.6619683865,-0.881635255,0.9729330989,2.1050424521,-0.1516229293,-1.2347172287,0.7712587665,-0.087410953,-0.3548564873,-1.8206886694,0.7807129966,0.2132831769,-0.0295720498,-1.1035277514,0.1466543926,0.9081211629,1.1154842446,1.8784352937,1.9889786968,-0.2523631677,-0.7717487297,1.2213596787,-0.5449087637,-1.1960601863,0.2843406497,-0.3248575736,-0.4506442849,-0.6405658098,0.5009812513,0.3444954291,-0.1556331945,2.0378055136,-0.230715505,-4.9828051598,0.857591954,-0.6457664516,1.1720696435,1.658661963,-0.6627757476,-1.1317341407,-0.9513712484,0.265687053,-0.7064095745,-1.3260150874,0.0655618222,-0.6561425258,0.5385693776,1.5165953818,-0.1787249405,-0.1688083058,-1.4623418133,0.7129770188,-1.8404318503,1.0654266365,-0.8871503384,-0.1096304908,0.8199454514,-0.3145930747,-0.8233304963,0.6156210231,-0.3820548901,0.5030372684,0.2541056296,-0.7268370713,0.4944920708,0.0800866877,-0.3830163571,-0.0560945853,-0.2892268921,0.7698669727,-1.5728485501,1.9407117384,0.2022679133,-0.7716458273,-0.3833678268,-0.0329260859,-0.2510820288,2.02947667,0.3742937813,1.3120467804,-1.7194187502,-0.739284741,0.5090117057,1.0815749028,-0.1476048087,-0.2117109203,2.5326460872,-0.1337392589,-0.2540506579,-0.6031940292,-0.3914856161,1.1542830897,-0.5916211895,1.0350916568,0.8846025059,1.4330772543,-0.9397749243,0.1136569796,0.099697435,-0.1193760041,-0.2443478113,0.7520561351,1.21433531,-0.8826279359,0.0300343704,-0.3369170731,-0.627142452,0.18453165,-0.4714209424,-0.4663950576,-0.042737978,0.7939121045,-0.443788019,1.575462754,0.8771802345,-0.7519863919,0.0410183679,0.1004046146,-0.1148946325,-0.6974102779,-0.4702347507,-1.9876096024,0.9132943073,-0.0730050797,-0.0060633377
   1.4067504219,0.586935608,-0.5475551192,-0.7046092746,1.2676975479,-0.7292771002,-0.5930706946,0.3469516528,-0.4417394716,-0.2671919913,1.4173725835,0.9126336231,1.0076721969,-0.9234656215,0.5652882645,-0.1192036861,-0.1805481027,-0.9973424757,-0.0928182019,-0.1499637394,0.8816169105,0.6704923948,0.4630294887,-0.0076265118,0.6098281935,-0.0656729395,-0.8003233049,-1.4434606623,-0.9259893405,-0.5448244369,0.0737550877,-1.0437479917,-0.1334647568,-0.5880239683,0.7961388814,-0.309052992,-0.623620001,1.0032109015,0.6364671797,-0.5645834126,0.3132214135,-0.9802802686,0.9999656015,-0.6046881236,0.3277720114,0.2875318139,-1.4014209972,-0.4373777855,0.0886215252,-1.3514168316,-0.9049512633,1.9110290991,0.3287970133,-0.287498896,-0.45073852,0.6796941017,-1.3381798637,-0.1592205163,-0.3898690167,-0.0008557353,-1.8706830757,-0.3585535453,0.3679998781,0.2144995301,0.037157461,0.007015985,0.1237643697,-1.3530674259,1.0570320499,-0.066705528,-2.523489115,-0.7981382054,-0.2324017054,-0.252427274,0.5109289509,1.1514177479,-0.6589665279,-0.2403425644,-0.0448246778,0.8942582176,3.3997440108,0.1118338544,-0.7710400208,2.9728364894,0.2719671272,1.7961532945,-0.7842326848,0.163693848,-0.0076997466,-0.1731982423,-0.479370816,0.7583321571,-0.7998283591,-0.3238880454,0.1370811641,0.0202164919,0.1797092769,0.2935042529,-1.2511744964,-0.9026248059,1.5039627761,-0.1186523907,-0.8202940354,0.0733856243,1.7835968782,-1.0333428975,-0.06437689,0.5509108356,0.0582116861,-0.99160646,-1.0087295339,-0.370089122,-0.6495050639,-0.0927735352,0.2607975631,2.3097457107,1.023000972,-0.1622605793,0.6108476315,1.5784098706,0.4693302849,-1.1024291473,-0.7856757273,0.0394547552,-0.4826559075,0.6893675578,-0.0224767614,-0.7450333605,1.1776446706,0.3762171733,-0.0761758151,-0.1626377656,0.8352969755,-0.244383095,-0.8629098029,-1.2713573398,0.4328230286,-1.1909882205,-0.7256767715,-1.0167673237,-1.355011892,-0.5624354242,0.1588369661,-0.7824453643,-0.7357349639,0.5683555943,0.1095837399,1.1350620825,-0.0699413547,0.0206610611,-0.2359739326,-0.5352988882,-0.1441052907,-0.9774120577,1.1519221908,-1.5943672642,0.9936392806,0.1768345438,0.221656455,0.2530005569,1.5694613438,-0.1704083669,0.7966598255,0.048348442,0.0355189551,-0.4489404392,-0.2548782849,0.6102288764,1.0913647992,-0.829648252,-0.2481770592,1.0032499329,0.5119822115,-2.583216795,0.3810222209,-0.6976865813,0.2249654069,-0.534287317,-1.3473219477,1.5339411111,-1.444377,-0.8251438555,-0.3011172204,2.9266480359,0.8548120507,-0.735786025,0.0894182984,-0.3758253297,-0.9427644879,-0.4115938365,1.1826891449,0.823860654,1.0933222059,0.924885676,-0.4314607574,1.3024188928,1.1591793691,-2.3828695543,0.5048872438,0.6970469705,0.1032637937,-0.8266663107,1.4039159172,-0.3790324626,-0.9641023758,0.5781519203,-0.4102419797,-0.8114146101,-0.9134200706,0.3978724029,-0.8231260104,-0.5774189275,0.9460069465,-0.1210101378,-0.3299863164,-0.7926022477,-0.7342987661,-2.5160172672,0.3854809884,-0.591512379,0.7053781775,0.5042718142,-0.1947668664,-0.4944655457,0.4542740412,-0.4441399653,-0.0279023781,-0.5989286859,0.3246042214,1.1022867633,0.1159597346,-0.5085520284,-2.229563545,-0.4852789778,-0.1862842348,-0.0710003322,1.0417511768,0.5979751603,0.2285420673,-0.4175763787,0.5562597428,-0.4621840747,0.7748866126,0.4732412515,0.682981579,0.2547956096,1.1142593626,-0.4524210212,0.4194840617,0.0351079638,-1.0291877248,0.5401621012,-1.1570239429,1.4332539036,-0.0035113601,-2.0443570871,-0.003021995,-0.3989914984,0.7653593857,0.5315084673,0.6521640616,0.1052631628,0.7138896919,-1.3845881983,1.2010779265,0.0214863238,0.297633174,0.2063548393,-0.7602664736,2.318755475,-1.1455867716,-0.5960405096,-0.157151553,0.6623279473,0.3024412752,0.6499852544,0.1012345016,-1.2866772189,1.1056486113,0.1013684225,-0.9474040981,-0.1922721765,0.1897308182,-1.2170350359,-0.2975870921,0.2893264553,0.6775839053,0.6679384231,-0.1057248776,-0.0424962082,0.4087077501,-1.0256517033,0.6077349091,0.5113394939,1.4847694287,-1.1580864959,-0.3482224074,0.8152756032,0.710203911,-0.0451238105,-0.3019837009,-0.1807413228,0.3485573518,0.3015607615,-0.5191390196,0.0892776879,-0.8742897774,-0.7227450496,0.8835166047,-0.7094772427,-0.2811048754,1.5699256519,0.5769649923,-0.2208512341,-0.6375393757,0.727083034,0.1761362558,2.2403677656,-2.8356702074,0.9375826838,0.0526730173,1.4023605861,-0.6083208792,-0.4534268196,0.2123119159,-0.3928571183,0.8266694808,-0.197503771,-1.1203679023,0.1103039571,0.1581605897,1.8646434124,-0.5393484639,0.482962883,0.2966363542,0.450017041,0.7287422764,-0.7119343067,0.4632576123,0.1327407902,1.6126966182,0.8669571808,2.7203979949,0.7305024625,1.2179629255,0.0956917464,0.5216238485,0.8301751517,-0.3937556977,-0.648418171,-0.5251527174,-0.6266353903,-0.1820537081,-0.8222542859,-1.0625258783,-0.1522328436,-0.2463822145,0.123270706,1.3529222862,-0.493431822,0.4992916916,-0.8561974278,1.1513653886,0.8877317541,-0.2297122413,0.1865549311,-0.2870129646,0.2898226404,0.5616917194,-0.1271975959,-0.3544699515,-0.4763282003,-1.1661368682,-0.7564604428,-0.7126185929,-0.1874701034,1.1844427926,1.0510159251,-0.0328739353,-0.7965854982,-0.7879325494,1.243224254,-0.97187018,-0.0898931872,1.0410619275,-0.8986632228,0.1666041043,1.3251030661,0.3376490746,0.5920995438,0.7957019167,-1.0671492192,-1.162666977,1.0708265097,-0.017513549,0.3941513165,0.0556177917,0.6823800775,-0.3562653894,-0.767781492,0.5954591702,0.5642749047,-0.6005018732,0.0242415805,0.001118897,-0.3063994313,0.9391556916,-0.6479244815,0.7546653081,0.7274686713,-0.3161448999,-0.5581276404,0.5893428213,0.3054324616,0.6254397829,0.7340932702,-0.3184495966,-1.0612159614,0.183762766,-1.3839142406,-0.9082030247,-1.5583982078,0.4294678927,-0.0734445759,0.8282858655,0.006680267,0.1745441202,0.448955976,-1.9064940819,0.3861938459,0.5477777123,0.8497061329,-0.666291865,0.6330696602,0.0580804388,-0.9118970891,0.4392360524,-1.5110739493,-0.4257359531,0.2449978378,0.6614245285,-0.9628381168,0.786190719,-0.3779307549,0.6036914187,-0.0582006879,0.8878671371,1.3113260635,0.3795030581,-0.6864812146,-0.2729715999,0.4073287843,-0.4783453547,-0.4775678328,-0.9502763663,0.8449055125,0.7217826407,0.2964771128,0.2861329672,-0.7003362229,-0.6886328037,0.1704994182,0.6455511795,-0.9062195633,-0.9256705873,0.68278847,0.0102145574,-0.4251574934,0.8335086859,-0.2011771759,-0.064723945,-0.3217642239,0.5104884764,-0.0886355554,-0.5720909664,-0.0608441882,-0.5767095661,0.9521472349,0.6148853834,-0.9473913042,0.5538662757,0.4238140672,-0.4092434334,-1.7119795066,0.9321148048,-1.1923404595,-0.1973299232,-0.5720660608,-0.3366396442,0.3912610737,0.572630143,0.9519024856,1.0715193181,-0.1098303958,-0.1152648498,-0.6680528526,1.1025156385,-0.4065356054,-0.0508133866,1.1221592531,1.2953038276,0.1286031785,-0.7028829245,0.7147553335,-0.7635232067,1.677312028,0.2310708639,0.8562140292,-0.5364910857,1.1362955587,-1.2096781028,-0.4532628932,0.2613292793,0.4243277816,-0.1219792858,0.4630243088,1.1786125238,0.0335101661,-0.1077257644,0.7478497121,0.6706019417,0.4783361838,0.7317863438,0.9535459247,-1.2652519637,-0.9021947697,0.0582450292,-0.270310154,2.4120253103,0.2044087931,-0.5157327968,0.5243424294,0.7482188248,-0.5918144173,0.9686974663,-0.1548715847,-0.6814504795,1.1533543552,-0.1262625386,-0.3145559913,-0.3378947693,0.8193756013,0.237392291,-0.4750209917,-1.2001835245,0.9832325429,-0.4241337886,-0.4477368374,1.0653203918,0.2847725677,-0.7066675158,-0.3228820788,-0.1287229749,0.4131873551,1.249060748,0.8531467791,-0.6477667482,-0.6502345763,1.1618910568,-0.6932530366,0.7227205238,-1.3795582566,-0.6500608723,1.278873307,0.1922258627,-0.8147749845,0.6220493921,-0.2851678253,1.2867051999,0.9243418229,-0.2292505403,-0.3295245824,0.5938004004,-0.0374292059,-0.4968605088,0.9877918908,-0.1267905636,-0.5042038534,0.8700402845,0.0684703459,-0.4627915239,1.152285577,0.0086205385,-0.9418071413,-0.320845255,-0.2468759264,0.5480487047,-0.2833962259,-0.0986469528,0.9358987503,0.3481931527,-0.6551152713,-0.5944512891,-0.4969650864,0.6335737761,-0.3133162721,-0.3694576569,-0.2758519997,0.5838686424,-0.6200084047,0.2087665248,0.8024924106,0.3586338235,0.4165769851,1.0137337981,-0.4197135509,-1.5254724681,-1.1627529783,0.1730820222,-0.0114777044,0.1878768411,0.2398104079,0.0644882173,-0.7487379844,0.3414709701,-0.6147320759,0.129820581,-1.3673219493,-0.3093385956,-0.9968152084,0.5727986943,-0.3711922141,-0.3624026386,1.2982947104,0.0914433984,0.2153338934,-0.7656303162,1.1328375323,-0.2892311665,-0.2938633627,-1.5996366725,-0.4379855111,0.3120929519,-0.3464405432,-0.305642612,-2.7900412627,-1.2862455775,-0.6824736133,-0.636616025,0.5228269094,0.2598251779,-0.6132162361,-0.4740341911,0.4331039828,-0.3934241254,-0.363868923,0.1786883511,-0.1054753038,-0.1631696806,-0.4286153364,0.3994522672,1.020392669,0.3504128506,0.6457116757,-0.5412994095,-0.4079813898,0.4446436992,0.0792672543,0.2386523217,0.1895781372,0.1898821366,-2.8819411135,0.9135514892,-0.8559835871,-1.0172955616,0.9577109255,0.4054880739,1.0695601796,0.8173470783,0.2566313722,0.2815654746,0.1617071652,0.3745016568,0.0791110543,0.1924477966,-0.3970405792,0.1900415093,0.0457550668,-0.8369823815,0.2654777889,-0.9473611776,-0.0096970025,1.1705787395,-0.0400016611,-3.2912532071,0.7147777644,-0.1975917974,-0.9633010967,-0.335297775,0.7821886453,0.6797223216,1.3628027584,-1.1723684503,-0.3804467465,0.3309889881,-0.1771206137,-1.2886330094,-0.3833074728,-0.6407492026,0.5414981681,-0.2001313633,0.6519411401,0.1993906843,0.3008220856,0.0855249159,0.1508638951,0.8691816703,-0.3565418881,0.0132437296,-1.3740663075,-0.2839937144,0.8014981865,-1.4864498279,0.6691320331,1.7222503616,-0.5838353383,-0.9301200289,-0.5609778606,-1.3144215632,0.0071907908,-0.3808418821,0.4118248249,-0.69265692,-0.9233487189,-1.0025452516,-0.5385077192,0.2737570285,0.5795327348,-0.529175294,-0.3540890861,0.3056461693,1.1491902164,-0.4651333654,0.1993391233,-1.151328859,-2.387022357,-0.8831799795,1.9282993546,-0.8259385906,2.7019792561,-0.8676522341,0.8314801694,-0.0521680937,-0.9782216779,-0.0459880867,-0.3317176674,-0.4534576196,-0.8239171837,0.3431296326,0.6025947809,-0.2082433371,0.3262145079,0.2965688928,-1.9554498612,0.1783356987,-1.1582639605,-2.1626322144,0.5151776026,0.1713491973,0.9812959617,-0.589153926,0.3504181721,0.9811451464,-1.3143853317,0.8608352176,-0.9777702663,0.8034253818,-0.0687877173,1.267053806,1.2455344234,-2.4078681434,-1.2471562877,0.2353394433,-0.3396992322,0.5612770122,-0.1863855506,0.5265974812,-0.461863829,0.8520998242,0.5877715116,0.7788048392,0.8760058289,-0.754462211,2.2007594429,-1.1419479676,0.0975895865,0.1928033761,0.6925993627,-1.2148498275,-0.0933892421,0.0715059603,1.8913716643,-0.3180424499,-0.2702639786,1.2004665233,0.2204911867,0.3472116413,-0.7073651533,-0.7217642799,0.2432683333,0.1671643928,0.6315984222,-0.9532188443,-0.3864590035,-0.8148240741,-0.0032992217,0.0226356992,1.9751456425,-0.7345630205,-0.2742736707,-0.2820681491,-1.0990036979,-0.6652007748,0.2372840109,-0.7829520139,-0.8140636632,0.7588213431,1.4197901655,0.8659626932,0.9319767802,-0.4539233398,2.2000792103,0.8190045886,1.0281298308,-0.3842839264,1.9309363189,-0.7790614893,0.5381618036,-0.3586469233,-0.3144740925,1.5763805981,-0.0581059097,0.0971763335,0.637707098,-0.5456012778,0.3552820872,-0.0059009086,-0.5842518951,-0.8570161061,-0.363616163,-0.5344682058,0.2629061629,0.2963121852,-0.8394738331,1.7795112371,0.6060994278,0.5500477245,-3.7803920425,1.4525064895,-0.7343738433,0.9268867656,0.0461238389,1.1995170753,0.1780679477,-2.9793590362,-0.3748759334,0.1183462956,-0.6498405648,0.2145911776,-0.3287549147,-0.6245711048,0.7616603164,-1.4917764044,-0.7663519135,0.3472166415,-0.7147899821,-0.9348315438,0.2235642819,0.1757946418,0.544613202,0.6274979401,0.8734396613,-1.0581363948,-0.8618767218,-1.9055745978,-0.9382160999,0.388213053,0.6408766861,0.1705531882,-0.2296849681,-0.9506633492,-0.702878447,-0.2233510634,0.0734807382,-0.7483842938,0.1449497083,0.6564258471,-0.8645808813,0.2070835135,-1.2021746025,0.6977163414,1.4264132628,0.225654678,0.5470605075,-0.0764389899,-1.3498806201,-0.4601778672,-1.9821861279,-1.2170402891,0.6201715147,-0.982549927,-0.6788786232,0.2408487383,0.3516356879,-1.3454309944,-0.0049678244,-0.6735075805,-0.5178358792,-1.5134475515,0.2156991399,-0.0037021383,1.7851202873,0.0553385768,-0.51373144,-0.3931525862,-0.5078683502,1.4752904672,0.0153366292,0.3793360237,0.6324558821,1.5041312036,-0.5202516695,-0.3265222447,-1.0211937268,-0.0685885074,0.3251232342,1.3879284339,0.6905665743,-0.6415407133,-0.0437188256,-1.1480387903,-0.1661620233,-1.8592539041,1.4863673274,-0.1878245147,0.3169289716,-0.0438915553,0.0044312558,-0.8916862068,0.5940166469,-1.5697203729,0.060005606,-0.792893716,0.2250905049,-0.2514477188,-0.746812086,-0.60427748,0.0935393539,-0.2594758839,0.3467822307,0.0170887621,-0.9775491601,0.5429970777,0.5623767606,-0.5562477238,-0.5377815204,0.8811252882,0.4161437288,-0.0812319788,-0.6882597729,2.2169644267,-0.4792154214,0.7929494256,-0.7540711011,-0.9966399095,-0.2877690257,-1.0851452288,-0.7018832433,0.927029079,0.2480480698,-0.9775709855,0.3359399497,-1.0021250544,1.5370202789,0.7173370185,0.4229023538,0.315495168,-1.3737444687,0.1526329678,-0.5095493461,0.0855727857,0.7249316853,0.6572063116,0.9591602619,0.5152703973,1.0787379331,0.1365472105,0.0003582725,-0.5787267574,-1.1093745211,-0.7658241465,0.3271514249,-0.2394318401,0.9471217404,-0.5692337289,0.1004868219,-1.6466732601,-0.0394945594,0.6322934712,0.3524897314,0.4374655319,0.0186627859,0.7500045323,0.4912940585,0.0068986764,-1.1593456408,0.0393951263,1.3520250643,0.204583063,-0.7075148315,1.2951583988,-0.1209960999,0.9325922797,-0.2046491377,0.8926567015,-0.5075987453,-0.4513228851,0.8447006725,-0.7593666138,-1.0142328894,-0.0709968711,-0.7360921104,0.6123248836,-0.2188697487,0.9019819416,-0.3485653451,-1.9455841389,-0.8370927169,-0.6952679925,-0.3627341167,-0.1495834161,-0.2389554873,-1.0632025553,-0.1024587875,-0.9379076693,-0.0840316327,-0.6427538174,0.4175676629,-1.9259316641,-0.7495043753,-0.264068819,-0.9510755196,0.5727096288,1.0969127117,-0.1019112388,-0.4636871405,1.0205820579,0.9378978122,2.0658971919,-0.5982476795,-2.6552833296,-2.9013152459,-0.4398735934,0.7802349706,-0.7180646936,-0.6073666992,-0.0081727778,0.2130775425,0.8251737014,-1.3442443909,-0.182789761,1.2076885135,-0.6319240954,-0.1423691837,0.1902093294,0.1304725838,1.1184237196,0.9397779601,-0.0360950284,-0.8137253105,-1.1162258127,2.1498966808,0.4897620245,1.191705967,-0.870003639,-0.6567513314,0.6701841491,-0.7039566229,-0.793438073,0.4493113161,0.3540213037,0.1575774862,0.0688096486,1.6539237919,0.1418539503,-0.0452213346,0.340027792,-0.1192418472,-0.3530936608,-0.8907941602,0.7487991662,-0.8351662946,0.5643660925,0.2452752031,0.4024503231,0.394855412,1.2885964458,1.1149290953,1.6420638692,1.6247998782,1.1832554336,-0.0410768505,-0.7885413303,-0.7900579295,0.1251457422,1.2957303784,0.2723865089,0.1555690847,0.7429630159,-0.4619218591,1.2513497337,-0.6526713251,-0.7892007726,1.4244628027,0.0028692237,-0.6138543009,-0.86355307,-0.0852304752,-0.9362196869,-0.6877927582,-1.1480096332,0.960540541,1.326147288,0.3784041484,0.4262506859,0.9669827933,0.4612369638,-0.2963046042,0.5563134144,0.9744215427,0.2395442839,1.1189003766,0.7303399124,-0.8038664141,-0.1466865116,0.7633756329,-0.5142069764,-0.8128078156,-0.2250972695,2.427202502,-0.0338752093,0.2160175784,-0.6514654335,0.0575140527,0.5148021586,-0.7194507597,0.5811803568,0.2694655378,-0.31920898,-0.6290260212,0.3538811094,-0.0553544482,1.6233385063,0.1815833055,-0.4671535627,0.7241674553,1.5292714538,0.1134866357,-0.8571674564,1.1912303773,-1.3366568706,0.4147638624,0.62341282,0.235354148,0.0667639248,-0.8151898251,-0.1793912613,2.6216186083,0.4737218868,-1.2059694552,1.9958522063,0.7320112514,0.3147298339,-0.1409700474,2.0377429212,0.3707889951,0.4296889885,-0.5096811037,0.9229328237,0.3233951226,-0.7467791124,-0.6850804158,0.2670733248,-1.8584707726,-0.6399325157,0.4279197953,-0.0513233282,0.7138727509,0.3539156504,0.3266321875,1.8930365238,0.4380446058,-1.5456024501,0.5987943084,-0.4311648208,0.7748450872,1.7285909992,-1.3679628172,-0.470574306,0.2769111175,-0.1544935531,0.6663253549,-0.2683442547,-1.3329303206,-1.0605451829,-1.3471575769,0.1306429062,-0.2280137784,-0.6646618791,0.2096159659,-0.7867476867,-0.222730027,0.5853927199,-1.8224551371,1.2361473186,-0.744978885,-0.4081285116,-0.6684779387,0.0624636483,0.0248847572,-0.9522972282,0.9209609078,-0.4672954947,-0.2042081799,-0.131220445,-0.2302412695,-0.047283829,0.1908792384,0.9373252039,0.7918846346,0.0975713152,-0.8975398456,0.3508826709,0.4895297645,1.0958082058,-0.7274860685,-0.4990522638,1.4168256367,-0.8336335627,1.8473203562,1.0235505049,0.5068160172,0.8694916374,-0.8392773829,0.043998235,-0.6244756202,0.5305821154,1.501736684,-0.2630469177,-0.8683896366,0.6616426671,0.5223290889,-0.8245168431,-0.977082337,0.5958136023,0.1273329731,-0.1495203063,-0.5280713176,1.621864524,-0.9283532815,0.77058211,-0.5369490411,-1.9524649298,-0.7464595929,2.165131208,-2.6362678078,-0.4351956089,-0.0682304096,0.9645804821,0.4562506854,-0.1502594849,0.9448370666,-0.493643442,-0.766358058,-0.5082856325,1.6515996037,0.159920923,-0.6401878037,-0.2821026038,0.9878633935,0.5463271334,0.6806514463,0.4991633951,-0.3871380185,1.2229239623,-0.8413115377,-1.1892099218,-0.367696914,0.0429242935,0.7169496679,0.5609125427,0.8010156384,-0.3860866315,-1.0391709729,1.0869947833,-1.4031565352,-0.2329314646,0.082168152,-0.9618053115,-0.2792852965,-0.1193863267,0.6143291023,-0.9115879104,0.0466151275,-0.7050990527,0.081837147,0.3850106306,1.1410145935,-1.1952796613,-0.7586504267,-0.4209975716,-0.4799489629,-0.7863166451,-0.5371570116,-0.4892625242,-0.8712500951,0.1309698735,-1.2185811917,-0.7368466316,0.3772511348,1.4138263094,0.0799357642,-0.7445867778,1.3162770026,1.2722127692,-0.4170308571,0.8478025135,1.4392865625,-0.3466217234,-0.0905177522,0.4565737005,1.0470838849,0.5199604468,0.6735236931,-0.5195167086,-2.1892548225,-0.8422831959,-0.9533298027,0.1024158146,-0.8446922467,0.1644319079,0.3007064666,-1.1451884293,0.4426802962,-0.0500537522,-0.3104100261,0.2933894816,0.6179051489,0.4602453033,0.9933705082,-0.6981016375,-0.9872070937,-0.7096487986,0.3649825261,-0.1331943143,-0.5979758456,-0.1238590938,1.1565574323,-0.9503762882,0.585129246,-0.274101796,-4.6008321226,-1.1431430961,-0.8919038195,0.8750155058,-0.0659193509,-0.8598603215,0.5030147203,-0.4349401599,-0.5499644203,0.4764684506,-0.1828503224,-0.0884711963,0.525120147,0.7315308804,0.9453294042,0.208853374,-0.7384132104,0.3123529151,0.8325416553,-0.925326805,-1.3634151136,0.8309574922,-0.2691016695,-0.8250506715,-1.7315651076,-0.348907784,-0.8783877983,-0.8798920187,1.3443364081,0.5553239081,-0.4456115373,1.0058994162,-0.3531909124,0.0498087233,-0.0331436888,0.7408752604,0.1424459822,1.2887876011,0.5568134213,0.1329696111,0.8768377583,0.6047341277,0.793284941,-0.6153390449,1.1912701402,-0.5307716663,-1.3729978919,0.7336486486,0.758263015,-1.0851008927,-1.0084366313,0.494028565,0.9787181033,0.7636764992,0.604669001,-0.7634053835,-1.1101365538,1.3708994485,0.1109228098,0.6688604419,0.8409810916,0.4923442608,-0.3611519482,1.2304744217,-0.0510082549,-0.1656428762,0.7610444888,0.8584674891,-0.6189226021,0.0717417078,-1.1528758687,0.9952826984,0.2183455814,0.030351183,-0.4245339988,0.3542191587,2.1538708061,0.0113405524,-1.1662739676,-1.3045486987,-0.3397064664,-0.8794927328,0.6116519276,0.1329323876,1.1274897827,1.9675748808,0.20999645,-0.8345545883,-1.1316222659,0.0005053743,0.7555452715,0.281629826,0.5692031195,-0.0447893146,0.4119299828,0.7765526565,-0.0439111095,0.3497616542,-0.1593152885,-0.0258896485,-0.5614937168,0.5546285902,-0.1545907309,2.0733807541,0.3804643207,-0.3308283238,0.6967680412,0.2931678669,0.2111906332,-0.005122468,-0.0511452572,-0.5920265417,-2.2656178618,-0.2338395714,-0.0613063225,-0.3638774162,1.104460104,0.5907050262,-0.1049795596,-1.2127695481,1.429719084,2.3756844682,1.0452577572,-0.0627985106,-1.5265834986,-0.8876736301,-0.3539719387,0.2205232066,-0.7940339727,0.6395112289,-0.5121789962,-1.0700398875,-0.0160267357,1.0104067979,0.4538933821,0.328393626,-0.6363136741,0.4695750679,0.4833525151,-1.0569988294,-0.3610159045,2.7545997955,-0.5675109929,-0.4182748423,-0.9078332601,-1.4140813863,0.4769129736,-1.3124051626,0.7396537289,-0.7031256454,2.3444286732,0.4970166544,-0.486219306,0.9859716805,-0.2673484703,0.5356083293,0.6885310121,0.6813415183,-0.2498327528,-0.5265722403,0.9822351286,0.6059395561,-1.1354478858,0.0973438124,0.2315064447,0.0198984572,-0.4586310578,0.7326896188,-0.1106449988,0.0990635383,-0.6414947671,-1.4703521702,0.0100839697,0.7923114048,-0.6339840426,-0.2892211038,-0.1367898586,-1.4820741875,0.9692547269,-0.3049734846,-0.3305315049,-0.0768665058,0.3732129485,0.4072222659,0.7969155669,-1.0386315371,0.8108625297,-0.6315437454,-0.1997795301,-0.9986720698,0.2358947258,-0.9027835429,-1.80186299,1.7756026587,0.4823757797,-1.8888501988,0.4256873239,0.3681788877,1.9525678226,-0.5465116804,-1.1622959073,0.9987868291,-0.8179180004,-1.674004689,-0.6864451954,-0.0179337406,-1.1888059515,0.4074675902,0.7246398104,0.901440673,1.1885333145,0.3228726642,-0.5155078817,0.9230040184,-0.4053543729,0.6059142726,0.7129144614,-0.0925218331,1.0377787836,-0.3541929684,-0.2506096209,-0.5505815733,-0.6449224805,-0.3991420034,-1.3025004618,-0.9523292724,-0.1609755894,0.7095494968,1.3773659802,-1.4132240448,0.1177140807,0.5435359487,0.6238478047,-0.3651681938,1.4149319175,0.5448262323,0.7336569581,0.3655741915,0.6403286708,-0.2338069211,-0.1959229966,0.5089327662,4.1466594035,0.1807333299,0.0656069383,0.2523706224,0.6175894058,0.9402541018,0.7018852363,1.2408610922,-0.5399011221,0.270690787,-0.1203200676,0.1516034069,-0.2616954075,-1.1306390291,0.7591340548,-0.0513189779,-0.5007339948,-0.0489137783,0.0826106275,1.2538080279,-0.2474198077,0.749793621,-0.2872467616,2.0055386998,-0.8698374816,-0.1189653441,-0.7385286417,-1.2795648173,0.1199723164,-0.9063938771,-0.7955850609,0.561412783,-0.9285211283,-0.6836634972,-1.8561217177,0.5489044301,0.5364699665,-0.2880548467,-0.5561848076,-0.6379760149,0.9772707053,0.620515036,-0.240800628,-0.4155519211,-0.8728402959,-0.479459314,0.4624188956,0.1176246034,-0.0201149878,0.4048312476,-1.2638704163,0.349496134,-0.270552114,-0.6586097036,-0.7196621883,0.3428780038,-0.0427018741,0.138560781,0.7704688245,0.5839237843,-0.741495759,-0.9249773562,1.2720285376,-0.1386806365,0.9578642851,-0.0577038183,-0.0050490271,-0.821954522,-0.6170524969,-1.463409339,0.257859169,-0.9732726339,-0.6915695921,0.2270301612,1.4260357108,-0.8884425759,1.267740596,-1.1134620391,0.3197793075,-0.3418568071,-0.507753964,1.0001627863,-1.0583151287,-0.8047374118,0.5873207242,-0.3834871737,0.5865320874,-0.7235165456,-0.7831822758,-1.6767659564,0.3571798096,-0.1522526956,-0.0263777745,0.9417627071,0.1820523083,-1.1003876865,3.640699364,0.5950013957,-0.1498636089,-0.1943640234,-0.3442015754,0.1180385861,-0.5504009253,1.3683184465,0.9794917313,-2.0005848049,0.8145487798,-0.004512238,-0.5550262002,0.909908457,0.1748798498,0.540196926,-0.3070311382,-0.849914502,-1.1574496771,-1.473908893,-0.0066734171,0.2237006505,-1.0207474931,-0.7271106658,2.4031084579,-6.5475667151,-0.5371445968,0.5229030631,0.4133640006,-0.7008665705,0.0186737798,-0.4509475279,-0.2331471756,0.7116776686,0.691718392,0.4872721889,0.954298475,0.0440790699,-0.8142238258,-0.3109467967,-0.0329825906,-0.3892137991,0.89097022,0.891534235,-0.7035477566,-0.1954173332,-0.6882697841,-0.856634107,-1.0904588484,-0.0713906148,0.9261521932,1.2420530206,0.1800417849,0.3639750957,0.3444986526,-1.0817344485,0.3070863148,-0.2512666762,-0.5714194577,-1.9641692933,-1.1226600403,-1.3355272224,0.1161207109,0.2859100452,-1.0673458262,1.550196677,-0.7579456368,-0.2280771674,0.8789950438,-0.1657240927,-0.2550004222,0.5115218542,-1.0538915609,-0.6153608839,-0.7250567966,-0.4082407307,0.0126612495,0.0175349716,1.1223175896,0.735774812,-0.8269275168,-0.086587138,0.5762508442,0.8117402185,-0.9138482198,1.1236636888,-0.7920693383,0.2170890569,0.5259363958,-0.8059629859,0.2523673468,0.9789362096,0.1841516463,-0.1975222162,-0.5439675819,-0.5532054157,-0.6798068713,-0.6119098369,-2.0979859977,-0.6832582825,-0.5128747536,-0.0917968574,1.7384925158,-1.0228927862,-0.9920684451,0.4141842169,0.7833739316,0.533667092,-0.3470489076,0.0043985216,2.3950749101,-1.4598581126,-0.2718089657,-0.5007074057,-0.0709560153,-0.5159821091,0.3404876293,0.5810804771,0.5146809395,0.7338108897,0.9226644355,-1.2461906728,-0.2193634815,0.8536947323,-0.1331502392,0.6274017787,-0.0623968438,1.1836753682,-0.4838198216,-0.0857544475,-0.916718986,0.9474077427,1.1140424859,0.3894498732,0.9095174249,-0.9933901153,-0.5635752837,0.2290653827,0.8186723302,2.6942572671,-1.7426869278,0.0385492827,0.0144618502,1.1071700196,1.1205882063,-0.0179109855,0.5967958663,0.1439354341,-0.0133653137,-0.3408533291,-0.9382305974,-0.2367423776,-0.1666594916,0.1472286822,0.3435654391,0.2309802883,-0.9801004825,0.5186835927,1.0375205298,0.5873356388,-0.3023287289,0.7996163179,0.2450790418,-0.8325627597,-0.4472731033,0.445493978,-0.477955705,-0.0165715781,0.7526367516,0.6344022138,0.4472566398,0.9328333649,-0.205719966,-0.023190663,-1.3740958543,-0.5110197506,0.1549182708,0.3568879978,-1.0958804358,-0.2605622752,-0.3163831095,0.9223051227,-0.0420992736,-1.040121177,0.778705835,-0.196281009,0.337321055,-0.1510808049,-0.1748333213,0.2280990361,-0.5007217631,-0.8297041875,-1.0445643545,-0.7601456254,-0.4186152517,1.0190615317,0.9100721655,-0.4633493934,-0.2292788257,-0.3335012987,0.1313133016,-0.6082066957,0.7494930518,-0.3984266075,0.8435081503,-0.3431617194,-0.0732149198,1.6910546218,0.1212456314,0.5278967302,0.3903575567,0.3423122409,-1.4919469398,-0.5664420388,-1.5337067462,-0.4155920692,-1.2510079083,0.0030340193,1.2772379452,0.1054502717,-0.1890100969,0.9939471159,0.4853206335,-0.3834232256,0.2362595075,-0.3623721686,0.5753425171,-0.6793737868,-0.8078344059,0.7937083412,-0.0737167909,-1.1160191613,-0.9051935243,0.6464556614,0.0028957685,0.0070177103,-1.1371683405,-1.1183779476,-0.0123138188,-0.3219611075,0.0773739034,0.1998693997,0.7107146808,-0.7639757561,0.501368806,-0.4400302481,-1.1708338434,-1.1108747781,0.5032980159,0.0124592676,0.3011384308,0.2343073445,0.796411129,0.885689194,-0.2804745492,1.7474228934,1.2885662861,-0.0970991733,0.8952248893,-0.8349532572,-0.6014082931,0.0060520007,0.1619518024,0.5377239485,0.6289340631,-0.1312051525,-0.1760389397,-1.991192277,-0.1170230216,-0.3080774535,1.0015761862,0.8321583123,-0.0383165442,-0.3889551303,-0.9430186481,0.4863989604,-0.0621592675,0.8761272038,0.9007989166,1.4913504939,-0.7475784999,0.6173219339,-0.0667056523,0.6453773697,-0.1709799753,0.5840583144,0.6515326503,0.7584795956,0.7513032157,0.143132119,-1.6319298807,-0.7308856296,0.7403231832,2.0442442268,-0.1916394697,-1.028146041,0.8128165063,-0.5703918638,0.2847916229,-0.7553139338,0.1349864435,-0.9734079404,-0.7904997294,-0.4415188431,0.7783641188,-0.0487872199,-0.9626561308,-0.2287332498,-0.8229446637,0.2176867739,-0.7739891022,0.3503409026,0.7126308171,0.0733580077,-1.1081558559,0.4799249599,-0.157504244,-0.8733934281,0.6610003391,-0.0574252203,0.3967468952,-0.0200379286,-0.3640485123,-0.6808894464,0.4373685359,-1.1515661236,0.336434263,0.9461498553,0.307624323,0.3273936628,0.2781670876,-0.6071365598,-0.3686179276,0.7824111959,0.6964096314,0.3641945615,-1.2930306761,-0.3798782913,-0.7490351137,0.0880349969,-0.0369595825,-0.1989429109,-0.5276529473,0.5978931872,1.1499646719,0.1256460747,-0.5444580398,-0.426621102,0.8616018532
   -2.1894036668,-0.560044742,0.5516301066,1.2988515185,-0.6844792558,0.7482629284,-0.2337109028,0.2993278236,0.2737536765,0.3533931795,-0.3812041398,-0.7288845985,0.8762145216,0.9932722183,-0.1837854856,-0.3869403572,0.4348571672,0.0842403219,0.8410992138,-0.7030607058,0.0108332689,-0.2571874761,0.277331851,0.7034451763,1.1915733848,0.3452197423,0.6162813992,-0.0013401084,-0.5096124044,-0.6742938777,-1.6116162987,0.6950295155,-2.9780135928,0.0522764715,-1.0077003146,0.2544105374,-0.5015062179,0.253006567,-0.4296391573,4.4296308764,2.0631434305,-0.5022423825,0.2322624202,0.7507348778,-0.5310117717,1.5153488663,0.7147922524,-0.3506992782,-1.1033889815,-0.2460155312,2.2332241806,0.0166977164,-0.4536736942,0.4964902258,-0.6364870846,-0.0215063435,-0.1779160208,-0.560983459,0.6847969353,0.9569658817,0.8426066554,0.4603068758,0.021072152,-1.521559327,1.4594848942,1.4391858476,0.924428215,0.6756385079,-1.0025679701,0.3401765557,0.2663486271,-1.8272718237,0.0518805486,-1.3693393323,-0.182006543,0.4242304768,-0.4663179431,-0.1471595778,2.6699290241,-0.720534742,-0.5541493867,0.5051526044,0.2535775177,1.4308370002,1.3248556196,0.5132507593,2.1002746383,0.3349288267,0.1713092614,0.0699016822,-0.646127792,0.9477833542,-0.5338618427,-0.4313897308,-0.5843204883,-0.7396952177,-0.7249444987,-0.9579039223,-1.4453855577,-1.1483833986,-0.3911372124,-3.4061692536,0.6359686317,-0.9796011589,-1.6242195488,0.1246339761,0.2258583085,1.0169681676,0.2725735808,2.2613961441,1.0416864859,1.470362171,0.8327247727,-0.2321947498,0.2126834607,0.3301485422,4.1493442623,-0.3934781046,0.5002107356,-0.7068556599,1.9197916644,-0.1740398238,1.1026934231,-0.5883898145,1.3190618388,-1.0349109463,-0.1769278052,1.3515793706,0.3992907873,-0.0301998479,-0.4235761269,0.3044430363,-0.3424849687,1.6716654611,0.3893706492,0.0552943708,-0.0729758991,-0.3073115398,0.0258322082,-1.0506834211,-0.4873949493,0.2339311409,-0.1019216052,-0.7545346997,-0.0891873855,-0.3858761469,-0.47845933,1.1515571722,2.0369735613,-0.121322816,-0.5898680804,-0.3614829945,-1.0265947414,0.1648532373,0.2116161892,-0.2527819549,-1.5314506726,-0.8291280341,-0.9050390991,1.4590711133,-0.2782370102,1.145671066,-0.8045296805,-1.1955823574,-0.9503122454,0.1627863305,-0.5594789715,-0.6042154338,-0.7617358395,-0.5246245607,0.6814325455,-0.9558179335,0.7816029726,-1.3515183627,-0.3123833994,-0.5273260609,-0.1315361682,0.3690134994,0.51929595,0.8613993676,-1.5154331103,-0.0836821716,0.1345409718,-0.1233314362,0.5030756034,0.6366847939,-0.4826943738,-0.6076022671,-0.6279509914,-0.2477341233,-0.5209978685,-0.7886105114,-0.645222106,0.2380535351,0.5235185176,0.7811407079,-0.318294478,0.9517491219,0.4643407513,-0.1139007294,0.8582923067,-0.2466947088,0.8877675249,0.8524942687,-0.5385078501,1.4676272415,0.3260763919,-0.2581118878,-0.1881546744,-0.921469038,-0.621512483,0.6062441419,0.8606132721,-0.7063539705,0.6858527104,1.1202595034,3.9937846887,0.4965779124,-0.4557717861,0.63845209,-0.5632700885,1.382347245,1.1054577899,0.4265491958,0.9913261017,-1.4189055297,0.5886759063,-1.3455649443,1.0323519277,-0.7907002957,-0.3244600561,-0.0143453838,0.6539742941,2.3153757422,-0.7008141825,-0.0261940987,1.042095316,-1.003426538,0.29010496,0.0305211235,-0.7070608661,-0.7568799962,0.4872714676,-0.855360113,0.5781044633,0.3987550903,0.4656263768,0.3855952361,0.3547631111,-0.2404977662,-0.0635067393,-0.4403614041,0.6305640471,-0.2314159258,0.9525022758,0.4062316613,-1.1084366472,-0.2606429142,-0.1565771066,0.0769187542,0.0933735484,-1.1415959517,-0.4342610648,-0.4140530177,-0.1960535922,-0.2652505743,-0.443457957,-0.8057576229,0.1661783976,-0.6432599987,-0.9659570113,0.6532702275,-0.5919117772,-0.4796214696,-0.5214766725,-1.1788039954,0.5089208103,0.2514625623,-0.3592585312,-0.5948946124,-1.4667711679,-2.5501648542,0.2465165629,0.4164775818,-0.6993693926,0.4320171732,1.4153719568,-0.9578164139,1.1822128119,1.8879786159,-0.3260913555,-0.5537364161,1.5017984178,0.0401843352,-2.8211273129,0.809826733,0.5665089165,-0.3132241424,-0.9018391275,0.2901323828,0.6755629288,-0.6711226231,0.4611980725,0.0113255826,-0.7613579878,-0.9003268639,0.3284748782,-1.7241676898,-1.9934548862,-0.5493531116,-0.4294111651,-0.2257934393,-4.0390013925,-0.0881531911,-0.2009360578,0.9114260721,0.3750319456,-0.9164718553,-0.1143447567,-1.4420559352,0.1138280629,0.0837297704,1.1569980155,-0.1875503673,-0.3157198661,0.2593928233,1.6014398507,-0.2016293233,-0.4839905679,0.4048918741,0.1418116262,0.2766542997,1.1566240997,-0.3045678176,1.7288703152,0.6433164303,-0.478519856,0.9552670743,0.9745719655,1.7533343127,0.2732973834,-1.5851625088,-0.0158403272,-0.928477576,-1.1853240579,-1.0967281166,0.8507225119,1.0828591856,2.7456192106,-0.1086379728,0.226748366,-0.7452999062,1.3107168797,2.2694618309,1.5554942763,0.7364234138,-0.15255778,1.2397738904,-0.380596185,0.8512153461,2.1476570165,-0.5806294246,-0.3271912435,1.7802462489,0.5936742608,-0.6686060341,-0.0781383652,-0.3639613829,-1.3476092582,2.29985709,-1.1657307011,-1.404769723,-0.4713303241,0.9529939772,0.3648615016,-0.5864489441,-1.4103477758,-0.1034082989,0.968825476,0.6020212386,-0.0273570961,-0.2314638509,-0.855042363,0.1751031737,0.3363018709,0.2429840287,-1.8535937966,0.5533779041,-0.2326955749,-0.5589793356,0.5359900199,-1.684815602,-0.2347246006,-1.7904571562,-0.367034829,-0.5432870529,-1.5981192402,0.3437731372,-0.369961913,0.5515553485,5.4430587334,2.7800724559,-1.9830322077,1.1137661808,1.0176478603,-1.2565599059,0.1268705115,0.6112641408,-0.6149277528,-0.345556766,-0.2500546345,-0.0167770521,-0.0672955287,0.3330506926,-0.7606228397,-0.9545845178,-0.5744180241,-0.4961884634,-0.5843635762,0.7348166397,0.4953774942,2.0346831859,-1.438448618,0.8922218472,0.9568236798,0.2805805475,-0.853526461,-0.8392498415,0.7683161227,-0.1663904045,0.212207877,0.3078725963,-0.7372495483,-0.0574530619,-0.5767648721,1.4446515774,0.4310126116,0.1634933527,-0.731124394,0.1661622644,1.0046993811,0.1179144488,0.0218367273,-0.288211685,-0.764479828,1.0497317897,0.2909951188,-1.3229100824,-0.4708967568,0.5785016794,-0.4476192226,0.3429659451,-0.1620344614,0.343826446,0.1682424589,0.8879477019,-0.0953836621,-0.6403779353,0.2211559285,0.5274106134,-0.6414937256,-0.7946546702,0.3515316902,0.3761445124,0.4825958209,-0.2748981114,-0.7080281656,0.6491123705,0.3753337144,1.0590763645,-1.4687349214,-1.0314318002,-0.9151989023,0.1236484899,-0.0986265758,-0.1336864016,-1.7920253653,0.0108613256,-1.7314008613,0.2898754535,-0.4225762565,0.2188561371,-0.7331448391,0.9214851285,-1.3078452959,0.6709163344,0.7910486755,1.3836131452,-0.7340630466,0.2621942145,0.4177503046,-0.461689435,0.3568768365,0.4154779593,1.2170732488,0.0490736219,-1.1655949681,0.758715073,-0.2729126682,0.3632974858,0.5313508638,0.0734305177,1.2699042531,0.3581958171,-0.1496491719,-1.0209230512,-0.649903481,0.6239121192,-0.389783611,-0.4753943671,1.4917479037,0.3872241883,-0.7470709051,0.9273508877,-0.5265923819,-0.3152702782,-0.2733334342,1.2333491188,-0.649140991,-0.171621656,-0.8378708968,0.3038761434,0.5319554085,-0.9478489838,-0.2401636644,-0.6340135962,0.5895688903,-1.0537483598,0.1405239238,0.2344252774,0.8282265246,1.3184226223,1.5822100798,-1.4254293456,1.0431116185,0.6058164022,0.1016874029,1.5145602525,0.3820780009,-1.2023247006,0.9611615135,0.0807301156,0.5836552429,0.2874703463,0.7187213923,0.1111011037,0.8004097115,-0.1667153305,-0.6088751592,-0.0428271952,-0.5024124949,-0.968663303,0.4188629454,-0.3306483047,-0.6130306212,0.0750432672,-0.534243245,0.5256991265,0.9647456289,0.193270277,0.1347908536,-0.2911807965,-1.2054378426,-0.2088136374,0.06236045,-0.2867833851,-0.2892316925,-0.2537272248,0.3119786538,0.925856426,-0.0438574883,0.189168395,0.3582095449,0.1362093043,-0.6282862268,-0.5923730511,-1.0971728901,-0.8009457046,-1.8883450656,-1.5177293252,-0.435026134,0.6918869461,0.7631777327,-1.0068026118,1.1840121022,-0.3279396576,0.2082267584,0.9781142531,-0.4786657224,-0.2784976496,-0.1756713904,0.7738686696,1.0307908736,-0.8018410138,0.8029205619,0.116243891,0.7005803141,0.9912425134,-0.7756017957,0.1791996733,0.4843272533,0.1446952298,0.5366994658,-0.7932060245,1.0254963301,0.4968150893,-1.5073147608,0.6554714872,1.0097327916,0.6911372037,-0.0088284119,-0.8406155192,0.0220162823,-0.1162560906,-1.3013708996,0.3556759517,-0.16536761,-1.6748549286,-0.9749815217,0.0244948788,1.4085936475,-0.2931271721,0.4616595734,-0.517185429,0.9493283593,1.2640328881,-0.1132396419,-0.3544003911,0.6957440261,0.411183071,0.9128003587,-0.5305408201,1.1879416178,-0.3010478453,0.0031955025,-1.0793327914,-0.0350207817,0.443908077,-0.5807252344,-0.2175408868,-0.0548825403,-0.2585315629,0.9863360782,0.0850412948,-1.0507081153,-0.0819757165,1.1192328341,-0.437323252,-0.6735977218,-0.4374629696,-0.7252510153,0.683522464,-0.3879037265,-0.7349564344,0.1942922125,1.7082045752,-0.0406266062,-0.9094668231,0.4120167707,0.2544369191,-0.1718906398,0.1216610759,0.0055799117,0.6785427334,-0.6106526048,-0.7372218394,0.72379424,0.7582919704,-0.6191019626,0.6365071928,-0.0956556956,0.5014440668,0.5265673069,-0.5006710274,0.0326367163,-0.501075316,-0.6441408729,-0.0792266173,-0.3423087722,0.8519367852,-0.8298693302,0.1064041892,-0.2134080515,-0.1865373893,1.0483429114,0.6030463267,-0.449572699,-0.2291063642,0.1206443554,-0.9619248335,0.4511998152,1.1976801999,0.0604508913,-0.3392158358,-0.6413569145,0.730312951,1.1250978505,0.2862366452,0.1027337422,-0.3860824027,-1.2190237614,-0.5987672539,0.3689457671,-0.8860407786,-0.1618572339,-0.5004734574,0.6599907297,0.1189036558,-0.0422679868,0.0569069353,-0.4479171527,0.6922220283,-0.6068117295,0.084156599,0.522887318,-0.3880133193,0.9425853271,1.0204351439,0.1560196879,1.0023722379,-0.8031405377,0.1150043766,-0.4254674567,-0.1948029464,-0.6576814628,0.2150315258,-0.8189654693,0.4433620266,0.5781542944,0.7078524894,0.860271035,0.3699096999,0.0786501896,-0.0563661941,-1.0613888047,0.9912528112,-0.9425293918,0.3242773828,0.4323052819,-0.3899558056,0.5437458428,-0.1258336338,-0.2674677921,-0.078929504,0.0672686692,0.3001504291,-1.2881678978,0.254604977,0.3663863035,-0.4491228854,-0.4931986718,0.6289566783,-1.1503680449,-0.8429443446,-0.7368745151,0.7456999439,0.680070596,-0.5981671705,0.4102380756,1.156564055,-0.0401208438,-0.7838429029,1.4058346612,0.7055008169,-0.134951123,1.403960662,-0.3007257586,-0.3629878923,-0.5401489618,-0.9029114472,0.1271297307,-0.7764969985,-0.8773799841,0.0274888339,0.3673169468,0.2216195523,-0.4462794446,-0.6301069424,0.9626299539,-0.8828492225,0.5902082026,-0.7525602285,-0.2283928636,-1.0628333265,-0.7130786801,0.9582357918,-0.4333279095,-0.3578009918,1.4152664375,0.7279261134,0.3260531353,-0.4758209223,0.785941608,0.5510342208,0.1390834357,-0.6594876984,0.8867317161,1.1817771167,0.9887931047,-0.8376639013,0.1671641434,0.0097756712,-0.4942630914,0.2999471326,0.2250771054,-1.2948792074,-0.3716174665,0.1210686766,0.7883628837,0.0212267612,0.1143459358,-0.5244063316,-0.5289736087,0.0628055655,0.5349201566,-0.6458371279,0.7471847543,-0.6852916712,-1.458957381,0.7831790487,-0.7418106985,0.1856448704,1.1841592818,0.8024469159,0.3930859638,-0.4930311971,-0.81429791,-0.9705578902,0.1573821653,1.1401576103,0.2403546462,0.6397212631,0.5831489324,-0.5824539808,0.0492101359,0.6023049477,-1.0407336482,-0.938431736,-0.5216150794,-0.5678378577,0.8575053979,0.0772482498,-0.7967012185,-0.3071535079,0.8278458013,0.9159420913,0.1983286942,0.6829948378,-0.520165409,-0.9282426711,0.278389368,-0.2335592581,0.7606969455,-0.6446395465,-0.6213047498,-0.4105832868,-0.5299591138,-0.9691231275,0.6267904103,-0.6716551045,0.46332869,0.0759701112,-0.9001125684,-1.3281602813,-0.9129939968,-0.1546986772,-0.3776795603,0.7375691109,-0.9500321376,1.0265051172,0.0146992647,-0.6295814405,-0.8368814702,1.1405396381,0.9136648205,-0.4627696055,-0.7082615558,0.6630478764,0.8629292996,0.7361268307,0.6019625467,0.6581856622,-0.8527936539,-0.9055288107,0.6838081455,0.3624654395,-0.0567638286,0.7109053178,0.8761229002,0.4868167797,0.8657516722,-0.8846947323,0.2623320836,0.8173725552,0.4420660729,-0.0763457045,-0.6538137663,-2.9940620979,-0.6238494049,0.8214321897,-2.5167961912,-0.4004745475,0.2176797042,-0.7693381422,-0.1027517483,0.3058586264,2.6406954709,0.8116411411,-0.6666502228,-0.4930391867,-0.2940883606,-0.1864488389,-0.853437943,-0.9045942743,0.6192887754,-0.1962266754,-0.52949763,-0.1609960732,-0.2029956402,0.5021500224,0.2173096451,1.0639830002,1.3050051513,0.801807383,-0.6507653688,-1.1626508218,-0.2493390549,-1.6801089424,0.0086598305,1.1427330366,-1.2120200812,-0.4984756475,1.0337034206,0.1230062415,-0.56930877,1.4549117867,0.0326295396,-0.6388244841,0.3640164876,0.2030840672,0.3306706913,-0.3562910074,0.4604008627,-1.4598121638,-0.0803539953,0.5298410166,-0.3413651793,0.645123915,0.5206104949,0.5459803427,-0.4730153613,-0.647327154,0.6466639742,0.0804457333,0.3311117263,-0.5682730569,0.0603332106,-1.1181192873,0.6325083372,1.0971149717,0.1706213346,-1.2041663794,-1.3808132675,0.4196727383,0.7471974404,-0.4254971621,1.1507294051,0.3197113999,1.0928291846,0.4546324514,-0.7838082392,-0.758383459,-0.9187627497,0.8942511542,-0.0851015772,-1.5849730761,-0.5142055378,0.1389432629,-0.0257276566,0.5220143719,-0.589677775,0.1103368982,-0.6873689131,0.1607535983,0.6925740643,0.2705243553,0.3142316596,-0.0553334484,0.1278340836,0.237841206,-0.4526972077,-0.3631056453,-1.5442146058,-1.0443831601,-0.144725401,-0.5327899456,0.5604190764,0.2280844778,-0.0179625428,0.3792928397,1.2075911782,1.4858160522,1.1460601293,1.7003279827,1.7530359469,0.4926001916,0.1574826516,0.5751246223,0.1561240689,0.4751217807,0.2327798922,-0.6312398127,-0.1609713502,0.0222524768,-0.4337427477,-0.410681153,1.2525939955,-0.0899398642,0.2979285688,-0.5630466346,0.8080779719,-0.6660848328,0.0920234751,0.6734420566,-0.7493836495,-0.2733530517,0.0392308719,0.7630568663,-0.8322885658,-0.0417294696,-0.2022439969,-0.438015742,0.2108284151,1.4020297993,0.8792866753,0.2895579103,0.193330325,0.0206982342,-0.0607393572,-0.5266306731,0.0840739595,0.1287828928,-1.0497146478,-0.8761144566,-0.3820995106,0.0525477425,1.1259943639,0.5454320057,0.8884935064,0.3791928068,-0.6839009157,0.6907823649,-0.2047713475,0.0445181958,-0.0305305702,0.7764011807,0.5495032546,-1.2212557814,0.7227409592,-0.6179382133,1.4361201327,-0.6655263807,0.8545957343,-0.6097718674,-0.2928096266,-0.4573046988,-0.034516005,0.1956268828,-0.9327109165,-0.0167637707,0.8662012544,-0.8226636604,-0.7418765222,0.8057865655,0.7967992214,0.136213137,0.2033344161,-0.7055877671,0.6138269187,0.3780749069,-0.8568404204,0.6923872843,-0.8109766304,-0.0935992868,-1.5775949052,0.4973631118,0.7650416587,1.1237178671,0.2245087777,-1.3279091073,0.0015022087,0.3233406854,-0.8867927212,-1.04562537,-0.2181623094,0.5207712692,0.9273568941,0.3642638187,-0.2908277165,-0.5530064306,-1.1031841294,-0.0797936431,0.0290644727,1.6451102453,-0.9989043122,-0.1575488681,0.7835264652,1.0777051694,-0.3728615609,0.741034031,0.4997240377,-1.3423706782,-0.927893755,-0.8837167942,0.4146847105,0.3666323833,-0.2944009666,1.4466361099,0.7620644514,0.3748944097,-1.2032758437,-0.0224865853,0.45444883,-1.3135392854,0.1198701494,-0.4284015642,-0.5751883443,-1.0057300651,2.9985724236,0.5540336162,0.2988753444,-0.9563448563,0.9879041025,-0.2244404668,-0.4099078425,1.0773904028,-0.0263862347,-0.6253286951,-0.2585885435,0.1774178217,-0.3640164697,0.1553488189,-0.3488490556,-0.4473886601,-0.1555123073,-0.5702742646,-0.0927257931,-0.2878415528,-2.4359989972,0.9185646345,-0.7635281861,-0.1605714769,-1.2227624687,-0.7204415326,0.6922176152,-0.1678360637,0.587461732,-0.4006398246,-1.060167821,0.2896654236,-0.8988315216,0.134383356,0.6432752502,1.1933571608,-0.2879943781,-0.4693456627,-1.0107607214,-0.0325728626,-0.1307760612,-0.3347702203,-1.1416701326,0.2901650249,1.3975828999,0.7810108606,0.1777218581,-0.5013757319,-0.8078275347,0.8018824867,1.6935723174,-0.573539366,0.411335502,-0.269568872,0.1521816214,0.6894807772,0.8820642113,0.7606582459,-0.1630860648,0.2091054747,-0.4647554313,0.2596678837,-0.0273620996,-0.1929265244,-0.8580499966,-0.963751975,-0.606132771,0.1394924948,-0.0092307156,-0.3672689087,-0.5625289723,-0.3122043035,0.2201278361,-0.8790834833,0.479071309,-0.5226442058,-1.0279566462,0.0504272127,0.300810378,1.1283252612,-0.5987870541,0.5157898459,0.9970461533,0.7734204203,-0.317547991,1.6175962437,-0.4841970686,-0.9036175527,0.1007255604,0.8407804565,-1.4801802683,-0.9671989771,-1.1133175676,-0.613446728,1.1094108797,0.2144910378,0.8856112745,0.294880098,0.5484441517,-0.6018516461,0.7950068815,0.9900927064,0.5981901549,-0.1814625398,0.6233731344,-0.0155740182,0.4695115729,0.8429845041,0.1051231596,0.7376714496,1.0464651595,-0.1400888335,1.1871920525,0.5834917914,0.239281323,0.5335970812,0.0040585545,0.5517345336,-0.7436248079,0.1924967905,-0.7691642297,0.2145238346,0.974361713,-0.1033798851,0.9078004688,0.9783251908,0.5613249287,0.1019124567,0.7772661672,0.1528188116,-0.1283589172,0.0807173954,-0.5323121556,-0.327064834,-1.2757311976,0.5773204285,-0.4061010669,0.8445082916,-0.0235932725,0.6923901693,0.6079656445,-0.3279025033,-0.5661066689,0.2180054078,0.4076635943,0.5374519177,-0.0379192665,-0.2992887237,-1.2031995425,-1.700152653,-0.6852820989,-0.7040208475,0.9042509169,0.2214288549,0.3496701768,1.0132536741,0.534407929,-0.0375322113,0.2658980945,-0.4471579085,0.1942420082,-0.706466472,-0.3407564636,1.1524022967,-0.4320968253,-1.2324631663,-0.7688705443,-0.4761151153,-0.2985761573,-0.0513748799,0.231696892,-0.2256884779,-0.0621107821,1.2471750628,-0.0476076789,-0.9748632922,0.4565774384,-1.079344837,-0.4918678866,-0.3695340913,1.156170266,1.2052155444,-0.4391129853,0.3740370878,-1.1630181517,0.320840203,-1.1664912205,0.6744458874,0.6225813827,0.2438728861,0.1687212302,-0.4921200889,-0.4033467902,0.7075914219,0.3983710921,-1.09283064,0.1369742937,-0.4004868385,-0.1802617802,0.3351490434,-0.7431240996,0.1402897333,0.0473208524,-0.5271228547,-0.6059679621,-0.7387126699,0.2270303392,-0.2418847485,0.5277730524,0.9520040072,-0.3193817044,0.5988277445,-0.4461289007,-0.1446375131,0.4797238658,0.4812581073,-0.9532308206,0.1354363283,0.47999567,-1.2346044566,-0.9213247552,-1.203400133,-1.3483392524,-0.9115252273,-0.8241042091,-0.8489502346,0.3030936814,-1.0270386126,-0.9035000527,-0.4958049982,0.6775115039,0.8248335303,-0.8263924845,-0.5759714272,-0.421870072,-1.1219726008,-0.6715325547,-0.752007268,-0.7332646429,0.6827785718,0.0505593856,-0.7028896259,-0.8168679653,-0.8135267885,0.8566737811,0.5255595172,1.6876241982,-0.3137632233,0.4943734288,0.1996456587,-0.5305343127,-0.5522545206,-0.7533480961,0.2423736502,-0.4404707826,-0.1442361794,1.7419500884,0.3700289249,0.7568831803,-1.2169802634,-1.027682751,-1.02073422,0.1643692408,1.5108204896,2.1044253372,-0.0199659146,-1.3296897307,-0.757909174,0.4222448651,1.3931935062,0.7134925682,1.2703665675,0.20020872,-0.3890724351,-1.8606077481,0.3716395507,0.2316042471,1.600173571,1.288813214,-0.0640182732,-0.5335214948,0.2383607247,-0.0226892155,0.153804884,-0.1158883096,-0.6378316262,1.1451317714,0.9514425405,-0.2880145375,-0.2907404086,0.3350278521,0.5989203403,0.0802154528,1.8701311442,-0.3273946495,0.8574717083,0.4709323079,1.1334243854,-0.1580889721,1.4068945725,0.6613994317,-0.6419200393,0.3777971273,0.923140165,-0.3608014514,0.4922271541,-0.8894097746,0.7345938125,1.0748840388,1.2374706713,-0.2161283216,0.5566498591,0.3541245545,1.1332794682,-0.6224614364,0.0714246526,1.0123140909,0.9106931467,-0.4834644531,0.4735027705,0.1552491586,0.9923429493,0.5351004993,0.7775838755,0.296632207,0.2075856303,0.8310563542,0.7438878889,-1.1930078295,-0.1554775067,-0.506926544,-0.2988904094,0.1381658539,-1.1083761584,0.4731966322,-0.3049253419,0.67204041,1.0537171602,-0.4219204678,0.5357556273,-0.9131266309,0.756557991,-0.3853976555,0.6943034207,0.1176116068,-0.2721309386,0.50810329,1.0116653582,-0.5253717988,0.3005308728,-0.2885004696,0.5254870548,-0.326120302,-0.2596983223,0.3849110464,0.9032081713,1.2045896793,0.2003868902,0.035822723,-0.0824846661,-0.5671123911,0.1251462388,1.1024248947,1.2626194824,0.2962468174,-0.1043955074,1.3020029035,0.5043287183,-0.9651707349,1.4411859751,0.6339772397,-0.3645978991,0.759649149,0.9539837866,-0.887725264,-0.5974795131,-1.8753386943,0.3010055173,-0.1089025393,0.4352559605,0.1170445672,-1.1056471465,-0.6765383991,-1.3190827774,-0.1151754548,-0.1689834034,-1.1173700266,0.0304429483,-0.0275840495,1.0976760947,0.549245506,-0.8792817601,-0.8200694176,0.1289884737,0.4150851972,-1.2344238176,0.1079517118,-0.1934539482,-0.109356112,-1.1624916524,-0.6423205648,0.8320858059,1.8216678257,0.6106940483,0.2568573185,-2.1248181306,0.6837892715,-0.8111879958,1.0230243164,-0.9218019401,0.479314181,-0.9206512888,-0.9420755298,-1.6539941995,1.2440393052,-0.5992603459,-0.6500893978,1.0416124088,0.5353726748,0.8287496388,0.5407757141,0.8025456372,0.4034724628,-0.4306014164,0.7100402867,-0.8716698453,0.2497908332,-0.0075249975,-0.3470079285,-0.2778807083,1.0063082039,-0.9166474875,-3.5747140565,0.5968984865,0.3090564852,-0.2954306451,-0.1037908532,0.4301506444,-0.1702874492,-0.248953196,0.843355273,0.9358739457,0.9938701415,0.343338344,1.1799050323,1.5539819466,0.7388788151,-0.6742557218,1.8436754729,-0.8453514746,-0.3904416536,-0.6433583991,1.8685380129,0.0421256419,0.2459639589,1.7383045584,-0.6594594493,3.1460656336,0.0158949121,-0.5061972165,0.5423592277,0.0788819788,0.7930302084,-0.4962185115,0.4339452197,0.2008879637,0.0091800856,0.8229560166,1.3954498989,1.1151339559,0.404892451,-1.792128809,1.2382389367,-2.0798910925,0.8293744084,0.1890900018,0.4985411898,-0.8158177516,-0.4283406271,-1.0209473669,-0.9622437102,-0.8636530721,0.246884862,-0.3598920111,-7.2227651696,-0.8232726445,0.0265464755,-0.6345634457,0.5537058852,-0.8858844562,0.0514684905,-3.232615471,-0.7930405646,1.1990917444,0.9208261546,-0.2094216953,-0.0254886833,1.4468736766,0.2742436645,0.3447664932,1.5671416432,-0.7395284244,-0.2733383811,0.6836238705,5.5800809656,1.5461577892,-0.9343802124,-0.9528519344,-1.6094147272,0.7725786204,0.0424095289,0.210947191,0.7176304925,0.671833602,0.0042954493,-0.3796942791,0.2372814314,-2.0548381086,-0.1512748884,-0.0526589675,0.8804408297,-0.4880970897,-0.1392949278,-0.0281515213,0.5523128156,1.593840045,-1.2444359335,-0.1432405526,-0.5225810012,-0.6611102427,0.1660750588,-2.0181621356,0.7004779081,0.2843150416,0.7144453352,-0.4159898235,0.5383826181,-1.3582646804,0.160911046,1.3911363439,-0.450671707,0.6424136561,-1.3399535591,0.1598940816,0.1226625857,0.2265980316,0.0677129459,-1.3441797821,-0.6037833981,-1.3058077936,0.9479642192,0.5430225216,1.2834799734,0.355609015,0.563448086,0.4352229517,-0.6664393653,-0.3498731959,0.2016564091,-1.3001836555,-1.498117792,1.538407376,-0.8676625789,-0.9963024372,-1.2509789532,0.1340429595,0.4122702442,-1.0842031954,1.6126840378,0.6238555076,-0.985588567,-0.1383815246,0.3052350993,0.4196595489,2.1782725771,0.4963898075,1.7706941426,-0.0374911881,-1.0886653796,-1.5465532641,0.7324497114,0.177755449,-0.6854391035,-0.9773349864,-1.4888211364,0.447663761,-0.190021278,-1.5103158188,0.2893242283,-2.2518939949,0.7708866855,1.4279783421,-0.0521086295,-0.2216970385,-0.3641244244,0.0416504663,-0.6514420722,-0.9321159494,-0.3995561408,-0.8881582809,-0.1778189325,1.9805485668,5.4485848729,0.8562616419,0.818435434,0.9840752272,0.7973089945,-0.8354304262,0.1323512121,-0.3359620937,-0.7724737534,-1.1942215897,-0.1807127329,1.0994170907,0.4929909448,-0.3536770405,-1.289578414,1.7485695887,-0.2998121262,0.2981220008,-1.2128074458,0.7359075783,1.2313611519,-0.1126176343,-0.8347071886,1.4472864177,-0.2514172587,-0.6430982436,0.8973122411,0.415210626,-0.1565413288,0.1575755678,-0.9190413963,-0.6449514376,0.0061213652,-0.0586911609,0.4041119078,0.8654540761,0.5725769013,-0.5369478949,-0.2798594916,0.6191904916,1.2691466367,-0.6965298414,1.2504488448,-0.3864418909,0.0304254545,0.3895546064,-1.0414438787,-1.0648678139,-1.2811133971,0.2396345544,0.7049583939,-0.7696861523,1.2173025954,-1.1809254492,-0.7810572071,-0.6579365721,-0.4514081367,-0.3761819613,-1.0711793955,-0.2329943703,-1.1457849261,1.3467352945,1.2227462192,0.9222555637,0.39238824,1.267859947,-0.140668515,-0.701064196,-0.2553788824,-0.5186957774,-0.1041215649,-0.5338647077,0.7276790444,-2.2012810068,0.3781581521,-0.3267440457,0.2438179408,0.4180421454,0.9118876926,0.615837792,-0.2708897486,-0.5773559654,0.1104073581,-0.7253859384,-0.641789154,0.2043143919,-0.9187784625,-1.7061321033,-0.7157731776,0.1321553564,0.1552110404,-0.1196734777,-0.1101668091,-0.7736263154,-1.3869050688,0.6276312889,-0.6954847615,-1.1713399682,-0.0148654203,-0.0563589177,-1.2114708024,-1.2467977575,-1.3730212765,1.253667584,0.9077674584,0.079558758,-0.7424961248,-0.7536104764,1.0110644521,0.9212461844,0.5328932301,0.251200375,-0.0247553368,-0.2176866614,0.0280986625,-0.099430669,-0.7617526873,-0.2600150278,1.1614721298,0.4325318065,-0.3221357466,-2.7907207496,1.3763147691,-0.8751787594,0.1976991352,0.6418594033,-1.2981584911,0.4935497645,0.9859343854,0.1811131303,-0.2489817642,0.6431362719,0.9302316919,-1.0572838097,0.5141239783,-0.3504166088,-0.0030727411,2.3313082497,-0.8606561552,-1.0146357151,-0.2317512876,-0.7826933242,0.3255337483,0.4302457353,0.8312128148,1.0611613366,1.7420216768,0.3305683048,0.2464972342,0.6422294285,0.2666197115,0.9113756912,-2.167847674,1.833955449,-0.0513010739,-0.1474626659,-0.6944375738,-1.3833460446,-0.6257164961,-0.4978184122,0.1543500395,-0.3066422001,0.4147677209,-0.822542709,-0.2514137829,-0.0614134156,-0.6007881533,0.0528068585,-1.550680248,-0.5945103818,-0.5335861247,1.4656549715,-0.0529292817,-0.3253402845,1.1420335087,-0.64181587,2.4453656328,-0.4781718891,-0.8095586471,-0.7071999649,0.4493259816,-0.5750936986,0.8590573344,0.8149149131,-0.1594058469,-0.4654544333,-1.1068839876,1.244545618,0.1304268205,-0.8478451127,-0.7977382333,-0.0147380275,-0.472119007,0.2543797356,-0.2252351399,-0.1883792294,-0.4993550716,-1.0444345027,0.26603648,0.5070639331,1.3957686364,0.3263360349,-0.4892904719,-1.3311737436,-1.0328012215,0.7969729634,0.1651996675,-0.3964148377,0.6043341095,0.3030127633,-0.0625543829,-0.45294366,0.7668827958,-0.6189230612,0.5524623257,-0.2283489864,2.3054935846,-0.4101681619,0.9184079528,-1.0483262542,0.4432340529,0.6653160601,0.9863585578,-0.7820110362,-0.241916943,0.9103831503,0.883221955,-0.9875061696,-0.3868237505,0.2744825469,0.0275136256,0.3634582321,-0.4029502238,-0.3284656804,-0.389337323,0.6835327817,0.2661956176,-0.1358715952,-0.8071453474,-0.7184961051,-0.4753090219,1.3452929793,0.4437934255,0.4596771903,0.6101266571,-0.2829735468,-0.2972029802,0.1057986776,0.1811154247,-0.7912753692,0.392770627,-0.303325702,0.6281236293,-0.3407055619,0.4382707109,-0.682210297,-0.1458413129,0.2648269716,0.4457889972,-0.5704700241,0.6144919582,-1.1536689735,-0.6321807179,0.4350455053,1.3946711167,0.7969984842,1.0446146637,0.9632740836,-0.7327569966,-0.2902770473,-0.4603423821,0.9231122591,1.0544732074,0.7604249148,0.6951109238,0.0017332961,0.677572387,0.4418541884,-0.8060384895,0.0343661581,-0.9884593116,-0.4316389796,-0.2722431365,-0.2915040702,-0.70860028,0.3595714289,-0.4716709569,-0.1622343867,-0.2141034958,0.3194689081,0.2159255654,0.3269594929,0.8198990956,-1.0926990271,0.6375586189,0.2208034634,-0.5624848057,-1.3406755703,-0.0439581104,0.3001827498,-0.8158936516,-0.5744271716,-0.1056720948,-0.7558797981,-0.6138326373,0.3083207042,-0.9852690377,-0.9556908454,1.5003508013,-0.834356175,-0.3398130334,0.5056763255,-1.1381590179,-0.4316882264,-1.2941890679,0.5668174361,0.183896669,0.2280726118
