encog,BasicNetwork,java,3.2.0,1,1479320035600
[BASIC]
[BASIC:PARAMS]
[BASIC:NETWORK]
beginTraining=0
connectionLimit=0
contextTargetOffset=0,0,0,0
contextTargetSize=0,0,0,0
endTraining=3
hasContext=f
inputCount=300
layerCounts=78,91,71,301
layerFeedCounts=78,90,70,300
layerContextCount=0,0,0,0
layerIndex=0,78,169,240
output=-1,-1,-1,-1,-1,-1,-1,-1,-0.9999998524,-1,-1,-1,-1,-1,-1,-1,-1,-1,-1,-1,-1,-1,-1,-1,-1,-1,-1,-1,-1,-1,-1,-1,-1,-1,-1,-1,-1,-1,-1,-1,-1,-1,-1,-1,-1,-1,-1,-1,-1,-1,-1,-1,-1,-1,-1,-1,-1,-1,-1,-1,-1,-1,-1,-1,-1,-1,-1,-1,-1,-1,-1,-1,-1,-1,-1,-1,-1,-1,-1,-0.9999999999,-0.9999999987,-1,-0.9999997898,1,-1,0.9983070196,-0.9999958025,-1,0.9999766492,-0.9999999916,-0.999999999,-1,0.9999976797,-1,-1,-1,-1,1,1,1,-0.981618248,-1,-0.9999999907,-1,-1,-0.9999886424,-1,-1,-1,-1,0.9534918157,-1,-0.9999999997,0.9999999994,-1,-1,-0.9999136832,-1,1,-0.9999999999,-0.9999999988,-1,-1,-1,1,-0.9996797886,0.9981823717,-0.4671398268,0.9999999954,-1,-1,-1,0.7405836113,-1,0.9999998905,1,0.9999999996,-0.9999999979,-1,-0.9907270484,0.9999022189,1,-1,-0.693546136,-1,-0.9999999445,-1,-1,-0.9999987939,-1,-1,0.6896492981,1,-1,1,-1,-1,1,-1,0.9999166939,-1,-0.3042474222,-0.9598236357,0.9999076908,-0.9385343902,-1,-0.999999998,1,1,0.9999932549,-1,1,-1,1,1,1,-0.9998280194,1,0.9999999946,0.9999999894,-0.999883957,-0.880890658,1,-1,1,-0.2900278969,0.9999999999,-1,-0.9999999999,0.999999997,-0.9999999922,1,1,-0.939577254,-0.9325971154,1,1,-0.9999984453,1,0.9999999609,-1,1,1,-0.9875683801,-1,1,0.9999999977,-1,-1,-1,0.2563644326,1,0.346623534,-1,1,0.9999999696,1,0.9993587531,1,-0.9999999997,1,1,1,0.9999618833,1,-1,0.9992743716,1,1,1,-1,1,0.9999988327,1,0.9999999782,1,0.9991872031,0.999999997,0.9952008848,1,-0.6392156863,-0.6705882353,-0.7254901961,-0.631372549,-0.6862745098,-0.7568627451,-0.0666666667,-0.2235294118,-0.3882352941,-0.4980392157,-0.6862745098,-0.7882352941,0.2705882353,-0.1137254902,-0.4274509804,0.1058823529,-0.2549019608,-0.4980392157,-0.3019607843,-0.5843137255,-0.7647058824,-0.5529411765,-0.7411764706,-0.8352941176,0.3176470588,0.1215686275,-0.0117647059,0.3490196078,0.0823529412,-0.1607843137,-0.7882352941,-0.8431372549,-0.8901960784,-0.662745098,-0.7333333333,-0.8039215686,-0.3254901961,-0.4431372549,-0.568627451,0.1764705882,-0.1137254902,-0.3411764706,0.3098039216,0.0196078431,-0.2156862745,-0.0039215686,-0.3803921569,-0.6470588235,-0.0274509804,-0.4431372549,-0.7176470588,-0.662745098,-0.8117647059,-0.8901960784,0.0039215686,-0.2078431373,-0.3490196078,0.5137254902,0.2549019608,0.0196078431,-0.5294117647,-0.6156862745,-0.7098039216,-0.4274509804,-0.5058823529,-0.6,-0.1215686275,-0.2235294118,-0.3803921569,0.2941176471,0.0745098039,-0.1058823529,0.3803921569,0.2078431373,0.0588235294,0.2156862745,-0.0823529412,-0.3333333333,0.3019607843,-0.1921568627,-0.5529411765,0.168627451,-0.262745098,-0.6,0.2078431373,-0.0901960784,-0.3098039216,0.5764705882,0.3333333333,0.1058823529,-0.4745098039,-0.568627451,-0.662745098,-0.4274509804,-0.5058823529,-0.6156862745,-0.1607843137,-0.2705882353,-0.4431372549,0.0196078431,-0.168627451,-0.3333333333,0.5529411765,0.4431372549,0.3411764706,0.5058823529,0.3882352941,0.262745098,0.4901960784,0.0823529412,-0.2784313725,0.5058823529,0.0588235294,-0.3490196078,0.6549019608,0.4039215686,0.1450980392,0.6235294118,0.3803921569,0.1215686275,-0.4745098039,-0.5764705882,-0.6862745098,-0.4274509804,-0.5450980392,-0.662745098,-0.3333333333,-0.4117647059,-0.568627451,0.0666666667,-0.0745098039,-0.2156862745,0.6235294118,0.537254902,0.4431372549,-0.1215686275,-0.1921568627,-0.2470588235,0.2862745098,0.0901960784,-0.0823529412,0.537254902,0.2235294118,-0.0588235294,0.7019607843,0.4666666667,0.2078431373,0.7098039216,0.537254902,0.3490196078,-0.3960784314,-0.4901960784,-0.6156862745,-0.4588235294,-0.537254902,-0.6549019608,-0.2862745098,-0.3647058824,-0.4980392157,0.2,0.1215686275,0.0588235294,0.8274509804,0.8039215686,0.7725490196,0.8666666667,0.8196078431,0.7725490196,0.7882352941,0.6862745098,0.5843137255,0.6941176471,0.568627451,0.4666666667,0.6862745098,0.5529411765,0.4274509804,0.6941176471,0.5294117647,0.3647058824,-0.4039215686,-0.4901960784,-0.5921568627,-0.3647058824,-0.4509803922,-0.5607843137,-0.262745098,-0.3647058824,-0.4666666667,0.2549019608,0.2235294118,0.2235294118,0.8431372549,0.8352941176,0.8117647059,0.9529411765,0.9529411765,0.9215686275,0.8196078431,0.7803921569,0.7254901961,0.6862745098,0.6,0.537254902,0.6235294118,0.5058823529,0.4196078431,0.6156862745,0.4117647059,0.2078431373,-0.3725490196,-0.4588235294,-0.5607843137,-0.3568627451,-0.4588235294,-0.5529411765,-0.3490196078,-0.4274509804,-0.5215686275,-0.2784313725,-0.262745098,-0.1764705882,0.7568627451,0.7960784314,0.8352941176,0.8901960784,0.8901960784,0.8823529412,0.7176470588,0.7019607843,0.7098039216,0.3254901961,0.1764705882,0.0509803922,0.5215686275,0.3882352941,0.262745098,0.537254902,0.2705882353,0.0352941176,-0.4039215686,-0.4980392157,-0.5843137255,-0.3333333333,-0.4352941176,-0.5450980392,-0.4431372549,-0.5215686275,-0.6,-0.8823529412,-0.8588235294,-0.8117647059,0.3803921569,0.4431372549,0.5607843137,0.3647058824,0.3803921569,0.4431372549,-0.0352941176,-0.137254902,-0.1921568627,0.4666666667,0.3098039216,0.168627451,0.5607843137,0.3882352941,0.2470588235,0.631372549,0.4509803922,0.3176470588,-0.3882352941,-0.4666666667,-0.5450980392,-0.3333333333,-0.4274509804,-0.5215686275,-0.3176470588,-0.4274509804,-0.537254902,-0.4039215686,-0.4745098039,-0.5294117647,0.0274509804,0.0117647059,0.0666666667,0.1843137255,0.0196078431,-0.0901960784,0.3568627451,0.1921568627,0.0509803922,0.4980392157,0.3647058824,0.2470588235,0.6549019608,0.5215686275,0.4196078431,0.6705882353,0.5529411765,0.4823529412,1
outputCount=78
weightIndex=0,7098,13488,34558
weights=##0
##double#34558
   -6.7300442588,0.0165288067,-0.4305473639,0.0541508704,0.2382054778,-1.0758719336,-0.2261697863,3.9238393256,0.4452576407,5.3633870933,0.1340084075,10.0343938975,-0.0693612142,0.4738331097,2.402820639,0.3269740344,-0.0530005436,-2.1590777827,0.2026242586,-0.5072157301,-6.2636721504,2.1468198644,-0.0661997621,0.0812692395,-0.0131599919,0.1342588564,8.4501795455,-0.1429714487,0.4296303855,0.0756675327,-1.1321365059,0.6696520535,1.2467671176,1.326171827,-0.8621725809,-0.0539958804,-0.6171850118,0.3326922909,-7.4929739377,5.8374778815,1.3394790732,-1.0669127195,-3.6418647671,4.0883665524,0.0676153849,1.2451360742,-1.5486843298,3.1574938301,-2.3118134157,0.9061005261,-2.0074648416,0.7160884992,-0.6835990405,3.2115769994,-1.7176901878,0.7172101157,-1.5659663492,0.8973233104,0.7837109909,-0.1726424408,8.1751595345,1.6564461588,-0.7708493139,-2.9667558091,-1.2154149421,-1.0673241027,0.4970954003,0.286058265,1.6327877562,-6.4327218908,1.1031194396,3.2279031652,-0.3487079425,-5.0517594372,-0.1398314713,0.8936851675,2.8646042038,0.1844372907,8.8644991962,-12.2773401594,0.250852989,0.9690612861,-5.9139987084,0.1591963074,-4.5230018721,2.707809842,0.2511815441,-8.1736097777,4.8045991698,9.1886836177,-2.7093649168,-0.4617765147,0.2917565624,-0.3493125461,0.271285395,0.5347077405,-0.9291334208,4.1682835256,0.3784118897,0.2947175628,0.2420143355,-0.5652531796,-1.2567188017,3.8077215329,0.0326414048,0.0018583602,0.3033761647,-0.2325407464,4.4938015576,0.6042578231,-1.5683168259,-1.2054724227,-1.1153851123,-0.0006203614,1.0781827545,0.0631802569,0.7325369401,-2.483149145,0.8532331935,1.5151739991,0.7224198345,5.639972166,0.6466215648,-1.4541104779,-0.4090616814,0.1055288161,-1.1183578313,-0.11339838,0.6396117857,2.8288779829,6.1605180101,-9.9893413848,0.6839904239,2.2043087893,0.0771043525,9.1199623326,1.0942344178,7.0741538679,-0.3986789305,-1.650072329,-6.0201022047,-0.7135095519,0.96648645,5.4430796678,-0.3260586949,-0.2002131204,0.4793357833,0.5898263904,-4.9790816241,7.9193226035,-0.8283924044,-2.4902963019,2.2534242293,-0.2842737372,4.276830634,-10.9116293929,-2.0913335492,0.8775604883,0.3013981668,0.8479844566,0.7233241085,-2.6389680681,-0.191129859,-0.0285223729,-1.5243004407,1.005324537,-0.4564589678,-18.3692628369,0.4479257958,3.9290846024,-1.7814497558,0.6633303956,12.9028777769,2.6436042085,-3.8301114984,-2.592877352,-1.2243600141,0.3563847405,7.400519807,9.2974967822,-1.5178718532,-3.5234462001,0.1352781604,0.0605977204,-2.860231035,0.5100432537,0.5681258289,-1.2194094359,8.7992095138,-2.575197875,0.31791484,-0.1838581596,1.4948390447,-0.4612666711,0.2749824359,0.0477849652,-0.0869441949,0.1810331389,-5.3355083607,2.6491856351,0.3806649184,-1.046242557,-1.0642455484,-12.4561873799,-0.5928809919,0.4428080641,0.4559751508,6.8371022227,0.0470863409,1.0548780766,0.0123415123,0.7844416799,0.869921548,0.6106077942,-1.5230569419,-0.1827216676,0.0909330787,-0.1298041966,-0.0257623843,0.6609922846,8.8336701635,0.122860002,8.7887606617,-0.0592653847,-0.3054431017,0.9071388557,0.6518444231,1.1998035012,-1.1989473332,-2.9227730975,-4.0290693737,12.5037734609,15.8055129086,0.5568904258,5.2356190147,-0.8000243503,8.468692796,0.90932061,-0.2243337779,-0.2850225964,3.395858711,4.2960220354,-0.0249222519,10.5581370615,-0.3730244634,-1.6904095595,1.9405708395,-4.1406538436,0.0628940005,0.3656231928,1.1645216698,1.1075968116,-1.2850370702,0.0458434961,0.1969984418,-0.8615098026,-0.160083738,0.2624909876,-3.7395742409,0.7281886264,1.0381573773,-1.3290860165,0.5491722772,-0.4748964631,0.0386251315,0.5653675768,-2.0798424655,8.3242117787,0.3335402776,4.8178955229,1.4648683901,3.75769788,-2.1518448111,-19.8642919833,-0.6120234742,4.5971703028,-1.237535553,0.6317738134,-0.8152615001,20.2327897212,0.6579474225,0.1541184125,0.1102353538,-0.9061542379,-2.6727471294,0.0755461495,0.0142781245,-1.8761812035,-0.3117566006,0.0427045178,-2.9201311619,0.0461036257,-1.3141267583,-5.7499708896,-1.2127436991,0.3054965738,-0.3168904105,-4.3345639201,0.3237791079,-1.6718836385,7.2808652612,-2.2104113273,0.5611071685,-0.877654179,-0.260798767,-11.8781103949,-0.2444677986,0.3844410063,-0.0929758694,-0.3014422923,0.6354914508,0.3498407314,0.783598429,-1.46231791,-4.5687266656,0.4880854076,8.5499189702,0.4219276999,0.7864794501,-0.6502262584,-2.2901299951,7.9274203062,-0.6905641958,-1.7397413184,0.4723742387,6.0926892505,-0.0837903362,0.2778687397,0.6417219728,-1.1362859636,5.414034364,-0.1634825908,-1.4433289959,-0.3596960442,8.979239268,-0.1510130966,6.8660381725,6.3925797161,0.6516850171,-0.1507140137,0.4950612274,1.0314812377,2.3222044168,-0.4950483227,-1.1201567431,0.2767007573,-13.1401603132,2.1405617823,-0.0284964295,2.3232311372,0.3475937406,1.009163346,1.97490513,7.8936527067,-2.7568080034,11.6935954419,7.4314278165,-5.275458878,-2.2041878046,0.4620857361,-6.1713633991,9.5579957629,0.3108245246,-3.0751942408,-1.3681321579,8.03541547,-8.1276141208,0.2418553395,0.1856662341,-1.3290122764,-12.4288582709,0.0777905623,0.0448698113,0.2652458576,1.7075836865,5.7354939693,0.2131304188,-0.0010830766,-0.2905644199,0.2655012384,-6.8955092103,0.5928330896,0.2937370065,-1.327365352,-0.9183961592,-1.0050196678,13.0156514529,0.2441612972,0.2866893249,0.8026215095,-0.0250954518,0.6670020729,0.1676787701,0.6487879789,0.0954028088,0.239853269,3.4318207919,0.594173575,0.6865461822,-0.5618948355,0.0840532084,0.7184638341,-6.1175532778,4.1596918345,17.094756518,0.6595945494,-0.0266874731,0.1213582454,0.5688753927,0.9297661049,-0.2045216229,0.1221279507,-1.1283065127,-3.8690809601,-1.1166708368,0.768400428,-3.702553825,-7.5558798765,0.3193126461,0.3531792162,-0.4986938163,-0.0822610138,-0.3476711174,36.7364997301,6.1247938578,19.8812997804,1.7763088923,-1.0939645673,0.2316963747,9.5629819958,0.9498852117,0.215997668,1.6533392189,0.974348809,-6.1190134664,0.0807899104,0.6045939628,-1.40165651,3.2982105909,0.205838919,-0.2348889282,0.7337330061,0.7982170412,-8.5669795519,0.3445062781,1.0624016122,3.841063474,13.1326930066,0.4270175165,-4.1909955327,0.1795262878,0.190985915,1.1054238053,0.1585389764,-1.8989009655,0.0069197807,0.6107582454,-0.4442171154,0.1262538898,0.2775237949,-1.1617372886,-2.2486512623,-6.3369819372,-0.1187973683,1.038631174,3.1263617607,-1.3418785146,0.321379201,0.3206154741,-0.6720428248,0.6752259751,-6.0529513616,0.3027141302,0.4327778218,-1.2975136908,-2.1650395688,13.615472298,2.7654056188,0.1175240673,1.8609133887,0.4213419275,-0.0458060686,0.8733288187,0.186953837,0.9235654173,5.096611856,0.5952059325,4.2704096375,-0.4926871269,2.2183260239,-7.1756917759,2.7706172554,0.6813731769,-2.4366133087,-0.6260327459,7.7010674201,0.6005205681,-2.4149599156,0.8646445047,3.9726347087,0.8565564205,-0.0375013472,-0.9130056762,-0.7167231297,-2.2863180254,1.2973427918,1.9534399776,16.6068117281,6.3831231052,0.9701538506,0.4871922069,0.2639938449,-2.1196822982,-0.6389702522,-0.1832207836,7.0343160807,-3.5021586262,-0.4557465209,1.0991292504,0.0350640655,2.4478439097,0.8364522314,0.2786553659,0.9448514817,4.5157298333,-0.8469452871,-2.0160930829,0.2515694031,-0.8217791509,-6.198545992,0.2807941736,-0.0819463515,0.4938358228,0.7592198044,-1.9297686209,0.4283400479,-4.9299717769,-0.861243886,-4.5022991187,-1.6652232319,-6.2525415116,0.4164309599,0.1621773503,-4.8177329721,0.3953002839,-4.6325946117,-0.1599290077,6.0782278407,1.8270642322,0.4447225945,0.5912955547,-0.8660426736,10.7653650838,-0.9920382888,-0.4613277668,0.5659599263,-0.4808112392,0.4714064415,0.7814514184,0.7171180133,1.4776432071,0.5121561824,10.3150584186,0.2169734503,0.0878548409,-1.272451906,-2.3008103951,-1.8107888314,0.2712119171,0.2074540246,6.6330240274,5.1732682637,-0.0095442898,0.4385820653,0.1933895457,0.7353847795,4.480071374,0.598516128,-2.5442151739,-0.1512039993,0.638243373,4.2629969569,4.3752599647,0.6234424215,-1.8667025542,-1.8405435085,5.165951535,0.4551669611,-3.2635132758,0.6574845902,0.4119474204,1.604111519,-0.0360422278,0.077245644,1.0361658995,3.2905499992,-5.261631309,0.0287043603,-15.136034685,10.1200320382,-0.1397769577,0.3386338986,3.5516530233,-0.8861143363,-6.6206315516,0.4995249867,-2.3655778462,1.8851389399,-1.2967225183,-3.1427999279,0.0596569496,-1.9809794529,0.5284791387,0.074934796,1.3030662035,0.3084410312,-3.4625804285,8.1667532993,0.3384548149,-1.5111711454,1.4298184437,-0.2632084615,-0.0440399199,0.6588131285,0.6911122792,12.923468177,0.177388961,-0.4494906468,-3.6036482065,6.0890257874,0.2515379235,-1.5795754557,0.6761186118,-0.6932547809,4.2271260592,-0.2932850856,-2.124598362,-0.2400679932,0.3720145472,3.2839448599,0.5128199403,0.8208300251,-0.7407284419,0.3767487754,0.258616232,0.4773126025,0.6657034444,0.0720464439,0.2134646158,0.2138130672,0.2531737853,1.9180431236,0.3037256195,1.4412505269,0.3533574835,0.8280965191,-0.8950299006,-1.0658596886,-0.6947901729,41.2377104035,43.6991850154,-0.0825659702,-0.2654790239,-0.2740500845,11.6329018997,0.339967141,0.8126767787,0.2353184853,0.2753311797,3.5437242002,-0.2484416531,-0.0965023705,-0.1613739918,-0.1102424698,0.7137876295,-0.8059629087,0.1732125161,-0.8159822295,0.0870936925,0.3773536353,0.8284331341,0.5820733115,1.3567376224,-0.709108059,-0.3474962648,-0.4219059228,0.4666500644,-1.2138433178,0.6537193096,-0.0916244019,0.5547358589,4.553304551,0.4134516543,0.035828957,5.7846887727,-0.2112734776,-0.5357886976,-0.1519611561,4.7675424414,-0.2940858298,-26.1877710335,0.4161493729,0.9623124726,-0.4598664975,0.1060823878,1.533142378,1.1499731218,-0.915287388,-0.2976361935,-0.020193647,-1.6198717004,-7.515195719,0.0892361091,-0.6226102042,0.3594819743,0.5033231965,0.7966626114,-0.0208781246,-0.4166246475,0.2071480753,-0.5319738196,0.0391120976,-6.1763603417,0.4228013461,0.4258818562,-0.051024324,9.8442774006,-2.5665112855,0.2772772996,-0.6152840184,-0.8348853005,0.8979395069,1.1196942481,-1.170177016,5.751791292,6.2018429838,-0.0941711571,0.7777393114,-3.6366540479,0.5070844749,0.9329111723,0.7899070904,8.0701197398,1.1483478823,-8.0344127171,0.6895632574,0.6597958444,-0.9600055162,0.3179071761,11.0224342216,7.1705824427,-1.2491933064,-1.5884019417,-0.0631008754,-0.1378833134,4.7732049685,0.4876007412,1.0561167074,-1.1967391311,0.865903778,1.9478635818,-0.1391798641,0.0390856098,-1.7477659904,1.0681917053,1.2849593067,-3.9173488676,0.1373624332,4.1749320592,0.3567604416,-0.067449146,0.5549742507,6.5863880687,1.3224137827,-1.6776056832,1.1630071081,1.505077293,-1.5781180792,2.094191476,1.1032826157,1.8320112604,-3.5702310413,2.7709968636,0.5101892938,-0.0217522702,1.059350441,-1.7084621274,14.2979304545,-0.3609721356,-8.9736578095,-1.2958326531,-10.7997617782,0.0936918415,16.2517825894,0.662697523,0.9875672232,1.6398041221,1.0457881936,-0.945435856,-0.6673620642,-3.3617408271,-1.0665797056,9.5615126939,-0.0672599053,-0.5019480144,0.7694088563,0.9188316152,-8.7619895611,0.6347349933,6.8782716678,-1.9822086502,1.9507869911,-3.3022013283,8.149403156,-0.1915985337,-0.6590387489,-1.5556569057,-2.4730570149,-3.0878449229,0.3986791663,0.3594506651,11.9572351133,-0.1575683888,-1.3285711914,0.031092864,19.2610448727,2.0086588168,-0.1359268357,4.4997021917,1.3870780113,4.2004045795,-4.4719348278,-0.1342221265,-0.1697290563,0.1647985655,3.8078133535,-0.7625788408,0.4608586512,-0.0932014788,1.4759348133,-0.3022569282,8.2789353751,0.2340830503,2.2349012831,0.191115444,-2.0198638283,12.0324662258,-0.1465264307,0.5341539173,1.650664524,-0.1970597393,6.322305732,-0.3892471393,5.9891337092,0.6836640667,0.2491724697,0.156452426,-2.5673996833,-8.1165320127,-0.4358420287,0.9024860453,-0.048499892,0.0010193642,6.4451235118,0.7459233444,1.7928625828,10.2675909223,-3.9409460097,-14.0462874909,-0.5724145423,3.7472511426,0.9868369696,12.0871628051,1.4255600142,-0.1780637766,0.347575736,0.231178098,0.2879497569,-1.1353903988,7.9587111863,-11.1606092431,0.6649653076,-0.6135286613,0.0830323936,4.7472821118,0.5244419401,0.0896840926,0.4169850495,-0.9446415498,0.4472128433,5.3138997844,3.3606482956,1.3887070742,0.2485005163,0.3371045704,0.6388785224,0.0272000816,-0.5367807841,1.429255386,0.1627567502,-0.1629804907,8.9859262184,9.0240425848,0.065377453,-2.3095330377,1.0974105433,2.6367150524,9.9823886749,0.1196477861,-2.0176506487,-0.3761244066,0.5389081788,0.282435429,0.3201438887,0.8668014534,-0.9011295989,6.1132114905,-0.3931422917,0.285432437,0.8557610574,1.3662138975,0.6212150294,0.182454904,0.6839134194,0.3531800703,0.2940968991,-4.6443912618,0.1839458902,0.6046389251,-1.6447042661,-1.5599572114,-1.257287201,-9.3298945421,0.6455255431,0.7506800008,0.7830820169,0.3113314848,0.9821421056,-0.7972615264,0.5710066081,0.135009922,0.8075374969,6.102193155,-0.2427387052,0.0088336969,0.1849777324,0.45746769,0.8141862409,-1.7959253533,0.7224001782,3.7530380015,0.2222907796,-0.5125122673,11.3427354453,0.2585202842,1.0589383694,-0.5877083331,-1.2270637754,-1.7323053941,6.9522940949,-1.7295156996,0.7970743937,1.0490659264,-0.3089788584,1.4781788185,0.8322325734,0.4743945124,0.1624853942,0.5257034837,16.1210672064,0.1350856802,-10.3670579697,-0.6616485478,-0.3338528102,0.2175848713,14.6289995007,1.0225454193,0.4060848777,1.5592353178,0.5884518787,-1.6982157439,-2.7631601763,0.4965671494,-1.4891145539,0.8835046809,0.4977525579,-0.7787659691,0.7246609467,0.3407868421,-8.3931690322,0.2710393134,-9.1348722385,-0.2568786648,3.9072970559,0.3453272312,-1.1495314264,0.3695455684,0.2789455566,-0.5166767102,0.12253477,-2.9239099056,0.0490995086,1.818944068,2.000509859,-0.1945208171,0.3692451276,-0.3942580633,0.4511336497,3.6570010373,-0.333921072,0.4355221792,29.0636250622,0.0348122637,1.0593255896,0.0377909285,5.8068426859,0.0366452696,9.7027571781,0.6256087694,0.2911380697,-0.8021625804,-1.3039023203,-1.1674818033,-0.2625798932,0.137317162,0.4829790658,-0.2539281218,0.4254035245,1.1903230759,0.3461770008,0.1772439738,-0.5587840576,0.2922847378,-0.7748375408,0.1170165645,0.0871697762,0.6560752945,0.5749760079,0.0700728481,-1.170073139,0.4738502197,-6.4893447193,0.5997578473,3.0317011072,0.4746345948,0.0305775475,-0.0872063642,-1.23251381,0.785860737,-0.2479470613,1.6688249535,4.8250874203,-0.4003227831,-0.1358338928,5.2857188983,0.2614844711,-0.0450681106,0.306332164,-0.1274501304,0.3320437546,15.6144085349,9.6416608253,-0.4117077316,-3.120484431,0.2448586285,0.5718498433,-0.5800599027,0.4838977753,-0.3333861612,0.6194894166,0.6222079872,-13.111754525,-1.5426996545,-0.3959319547,-0.4253956642,-2.5840462851,-3.9592225287,-0.670142843,0.5326768173,0.2042712362,0.5303322718,0.1793528994,-16.6255907397,13.3294012301,2.1775828129,0.4350467187,5.5834154937,0.2335700462,-1.5770795144,-5.0328202577,-0.3995325492,0.2014554661,-1.0491292793,0.243519645,-5.2406128712,0.3199960844,0.3162713111,-0.811848514,0.9395607738,0.397955297,1.7898670799,9.7401616558,-0.1058502507,0.8763124561,0.7925937018,0.269686858,-0.2111266011,0.3003175137,11.2171990743,0.7046475317,0.0387079083,-0.7428083113,0.0454638167,0.4810805189,-11.5194630933,-0.5410325214,-0.1542431721,1.322948103,-0.2271820244,15.0864131246,0.2394825001,0.7941019713,1.3398004946,0.3849729157,1.6877138237,-1.6782914808,0.1210892379,-0.0023806925,-0.2293730558,0.7571300261,-0.0751726135,1.0792309654,-16.0125533911,0.1441013496,0.2163399177,0.1860099877,-2.6322820044,1.3511326917,-0.9081100357,20.9045446746,-0.9512250593,-1.0118712304,0.3406193431,0.7273045388,0.7474718475,0.6076436278,3.8014248208,0.8366928543,0.0482105616,-3.2988273808,-0.0901066113,-2.053998174,0.2074160213,0.2140891173,0.4302756748,2.0382407126,1.5825020549,8.294702481,-0.0557790166,0.6899727285,1.451538565,0.0909935152,-1.1783829388,-2.7943468765,0.0704318076,0.7140828571,-13.6652211374,0.3340420169,-0.384419087,0.7778871823,0.4875060618,-2.6782514562,0.1137897967,-6.8391551014,0.2931498097,-3.0523391638,-8.2396420705,-0.9559694215,0.4928801798,-1.0448966423,-1.6937511638,0.0968185102,-2.9576279681,-0.3479687365,0.4278232008,-1.7648675323,1.0170753041,0.7025305329,-0.8742674496,-3.0825462937,-0.3557912291,0.8217553151,0.3985566835,17.0620828136,0.4535757644,0.926636726,0.3784231387,7.2946439927,0.704932408,-0.2253179888,0.4956467015,0.2849363956,-1.4229793243,-1.1174210367,-0.5430815052,0.2837553563,0.5029865204,0.1577835773,0.5714041211,0.071228768,1.0795712983,0.7509940841,0.8958515051,8.6152134839,0.5220959194,2.6540501259,0.5022212319,0.1895646731,-4.9892704962,-0.0178093549,0.6157728666,-4.4101205245,0.2518729868,-12.5917633162,0.2269168371,0.9945789088,0.5465012279,1.2911118391,1.4909733216,-0.5375906445,-1.0190539488,-0.7367568058,-6.2409488625,-0.0113838068,-3.535212826,-6.3140259416,-2.3912790618,-0.1580314419,0.5549735719,3.7965403515,0.294556695,-1.0361776247,0.2222382057,1.4355172423,2.8214853461,-0.2599090921,-0.0280028255,0.0147902737,-0.6973624355,0.452209731,0.8162093068,1.4163210024,0.7363548535,-1.0441776334,-0.5842577097,0.2774133577,-1.3421809975,-15.6731774706,0.3186656672,-0.4256509868,0.7220478248,1.0416419403,-2.0299292743,0.4320894144,6.3251697317,4.2900725052,1.3296571849,6.9653266341,-1.9113228835,-3.8815108459,-0.1547261101,-2.1947793992,0.4250280143,-2.7556687751,-0.0333686875,-0.0177444831,-0.1778482178,0.6972513736,0.1793412211,-1.0705029119,1.3498586369,-0.9233111233,0.0799300832,0.0575330681,0.1981895596,3.4009072926,0.6779550834,0.1879109924,-0.142166141,0.1716951037,-3.0824469923,-0.0904788923,-0.0743476723,-1.2925071871,-0.6938619648,-0.618032146,7.5471042092,4.6645357063,-13.4812810962,5.1915989268,-0.1362279304,0.7445741137,0.3089433845,0.6595872075,15.8736971129,0.0077927671,-0.6530243034,-0.2563811648,0.5470129978,0.0106024842,-0.0489729837,0.4408801831,0.1456508482,0.6774171921,-0.204091821,0.184377834,-0.2162021125,0.1940528682,0.6686035825,0.2153157836,-0.6594244771,0.357035955,-0.8943979958,1.421993356,-3.2730700739,4.0197528874,1.9323078769,2.063071104,0.2669950327,0.3150410609,0.2174915059,-0.5429743464,0.0166058294,0.5102205419,0.3779022384,-0.803602587,-0.7030291324,-23.0983843867,0.0989482619,-0.6067245561,0.8689451087,-0.0505023476,1.3923795779,0.3690707751,-2.4400026745,0.2417717239,0.1558679534,-2.0658971639,-13.9503018198,0.203952095,-0.9537900625,0.8200401406,0.3217494287,2.3121709082,0.4012684928,1.2245443284,-8.1545578616,-3.2492161427,3.4644744662,-2.4740977344,0.4800452905,-1.0754082875,5.217530825,12.9533902762,-2.7521941906,0.6985321639,0.0347656476,-0.2212213758,2.0671789723,2.4465233748,-1.0451112362,-10.226116069,1.3163558337,0.4450078759,0.8432905506,-9.7064824724,17.5135400564,0.6716291173,-0.0500350751,0.717010804,0.4495469457,-3.0721440982,0.1966150843,0.4429077484,-1.071737171,-1.494972589,0.0623588889,18.4634248974,0.4822565794,-1.0103386152,0.2080851148,-0.1840190945,1.1718808581,1.0219057866,0.9308947335,-0.3339190839,4.9484327286,-4.0903422243,0.1850442283,0.6333797866,-0.2478109398,3.4042420499,0.7732695307,4.9356479816,0.1135359109,-1.1925695244,0.609900511,-2.5645630166,0.4107915789,0.7793029314,1.2024705,-0.4205366972,-1.0748011646,8.0723584917,2.6492820807,5.9084462763,-0.8768627313,7.175782834,1.3767433156,0.5387224386,0.1523620174,-0.1419248404,-0.5173320559,-0.7071773563,0.6530679729,-0.1687752097,2.861725775,-0.2751377694,7.3275221382,0.8391901324,3.8556004253,0.3213134143,0.7196022079,1.1341408215,0.6536091672,-1.9007267969,20.2319203923,0.1618987173,-0.6130158907,0.8694587344,-0.0408694709,-0.3963263849,0.5767298416,0.5052340316,-2.0696709026,0.6919497903,4.5475735427,-1.2573374776,10.9518899711,-2.0209356425,-10.4423338176,-3.9817232463,-1.861894472,-2.2961134365,-0.0928535773,-2.7880613213,0.1902796583,1.1493692022,-0.6091503306,-0.0586260972,0.5824577237,-1.0259653173,1.2316852547,-0.3726597501,0.1731757709,0.4999440398,-3.8508695998,0.2227196606,0.2585486367,0.369597856,-0.112987991,-0.1193226729,-11.225026984,0.0449555955,0.397849797,-1.1506392684,-1.0860911514,-0.5818494344,-0.1653631633,21.7440867172,0.5584705713,-0.1426829444,0.2784013804,1.0422537333,-0.0126432476,0.1451070595,0.0752993588,0.4022283002,19.9327337444,-0.054933751,0.2034571098,-0.2693731816,-0.065719178,0.4378496586,0.7162157267,0.0808341419,-8.1801752903,0.6916250013,-0.9239829345,0.4861452854,0.5379834674,0.9415988645,-0.7961642819,6.998926379,-0.5443324319,-7.6935054494,1.9515945135,0.530091113,5.6102569073,-0.723445526,0.0509257398,0.1307422496,0.0672467965,-0.2892042725,-0.5339935537,8.4434517319,0.0691541948,-17.5002172321,-1.0088736358,-0.8673228112,0.1496252092,-10.1341489128,0.431613746,0.0085780761,1.2450809484,0.5901843506,-0.0366141289,7.8559099888,0.2801707255,-2.1479242566,-2.4879617485,0.4151564024,-0.6802415732,0.6889846907,0.8136270081,5.5173443432,-0.155485981,4.8330603498,9.6671913009,-1.6474745743,14.7126956894,-3.4629213095,0.4260996827,-5.4456778745,0.7991177135,-7.092161503,-2.3055379122,0.1037405159,13.3602487985,-0.0502204398,0.1759019531,0.5690988435,-0.4583200497,-6.752495409,3.6979811322,0.4164852866,0.1867621911,-19.4318519058,0.0284291091,0.1743607117,0.4743584316,-0.0399678433,0.2815430804,2.2819736524,-0.1418771067,0.1171050583,-0.4593311332,-0.9287639508,-1.1037919115,0.4682965959,0.4962214794,-0.093823834,-0.0996893771,0.6042860541,-0.2751987805,0.5416586181,0.6799048237,0.0120296506,0.51418111,-1.1995167983,-0.1937482265,-0.0403484723,0.0069456016,2.9570076743,-0.0689619279,-1.1803048733,0.3788246377,-0.3841231999,0.5682696319,-3.5158711882,-0.0946254906,0.4131004291,0.6465260781,-0.4913981532,0.3187675472,2.2544535884,-3.2477558016,-11.289765257,4.8709419696,2.8136167438,-5.0805903414,0.3726757033,0.212817641,0.0421807317,0.1527084364,-0.1827948739,5.4145919396,-2.9424964095,-3.4039940183,2.0860488966,0.1878565072,2.5929778987,-0.904734221,0.697026497,0.042786893,0.902931426,0.4924072755,-2.1201492969,0.0999317796,-0.0174016413,-0.6280372131,3.6588247085,0.6433923441,-2.5463592452,0.6254652969,0.3718283196,-0.3259721023,0.0507953428,-0.68100882,13.5535035828,2.0612304832,0.2658956257,-1.4622347337,0.1398845644,0.063844199,2.4004180998,0.3302979529,-1.3653867029,-0.498954408,0.8250111188,-0.1693009043,0.7352099028,1.0815298425,-1.6024086563,10.9618780059,-3.7422392659,0.1492645484,1.2432757308,9.4202463979,0.1969185074,0.3894879895,0.6676380117,-0.7301030756,0.6109717978,-14.7390891823,0.7781183915,0.8129733289,-1.4858313242,-1.510236436,-1.2266709222,11.0994181233,28.2260423576,0.3251138578,0.2671212662,0.537241065,0.5486328473,0.5460906452,0.9098328687,-1.5005717433,0.5442540938,-0.2055004959,-0.2621981086,0.0848164512,0.340340699,-0.054746305,0.7452956784,8.88930576,0.6431119468,4.044378594,0.3524155372,0.0839193075,0.9806176621,0.4497876396,1.2616103922,-0.0824200776,0.397625468,-1.0029195974,-3.5559193622,-3.8915329066,0.4635379267,6.777115845,-0.0534900232,9.0392881896,0.4599662884,0.2488296805,-0.1020787631,-0.1508560103,-2.7972537798,0.5403863528,-2.2186808903,-0.2618390204,-0.2735669904,0.373151548,-7.5241471523,1.0908396274,0.6841426276,1.4409226739,0.9336284391,-1.1281763363,-9.5837714129,0.5595670942,-1.2013855749,-5.6643379715,0.1346346713,-0.0997670453,0.4683326218,0.6556305173,-1.4940074443,0.6767835104,5.942607213,0.4720889582,8.0256866991,-1.4051050424,-12.2582539136,0.0471083946,0.5696968667,-4.3440348781,-2.5046668646,-3.083721192,-0.0613844461,1.0920089762,1.3581743487,0.7039744921,1.6205944819,-1.3927708976,13.5037769844,-0.8199255057,0.0694431478,1.2800199324,-1.0885497869,1.3889030506,1.066067288,0.8350073524,17.3282543014,1.2140496836,-0.7401722336,-0.0943931709,0.8818588378,-1.0555345614,-0.5021768241,-0.2759662057,1.670583891,0.7821415253,-0.0772455726,2.0809733073,0.4217697583,1.7239813854,0.9254861922,1.4603672573,1.8667899666,1.4222138557,-1.3792161973,-0.0262327326,0.217411648,-2.6565073735,-5.0759682585,1.0147887253,-3.7153017279,0.7295599529,0.9155884842,0.4786382346,0.5970728606,1.5146383663,1.4111255131,1.7622865786,-1.943894969,-0.2138759377,-0.8667990234,-0.3269137449,9.198712399,-0.0184649833,-23.064589491,1.2906381695,-2.3357305478,1.3991433085,-14.0447754097,0.014275667,-0.0170373791,0.7543848602,-0.8784541174,17.5460198758,-0.9249509372,-2.9490022238,0.5302144,0.3405328138,1.1730617478,0.3279870924,2.0461856083,0.9228399329,-3.3904639309,-0.9988024158,0.2392537161,-1.1136026433,-24.2582864392,0.2795270545,-0.9253472865,1.4157984026,1.1112799794,0.5006340063,0.0404989918,7.4312165841,4.4120116586,0.9483288845,3.2536178138,13.3770341183,-0.0097734817,2.3236234349,-0.215093583,0.8677872725,-2.404383889,-0.953282345,0.0533564578,0.1834986549,0.3061651581,0.543938924,-0.0848143673,0.4472736241,-7.4012953464,3.7383981841,-0.1772696629,-10.0124915908,0.2616326744,-0.0476705186,0.2294994603,-1.3377906122,0.3407274444,0.0351121213,0.0109558489,0.6032579079,0.1566862001,-2.2195790997,0.6038797147,1.0590393803,0.3543074015,-2.8044501575,0.5296415195,0.1043829101,-0.1236964695,0.2775646831,0.0589053424,5.5524657821,0.1869148804,-0.0035418786,-1.2701768536,11.814527439,0.4552272265,1.0552471481,0.4997379523,5.9163375546,1.4974754293,-2.6455193055,-1.038028287,2.490626229,0.1401835109,5.7501567532,1.2872499451,8.9060803272,-0.6164984786,-3.1244179082,-4.679219961,-3.9706029314,2.376491049,0.3531912809,2.8257290905,1.0906959853,0.5220134345,0.2396601028,-9.9874206226,6.7097334148,0.603519743,0.0148308223,-1.8348335418,7.6249804642,-1.7624187474,0.8879841621,3.2015655136,0.7852380213,0.535529007,0.6404998687,-0.5045056136,-0.1264137977,2.2550641763,-4.0252621828,1.085726023,-0.5059108245,1.2384987519,0.4168969335,0.1771470895,2.3409551044,0.1385378197,0.404131951,-3.6089458912,1.9724996391,11.994729827,9.7274032897,-1.5525110691,0.1935334326,8.494867134,0.1290917628,1.4231047806,-1.0633426571,-7.6205361018,-1.2660699409,-0.9453460892,0.3999266332,4.5528403933,-1.2259683484,7.7866281818,-0.7283971049,0.0801163736,0.0985298039,-7.4986000754,-0.3640986626,0.6675879481,0.2292069182,-8.4061651794,0.6515134822,6.1354498787,0.6566655131,0.1706202415,-0.593692363,8.0116826892,-6.4250735091,-3.8772512962,-5.185722473,-1.1663014187,6.0129760876,0.0267916316,0.6049636212,0.358953088,0.2645983653,-5.4933582538,0.5743577049,-7.9065347909,-1.0376448804,0.1070532106,0.2184094743,1.7089337311,0.5202974274,-4.97510665,0.0622985162,-6.2501804808,-3.1565160166,0.0997082851,0.6306754477,0.6819238208,0.9366249751,-0.0598513644,11.5115233573,-1.6998388375,10.19618002,1.9638451002,2.8914670275,3.21966019,3.5527425475,0.10528398,0.346894827,1.9991491974,8.4189005557,-1.1215467587,13.3807871954,-3.8526792834,-1.1040337576,2.2180299272,12.4803355935,0.4659648012,-11.6496706074,0.2753833056,0.3556027458,0.9535258969,0.7116657937,2.0411862344,0.5101386601,-0.6954740759,-1.4539492978,2.4582632312,0.1544322942,-8.0826841161,0.2423190993,0.1469365351,-5.8630266801,0.1255907784,-0.4225136201,10.007346682,-5.8684284973,8.5093797347,-5.4127852148,-0.5258970791,-0.6241130489,4.5378241992,5.9879910103,-1.2762917393,0.4641511338,-4.7134483887,-0.3365452963,0.2358716884,1.5011589006,-0.1242480846,0.4783515117,0.5479597442,-0.097823912,0.9571645879,-0.4148669764,17.0074367925,-1.8797080638,0.9666679911,-0.3475879921,1.3226880654,1.242816956,1.6773330045,1.5281797766,-0.5605351815,0.4200325979,-0.026179846,7.365465491,-4.4679919808,-0.0174592155,2.1183329475,0.3523369962,1.2283929987,17.6340624909,7.2301354116,-0.5619918182,1.0602400837,0.0299566192,0.1833841425,2.8254819446,-0.0255266781,0.0922497561,1.2518659656,-0.8325487732,-4.4093628085,0.0389198713,-0.7170788313,27.4199773032,1.1068837102,-3.816805627,1.1418276105
   -5.388450669,-0.6189991947,0.1192248382,1.5759044174,-0.2904992143,4.0877553997,0.5827901665,0.2697784429,0.0287427663,-0.7939622587,0.0769927517,0.393385957,0.0458982334,0.951378125,0.2957465521,0.1973336014,0.2476503755,0.0551522416,0.5059450071,-0.6657076965,0.9646386717,6.450879417,1.2121934692,14.7275717112,-0.0101477566,0.1905395347,0.4599400758,0.3001855586,-0.4383001548,0.0998828472,3.400273455,0.7298208463,10.496840858,-0.3215869087,1.5713421742,-2.452349028,11.3806439634,2.5675520763,-6.0269198288,0.1389077075,0.1691276696,0.2165297491,-12.3024234264,0.3863176287,-0.5445406768,0.2254273923,5.3697020365,-0.3377350393,0.2592150119,0.9320300008,-1.5014615203,19.0707699143,6.6006314357,-0.0497150713,0.7212605559,5.7971748661,0.2056257623,0.3224312945,0.4650324362,0.4807676283,0.4533250034,19.0591032434,1.3787483319,0.1903402424,-0.8787593743,-1.3312185538,-0.1820353311,-0.173735383,0.9029908793,0.5281305854,0.8009546226,-0.1788518368,1.1326275713,0.5089974339,0.8361549679,-1.6324028591,0.6853366801,-8.3997354151,-0.2414668568,0.225053207,-1.1970805291,24.486403543,0.5034482806,-1.6493692976,0.3636106966,-7.1644084521,0.1074407799,-2.6254731507,0.3725088962,0.9194282192,1.7562314671,-0.0782528062,0.0859069167,-1.5208265537,-0.4615912269,-1.3207637225,0.8158080663,-9.33338978,3.3048196826,0.0842448491,0.3837649241,-0.309051194,-0.5469033807,-1.9332820127,-0.73269131,-3.5466327879,7.7522799989,-0.8116897014,-0.3400284444,0.3313484964,6.8458524618,1.1596127678,0.2938545144,1.5340635173,0.7539258628,-3.5064165805,-6.5217307769,0.2169974502,-1.2382129155,1.4056169566,0.625714913,-0.3217009339,0.3491414753,0.4711759587,-1.6171003273,0.4123626225,-0.5464535081,8.8089913157,-2.4511428506,0.7767829704,-0.9328760901,0.2413412215,2.8329067347,19.2793868828,11.8060099664,-2.91154255,0.80185092,0.286335533,4.2702503861,0.1726837988,0.5757612496,-0.8310506253,-37.8412239412,2.3435615608,-0.5157465958,0.8110757429,-3.3269636393,0.0570460699,0.5667304286,-0.0608017857,-0.5765450542,0.2011195957,38.7067105767,0.0707453954,0.2701635116,-0.9740768552,-2.4576519539,3.198203284,-1.0195790556,0.8771995876,0.4610084162,0.5455587038,-0.0834119248,0.7929831505,0.4006790979,0.9262376095,-0.4344445429,0.652586513,10.5994117468,-3.2280281656,-0.1141100656,1.0118020968,0.3592880022,0.4907562288,1.2057731993,0.0164111909,-0.7879134583,0.0510074369,-0.1213559781,0.8274601694,0.5425866162,1.4078359008,-0.6596847786,1.5060430074,-1.6050388306,-6.8684655671,-1.1903036181,1.7389067797,2.4540803742,5.96565544,-2.2948307241,0.764043768,5.3598843786,-0.2350175007,-0.2474797441,0.3938502626,-1.0624159169,-5.6582692921,-0.407948823,-1.1978821097,0.0669736602,-0.3821981486,-0.1575025988,-0.0490587079,0.6279506845,0.2820414122,-0.7368869995,0.9032641647,0.2466116648,-0.9979730919,-32.1371011974,0.1510903669,-0.6644544344,0.788250118,1.6595090055,-4.771176352,0.2304826388,20.5295350222,8.8018929455,5.1079714824,1.4519540703,-1.3779958207,-0.7983953248,-0.6056236969,-8.5238852784,0.1516853321,-1.3567922854,0.3529645314,0.5018198538,2.2462960966,0.708983569,-0.9745955141,-1.1347075673,21.096608511,0.0611410183,0.5250410597,0.331895222,0.4150954654,1.1202801496,0.7106709729,0.5140118366,-2.2742112308,0.9266898718,-17.0985454118,0.7255101313,0.6483029528,-1.1655378151,-1.1489824576,-1.5878117339,0.9375749086,23.6396663146,0.0606998984,2.9170978968,0.2469120067,1.1411964699,0.1225165061,0.4225107436,0.3961520109,0.5622411055,6.1401897542,-0.8434325799,0.705568117,0.0626729344,0.2969844456,0.5841014964,-0.5821084154,0.8689850321,-7.5417315976,0.5665537594,0.1637254911,0.7430636239,0.6551833331,1.299757361,-0.4414418403,0.4623956483,-0.9087088196,21.3635977926,3.4075222554,0.8303776968,3.3039592918,-0.2800037187,-3.9514644885,0.7127605384,0.5164265852,-3.9988358863,-3.4306665413,3.7201885621,0.3144425703,3.3034350194,-0.4107607829,4.9909657117,0.7842984381,5.9549762269,0.5781155064,0.3790375882,1.3907789641,0.6331795762,-2.5630713153,-4.5260275042,0.3422317911,-2.2403366298,-35.4772619219,0.4795342353,0.4970684529,0.6925709873,0.5033777745,6.7437981563,0.3163206788,-14.5670258427,-0.2287576296,0.3240059415,1.7410344522,-0.3456516464,0.0942843534,0.2947978509,-10.0007833865,-0.9204560356,-0.6091889991,0.3420558835,-0.0301343352,0.2268357337,0.0992250283,0.24570819,-0.5070361781,-1.56032846,-0.1638224955,-1.4301157984,0.2377177236,1.3122524956,-0.1185581847,0.2433871969,-0.0889657646,0.1545668329,0.2849237605,-6.5078854005,-0.2641719037,0.1309434817,-0.5836155926,-1.0687924907,0.0884503299,0.1955643505,13.4692633952,-5.9715364941,14.074972862,0.1411400061,0.8895139946,-0.0272155683,0.4247106247,0.0570195936,-0.0247398634,-3.3196042461,1.4508466998,0.0017432369,0.5084873674,0.2160279658,0.1269927228,-1.011795455,0.3318473184,-5.0908599973,-0.1049790201,0.0297298995,0.0873924097,0.8137293004,0.8906947365,-0.6135346567,0.764082348,5.5915911681,1.8846513075,-1.5954756177,0.7714996583,-2.157399449,-0.0667628008,0.5729848504,0.284523123,0.9620310695,-0.1064550852,0.0886847408,-0.3191063867,0.0423648608,-6.6612418562,4.9433456109,-0.1660481948,-0.2225646261,-0.909836327,-0.2793574311,0.1558529006,0.4799984211,0.6128125617,-0.734237296,-0.3625133797,-0.0560506488,-0.7405127003,5.1669142944,0.1288899146,-6.1682472775,0.336642185,0.4777281428,0.4082535522,-0.2016230604,-7.1055177164,-0.2357854912,-2.6351100958,0.2427420789,-1.5637157133,1.4467703146,8.5244233067,0.2997173506,-5.4588240231,-2.0193650091,-0.2623859114,-2.5668349907,-0.6140994697,0.2037317177,0.2478571901,-0.6530020371,7.1111378863,3.111996339,0.3085249567,0.2266997555,-2.1138244265,0.4951309536,0.6259784465,0.0070924895,-2.2692543607,0.0731927762,-2.634294653,0.3731295298,0.3551420873,-1.4334239438,-2.9702324248,-1.4431612641,0.1036552151,0.0472784325,0.6977763993,0.6156617217,0.2553309699,0.6007005384,0.1280609057,0.666831966,-0.2533982431,0.8085679329,-1.8463294951,2.0868164678,-0.0662116416,-0.1615382902,0.9897232128,0.5582211274,-0.8886906789,0.5703787163,6.9895437461,0.0715128627,3.0557898606,-0.111318752,0.6765441916,0.8431887652,-0.2437085784,-1.118347459,-2.8650080938,3.0392678087,-1.3534802935,0.8633276501,22.0978110481,-0.8088639873,0.6420371975,0.3392545796,21.1261901376,-0.3085733203,-0.6399305045,-3.1959158922,2.5314808072,-1.7621679925,-1.4437389243,-1.3105473336,3.5933991117,-1.1999659095,0.5889169684,-0.0741961434,1.1783067301,0.5795220839,-1.9143563067,-0.1542985976,0.6156469721,-1.4210507074,-20.1402000301,0.3923663906,-0.3239546061,0.6146984037,0.3781176681,7.2056737856,-0.0395726182,-2.078931825,-0.4007602188,-8.0755345501,1.0184440757,-8.736281102,15.528203053,0.3600069708,8.2997330506,0.3067973239,-3.4032179174,0.1796653059,0.3836929235,-0.4596851927,0.4776022991,-1.0458558879,-0.905067278,9.5037253503,9.89207099,0.4167044428,0.9537153931,-0.4887316306,-0.4020872736,0.6531320834,0.6215067405,0.5740748285,0.9442935,3.6855809057,0.8694409462,0.2391868099,-0.8869899123,-1.5218798414,-3.6621605365,5.7661385026,0.7983654237,-0.6799258191,1.9722110983,0.0452548112,2.6115982821,0.7274920359,0.8185631817,4.385737748,0.5625153017,-11.4870163408,0.3094595833,0.3291529358,-0.6190987285,-0.973385387,0.7166895071,4.2661212291,0.3026255127,-4.6362401906,0.1857090241,-0.4219546423,0.8946826686,2.2486891935,1.8120705562,-0.4007247534,23.9149900619,1.9173321726,-6.427474211,-0.6887340412,0.8778327453,1.7872473073,-3.3117903876,-1.6422408496,0.3089229267,-0.4977489321,-2.918752863,-0.5701799093,-3.7345464969,0.0273582208,-11.6560810113,-0.4390016155,-1.0239966943,0.7623972049,-0.4746768897,0.5986612699,0.369324282,1.3698394901,0.5595187727,-1.4242655748,2.1748124321,-4.3183975249,-16.9282256862,2.5743977314,0.1740423992,-1.0902491364,0.8269791869,1.0234757141,-2.1072674772,0.2282445836,-1.4310926932,0.588388992,-1.5300135854,5.6901090177,-0.0611549255,0.0803818215,-0.1151900501,-0.8336005336,-3.9165735862,-3.3388345807,0.233230499,0.1018971124,-0.6963752716,0.7697812221,0.6015504277,-1.3071101188,0.4672299431,10.6053577955,0.5728630256,0.3196781477,-0.4431635068,0.1555275317,0.3077225102,0.1709237392,0.9887806116,0.0803061043,-9.7045994799,0.6405770134,0.7349952296,-0.8248440679,-1.5621578595,-1.6137643089,0.5379230322,5.9918253392,11.7831651145,3.0284701806,0.5932657024,0.7411091663,0.2954201873,0.1885328227,0.2097776724,0.5063465876,-5.4498241231,4.2269842272,0.418615281,14.4566592454,-0.3236617004,0.2191053072,2.3063415857,0.681231102,-1.8027299955,0.3866401344,-0.5579843041,0.3119882766,0.3961872519,1.696189669,-0.7600752912,-7.1069791336,-1.6579302603,-0.7752996431,-1.6639289778,0.5540235995,-0.4747627828,-0.3636358239,0.4238540726,0.6647471974,-5.8209348132,-0.444832194,-2.4216549295,16.8219565133,-0.8095632419,2.8229741313,-0.4948671088,-0.0298680268,0.5261868045,-2.6798748146,0.5923843266,0.3820800748,1.3090320236,0.4316556949,-1.9829029591,-0.3371397248,-0.0683159561,-1.7658953273,0.6263981946,0.4788318657,-0.3324725384,0.6594220941,0.9124936778,-0.776058116,0.1031601095,-0.8225868088,1.7884871557,0.0554463645,0.044273893,-9.4445472788,6.7586841092,10.4065735175,0.352258532,-9.6093487821,-2.8868636596,0.0709639586,1.0855374581,-0.754387168,0.2277591159,0.9221445093,-2.4781618897,-0.0275501315,4.7054611085,0.6353191101,0.5911479101,9.4722057532,0.6514759697,0.8756370855,0.4117580205,0.0172470924,0.6775062818,-25.5497307851,0.7044802482,0.3663158787,-2.0246552554,-0.5289534571,-1.0386688497,0.5826924567,0.3850209052,0.5500813728,0.8413794221,0.094205391,1.2572000188,0.544627236,1.0946897624,-0.1012489459,0.6273388872,0.6349099299,-0.0238026173,0.3190295844,-0.0448666181,-0.0268117604,1.0330216104,-6.2330755972,0.3187942493,-0.8450652713,0.7898959857,-0.2040626506,0.748133226,0.968949837,0.7380440975,-1.1607027739,0.5251569615,-0.6073267673,-1.3568521458,-0.5130493574,1.6937351941,3.4324761827,-4.8749185586,0.6318049736,0.5993094474,0.2383069681,0.0049580968,-0.7057460937,0.841238538,-0.5372784153,0.4547837842,-0.8599194265,-0.4128739411,0.2314990625,12.1395570646,0.9545734623,0.5498415015,1.6745324677,1.1716248157,-10.2116049596,19.1550051144,0.2406670163,-2.2113814224,-18.8826359475,0.5766614229,-1.2004469882,1.0468082135,0.5845926583,-0.8485972999,0.569188467,6.9905116981,-0.6107738578,20.817548343,-0.0005940617,-2.5902239113,0.2468570461,0.2828659323,-5.1450764546,0.4160994178,-2.5180192402,2.0665329507,0.5535568362,-3.1025348042,1.046335288,0.2448813571,-1.2996716016,-0.6928927787,2.9453389822,0.2437088875,0.5181125401,-4.6132083212,0.1924814295,0.6900148638,1.0994616253,4.6478796002,1.3843920818,-0.3553944487,0.4027558221,1.0075028339,-2.1307130115,-5.0067068812,-0.5128883659,0.2522835846,1.0835581112,0.2943095421,0.812713883,0.2288208803,1.487757778,0.5896466378,1.1724552692,2.7398261521,1.2251535557,-0.6453782582,3.0733828049,0.5452948608,5.4720119495,-1.4560856796,1.1596980993,-2.9970537936,0.1566560503,2.6442230839,0.2815574372,0.0464800851,0.7978391621,1.3540147734,2.2043193111,-10.0912707395,0.6747548979,-2.595822447,-0.4573757206,8.0273831084,0.6806086649,-0.4804403409,-3.6289983935,-0.7772426387,0.97970358,3.9737315336,-0.4050643553,-0.7710886772,-0.2607253252,0.5266276362,8.1299544887,-4.849985953,-5.0552783711,-1.5023855464,-3.0718759113,1.2255356578,0.8713785333,1.7076077433,0.6920913221,4.8187359759,0.3225933758,-0.0473923679,-1.3150132019,-1.2134871868,0.3044694584,0.1953889741,1.1829739241,0.5509576103,1.8633024408,0.6808604849,-4.4843174813,-2.2301370144,0.908649095,3.9945132121,3.0282047343,-2.8641624644,0.2326186919,5.1182555167,-0.2034667035,-2.92703662,-0.2001258254,0.1963422659,-0.5436842633,0.1345399878,0.4567451321,-1.1596202632,0.5720895579,0.1199681069,0.417078269,4.4224091894,-3.5048481918,0.1178346662,0.670144844,0.6471896527,-0.0991784483,0.8651703937,-3.8828076571,0.3455725182,0.1950667593,-1.5785123478,-1.6107364776,-4.5528011829,0.6777860547,0.8555178234,0.4257062985,0.9242998647,0.359840743,0.8006837008,0.729697128,0.9760086372,3.0346906801,0.9022139486,0.2703272412,-0.3178793105,0.4735295588,-3.9955816372,0.2152462176,0.8391758866,-10.5487854606,0.794693713,-3.4376500994,0.2226323589,-0.5375262858,0.4235358237,0.884177618,0.5928476001,-0.3447788635,0.5458050973,-1.1476546479,8.5945801838,4.1536470487,1.3184041112,-12.1088844498,0.3663264667,5.1905378043,0.4004886829,-7.2570983846,0.294809492,-0.6546733335,0.7193508194,0.7988199909,-2.2462765109,-0.7456209964,-0.3118131195,0.7560695458,-1.5273438572,0.7555446537,0.2189825214,1.3433151824,7.8953581751,2.5005980281,8.4952672408,0.2592050709,-1.3047758445,1.549026245,0.8227705074,-0.6747247911,0.8101901276,0.6916996004,1.8147148808,0.6372404785,7.9664351769,-3.4034527725,6.7871725344,-0.4952589069,8.8983921337,5.8739059076,-0.1424317019,0.8262274177,0.7292393916,-3.6931327095,0.1099502759,0.8490214239,-0.4578364233,0.8646841299,0.6960122295,-1.5132888406,9.6091292976,1.0732304962,0.3213532821,0.717476763,0.9996370362,1.9224072231,1.2148440951,0.3377516424,0.2014139502,0.4992057572,0.2422588558,0.4154026865,0.9739941656,-1.5510585336,-0.4782737015,-0.6983282568,0.1956554192,0.7658108886,0.6342975546,0.9707894451,0.3140324839,1.1201600228,0.8091623112,0.8702154788,0.0747647864,1.2136371644,-3.601583815,-0.038938005,0.5201291007,7.2965058374,-0.437270074,0.6368519362,-0.7378307289,0.4054213049,1.5672743911,0.595843647,0.5043743143,1.2051758784,1.2564099794,1.4322124849,-1.5389551939,-0.011072063,-0.3000906424,-2.2191453021,4.3210573107,0.7006650504,-9.4010129963,-0.3819767612,0.6366564818,0.6449622397,-0.0406688665,0.5937359853,0.3121461846,0.185885703,0.1463041758,4.1514516707,-0.1210466236,0.0127444914,0.2331469489,-1.6221672805,0.1520365203,0.4424797882,1.8280322477,1.0015138406,-1.0009851612,-0.2391280952,0.9030404246,-1.2307191586,0.666497703,0.7567687077,-0.7298792614,1.156793434,1.2551679334,1.4775296149,0.9032597891,3.2755425867,0.3222432977,0.3059899137,1.3030365175,-10.752631952,0.6113791675,0.3772101906,-2.9071039169,0.3255413565,-3.4734517355,-0.1373893907,0.9726268914,0.2101443674,0.7425857329,0.8416226682,-1.6402548917,14.0083624778,-0.2963376203,0.2357313061,0.992447725,-1.2390801584,0.9021910483,0.3713492262,0.4499344954,-0.2397530463,1.0122891832,2.4576076661,0.5445416001,0.6490833647,-0.881755895,-0.5762561493,-1.1273958072,5.294300997,0.7831197794,-0.229345076,0.4381507539,0.4562948079,1.2672075162,0.2555680703,0.8295743278,3.13359261,0.9028832105,2.9866521483,0.1945814578,0.3856039972,-0.5553963323,-0.1942583951,1.1048690265,7.9705293372,0.0184195337,-2.6499940922,0.1237245636,0.3506637273,0.8554459034,0.3686993808,1.6003249235,-0.9259099182,-0.2663951029,-1.0602226105,-7.6948785868,1.7375660065,1.2019490502,-14.028817979,17.7758235737,-2.660594847,0.6175955091,-0.6522072185,-0.2513389156,0.0498049651,0.2740781899,-3.4568509182,-8.4486034626,-0.4843589846,-1.4704737738,-0.0141778893,10.1985507466,0.1222955093,0.267636648,1.6939042028,2.3746010813,-15.2713950295,0.2075574191,0.073155716,-0.8212934108,-2.256736032,0.2442473053,-0.3630087783,0.6467476804,0.6218978764,7.1232154372,0.2656175125,5.5470974322,-0.1088321931,10.9780516613,4.432681814,-0.7515060581,-0.0400119855,2.7123558285,-0.1192580225,0.6583158666,-2.6342975614,0.3158782639,1.1161824369,-0.9585523911,0.7607595248,0.8869408355,-1.6411887362,-0.8659041246,-1.5979885944,6.4069103012,0.6362438346,-3.3643073815,0.8934894842,0.6913141728,0.8424932466,-0.2407813857,1.2384478413,-0.1639722176,1.2825971965,1.3569280261,-1.7157328028,-5.6871019819,2.1589895175,-2.0746357785,0.7920612639,-0.3673253243,1.0943435163,-0.097806891,7.2466994074,0.4635533571,1.3620189078,3.2644369512,0.898402069,-1.7558251845,0.0647393111,0.0253706354,-6.4738474105,-1.5091916932,0.9109353837,5.408602727,0.6156453651,6.3217262277,0.6847076007,2.2454701992,2.6588464936,0.9920729913,1.8509047576,-0.2567073422,0.6048017007,-9.8044351289,-1.0664506443,3.2342654055,0.5139991653,-7.6464868567,-4.0654217919,5.8632333827,1.0802143876,-0.8819394365,-0.2602039296,-11.9428431066,-0.0257654396,-1.5282509457,7.7301835761,0.0035450913,-2.2434046165,6.011328161,-0.1891662376,1.6683189388,0.8189700228,1.7172554308,1.3301176787,1.9624687864,-1.8703028223,2.6748132146,-1.39633485,4.7580511577,0.3210380394,-0.737329807,0.9145868408,0.7618516253,-2.7670847571,0.7166334841,-1.2576804079,-2.791545609,0.1392685224,-1.4342313607,-4.1765265212,-0.762067245,0.6809006051,-2.2323494263,0.2937564198,-2.649752588,0.2646221884,0.3217427889,-0.1663616666,0.335676473,1.0372979588,-1.7570621885,-1.3964925874,13.6939890349,0.5033844788,0.669158264,0.2257344721,0.6151329312,0.60977776,0.5946400912,0.6015927893,0.4128228995,-14.9068027362,0.6128006416,0.3684431476,-0.7701956284,-0.6667689298,-0.47115159,0.1037914015,0.4212802904,0.3368798931,0.6872606775,0.4182197048,0.189247239,0.9001722385,0.7488976856,0.5937309649,0.6295381225,-0.6962957719,-0.1015183411,0.2471405649,-0.4255948163,-0.7094278938,0.6355378485,-0.7050958694,0.0928664887,-1.7508218663,0.1459910046,0.5261246209,0.3855687609,0.5958933415,1.4316815775,-2.0785198968,-0.535042763,-0.7968790968,0.9995873834,-0.6876613436,0.4400193792,-0.1041703269,-1.0820162038,0.6670501664,0.8127079071,0.1585275546,0.638642226,0.416562715,9.8145782196,-0.6105889874,-1.0509038238,-0.8769266936,0.590243017,0.7991551577,-0.5654750949,1.2962875104,0.7701147047,2.2033086094,0.5215254529,-2.920722625,7.9453055284,0.3688000846,-2.9668461495,-53.9363157965,0.601854179,-2.150182611,0.9564816765,0.4798272439,-0.6703855445,0.7533259883,-21.8530197825,0.493152781,4.8411871656,0.4138833654,-0.6890239671,0.6079233287,-0.2503353902,0.0907118276,0.2690144415,-1.5055423651,-5.5725134038,0.499419356,-2.0175491688,5.0572225042,0.3307431068,-1.2639599258,-2.2646237122,-0.5710288919,0.8226567796,0.5200923627,9.3407349447,-0.0059954533,0.326061559,-0.026771126,-2.4500760702,0.1731747939,4.4211945999,0.1133597825,0.5511458196,-1.116957113,-1.8166980322,1.8222710424,-0.2779834998,0.5086089263,1.2000393939,0.7917184646,0.1398680177,0.8114536226,0.395624619,0.8224889138,-3.6670820381,0.1517814676,3.2050652184,-0.543417418,0.1366255876,-3.5633555903,0.9034667087,0.3656725023,2.0963203738,1.0959044817,1.6476130081,0.1967343294,4.8326167213,0.5842334834,11.772553607,1.0011040215,0.1550017681,-0.2507382279,-3.2247412755,0.0234855249,-1.0671120592,0.4169226984,5.5377675568,0.4831340152,5.0794266831,0.155831146,-1.2745438382,-2.2836946251,-3.7983711976,0.2838655432,-1.1525756682,6.5089145673,3.4258490714,-3.7882403337,-0.0952094088,-6.9396264587,0.3594531631,0.5219898759,1.4186013061,0.8040847709,-5.4349860686,-1.1904429989,5.1105837577,-1.90960997,0.3780137526,-4.5976073425,-2.2782153837,0.7859187152,0.5401246682,-1.5212731365,0.3841024892,-11.8812500056,0.0604734719,-4.5265629367,-1.2668489953,2.4974624456,0.7930941084,-0.7166236833,-1.1897055062,0.0263764701,-2.2233773247,0.0722350722,-0.018365311,12.5016052701,-0.3813379474,0.9001775828,-1.3154871138,19.4151988456,-0.6225646465,0.1973702302,0.3488527671,14.5708972093,0.0510571765,0.7566934166,-0.0579158653,-0.7068408117,0.7961162085,-3.8783795713,5.4823672051,0.3797376299,-1.0369485536,-0.2725365712,-0.9030691331,0.0676704337,0.5614188651,0.1183378689,0.6936155179,0.169119595,0.8813548563,0.7826164708,0.5226758464,0.0747228383,0.4040277192,-0.8744021074,-0.5821875694,0.176488472,0.4551762131,-0.5275901676,0.9907214142,-1.454689725,0.2010118483,-1.6399153901,0.3402786281,7.8001653598,0.539150868,3.2954906407,1.2959878894,-1.1896743319,10.81575485,-0.8768022927,-0.7388437392,-0.7311805287,0.6321171975,-0.9270246533,0.1446836038,-2.5718480104,0.2098096352,0.1331837377,0.4323605933,0.4092751616,2.2684629366,0.4194825369,0.5247654482,0.1516367904,-0.0926150149,0.644042567,4.7104718529,-0.0392253884,0.2350768024,1.6276376049,0.6309755707,-0.5033790897,-0.1965610487,0.3768493366,-1.064899858,-18.712162007,0.4867080306,0.024633964,0.6238424647,0.9001355795,6.2539592879,0.2494251845,1.7847639526,-0.2649564271,0.6260534296,0.2486719176,-0.5856099031,0.6549011683,0.5627681682,-4.0210595548,0.7932474797,-2.9339055359,-0.0616212056,0.7025752246,-0.2104200867,0.709710063,0.8827922862,-1.1388346354,-8.6947250454,6.6900619453,-0.1524780913,0.9317454471,-0.8862645369,0.2549910722,0.7798623217,0.1343308835,0.1490307106,0.8794355021,0.2866465055,0.1315843346,0.7136373478,-1.1836021107,-1.4451536268,-1.3506803586,-0.1117324261,0.3753995729,0.205980502,0.3940634689,-0.2836848684,0.8564976892,0.4710522382,0.3918690302,1.4555339923,0.3478725829,-1.3899772205,0.0243344615,0.995119796,-0.1977704696,0.5578617635,0.2374760718,-1.4660609385,0.6234335801,-2.3653539365,0.417675631,-6.6336879827,0.5788084005,0.3707867486,1.465696358,-0.3528385643,0.6484568027,-1.4893647102,17.7802157014,-1.3327609951,0.6460259561,-27.1869703194,-0.0414323368,0.5963583575,0.4683894034,-0.0468452424,0.0205841979,-0.2371495331,0.3639030242,14.8299632941,-1.4656603365,-0.2054205812,0.0340385743,0.5695871859,-1.1216751069,0.1583127683,0.6251107892,1.3172429551,0.8362353442,-3.0613751389,-0.5788036181,0.5197946727,-1.2806465869,-33.736961341,0.4210836706,-1.0427882005,0.5323865729,0.3400042246,-1.9545141164,0.8785536488,-44.1741447875,-0.4863293912,5.054826857,-0.0732621956,0.3776535902,-0.1838090592,0.474395006,16.2124422736,0.5184484103,-1.7011306175,-0.2128969818,0.5945938514,-0.378426985,0.300581819,0.428066783,-1.0300383049,-0.0223462962,0.4708332992,0.2055984165,0.4940109194,-0.0251546256,0.5755302815,0.2684862186,0.1283258252,-0.3241408281,0.610998536,0.2197509819,0.4268195762,-0.0173262674,-1.1651227138,-0.8223533292,-0.5423569806,-0.0142212267,0.440131626,0.5075039175,0.663381345,-0.4349903706,0.6058792438,0.0374964384,0.4921170658,0.1717602628,0.5430701438,-0.4957464016,-0.5271548217,0.2131747654,-0.124469641,0.210939571,0.4169751748,-0.7433749789,0.5531967408,-1.002632455,0.3642101329,0.0217538915,0.466891299,0.0134391086,1.0112067671,-0.5026431868,-0.0796579071,-0.6366473842,0.2124709611,-0.6314682777,0.4801551979,0.0087366955,-0.1983653199,0.5026565041,0.5862319069,0.0353567302,-0.1397472628,0.3272477425,-0.0695552465,0.1542845195,-1.0031325846,-0.0595039294,0.0651648655,0.3130121744,-0.9883010969,0.3716055785,0.2490476031,0.796967113,0.5886715095,-0.7939778693,-0.0914062171,0.0284042843,-0.5233811589,-0.3309038897,0.1044607376,-0.5381539877,0.5875186265,0.7462342023,-1.1063068296,0.6115564104,-0.5209619881,-0.2470190128,0.2301645497,0.1953629033,-0.6664864083,0.529340068,0.55115341,-0.1284441421,0.161501536,-6.8516035633,0.1330142844,23.1389225459,6.3789522728,2.0122852356,0.4402307289,-6.0457052611,17.9388372371,0.2949196209,-0.1797819264,0.7332140387,-5.6352882079,-0.0633580758,-2.7263326864,0.3372303777,-0.1179043383,0.7723548617,-2.7365046081,-0.239863752,0.298331412,-0.8534308712,13.4863967753,-0.8385043621,0.2254868092,17.6253930817,0.1210501184,0.6014412946,-1.9971041031,0.3836103071,0.0964570709,-7.2791559819,-1.1533729571,0.7003630469,-1.4535612057,-0.2600063978,0.2739396693,-2.3193304076,0.3091097972,0.6882488339,-1.4457503239,9.8518515319,4.1646341963,0.3779622718,-0.7371716648,0.5034558863,1.1189053369,1.5870953883,-0.0420198732,1.1685035425,-0.6962820394,-4.5226311861,-4.3308557119,0.5289707996,-9.7696618206,-0.2595083055,1.1106862443,0.1216060431,-2.8110343364,-0.2565209585,0.0000858547,-3.7091982383,-4.62743192,5.1005097637,2.01688681,-0.0434167689,5.8012125699,-11.9799868371,0.260306815,0.4492647423,1.0250013014,6.7506945807,7.3990489845,0.2588651687,0.636429938,-0.7613915211,0.6377295328,0.5305636536,0.2558814339,0.5231052604,-2.0774944322,-0.5702358333,-0.069164037,4.2277234893,8.586132768,-4.4161842856,-3.2228013791,3.2748388554,0.4551122716,4.5261385493,5.1960792827,0.152471566,-1.5010403823,0.0076654824,0.0681254251,0.2330807011,0.1578687877,0.652099991,-0.5775821041,6.8957242617,0.0509034732,0.3056704752,0.5510918453,0.0967325045,0.2582761078,0.7089502102,-0.2991910335,-0.2615304727,0.4824363798,1.166982899,0.0492243056,-0.0564318075,-0.9777207721,-1.2107202363,-1.1956624822,0.112433018,4.6690523176,0.1147729038,0.4888998798,0.0786629855,0.5058905193,0.0149488958,0.6538438643,0.2248133309,0.077853798,-1.2996692197,-0.5066042286,0.105179467,-0.0227514267,-0.3151800403,0.2932058903,-1.2515353995,0.5287390992,-1.1468539527,0.4281091196,0.0763761968,0.4460819849,0.7361268033,1.1522013452,-1.1820889041,0.1235811043,-0.7109132026,-0.2384653642,-1.1568618322,0.2670770222,1.5740537421,0.4080735903,0.4651663264,0.2477154261,-0.3563382289,-0.2442147763,-0.0354313669,-0.0464298229,-0.2868276131,-1.0915189738,-0.355338526,0.5486094206,0.0492781829,0.5842959801,0.2341050976,-0.0822199533,1.0676661791,0.3646934786,-1.1848411011,-1.3207545342,-0.048347115,-0.5843090437,-23.5971825003,0.2599311749,-0.2465964821,0.3301879721,0.7436350597,-1.2186415003,0.1917807389,3.1865131557,0.0346923424,1.7128288876,0.0595981206,-5.459980271,0.0371103559,0.2912826859,6.5577818314,3.3862289472,-1.8110443049,-0.1546947521,1.0444811741,0.2577621311,0.8602867239,0.3749096826,-1.6608110831,0.6741839028,-1.5305210243,0.6652594118,0.5865909262,0.6324214351,0.5809550828,1.2113571522,0.8637879898,5.7828236554,1.0843979192,-5.0459828903,1.05062475,0.5669957721,-1.7456434863,-1.2926698298,-11.3413078039,4.3493229794,0.7417209603,7.3040681381,0.6374934667,0.2794230302,1.1758705011,1.009266266,0.8057270498,0.0903870579,0.9668336439,-1.1255541121,-0.6388644368,1.0045426213,0.6115068576,0.0738296151,0.9585425215,-16.198084481,0.9158388124,-1.4409072838,0.9508396629,-0.3112201978,0.4847633412,0.7732854496,2.3036913657,-0.9184268744,9.7054458542,-0.8905752783,7.4374259242,11.0087924439,1.1013218396,0.0909053672,-2.6442611953,0.4332128178,1.124137415,0.6536289724,0.3670883001,0.0464065664,-7.0067845181,6.8382258523,-2.1522566182,0.0233511584,-12.2665107696,0.5109188746,-0.9356766047,1.6151400365,0.468925951,1.9341332936,1.7585902022,-1.5659822484,13.0248905813,-0.2895870536,-1.7368271218,-3.8308293387,-0.1988462855,-0.2322318417,1.3426095752,0.5675041003,-3.0923399605,0.3910511921,-1.9804877282,-0.0284624724,10.3342198058,7.3551336332,23.6715741504,0.7321562569,-4.3905762498,1.2056276783,6.9326436751,-2.1506034838,0.0677651836,0.3825818266,-0.1533737927,0.0465179882,0.5705230183,-0.9825635583,2.6758430813,0.157560288,-0.0048386361,0.5957957858,0.0057306448,0.1424386276,0.2315812083,0.38274337,1.00084049,0.5977906993,2.5033540712,0.3645651748,0.2769049649,-1.1127147128,-1.2824730582,-1.4845798742,1.0681559135,3.8774119232,0.4253410203,0.4775839834,0.4737382571,1.5729273303,0.2339750241,0.2853094182,0.2561004358,0.8812272882,-1.1282901298,-1.0907783314,0.0426683422,0.365724825,0.4973665814,0.0965456678,-1.7174594148,0.7225999197,-1.7738956945,0.0835936344,-0.1799274344,-0.30258101,0.0859920736,0.9513695173,-0.0129343676,0.232615473,-1.6694024026,-0.6637772941,-1.2106624029,0.3665041235,-0.3213128196,-0.2649645579,0.4670035456,0.383279565,0.5139259063,-0.20816999,-0.298750802,0.6012766443,0.4801965375,-1.5723474176,-0.4241955521,1.2181842496,0.5069595089,-1.3035187149,0.2923769449,0.1229320236,1.4540031344,0.451846166,-1.7329968386,3.4139619935,0.0854991492,-1.5210002999,-13.2554048994,0.2834662847,-0.668341195,0.6703648733,0.604314615,-1.3406632296,0.5034843671,-1.3250593977,-0.2179499052,-1.3062885152,0.2096945046,-2.0288138056,0.1566565322,0.3751125142,0.5013272699,0.1409296157,-3.1718277327,0.7329025413
   0.6939214865,-0.5432840928,-3.0569276306,0.7928896707,-1.1877684022,-0.5063173883,-5.1371570677,0.3429531725,0.3073971917,-3.2232352613,-2.2502426796,6.2401325243,0.2520794687,0.4137167824,0.1296746612,0.344502135,0.3194938562,0.4888675619,-1.02908717,-1.3265434233,-2.6201123487,6.8613430236,1.2210337076,-2.2186113848,0.4294811185,6.1962072599,-7.5085675872,16.0387034425,-5.4442109351,6.0325815232,-0.7278957324,2.6064472439,2.0490376833,17.0923268705,5.4204638678,-1.2026090162,0.2512115763,-9.3747620151,1.594177441,-19.1052304671,5.476752957,7.1590952638,5.3769892325,-1.5909316708,1.2341220867,-0.4994968648,-0.0108503309,-1.2090819782,-1.0402179624,-3.2582769749,1.1316833276,-0.4197396647,10.9954752354,7.6968844077,0.7071609037,0.0933225129,-0.1542292084,-0.9836034679,1.8989339736,-0.5100159568,2.1921837689,-0.2514638303,-2.181172895,0.9946011293,-1.1705726321,0.2566133477,0.2345204759,1.2357774636,-2.6585119807,-1.099369479,0.9581221774,-0.017626503,-1.7342338387,0.2058789593,0.5446812706,-2.4965632859,0.4479643929,-1.6767223926,-1.5476686106,-0.9235235576,7.7737085716,-0.4648976754,0.3707152822,0.067049983,8.978191198,0.6182499388,-5.0506851193,-2.0497171002,13.7299167898,-2.7131931867,0.6459224954,2.2475748925,18.6965604331,0.5276871296,4.0420722362,0.6046661581,-1.0123769307,0.1515380271,-0.1311993187,0.275956053,8.888980789,0.2315138866,0.2222968016,0.2216299365,-14.2916967137,0.5065725615,0.9305916393,0.4315907988,0.6307789535,-0.1234884809,-0.2915094436,-2.7924695732,1.278941167,32.1318481819,11.4630221254,0.6005703032,-0.3086062937,0.1244227553,0.160104822,0.4444995701,0.5821358002,0.4813453617,-13.1908884455,-3.833803201,0.2181222438,-0.061847765,1.3976882083,0.4632247387,-1.3987107209,0.324273341,1.2531113662,-2.1803032389,0.9579863565,-1.5397787193,-0.222930584,0.657547168,0.1174299552,1.1516303953,2.3996662802,-0.938064058,-1.9678859049,0.2415242057,-1.0306799042,0.6621603527,0.3419864335,0.173555823,4.6079384867,-0.7405431703,-0.2259391482,0.0844294835,0.4145505885,3.5042691059,-2.9564922579,12.3827633446,0.1919196182,-0.5086042566,-2.2990404248,0.5252493718,0.0118247465,0.5190652112,-1.45552978,-0.4674888258,0.1985020179,-6.12837799,-1.63295612,0.5427836958,0.1477962358,0.7901586636,6.209919674,-1.2499152377,0.159238045,-1.4054230375,-0.9280885703,-13.0790418234,0.3702292128,-11.7675238147,0.9563014971,2.5413150829,-0.5042202044,-9.9970273727,0.2406498285,-0.1545863534,0.1042274027,-0.5016346749,0.4143674332,0.5979364114,-1.4252620036,0.0543243911,-0.1735739432,0.379003232,0.1686521512,-0.0165438462,-0.1468358916,0.2816830938,-0.1360974894,-0.2410831839,-0.0455969546,1.8331982702,0.226475655,0.0978595218,-0.9852175953,-0.9172953144,-0.6139533069,3.3339422097,2.2495403474,0.4103957588,0.815087175,-1.3105713931,0.554520212,0.3299573017,0.0796838868,0.0912323787,0.3149717405,-1.1261809432,-0.201899878,0.1043110719,-0.2218291731,0.3901862298,0.0700432859,-0.7555761217,0.2613469126,-1.8892170681,0.4953074021,-0.1396383145,0.5874982136,0.2294408649,1.1214085219,-0.7262632648,0.3457219841,-0.4200715583,-1.9572330704,-0.903189822,0.0510138341,-4.6348688654,-0.4492849418,0.3067770826,0.133510923,-0.0805271483,-0.3142251378,-0.5281259189,-0.0977407698,0.2576074124,-0.9004435468,-0.6199680709,0.895514136,0.2295543181,-1.0944210817,0.6485951224,-0.1921256918,0.9936198964,0.2238100021,-2.4200439918,-0.6368370208,0.0968301545,-1.9765102858,-8.8563991972,0.4954766893,-0.5198322825,0.6720255843,0.570987463,-0.6288228388,0.3307541978,0.3112525551,-0.161019848,0.6841733098,0.0246309488,-18.2463251456,0.4906101584,0.4749648754,0.1711675873,5.3003439986,-2.3116084438,-0.2216672229,-2.7407570441,0.2843490746,0.7381484119,0.585498742,-1.5293547389,7.6148528642,12.1687681131,0.2165072574,0.6640606234,1.8568910341,0.6572185433,0.3312428054,0.7647049092,0.2580394702,1.0387222113,-11.7223512897,0.3739673832,0.6799857848,-1.023312674,-1.3390288078,-1.147598003,0.8093345324,0.7901421481,0.5695457707,1.3102073675,0.5129586285,1.04101869,0.5900984357,0.8094693198,0.5085370851,1.0281580176,-0.3392933014,-0.2760351059,0.5211592497,0.2866509448,0.7927785725,0.6950454547,-1.0829985196,1.0760494202,7.429650973,0.5980899863,-0.2101677502,0.9277472315,0.9320698103,1.8518710638,-0.5667697182,0.8106794812,-0.9427340132,24.7520038054,-8.1056316414,1.1462696852,-0.0450341621,0.0073246498,0.7965266137,1.1564542181,0.6296440685,0.0932282296,-0.2162848278,43.3922284105,5.2492644726,-0.8447822214,-1.240643746,0.1529017881,0.5187259699,-1.1177713253,1.280379733,0.5613839895,2.0187757676,1.2200021825,-1.3983851584,2.5899010013,0.7236111977,-1.4029192822,-1.2628672425,0.6827215507,-0.1829098336,0.5561085676,0.7395927277,-1.9683946961,1.178378585,-3.3406666743,8.7425063159,25.9020755061,0.6709661247,-2.0233995988,0.4708375023,0.8578263997,0.7007316518,0.3723100174,-3.7508156087,0.2608787392,6.443519191,0.9825405873,-0.1078035271,0.273925744,-1.2812987411,1.478602421,0.7610141654,-0.1518706728,0.0707712784,-0.160982696,-6.7882001475,0.3896238291,0.2287014931,0.1030793625,0.7531867397,-0.7717423366,0.0136036863,0.1941497716,-0.9552870369,-1.0668346742,-1.1900477403,-0.8612224362,0.3228288811,7.6784964803,-0.1727359409,-0.2017889528,0.6453266789,18.1331110643,0.1940412413,-0.0844553595,0.1417117971,-7.7080731237,-1.6166791589,0.4152722667,-0.3600696479,0.0995793694,0.0596510396,-1.7382876245,4.6423011315,-0.6402208798,0.3096100339,-3.4330583883,-10.1181509398,1.0810958346,0.9852845051,-0.3471146936,5.4383119066,-6.0916878408,0.2242031622,-1.0645550757,0.5687162037,-6.959648569,0.0724556175,0.2350076989,0.1088653013,-0.2577360654,-0.1248956553,-0.2751013722,-0.8922238288,-2.0242851489,-0.1369701319,-0.4225541777,-0.5094468032,0.1525831183,-1.3079121791,0.4298305089,0.2677053261,1.5009089115,0.6800460303,-1.4580978023,-0.116531785,-0.0694393429,-1.0044669655,2.2171259958,0.4919278083,-0.6730058629,0.2312402747,0.2948485677,-0.8291652042,0.5376215716,-4.4849578403,0.0581140828,3.4705011991,0.0236234282,-4.6603424587,0.0378651854,0.10725034,-0.9305051433,0.0200614147,-2.1380720133,0.024336138,0.6611295657,-0.3805275395,0.1316588857,0.363565179,-1.3083662494,0.9607656221,0.1350968502,-0.1262223842,0.0600924667,0.0611609712,0.8050969976,0.061476833,0.3052899459,0.1097762399,0.5917895682,9.7453845417,0.0603945596,-0.0890465425,-1.0457216983,-1.3482086133,-1.6397345868,-17.9702781864,9.4819228873,-0.0429316942,0.607366357,-0.0876733428,1.1738256883,14.5185698794,0.48938514,0.0812119836,0.1072850738,-1.1629251892,-0.6585834125,0.3570823904,-0.0946068629,0.5806540518,0.4260599929,-1.3791687585,0.6528439876,-1.3669590038,0.3614410532,-0.0370763711,3.2689635482,0.3480075815,0.7555529144,-0.1591261256,0.2301492786,-1.2963541643,-0.2042750692,-1.2548691747,0.7916897008,-0.1169692188,-0.3413995623,0.0653751957,0.1446524903,0.5827281407,-0.0023838902,-0.4948039862,-7.7456485389,0.1536990099,-1.576862207,-0.18132486,-2.1605476104,0.5640844033,-1.053936171,0.44567902,-0.0398276504,1.0264385542,0.2491946793,-1.6356952471,-5.3713313472,0.0133317419,-1.2464061607,-26.05201383,0.4941817613,-0.6253556705,0.7177482086,0.6590320278,-3.7417326011,0.2228466364,-7.1566304391,-0.3901955336,-3.4046112667,0.3010975275,-2.0378307378,0.2278121663,7.5587770657,0.735694447,2.6851171957,-2.1966931353,-0.4881404838,-0.0536211552,-1.1337901513,0.681482121,0.2796584246,-1.2496363598,2.572879388,-3.3215444982,0.3838569502,0.2326470532,0.5459935618,-0.1071597346,0.1989158247,0.3606073111,0.278598592,0.4522064123,17.015157737,0.530033259,0.328621951,-1.4950212393,-0.6444023461,-0.7169628192,-3.4342299058,35.2240759797,0.103493533,19.9820165727,-0.1907114377,1.3235346157,0.0187695941,0.937499455,0.6414072966,0.544239496,-0.4066605624,-0.3136338992,0.367749605,0.0097054347,0.667755897,0.6617763162,-0.1059330943,0.210977191,-0.7638334689,0.9735176615,-0.2597364576,0.2454398721,0.3356754856,1.0636875316,-0.7195493446,-0.0721452483,-0.4223171072,-1.264061976,14.8853387465,1.3150570298,2.5376465857,-0.3884852265,0.5454964178,0.300205217,0.7284571536,0.1741305181,-0.2976630986,7.6330568247,1.6651850661,2.0934364314,-0.8260704634,-0.2193981088,0.2101593986,1.0959829322,0.3369967194,0.0724376273,0.9179332092,0.9916158493,-1.4271703368,0.1676052833,0.4645058104,-1.7955771346,-7.7900599222,0.2158941195,-0.545698922,0.4982720611,0.3218954667,0.7866554457,0.6633108598,-21.3946487648,1.75290716,0.2669474425,0.0515935941,-14.1543838027,0.0420181086,-14.9738373098,23.7053426861,-14.6639825551,-0.8994759388,0.1465838123,23.0910445356,1.5458940762,0.2925878286,0.2299593267,-1.2754896284,6.4825663954,0.3923148344,0.5551827481,0.6864209194,-2.9942000824,0.3263920008,0.2425282775,0.3706648709,8.0227378558,0.3514584826,-0.0055649373,0.4094105997,0.5723438838,-1.4629104785,-1.4905129824,-4.6229604606,9.742755444,0.0206802854,-0.0124062912,0.4259106043,0.2424206328,0.6569128014,0.3428034673,0.3243567438,-0.0020442673,0.8040813638,-1.0468192528,-0.5230134146,0.5508482631,2.1533382525,0.1271514926,0.4956070227,4.8903097479,0.3393580762,6.3774566489,0.0027652823,-0.7458201564,0.3562954422,0.3361066236,0.7813586444,-0.4799800489,-6.4603601647,-1.1363142601,4.9939006343,-1.631654396,0.2410546982,-1.7680828667,-0.3502007937,0.2603794721,0.4460840638,0.3262486245,-1.4985774302,-0.5509312343,-2.3602857468,-5.171293044,-14.7844408818,-0.1119604468,-6.7953236572,0.1829860741,10.1739913112,0.6599419433,0.4818027005,1.0328719447,0.2548030084,-1.770725958,13.6397995483,0.3026650943,-1.1120183952,2.6874249874,0.5628819296,-0.0142673666,0.189512909,0.1925523534,1.66317913,0.3951875624,0.561468147,-0.5358546548,-6.2890665413,4.6121177993,-6.5211542879,0.263659082,1.8800024369,-0.0124978909,0.1353016764,-1.6872495658,0.1609256585,0.5442284229,-0.4313522219,0.8231182601,0.7399037399,-2.3794338471,5.8659427003,0.9033362274,-0.1832604112,0.5060969705,0.2057231468,0.7535343364,0.9032191022,0.4308473596,-0.0535456994,0.8824403901,-1.8022818737,0.4545815212,1.2850720251,-1.6277206326,-0.901091128,-0.512670247,0.7421964671,0.9260595371,0.6320348369,0.9151240038,-0.0516761811,0.6049427078,0.3996187705,0.7774929092,9.1472379619,0.801224525,-1.0014303021,-0.0451084142,0.4943724529,3.7834259069,0.4174819358,0.821615662,4.762588207,0.1306224056,-1.0801705563,0.3713824878,-2.745323348,0.9199067278,0.9729467148,0.5678847672,-0.5233387979,-0.0780280318,2.5735526151,2.5859972512,-1.7415995213,0.637060825,4.685143747,1.9806681678,0.6752712774,1.2140210335,0.2639239762,-0.4350969253,-0.1660214719,1.3538031236,0.2722536546,-22.7301170704,-1.0348275663,0.1176611658,9.8808169887,-0.6406462039,0.4910622132,0.985574073,1.5205793987,1.0147920948,-2.6472631051,14.6799793596,0.4017973329,-2.7682831914,1.3206131905,0.2721562271,-1.9684589357,0.5562264758,0.6959724929,-0.6057491211,0.6058665537,0.1791929083,11.3558168939,0.2446361518,0.6378837373,-3.0238636007,0.5353684281,0.7371262303,0.4530613296,0.6960625529,-2.2414624392,-0.0707281614,0.6688537303,-0.4239766044,0.4004268206,0.5080459409,-1.2068348339,9.0068687314,12.2328804515,0.308328013,0.1442715093,-2.1001670112,-0.026810021,5.1528435626,0.460157457,3.2531910035,0.7330682181,-4.7090115343,0.8545659297,0.1101931146,-1.1537192834,-0.6908393186,-0.6580623677,-0.2679948968,0.424223922,-2.1426369661,0.5343460739,-0.3780074863,0.7802288042,0.3317343493,0.7311859815,2.0911381027,1.0538172906,1.2960282927,-0.1981100255,0.8309984501,0.5570147089,0.2823541747,0.7144047081,7.4980985587,-5.5115504297,-0.5615406851,1.4420448007,-8.757195446,0.9293126849,0.6486969398,0.976779468,1.887461538,-7.1112941871,-1.3043643178,6.091676749,0.0375049221,0.5690468788,-30.1191101418,-1.4445290953,0.507430171,0.7518986841,1.7364246238,0.1646192958,0.19466103,0.1111520715,-1.8939012658,0.9416464365,-1.8287030032,-0.3690177214,3.6855022495,4.1389963728,1.0705970175,0.2231678536,1.3520369519,0.7209257857,-4.1214524146,14.9597963455,-0.0329569572,-0.9501703574,-40.2210943891,-1.1221368539,-3.4100921139,0.7203276647,0.5897318546,-0.5139939967,0.2636738531,-13.1251737953,1.8336797999,2.1071682803,0.6185820873,4.8112305324,0.185272176,0.4591598888,2.6153673496,0.1451432505,1.049916229,-0.0846653542,0.4923961954,1.1546909555,0.3726510508,0.5991237824,-1.6855268093,19.3355512879,0.4540039564,0.5494927138,0.6001872505,0.140125883,0.2343407435,0.6686264476,0.8579770967,0.4477104166,0.8793980388,0.0725729328,0.5413387865,0.5393301541,-1.2408414971,-0.9321463406,-1.0709609976,0.2061876934,0.7144815686,0.4248465236,1.33378839,0.1898468026,0.8044543427,0.7053402167,0.5743312236,6.200340511,1.1895293196,-0.6671092846,-0.118836905,0.7625515476,19.2275038613,0.461101709,0.8249768993,-2.6988753885,0.4264470367,-1.3034060147,0.3884407767,0.4419992204,0.3617250067,0.9679229902,1.4032393707,-0.2027784754,0.3288741012,4.5731662936,10.0597210555,-4.0543106827,1.2141032845,-3.3150441713,-2.4599237987,0.7085730235,0.5629217558,0.7137945521,-0.2366610915,0.0808247551,0.588811605,1.9332333134,-1.8923823535,-0.1670333785,0.6525902196,0.790424023,-5.6881377546,0.7492165758,0.3296418225,1.7473523778,1.117404493,-4.8029536708,0.0864628289,0.7280683774,-1.5659972531,0.4710948281,0.276767031,-0.3956115831,0.8941339347,0.7336866784,-1.191957718,0.6519928915,-6.8135562433,-0.4314915778,-0.0142739524,7.2272144445,-1.3608469301,4.2869194913,0.8018783187,0.1391066896,0.6055588196,-2.3053191874,0.035108288,0.5636860682,-3.6524554734,11.6928054343,0.0028826501,-1.1189087346,11.4408395792,-1.5171887219,0.2015760694,-0.3170630662,-0.4290850413,-0.1254737745,-0.6107183752,0.134249834,5.6229086499,0.6718912537,-10.0824130805,0.4088183969,0.3407003566,-1.309368121,-1.2258265683,-0.8541549485,4.7764521655,0.3634987723,0.0966007243,7.7797863721,-0.3986627593,1.1373560187,0.4934820104,0.5164814284,0.7330071012,0.4277032877,-1.1350409987,-0.7544846745,0.6369891671,0.0850211415,0.575118265,0.2114337376,-3.8056667365,0.0221431916,1.1944768229,-0.4485496994,-0.5698084528,0.3119826637,0.2160072456,1.2914795359,-0.2928784352,2.6174585915,-0.959478888,10.8525156582,-4.669449898,0.613233041,3.3845157477,0.2053187104,-1.0920956318,0.4476812825,-0.2046367691,6.6729606069,11.4864711476,-15.9726827798,-5.0631289138,4.3475549034,-0.165130948,-9.3206464782,0.1233322764,-2.2543101939,0.5966644613,0.2685531697,0.9355423204,0.4894037494,-2.6526335879,1.4598275384,0.0823238165,-0.5815507894,-11.9492971034,0.4625994219,-1.3651039054,0.3826283795,0.5534038741,2.2584014584,0.0144431745,-4.009684635,-0.158304138,-0.8483220658,9.8847942392,4.473770335,0.1187580544,0.6030172688,9.2998749234,-4.2580490956,-1.6960811601,0.0575585147,0.4335098287,4.679615497,0.5483486621,0.7032042367,-0.897148963,-2.7448748941,0.4161545678,4.0304315111,15.3145797666,2.9266093454,0.9868688356,2.0343969679,0.0214248636,-0.8585372787,0.2659367802,0.129940112,0.4720632245,0.0342173297,-0.6605446709,-1.1604410893,-0.7802742619,0.1185309899,0.1812637531,2.8233868405,0.135679305,0.918543301,0.4331452916,0.0341190778,0.5544513298,0.6896008212,0.4036324388,-7.7327954265,2.5052661947,0.4932948172,-5.6220358363,7.1220509553,0.0036340922,-3.0218724049,-4.5896098876,5.4405704253,0.5424722558,6.1766119438,0.5767143198,0.4572676041,1.5278026055,0.1921907652,1.8166176021,-0.1667874377,-0.675358845,-0.9868418404,9.0908913185,-5.955250423,-7.8582822982,0.2992200272,0.0628665019,2.1667448812,-0.1849760888,-6.0492271993,7.3509905134,-13.7212916204,-0.6063223792,-0.6076508022,-0.3408583409,4.3320119604,4.6405475192,0.5598873721,0.2089102918,1.265766233,8.0181673867,-1.2372823384,0.0354265933,0.2185946212,1.1068388063,-1.0731282096,0.2609179079,-2.1708075214,0.3226604304,5.2955578154,6.6081269107,0.1808459839,-3.7921986986,-0.6450985639,-2.8193370479,-1.449494353,-1.4315962777,1.222980968,4.9602464418,12.5180170598,-0.1219111603,-2.2308431287,-0.0631118293,0.5269459449,-0.9624765633,0.7656957559,0.7052394449,-1.07165615,-2.817650907,1.7049980125,0.4343747836,0.6263609046,3.6083882664,0.2812959661,0.469575558,0.2062673953,1.1061458243,0.7486542948,3.3246562078,0.5246625913,0.3401551503,-0.5502405544,-1.5308396269,-1.2448252016,-0.1751218625,0.335091798,0.2215219516,1.019423513,-0.0205668993,0.7553528059,0.7603617998,0.8810598408,0.2575420496,0.6330902707,-3.6341128276,7.6296280888,0.495392328,-0.688273178,-4.1506084657,0.9750410557,-0.8302410374,0.1440053787,3.1900557457,0.4708817669,3.8191675264,0.3464726602,0.359445174,1.4499872161,-0.9266748713,4.4461118292,-0.9890771962,-1.4038242175,-2.2171019539,2.4297098526,-11.366024322,0.2062221997,0.2443761613,0.1895851869,-17.4793483884,0.2387698078,-0.3275861633,-0.0094540304,2.3906140441,2.4677320546,2.8844009053,-0.3435921105,0.031112414,-2.1181502996,0.1978939651,0.4424467674,1.4409301699,0.7248321382,0.1756110848,4.9229417207,0.1388622027,-0.8891518909,-0.7483952063,0.2728496998,-0.5395943683,0.3506489819,0.428316034,1.5820807629,0.4926950427,1.1618309686,9.2187687234,18.2528389426,7.080575625,-1.3081547662,0.3436683706,0.1012959145,2.9632655203,0.2737084331,-2.1998937331,-1.157219443,0.4010989055,-2.1891884445,-0.0123723016,0.6075016947,-1.063094396,0.6282816208,7.8031924271,5.6035317807,0.3324358219,-1.2529577668,1.3784599747,2.506643166,0.0565829308,-1.2254712657,0.3303389171,-0.2356549983,0.8013196334,0.3335524163,-0.7970093093,-1.0811871126,2.5733098618,1.6638786274,1.971795809,4.4472509861,0.5228965934,-2.1297182684,0.8596673231,-0.2540256617,0.2112019826,5.180112742,0.7204701312,-2.0371356761,-0.7348170107,0.2651640272,0.1840643429,-4.9840344745,0.3652420303,4.0618604755,-5.7767154454,-3.1999581723,0.5791223386,0.2175788442,0.3257953818,0.5735554198,0.8547618261,-2.3568828155,-0.3106025582,-6.9157308289,-4.2921743968,-4.796363748,0.4006600045,-0.3844338507,2.9807497219,0.0331892263,0.4111907886,1.0746269506,-1.885318395,3.5288519952,-0.6003542082,-7.2333640301,-0.625265349,6.6833204781,-6.111455243,5.3216933225,-0.8260664311,0.1738139152,0.481047441,0.8028990651,0.3530945224,-1.1008923154,-0.451369223,2.8810991483,-5.0271124505,-0.8160917365,-2.7654812261,-7.6677860647,0.1184897544,1.550103657,-0.9151858232,0.7098087872,0.7906168104,-1.3540228723,0.293005903,-1.2875082237,-4.8371061783,0.7378348643,3.8588213835,2.6015685322,-2.707677004,-1.882047291,-0.0569810334,31.5423067489,1.3772156365,0.4173901829,4.0925695068,-0.9354658264,0.5291549059,6.3620920772,0.2244124349,0.5667944026,3.5439418967,0.5171168072,1.7479306316,0.0923187836,-0.2198100452,0.8040773328,-0.217826455,0.4411750863,0.2151384836,-1.3216571317,-0.5643491165,-0.5932018702,-0.1842182934,1.1385308872,-0.1030719853,0.3845693348,-7.3566703294,0.753824685,0.2308339445,1.0395431266,-0.8606937952,0.7600886665,-1.1373964111,-0.0991071264,-0.0124347711,0.3454570668,-2.3490979388,0.5085187861,-0.9894823674,4.5330992505,-0.9162823113,0.2984296682,-14.4410459086,0.5914207832,1.3694283544,1.21367755,-7.9965293419,4.8702016677,-1.0606323848,0.2646290229,2.5036030828,0.7775374603,0.0898286005,0.3330488589,-1.3414196064,0.4141008747,0.4102885447,0.2321506378,-0.0214125758,5.5955604541,-7.2465488482,-0.6666889966,-2.2620909871,-0.0874518769,-1.0078308506,-0.8780696981,0.2687416959,0.454620062,1.1939854199,0.7221601339,-0.7737576975,2.8621642696,0.5534084715,2.7472168315,-0.8866115955,0.1754551101,-3.1467097826,1.0232500367,0.757146373,-1.0398805455,0.0823063658,-1.3767942571,-7.7664059443,-9.1638365202,0.4274024041,10.383053,0.0191174241,-0.9094665347,3.1086897295,0.8023112837,-3.1653184378,0.0576428099,14.3821863521,-0.198562699,0.498273792,0.6388541048,-0.8045969935,9.4536961908,-0.0532026625,-0.1569079708,0.0885314432,-0.0817552818,0.422340015,0.0759831759,0.1947714298,-0.4196872665,0.6607466576,1.2883885872,0.4907429891,0.478090067,-0.5446246955,-1.8892289444,-1.3785997492,-0.0722673605,0.352842436,-0.2486985518,0.3745030616,0.0489454087,0.7706388593,16.6654099264,0.3830323291,12.825395564,0.1291519988,-2.6064264402,0.4007368748,0.2992182051,-0.0253278326,0.1786484801,0.6171623506,-1.1832599953,0.5852032527,-3.8139289628,0.2027139835,15.6524240819,-0.3977059829,0.5831109035,1.0120548509,-1.1890497365,-0.0379290034,-1.2590688993,-0.9527051615,-10.2757925705,2.6843566658,2.1485038745,3.6702939332,0.4042659513,0.1761205832,-0.0587335656,-0.626213092,-0.5775895166,-0.350705712,-12.7530230461,-2.5451276057,4.8823565648,-0.3836157777,0.1653916451,-1.3281028312,-0.4600020459,0.2264969272,1.5059562477,0.4844493216,-1.0833061719,-0.2128472299,0.1332564934,-0.8085189084,1.3120546113,0.3209674884,-0.1975299702,0.1640213927,0.2698376672,-2.6405619436,1.2300045529,3.480696751,9.956933977,0.1501616023,-0.166892279,-1.4782111028,0.1271686465,-0.442886506,-4.9353168977,0.1962641436,-2.8811545786,0.4519720499,0.59711149,-5.0573201362,0.7945712334,-1.3821468352,-1.8492659235,9.4304694746,-1.7418516346,0.0055929673,0.2730150105,-2.3072404432,2.9611907147,0.3831727677,0.5266354581,5.346664411,0.5453154265,10.4702865967,0.1067912537,0.748231015,-0.7407987273,-1.2251906859,-1.196582442,4.0417221074,-1.1294812237,0.82980713,0.8285718695,0.8395739589,-1.1868626101,0.7453122696,0.3767921828,-7.5217218888,0.429311511,8.3036587108,-0.3039012031,0.2672417343,0.4022146024,-0.101859886,0.3578178633,9.4295326075,3.9596301558,-0.992968724,6.2535920114,0.5431864683,0.8894544781,0.2749132233,1.4790050553,-0.4825979398,5.1662501419,-1.2177008611,5.4863098115,-1.2376259806,1.6737486075,-0.1932192985,4.9287753345,-2.4396981275,0.5019668233,0.1584543158,-0.3295205359,-0.7326242464,-0.5092319165,0.6486355599,-4.1307303062,-0.5444297364,3.041988488,0.4107931284,0.2978224955,1.3339250954,0.0867944703,1.3901014148,1.0426127208,-1.4209336567,-1.3278728878,0.4792451327,-1.6090711848,2.9486980217,0.0556025148,-4.4653359457,0.760747511,0.5296253774,3.71285153,0.7568605853,12.429922736,-4.0015213024,0.0427165765,0.1757136646,-1.5566975835,-1.2822628986,0.2638464122,-0.2242570356,-0.0147877209,-1.6341932899,0.6079113893,0.6069481053,0.3740102829,0.836464998,0.326385784,-5.1471271772,0.6036753662,3.2583219367,14.77712919,0.6294510252,-4.5925113433,-5.1937527558,2.030901174,0.7623102422,-2.899582458,0.5997432264,-6.8000809199,0.7295023579,0.6577936067,-0.1931112984,-10.0833799917,-4.3440106694,0.2045207274,6.3720592817,4.6934115679,2.6641554614,1.5175089503,0.9701216232,0.2982861275,-7.5837476658,2.8289668208,0.6133968929,-0.4185785771,-1.0040091391,-4.9718758633,0.0692142814,0.1895314385,1.0682435735,-7.3097045651,-0.9287481063,-0.2337917701,0.5876788493,-4.036380613,-2.4766485984,0.4459588306,1.5697529495,-0.9635343208,-5.0593851481,6.1945309652,-4.0043954577,-0.2140807427,0.6634435376,0.3238733943,0.5857634894,-1.2798722081,0.8510150303,0.5859749344,-5.2170369438,0.1989611771,1.1817752541,2.6409912093,-13.0223668699,1.9648924368,1.9735986775,-1.9928110966,-1.0131202404,1.1030622901,15.0218802759,1.6495009034,2.8298367844,-0.2177836018,0.5928248782,7.801181492,0.6049814955,3.929028125,2.4001054089,3.3883743065,0.9512737388,0.2177338122,0.2159112469,6.2294520734,0.8552192747,7.2324303181,1.1188041524,10.3883755839,3.810764853,0.2398204286,17.2988496669,1.0377127248,1.4753779284,-1.7582093919,0.4970671707,0.7381720146,-2.7360059037,0.31542289,0.4680027286,-1.2893468193,-0.6011734185,-0.499629484,-0.7003859836,0.3284133356,2.2960239796,0.2756341324,0.3172538126,0.1102732163,-1.0674866321,0.5428252904,0.3773265037,0.2653305183,0.3955412829,-0.9810070992,-2.5787328313,-2.0292574891,0.2164533495,0.4382454939,0.0168076875,0.9622483253,-0.0376698582,0.8301163137,0.2991855347,0.8296076416,-1.0257777645,0.8963642612,-10.1040407138,-5.0684392082,1.2757852755,-7.7474897515,-0.0577054523,0.3383279491,-3.1101975167,0.01294842,-0.9905387377,0.7172546038,-6.3385224482,0.9367516637,0.747132155,1.0518895653,-1.1080523024,-1.4620223396,0.4759353809,-4.7567209005,-0.2216904926,0.2841028824,1.0426996353,-0.1110130242,0.0078775718,0.3370023976,11.2600206417,-0.3499392495,-1.3285194944,0.3165216682,2.3918357241,4.7658085929,5.1805789112,-0.9151656047,2.5636634207,0.2756611455,0.8461919347,0.6366545146,1.7990741715,0.8974386311,2.7258986708,1.0024366982,0.2988317202,-1.3987961013,-1.510864316,4.4960256802,-0.3240723506,0.4894477766,0.6885681276,6.261400875,0.7862368939,1.3090804831,11.4075101528,9.411653842,-1.5216378618,0.9853191286,1.4938275771,0.6939715254,3.0245366943,0.1411873148,-1.8937291105,0.0234681374,0.1776352687,3.1180625222,0.6660155479,6.3676763644,-1.6117280954,-8.0965102029,-0.1477611488,0.1877157722,0.6722825019,-0.8856346547,2.9423275616,2.5657018941,0.4812311344,-3.3714110931,0.7032834628,-2.7772052227,0.4937633128,0.399104604,-1.4532636895,-0.8694287719,-3.1471071181,7.3235030925,-9.2836463363,5.2588191562,0.5900657562,0.1599356002,-0.478538512,0.4060647423,0.6976586106,4.0562908913,0.2386812607,11.0560246748,-0.3019498529,0.1106156014,0.7890194736,0.0279933656,0.2172858145,-6.5427202967,0.5437388968,-4.0053401124,2.7172476223,-0.23612673,0.894395187,0.7665456334,0.889578427,-0.4279986231,-0.0649663703,-0.749495856,7.4448485247,-1.4636883045,0.9549037574,4.8188032683,-2.4569218341,5.2320639842,0.2849157473,0.4195994855,-0.9720416321,-0.1880025976,-1.4702659119,-0.0085903313,3.5768987937,-0.7661151661,2.121251706,1.0112952621,-8.2497350433,0.6202632524,0.6268791838,1.6391330971,0.7856473784,-2.20512147,-11.8862111094,0.4226048705,-2.6790102816,-6.3014815738,0.2583625173,-1.6935127501,0.9287315622,0.7561784613,-1.1730894078,0.4483987634,-3.138060285,-0.0689046062,7.2725340709,-1.2055160952,0.2862454121,0.0133409113,0.1751050134,0.7356773252,1.2196665191,-1.791268311,-10.6599069295,-0.4193518147,-1.3773527676,0.3991586657,0.4970603981,-0.7997406962,7.9614612768,2.3533825676,0.2517104954,0.9360364325,1.9626011738,-1.3426015606,10.3259689161,0.167514227,-2.7964009153,0.31442211,-1.1743314335,0.4634759255,0.2387763601,-0.7827168852,-1.0238604559,-1.7920596219,-0.1222303662,0.0188180524,-1.2413257222,0.4964647083,2.713475067,0.7310595604,1.7511999711,0.6065683296,-0.9558665751,0.2756360424,0.6719471976,-3.5125652316,1.80783011,9.1076145321,3.5053574071,0.1181351846,-2.0719416206,-2.1571244068,3.1476399948,0.4984555121,-0.1519513815,4.2341244995,1.9427191202,0.9140253596,-0.3152919615,0.5315868201,-1.9871688341,-5.2394462197,-2.9747242202,0.1671696911,-7.8019038469,-4.9313850415,0.3915289217,0.2332120553,-2.4315872755,-0.6606153753,-2.4810027051,-0.0683907419,1.4298358193,-0.8300874596,-2.4284889074,-3.1390300087,7.2472691395,3.6429896733,0.0035210053,0.3196610127,0.4700805261,5.706874172,-2.9604015243,1.0725322842,-0.1240813928,-1.9062533891,-5.7179466879,0.5893276401,-0.5829176555,0.5030424363,0.7660416432,-0.34237244,0.2972501322,-7.1527302496,-0.8448820499,0.0762440762,0.5016181717,6.1310173388,-6.3469886398,7.2262310379,0.7437322615,-3.9243244854,-1.3617331497,0.5509073242,6.0932017288,2.3916579904,0.4418525841,0.6010821898,-1.2528058148,-1.1570437294,-0.0010461562,-0.0198691564,0.2312999129,1.2027505422,-7.3703131701,0.6262133942,0.4775135672,5.5589808716,0.6874661259,0.1549779387,-2.9597053322,0.6187345887,-1.7281729239,5.1871429043,-2.0137625625,0.2218999326,-0.0039901881,0.98662297,0.2612146721,5.0743038378,1.0845568664,0.5224795697,0.5028829919,-6.4666733272,0.3684066981,2.5293071769,-4.3313378396,6.9769609284,2.7367220421,-1.6507649657,0.352557078,-1.2347935215,-3.908293154,-1.5375639729,0.4077891764,-2.0699337992,0.0749875278,9.1930202217,0.8711007701,-1.4166752941
