encog,BasicNetwork,java,3.3.0,1,1479734829011
[BASIC]
[BASIC:PARAMS]
[BASIC:NETWORK]
beginTraining=0
connectionLimit=0
contextTargetOffset=0,0,0,0,0
contextTargetSize=0,0,0,0,0
endTraining=4
hasContext=f
inputCount=1875
layerCounts=11,101,101,121,1876
layerFeedCounts=11,100,100,120,1875
layerContextCount=0,0,0,0,0
layerIndex=0,11,112,213,334
output=##0
##double#2210
   -1,-1,-1,-1,-1,-1,-0.9999999999,-1,0.9999999999,-1,-1,-0.9999999734,-1,0.9999999703,-0.9995660341,-1,-0.9999979698,-0.9999999998,0.7955379602,1,0.9999862389,-0.9990157266,-0.9999999999,-0.9789169278,-0.9999999995,1,0.9999999969,1,-0.9881607719,0.998470649,-0.9999999881,-0.9994097006,-1,0.9998306402,-0.9998550988,-0.9999999998,0.9999862706,0.9932581298,0.7908858256,-0.9999999991,0.9999996318,-1,0.9999497889,0.9999998865,0.9763751867,0.9999987674,1,-0.9999999936,-1,-0.7885089323,-0.256219474,0.9999645797,-0.9999999955,-0.9998876358,-0.9999999986,-0.9996872908,-0.998882659,1,-0.999908708,0.9999997861,-0.9999925837,-0.9793406471,0.9989034146,0.9999963836,-1,0.9999815587,0.0483884632,-0.2537477434,-0.8208020405,-0.9998746962,-1,-0.9999993741,1,0.9999999982,-1,0.4572860893,1,-0.554027256,-0.9234736006,1,-0.9513998308,0.9995806864,1,0.9999989431,-0.9999994116,-0.697556979,-0.9999999999,1,-0.9996429169,-1,0.918351681,-1,-0.9982933737,1,-0.9999999632,-0.9999999868,-0.9999999302,-1,0.9999925482,0.7524945016,0.9999993063,0.9999999981,0.9999803371,-1,-0.521208729,0.9999999997,1,-1,-0.9999890708,0.9329495367,-0.9973747044,1,0.9999906907,-1,-1,-0.9425425291,-0.999999967,1,-1,-1,-1,1,0.2897755214,-0.9996421119,-0.9999999999,0.9995362945,1,1,-0.999999946,1,1,0.9999618689,-0.9999904453,-1,0.9836334512,-0.997785342,0.999999638,-0.9956835515,-0.9999999851,0.9999999324,0.999626309,0.9999518483,-0.1981653115,-1,0.9999738321,0.9999401406,0.9999999997,1,0.9999999987,-0.9999999999,0.7884353733,-1,1,0.9999158227,-0.6112725477,0.9999994713,0.9999999996,0.5141928607,-0.9998581019,1,1,0.999779413,0.9999976056,-0.9999996206,0.9999997212,1,0.3059584305,0.9999340302,-0.9999994016,-0.9999999811,0.999999715,-0.9999986741,1,-0.9999998885,-0.9889074529,-0.9999995876,-1,0.9993992373,1,-0.9999999778,-1,0.9997471423,-0.9999999994,-0.9999974484,0.9999999981,-0.9999999128,-0.3840945433,0.9988927086,0.9999999878,-0.9999999999,0.6693732441,0.9999955915,1,0.9999999718,0.9999999975,0.9999999999,-0.7568823451,1,0.9896831672,-0.6604034081,0.9818941182,-0.9999321824,0.9999055286,0.999953989,-0.9999998147,0.994955417,0.9999999997,-0.998374758,0.9845911284,-0.9999918673,-0.9975933625,0.9999993295,1,1,-1,-1,1,1,1,1,-1,-1,-1,-1,-1,1,-1,1,-0.9787356599,0.9999990755,1,1,-1,-0.9999999897,0.9689239228,1,1,1,1,-1,-1,-0.999999999,-1,0.9999999996,-1,-0.0692779684,-1,-1,-1,0.9999844538,-1,1,1,0.999977158,-1,0.8859840221,-1,1,1,1,0.999999999,-1,-1,-1,1,-1,1,-0.982016506,-1,1,1,-1,1,1,-1,1,1,1,-0.944436938,-1,-0.9999999999,1,1,-1,1,-1,1,-1,-0.9999999954,-1,-1,-1,-1,1,1,-1,-0.9999881894,-1,1,0.9854956777,-1,0.9995060116,0.9999999376,1,1,-0.9999999951,-1,-1,1,-0.4389312407,-1,1,0.9999999825,1,-1,-1,1,-1,0.9999999969,1,-1,-1,-1,-1,1,-1,-1,1,1,1,-1,-1,-1,1,0.8196078431,0.8274509804,0.8666666667,0.8980392157,0.9294117647,0.9529411765,0.937254902,0.9764705882,0.9843137255,0.9450980392,0.9843137255,0.9843137255,0.968627451,0.9921568627,0.9921568627,0.9764705882,0.9843137255,1,0.9764705882,0.9921568627,0.9921568627,0.9921568627,0.9921568627,0.9921568627,1,1,1,1,1,1,1,1,1,1,1,1,1,1,1,1,1,1,1,1,1,1,1,1,0.9921568627,0.9921568627,0.9921568627,0.9921568627,0.9921568627,0.9921568627,1,1,1,0.9764705882,0.9764705882,0.9764705882,0.7882352941,0.7882352941,0.8352941176,0.8509803922,0.8431372549,0.8901960784,0.4039215686,0.3960784314,0.4666666667,-0.0274509804,-0.1058823529,-0.0274509804,0.1764705882,0.137254902,0.2,0.2392156863,0.2235294118,0.3411764706,0.4901960784,0.4823529412,0.6,0.7568627451,0.7882352941,0.8666666667,0.6862745098,0.7019607843,0.7882352941,0.9607843137,0.968627451,0.9764705882,0.9921568627,0.9921568627,0.9921568627,0.9921568627,0.9921568627,1,0.9921568627,1,1,1,1,1,1,1,1,1,1,1,1,1,1,1,1,1,1,1,1,0.9921568627,0.9921568627,0.9843137255,0.8196078431,0.8117647059,0.8588235294,0.7019607843,0.6941176471,0.7411764706,0.8352941176,0.8196078431,0.8666666667,0.9764705882,0.968627451,0.9764705882,0.8980392157,0.8901960784,0.9058823529,0.6078431373,0.5843137255,0.662745098,0.5607843137,0.5529411765,0.6156862745,0.1450980392,0.0980392157,0.168627451,-0.0588235294,-0.1215686275,-0.0666666667,-0.0666666667,-0.1058823529,-0.0745098039,0.1843137255,0.1607843137,0.2784313725,0.231372549,0.2078431373,0.3411764706,0.3725490196,0.3647058824,0.4901960784,0.4745098039,0.4666666667,0.5764705882,0.7725490196,0.7568627451,0.8117647059,0.9921568627,1,0.9921568627,0.9921568627,1,1,0.9921568627,1,1,1,1,1,1,1,1,1,1,1,1,1,1,1,1,1,0.9843137255,0.9843137255,0.9843137255,0.9058823529,0.8980392157,0.9137254902,0.6392156863,0.6235294118,0.6941176471,0.4901960784,0.4666666667,0.5607843137,0.5058823529,0.4823529412,0.5764705882,0.7098039216,0.6941176471,0.7568627451,0.9058823529,0.8980392157,0.9058823529,0.5764705882,0.5529411765,0.6078431373,0.1529411765,0.1215686275,0.2078431373,-0.1137254902,-0.1529411765,-0.0745098039,-0.0901960784,-0.1529411765,-0.0980392157,-0.1529411765,-0.1843137255,-0.1607843137,0.0117647059,-0.0117647059,0.0823529412,0.2,0.1843137255,0.2941176471,0.3176470588,0.3254901961,0.4196078431,0.2156862745,0.2392156863,0.3568627451,0.5843137255,0.6,0.7019607843,0.9529411765,0.968627451,0.9764705882,0.9529411765,0.968627451,0.9764705882,0.9529411765,0.9607843137,0.968627451,0.9764705882,0.9764705882,0.9843137255,1,1,1,1,1,1,1,1,1,0.9921568627,0.9921568627,0.9843137255,0.9215686275,0.9137254902,0.9294117647,0.7411764706,0.7254901961,0.7803921569,0.4901960784,0.4666666667,0.5529411765,0.262745098,0.2392156863,0.3254901961,0.3647058824,0.3411764706,0.4431372549,0.2941176471,0.2705882353,0.3725490196,0.7019607843,0.6862745098,0.7568627451,0.4352941176,0.4196078431,0.4980392157,0.137254902,0.137254902,0.231372549,-0.1058823529,-0.1215686275,-0.0431372549,-0.0901960784,-0.1058823529,-0.0666666667,-0.0823529412,-0.1215686275,-0.0901960784,-0.137254902,-0.137254902,-0.0901960784,0.0117647059,-0.0196078431,0.0823529412,0.0980392157,0.1294117647,0.2470588235,0.3019607843,0.3411764706,0.4666666667,0.3647058824,0.3882352941,0.5215686275,0.8666666667,0.8666666667,0.8901960784,0.7647058824,0.7647058824,0.8431372549,0.6470588235,0.6470588235,0.7647058824,0.8196078431,0.8039215686,0.8588235294,0.9921568627,0.9921568627,0.9921568627,1,1,1,0.9921568627,0.9921568627,0.9921568627,0.8823529412,0.8745098039,0.8980392157,0.7176470588,0.6784313725,0.7333333333,0.4039215686,0.3411764706,0.4039215686,0.2235294118,0.137254902,0.231372549,0.0274509804,-0.0196078431,0.0431372549,0.0745098039,0.0509803922,0.1294117647,-0.0745098039,-0.1137254902,-0.0196078431,0.2235294118,0.1764705882,0.2941176471,0.2392156863,0.2078431373,0.3019607843,0.0196078431,-0.0039215686,0.0745098039,-0.1294117647,-0.168627451,-0.1215686275,-0.2078431373,-0.2392156863,-0.2156862745,-0.168627451,-0.2156862745,-0.1921568627,-0.0352941176,-0.0509803922,0.0352941176,-0.0352941176,-0.0274509804,0.0745098039,-0.0901960784,-0.0666666667,0.0196078431,0.3411764706,0.3725490196,0.4745098039,0.4352941176,0.4666666667,0.5921568627,0.6470588235,0.6784313725,0.7803921569,0.537254902,0.5529411765,0.6784313725,0.5529411765,0.5529411765,0.662745098,0.7882352941,0.7803921569,0.8274509804,0.9921568627,0.9921568627,0.9921568627,0.9921568627,0.9921568627,0.9921568627,0.8980392157,0.8980392157,0.9137254902,0.6156862745,0.5921568627,0.6549019608,0.1607843137,0.1058823529,0.168627451,-0.0352941176,-0.0980392157,-0.0274509804,-0.2470588235,-0.2941176471,-0.231372549,-0.1843137255,-0.2549019608,-0.1921568627,-0.1137254902,-0.1450980392,-0.0901960784,-0.0588235294,-0.0745098039,-0.0039215686,0.1607843137,0.1137254902,0.2156862745,0.0509803922,-0.0117647059,0.0431372549,0.1607843137,0.1137254902,0.168627451,-0.1764705882,-0.2,-0.168627451,-0.2784313725,-0.3098039216,-0.2862745098,-0.2862745098,-0.3333333333,-0.3176470588,-0.3098039216,-0.3490196078,-0.3019607843,-0.1137254902,-0.1137254902,-0.0352941176,-0.1529411765,-0.1607843137,-0.0823529412,0.0274509804,0.0431372549,0.1450980392,0.4196078431,0.4431372549,0.5529411765,0.568627451,0.5843137255,0.7019607843,0.4431372549,0.4588235294,0.568627451,0.3647058824,0.3803921569,0.4823529412,0.6156862745,0.5921568627,0.6941176471,0.9921568627,0.9921568627,0.9921568627,0.9921568627,0.9843137255,0.9843137255,0.7960784314,0.7882352941,0.8431372549,0.1921568627,0.1607843137,0.2470588235,-0.2156862745,-0.2705882353,-0.1921568627,-0.2784313725,-0.3176470588,-0.2549019608,-0.3725490196,-0.3882352941,-0.3411764706,-0.3411764706,-0.3725490196,-0.3254901961,-0.3019607843,-0.3176470588,-0.2470588235,-0.1529411765,-0.1764705882,-0.0901960784,0.0509803922,-0.0274509804,0.0431372549,-0.0039215686,-0.1058823529,-0.0509803922,0.2470588235,0.2078431373,0.2549019608,0.0352941176,-0.0039215686,0.0431372549,-0.3882352941,-0.4352941176,-0.4274509804,-0.3803921569,-0.4196078431,-0.4196078431,-0.3019607843,-0.3568627451,-0.2941176471,-0.2392156863,-0.262745098,-0.2078431373,-0.0666666667,-0.0901960784,-0.0117647059,0.1843137255,0.1764705882,0.2705882353,0.3333333333,0.3411764706,0.4588235294,0.5137254902,0.537254902,0.662745098,0.4980392157,0.5450980392,0.6470588235,0.2,0.231372549,0.3333333333,0.4745098039,0.4823529412,0.6,0.9294117647,0.9294117647,0.9607843137,0.8666666667,0.8745098039,0.9137254902,0.6,0.6,0.6941176471,0.1529411765,0.137254902,0.2392156863,-0.2705882353,-0.2862745098,-0.2235294118,-0.3568627451,-0.3568627451,-0.3176470588,-0.3960784314,-0.3960784314,-0.3568627451,-0.4117647059,-0.4117647059,-0.3568627451,-0.4431372549,-0.4509803922,-0.3647058824,-0.2941176471,-0.3098039216,-0.2235294118,-0.1607843137,-0.2235294118,-0.1529411765,-0.262745098,-0.3098039216,-0.262745098,0.2078431373,0.1607843137,0.2078431373,0.0274509804,-0.0352941176,0.0196078431,-0.3725490196,-0.3803921569,-0.3725490196,-0.5215686275,-0.5450980392,-0.5450980392,-0.3647058824,-0.3960784314,-0.3490196078,-0.0274509804,-0.0274509804,0.0588235294,-0.0588235294,-0.0823529412,-0.0117647059,-0.0823529412,-0.137254902,-0.0901960784,0.2549019608,0.2235294118,0.3333333333,0.6078431373,0.631372549,0.7490196078,0.3725490196,0.4117647059,0.5215686275,0.1058823529,0.137254902,0.2235294118,0.2,0.2078431373,0.3176470588,0.2941176471,0.3098039216,0.3803921569,0.4352941176,0.4274509804,0.537254902,0.3098039216,0.3098039216,0.4039215686,-0.168627451,-0.1843137255,-0.0823529412,-0.4196078431,-0.4117647059,-0.3647058824,-0.4274509804,-0.4196078431,-0.3803921569,-0.4431372549,-0.4352941176,-0.4196078431,-0.4588235294,-0.4588235294,-0.4039215686,-0.5058823529,-0.5137254902,-0.4274509804,-0.5137254902,-0.5215686275,-0.4431372549,-0.231372549,-0.2705882353,-0.1921568627,-0.1137254902,-0.1607843137,-0.0901960784,0.168627451,0.1294117647,0.1921568627,-0.2078431373,-0.2156862745,-0.168627451,-0.4274509804,-0.4274509804,-0.3803921569,-0.6078431373,-0.6470588235,-0.6078431373,-0.3647058824,-0.4274509804,-0.3647058824,-0.0588235294,-0.0980392157,-0.0117647059,-0.0352941176,-0.0823529412,0.0117647059,-0.0352941176,-0.0588235294,0.0274509804,0.0352941176,-0.0117647059,0.0823529412,-0.0823529412,-0.0745098039,0.0274509804,-0.0745098039,-0.0274509804,0.0431372549,-0.3960784314,-0.3568627451,-0.2862745098,-0.5843137255,-0.568627451,-0.4901960784,-0.5764705882,-0.5764705882,-0.4901960784,-0.3568627451,-0.4039215686,-0.3490196078,-0.5294117647,-0.5215686275,-0.4980392157,-0.4196078431,-0.3882352941,-0.3411764706,-0.4588235294,-0.4431372549,-0.3960784314,-0.5137254902,-0.4901960784,-0.4588235294,-0.5450980392,-0.5137254902,-0.4823529412,-0.5450980392,-0.5294117647,-0.4745098039,-0.631372549,-0.6392156863,-0.5529411765,-0.6549019608,-0.6705882353,-0.5921568627,-0.6,-0.6235294118,-0.568627451,-0.1764705882,-0.1843137255,-0.0823529412,0.1294117647,0.1529411765,0.231372549,-0.5529411765,-0.5137254902,-0.4509803922,-0.6862745098,-0.6549019608,-0.6235294118,-0.7882352941,-0.7725490196,-0.7254901961,-0.5137254902,-0.5215686275,-0.4666666667,-0.4588235294,-0.4431372549,-0.4196078431,-0.5450980392,-0.5137254902,-0.4745098039,-0.4666666667,-0.4431372549,-0.4196078431,-0.4274509804,-0.3960784314,-0.3490196078,-0.6862745098,-0.6549019608,-0.5764705882,-0.6862745098,-0.6549019608,-0.6,-0.6941176471,-0.6705882353,-0.5764705882,-0.7333333333,-0.6941176471,-0.6078431373,-0.6549019608,-0.6549019608,-0.5450980392,-0.4509803922,-0.4980392157,-0.4196078431,-0.6392156863,-0.6156862745,-0.5450980392,-0.631372549,-0.6078431373,-0.537254902,-0.5843137255,-0.5450980392,-0.5137254902,-0.6549019608,-0.6156862745,-0.5843137255,-0.6941176471,-0.6549019608,-0.5921568627,-0.7176470588,-0.662745098,-0.6,-0.6941176471,-0.7019607843,-0.6156862745,-0.6941176471,-0.7098039216,-0.6235294118,-0.6705882353,-0.7098039216,-0.6705882353,-0.3411764706,-0.3568627451,-0.2549019608,-0.6156862745,-0.568627451,-0.4823529412,-0.7882352941,-0.7254901961,-0.662745098,-0.7098039216,-0.6549019608,-0.6078431373,-0.8196078431,-0.7960784314,-0.7333333333,-0.3254901961,-0.3019607843,-0.3960784314,-0.3176470588,-0.2549019608,-0.3803921569,-0.3411764706,-0.2784313725,-0.3803921569,-0.231372549,-0.2235294118,-0.2941176471,-0.168627451,-0.1764705882,-0.2235294118,-0.2470588235,-0.2470588235,-0.2862745098,-0.2078431373,-0.2235294118,-0.2784313725,-0.1764705882,-0.2549019608,-0.2705882353,-0.2470588235,-0.262745098,-0.2941176471,-0.2392156863,-0.2156862745,-0.2784313725,-0.2235294118,-0.2235294118,-0.2705882353,-0.2862745098,-0.2392156863,-0.3098039216,-0.4666666667,-0.4352941176,-0.4352941176,-0.7411764706,-0.7176470588,-0.6549019608,-0.6470588235,-0.6470588235,-0.6078431373,-0.5843137255,-0.5843137255,-0.5529411765,-0.3725490196,-0.4431372549,-0.4196078431,-0.1764705882,-0.2470588235,-0.3098039216,-0.1921568627,-0.2784313725,-0.2862745098,-0.2862745098,-0.3882352941,-0.3803921569,-0.4901960784,-0.4666666667,-0.4901960784,-0.6392156863,-0.5607843137,-0.537254902,-0.631372549,-0.5921568627,-0.568627451,-0.5764705882,-0.5607843137,-0.568627451,-0.4980392157,-0.5137254902,-0.5529411765,-0.2235294118,-0.262745098,-0.3411764706,-0.1843137255,-0.231372549,-0.3176470588,-0.1450980392,-0.1921568627,-0.2784313725,-0.0745098039,-0.1607843137,-0.2392156863,-0.0666666667,-0.137254902,-0.2078431373,-0.0745098039,-0.0980392157,-0.1921568627,-0.0588235294,-0.0666666667,-0.1764705882,-0.0509803922,-0.0901960784,-0.1764705882,-0.1450980392,-0.1450980392,-0.2392156863,-0.137254902,-0.1294117647,-0.2235294118,-0.1607843137,-0.1764705882,-0.2470588235,-0.168627451,-0.1607843137,-0.2470588235,-0.2941176471,-0.2784313725,-0.3176470588,-0.1764705882,-0.2392156863,-0.2705882353,-0.1058823529,-0.2078431373,-0.2470588235,-0.7098039216,-0.7568627451,-0.6941176471,-0.8745098039,-0.8901960784,-0.8431372549,0.1843137255,0.0509803922,0.0352941176,0.2549019608,0.1215686275,0.137254902,0.1529411765,0.0117647059,0.0196078431,0.0196078431,-0.0823529412,-0.1137254902,-0.1137254902,-0.137254902,-0.2392156863,-0.168627451,-0.168627451,-0.3490196078,-0.262745098,-0.2078431373,-0.3882352941,-0.3254901961,-0.2392156863,-0.4039215686,-0.3882352941,-0.3490196078,-0.4274509804,-0.3019607843,-0.2705882353,-0.3254901961,-0.3960784314,-0.3333333333,-0.3882352941,-0.3098039216,-0.2941176471,-0.3333333333,-0.3098039216,-0.3019607843,-0.3098039216,-0.4352941176,-0.4274509804,-0.4117647059,-0.3960784314,-0.4039215686,-0.4039215686,-0.3725490196,-0.4039215686,-0.4039215686,-0.4117647059,-0.4117647059,-0.4196078431,-0.3803921569,-0.3568627451,-0.3725490196,-0.3176470588,-0.3098039216,-0.3254901961,-0.168627451,-0.1607843137,-0.1450980392,-0.0980392157,-0.0666666667,-0.137254902,-0.0274509804,0.0196078431,-0.1137254902,0.0274509804,0.0588235294,-0.0901960784,-0.7098039216,-0.7098039216,-0.6941176471,-0.7960784314,-0.8117647059,-0.7411764706,-0.1294117647,-0.2392156863,-0.2078431373,-0.231372549,-0.3098039216,-0.2470588235,0.1843137255,0.0588235294,0.0666666667,0.3490196078,0.2156862745,0.1607843137,0.2862745098,0.168627451,0.0980392157,0.2,0.1215686275,0.0196078431,0.1921568627,0.1137254902,-0.0117647059,0.1921568627,0.1058823529,-0.0039215686,-0.3254901961,-0.3490196078,-0.2549019608,0.3098039216,0.3176470588,0.4509803922,0.0980392157,0.1058823529,0.1921568627,0.0196078431,-0.0274509804,0.0431372549,0.0823529412,0.0666666667,0.137254902,-0.4666666667,-0.4431372549,-0.3647058824,-0.5764705882,-0.5529411765,-0.4901960784,-0.631372549,-0.6,-0.537254902,-0.662745098,-0.6470588235,-0.5843137255,-0.6156862745,-0.6235294118,-0.5215686275,-0.4509803922,-0.4901960784,-0.4117647059,-0.4352941176,-0.4274509804,-0.3490196078,-0.2941176471,-0.2784313725,-0.2,-0.2,-0.1921568627,-0.168627451,-0.0901960784,-0.0980392157,-0.1137254902,-0.8274509804,-0.8431372549,-0.8039215686,-0.8588235294,-0.8901960784,-0.8509803922,-0.7411764706,-0.7803921569,-0.7019607843,-0.8274509804,-0.8274509804,-0.7490196078,-0.4745098039,-0.568627451,-0.4901960784,0.2235294118,0.0901960784,0.0823529412,0.168627451,0.0352941176,0.0431372549,-0.0274509804,-0.1058823529,-0.1450980392,0.3176470588,0.1764705882,0.1921568627,-0.0431372549,-0.1215686275,-0.168627451,-0.231372549,-0.2549019608,-0.168627451,0.1215686275,0.1450980392,0.2470588235,-0.0666666667,-0.1137254902,-0.0196078431,0.0352941176,-0.0274509804,0.0588235294,0.2941176471,0.2941176471,0.3960784314,0.4666666667,0.4823529412,0.6156862745,0.3647058824,0.3882352941,0.5137254902,-0.0196078431,0.0196078431,0.0980392157,-0.3647058824,-0.3490196078,-0.3019607843,-0.4666666667,-0.4745098039,-0.4352941176,-0.2078431373,-0.2392156863,-0.1764705882,-0.3333333333,-0.3490196078,-0.3176470588,-0.3333333333,-0.3333333333,-0.2941176471,-0.4117647059,-0.4196078431,-0.3803921569,-0.4117647059,-0.4431372549,-0.4117647059,-0.8431372549,-0.8823529412,-0.8352941176,-0.7960784314,-0.8666666667,-0.8274509804,-0.6941176471,-0.7803921569,-0.7254901961,-0.7411764706,-0.8196078431,-0.7803921569,-0.7176470588,-0.7960784314,-0.7411764706,0.168627451,0.0274509804,0.0666666667,0.262745098,0.1529411765,0.1921568627,0.2941176471,0.1607843137,0.1843137255,0.262745098,0.1058823529,0.1058823529,0.1843137255,0.0588235294,0.0117647059,-0.262745098,-0.262745098,-0.2784313725,-0.0509803922,-0.0274509804,-0.0117647059,-0.0039215686,-0.0039215686,0.0196078431,0.1607843137,0.1529411765,0.2235294118,0.262745098,0.2862745098,0.3411764706,0.3803921569,0.3882352941,0.4509803922,0.2862745098,0.2941176471,0.3411764706,0.0823529412,0.0980392157,0.137254902,0.1843137255,0.168627451,0.1921568627,0.168627451,0.1607843137,0.1450980392,0.168627451,0.1529411765,0.1058823529,0.1294117647,0.1137254902,0.0352941176,0.2078431373,0.137254902,0.0745098039,0.2784313725,0.168627451,0.1137254902,0.3176470588,0.1921568627,0.137254902,-0.7803921569,-0.8352941176,-0.7882352941,-0.8352941176,-0.8901960784,-0.8588235294,-0.631372549,-0.7725490196,-0.7333333333,-0.7725490196,-0.8431372549,-0.8039215686,-0.6784313725,-0.8039215686,-0.7803921569,0.3254901961,0.1294117647,0.0823529412,0.3725490196,0.1921568627,0.1529411765,0.3725490196,0.2078431373,0.1764705882,0.3490196078,0.1843137255,0.168627451,0.3411764706,0.1764705882,0.1607843137,0.0823529412,0.0431372549,-0.168627451,0.137254902,0.0980392157,-0.0901960784,0.1843137255,0.1215686275,-0.0745098039,0.1921568627,0.137254902,-0.0588235294,0.2470588235,0.2,-0.0039215686,0.262745098,0.2078431373,0.0196078431,0.2941176471,0.2235294118,0.0509803922,0.3490196078,0.2470588235,0.1058823529,0.3725490196,0.2549019608,0.1215686275,0.4039215686,0.2862745098,0.168627451,0.4274509804,0.2941176471,0.2078431373,0.4274509804,0.3019607843,0.2235294118,0.4509803922,0.3019607843,0.2470588235,0.4431372549,0.2941176471,0.2470588235,0.4274509804,0.2784313725,0.2235294118,-0.5607843137,-0.6392156863,-0.6156862745,-0.8039215686,-0.8666666667,-0.8274509804,-0.6941176471,-0.8274509804,-0.7960784314,-0.8666666667,-0.9058823529,-0.8823529412,-0.6235294118,-0.7803921569,-0.7647058824,0.2862745098,0.0980392157,0.0666666667,0.4196078431,0.262745098,0.2156862745,0.4039215686,0.2392156863,0.2,0.3960784314,0.2156862745,0.1764705882,0.3803921569,0.1921568627,0.1529411765,0.4352941176,0.262745098,0.1921568627,0.4431372549,0.2862745098,0.2078431373,0.4509803922,0.2941176471,0.2235294118,0.3568627451,0.2156862745,0.1294117647,0.1058823529,0.0588235294,-0.1529411765,0.2235294118,0.1529411765,-0.0509803922,0.3725490196,0.2392156863,0.1058823529,0.4588235294,0.3176470588,0.2549019608,0.4588235294,0.3098039216,0.2470588235,0.4666666667,0.3098039216,0.2549019608,0.4666666667,0.3098039216,0.2549019608,0.4745098039,0.3176470588,0.262745098,0.4666666667,0.3176470588,0.2705882353,0.4666666667,0.3098039216,0.2549019608,0.4588235294,0.3019607843,0.2470588235,0.0196078431,-0.1294117647,-0.1450980392,-0.8823529412,-0.9058823529,-0.8666666667,0.0431372549,-0.1450980392,-0.168627451,-0.6078431373,-0.6862745098,-0.6784313725,-0.6705882353,-0.7960784314,-0.7725490196,0.2549019608,0.0901960784,0.0509803922,0.4431372549,0.2784313725,0.2156862745,0.4431372549,0.2470588235,0.2,0.4039215686,0.1921568627,0.137254902,0.3960784314,0.1921568627,0.137254902,0.3960784314,0.2235294118,0.1294117647,0.4039215686,0.2392156863,0.1529411765,0.3803921569,0.2078431373,0.1215686275,0.4196078431,0.2470588235,0.168627451,0.3882352941,0.231372549,0.1529411765,0.3803921569,0.2156862745,0.1294117647,0.4509803922,0.2941176471,0.231372549,0.4352941176,0.2784313725,0.2078431373,0.4431372549,0.2941176471,0.2470588235,0.4117647059,0.2549019608,0.2078431373,0.4039215686,0.2470588235,0.1843137255,0.4117647059,0.2549019608,0.2,0.3803921569,0.2156862745,0.1607843137,0.3568627451,0.1921568627,0.137254902,0.3568627451,0.1764705882,0.1294117647,0.1921568627,0.0274509804,0.0039215686,-0.8431372549,-0.8588235294,-0.8039215686,0.3490196078,0.1529411765,0.0980392157,-0.5058823529,-0.5764705882,-0.568627451,-0.4666666667,-0.568627451,-0.5529411765,0.4431372549,0.262745098,0.2078431373,0.4352941176,0.2549019608,0.2,0.4509803922,0.2705882353,0.2078431373,0.4274509804,0.2470588235,0.2,0.3882352941,0.2078431373,0.1607843137,0.2784313725,0.1294117647,-0.0196078431,0.3725490196,0.2,0.0823529412,0.3803921569,0.2078431373,0.1137254902,0.3960784314,0.2078431373,0.0980392157,0.4274509804,0.2392156863,0.1529411765,0.4117647059,0.2470588235,0.168627451,0.4431372549,0.2705882353,0.1764705882,0.4352941176,0.2705882353,0.2,0.4274509804,0.262745098,0.1921568627,0.4352941176,0.262745098,0.1764705882,0.4196078431,0.2470588235,0.168627451,0.3960784314,0.2156862745,0.1529411765,0.3803921569,0.2078431373,0.137254902,0.3411764706,0.1764705882,0.1058823529,0.3254901961,0.1450980392,0.0745098039,0.2,0.0196078431,-0.0352941176,-0.1058823529,-0.2470588235,-0.2941176471,0.262745098,0.0431372549,-0.0431372549,0.0274509804,-0.1529411765,-0.2235294118,0.1137254902,-0.0588235294,-0.1294117647,0.3960784314,0.2078431373,0.137254902,0.4117647059,0.2392156863,0.168627451,0.4117647059,0.231372549,0.168627451,0.4431372549,0.2549019608,0.1921568627,0.4117647059,0.2235294118,0.168627451,0.3568627451,0.1607843137,0.0588235294,0.3882352941,0.1764705882,0.0901960784,0.3568627451,0.1843137255,0.0666666667,0.4196078431,0.2235294118,0.1137254902,0.4039215686,0.2,0.1137254902,0.3882352941,0.2078431373,0.1058823529,0.4431372549,0.262745098,0.168627451,0.4431372549,0.2705882353,0.1921568627,0.4274509804,0.2470588235,0.1607843137,0.4274509804,0.2470588235,0.1607843137,0.4274509804,0.2392156863,0.168627451,0.4509803922,0.2549019608,0.1843137255,0.4352941176,0.2549019608,0.1764705882,0.4509803922,0.2784313725,0.2,0.4352941176,0.2549019608,0.1764705882,0.4352941176,0.2549019608,0.1843137255,0.4431372549,0.2549019608,0.1921568627,0.4352941176,0.2392156863,0.1607843137,0.4196078431,0.2156862745,0.1294117647,0.4352941176,0.2392156863,0.1764705882,0.4196078431,0.2470588235,0.1764705882,0.4274509804,0.2470588235,0.1764705882,0.4196078431,0.231372549,0.168627451,0.4274509804,0.2470588235,0.1921568627,0.4274509804,0.231372549,0.168627451,0.3882352941,0.1843137255,0.0823529412,0.4352941176,0.2235294118,0.137254902,0.4431372549,0.231372549,0.1450980392,0.4274509804,0.2156862745,0.1294117647,0.4196078431,0.2392156863,0.1529411765,0.4509803922,0.2549019608,0.1607843137,0.4352941176,0.2235294118,0.137254902,0.4196078431,0.2235294118,0.1294117647,0.4509803922,0.2392156863,0.1607843137,0.4196078431,0.2078431373,0.1294117647,0.4352941176,0.2470588235,0.1607843137,0.4196078431,0.2392156863,0.168627451,0.4352941176,0.2549019608,0.1921568627,0.4274509804,0.2549019608,0.2,0.4274509804,0.2392156863,0.1843137255,0.4274509804,0.2470588235,0.168627451,0.4196078431,0.2392156863,0.168627451,0.4274509804,0.2470588235,0.1764705882,0.4196078431,0.231372549,0.1607843137,0.4117647059,0.2078431373,0.137254902,0.4117647059,0.2392156863,0.1529411765,0.4274509804
   0.231372549,0.1529411765,0.3882352941,0.1764705882,0.1058823529,0.4039215686,0.2,0.1450980392,0.3882352941,0.2,0.137254902,0.3960784314,0.1843137255,0.0980392157,0.3882352941,0.1764705882,0.0901960784,0.4431372549,0.2235294118,0.1450980392,0.4039215686,0.2,0.1058823529,0.4117647059,0.2078431373,0.1137254902,0.4352941176,0.2392156863,0.1529411765,0.4274509804,0.2549019608,0.1607843137,0.4588235294,0.2705882353,0.1764705882,0.4274509804,0.2392156863,0.1529411765,0.4274509804,0.2549019608,0.168627451,0.4196078431,0.231372549,0.1529411765,0.4196078431,0.2470588235,0.1607843137,0.3647058824,0.2,0.1058823529,0.4117647059,0.2470588235,0.168627451,0.4509803922,0.2705882353,0.2078431373,0.4117647059,0.2235294118,0.1607843137,0.4117647059,0.2235294118,0.1607843137,0.4039215686,0.2156862745,0.1450980392,0.4039215686,0.2,0.1294117647,0.4039215686,0.1921568627,0.1215686275,0.3960784314,0.2,0.1294117647,0.3647058824,0.1843137255,0.1137254902,0.4039215686,0.1921568627,0.1215686275,0.4196078431,0.2078431373,0.1450980392,0.3803921569,0.1764705882,0.1215686275,0.5058823529,0.3333333333,0.2549019608,0.3725490196,0.137254902,0.0431372549,0.4431372549,0.2392156863,0.1450980392,0.4196078431,0.2,0.1137254902,0.4196078431,0.2235294118,0.1294117647,0.4352941176,0.2235294118,0.137254902,0.4352941176,0.2392156863,0.1529411765,0.4274509804,0.2156862745,0.1294117647,0.4274509804,0.2078431373,0.1058823529,0.4196078431,0.2156862745,0.1215686275,0.3803921569,0.2,0.0980392157,0.4117647059,0.2549019608,0.1607843137,0.3882352941,0.2235294118,0.1294117647,0.4274509804,0.2470588235,0.1764705882,0.3882352941,0.2235294118,0.1450980392,0.3333333333,0.168627451,0.0352941176,0.3647058824,0.2,0.0901960784,0.4117647059,0.2156862745,0.137254902,0.4196078431,0.231372549,0.168627451,0.2941176471,0.1450980392,0.0196078431,0.3333333333,0.1607843137,0.0509803922,0.4039215686,0.2,0.1215686275,0.4039215686,0.1921568627,0.1294117647,0.3647058824,0.137254902,0.0823529412,0.4666666667,0.2941176471,0.2392156863,1
##end
outputCount=11
weightIndex=0,1111,11211,23311,248431
weights=##1
##double#248431
   -0.2387124848,-1.1211745209,-2.2884877066,0.934717231,0.3624420929,-4.6359366967,1.4749209077,0.5474569182,0.6214936391,-0.0967038564,0.2713239339,-0.287410797,-0.162184343,0.2343297773,-1.1475216465,-0.6179582079,0.4560132691,1.0090971193,2.952692593,0.9567098756,-3.5221902019,1.6273186061,-1.2126172468,2.1475768945,-2.1557609769,0.3118942885,-0.9850690469,1.4607213336,1.2569064642,-3.1868642175,1.8344735434,-3.2022384452,-0.1343612328,0.3114070707,-2.2577349393,-0.2583399228,-3.8195773896,-2.0148618586,-0.1874464474,0.4636782223,5.8696264774,2.0240205568,3.2857887513,0.9758325466,0.4011965399,0.1844924701,3.1098201134,-2.0090652665,-1.1205036326,0.8429427425,-0.5620318322,2.2153471361,-1.534282462,0.9069312118,1.2447475222,-0.7929380587,2.0666074521,-2.2541882502,1.6811272567,0.6257153155,-0.0791271895,-1.8502305528,0.4649811305,-1.89839902,-3.9421293017,0.7342595988,-2.2991197553,0.4907927893,-2.1698110464,0.6166867914,1.0652300334,1.3799667969,-1.245397651,-0.2743470496,3.5490211737,0.4705324816,1.2356393724,1.1453716156,-1.6550352548,-2.5239335464,0.9186710561,-0.242230822,-4.4583326257,-2.3643725863,0.8253289894,0.6778642489,1.1358481616,2.3159603226,1.1287721138,-4.3551332266,-0.1709488919,0.058992114,-1.0801020657,3.5904504861,0.5430145832,1.3054451608,-0.2652423932,2.2089340455,0.0847330147,3.0759759329,-2.6232029326,0.4563564987,0.6546567026,0.2334586294,-0.0648904536,-0.0937612532,0.6828167172,0.4934186929,0.4109262416,-0.7999441802,-0.1993630008,0.3643775722,0.0882020387,-0.2471616488,1.4095189189,-0.4748194249,-0.0898256441,0.699955642,0.1712693684,0.7278327791,0.0774143056,0.8932359725,-0.6766768564,-0.8717459109,-0.4031828834,0.4527010009,-1.2342540394,0.9002243781,-0.6741746442,-0.8838043188,0.1819322077,0.2668308884,0.6536689589,0.4022257275,0.0933183935,0.7246883213,-1.0896028263,0.5043088936,-0.8771384294,1.0573142283,0.51253098,-0.1571936563,0.321078495,-0.9107147223,-0.2385481559,0.0812105372,-1.153925958,-0.8867363353,-0.014663298,-0.8663962202,0.2632580077,0.0015243674,0.0713093683,-0.5398643351,0.3101692656,-1.6312660173,-0.9793264751,0.704203299,-0.1259692854,0.5434390812,0.0389325142,0.277042002,1.0969289541,-1.1240089916,-0.1135682112,0.888792273,-0.6013084174,0.5765049494,-0.1105803615,-0.5985399815,0.3916476724,0.7701762404,-0.8056974437,0.2714533542,0.1042899291,-0.4418724876,0.4284706485,0.0922348009,0.7954472136,-0.2604814066,-0.3315104003,-0.0803687632,0.8487308533,0.5849803158,0.0503473003,0.0190447849,0.3856625237,0.6632542464,0.1838018165,0.0319786089,0.7604610573,-0.6704977355,-0.6604613656,0.8863821593,-0.66440307,-0.2299353182,-0.5512931606,-0.0146092918,-0.7580667262,-0.510435228,0.0385421372,-12.9537267005,1.1995945391,0.7822572227,-0.0556039209,-0.7147695819,0.5562003082,0.2587056802,0.4061511159,0.4066318384,0.4430713854,-0.5452228357,-0.9477327206,0.3169548584,-0.0923569484,2.5873090464,-1.1244201779,-0.2516371746,-0.080517329,0.2020626799,0.8500360197,-0.76608236,-0.426750229,-0.2969485186,-1.1352966387,-0.9345853663,0.3782460589,-0.9887490584,-0.5349511227,-0.4501347162,0.0483731842,-0.0375160585,-0.3013955131,-0.7621953681,-0.2930482254,0.9422912095,0.2969991605,-1.1810020679,-0.0410050982,-0.20643005,0.7694453925,-0.0751056403,0.9365364139,0.3248137791,0.4629616156,-0.5177568377,0.0622136267,0.7076734598,-0.5339417994,0.6849031989,-0.4876444233,0.3109222657,-0.0325527587,-0.1621144767,-0.9778527912,0.5278100399,-2.3965266544,-0.6021658437,-0.3345283266,0.8061733677,0.5010324254,0.8454440802,0.4479139837,0.5177668047,0.3371049157,0.8275742955,-0.1090195244,-0.4541693459,-0.2418573351,-0.2015898058,-0.2498845906,-0.0835350773,0.6062936377,0.5551671753,-0.4294179594,-0.7358489619,-0.4439453827,0.458734663,0.5011723229,-0.3484539669,-0.7109551525,-0.8458979742,-0.2725070381,0.211539333,-0.4952877482,0.7745885963,-0.05412336,-0.6859688266,0.4846758905,0.1311275018,-0.7071198176,-0.7922891937,-0.7737685099,-0.4894330994,-0.0330564267,-0.0452212274,-0.1542009545,-0.8838653933,-0.1929232597,-0.494229802,-1.1464697367,0.6041112409,-14.8661776707,0.6977368838,0.5739808095,-0.1318375939,0.3701552169,-0.0727349199,0.6272245657,-0.1370040964,-0.139709663,0.4936473791,0.8125248673,-0.7271985058,0.1096520623,0.1701278092,0.153636889,-0.7035075749,-0.1932100581,-1.0464480008,-0.4932097168,-0.4616339606,0.2580994109,0.0024351711,-0.1630249088,-0.9295625327,-0.5956606182,-0.3585422457,0.3064477932,0.3225243304,0.1708181948,-0.0697942277,0.4001521215,-0.5982215838,0.0162043769,-0.6392867362,-0.5340678577,-0.6708975664,0.8042280707,0.3560471762,0.8416474377,0.9326839608,-0.4294438887,0.7668008722,-0.3033332231,-0.6597962032,0.7925828916,-0.362395281,0.0247450688,-0.8324573857,-0.8785726344,-1.4617897013,0.7247374923,1.2772281042,-0.5986885108,-0.5112215413,-0.964238342,-3.8499308739,0.1187736927,0.612023935,0.5346211352,0.0816824115,1.0012129317,-0.3679897665,-0.3008215945,-0.1781796817,0.5664309388,0.08540817,-0.0122838903,-0.6120798475,-0.2506103599,0.0332053914,0.4005972654,0.215159731,-0.5093333796,-0.1374439531,0.0997156428,-0.2077439478,0.3983939716,0.1673219957,0.657882613,-0.7252675175,-0.3875190942,0.6958512665,-0.3691076077,1.0932547734,0.6432861641,1.1712751173,0.7317217205,0.9923909568,0.5516661168,-0.4113010503,-0.5730391567,-0.7161538604,-0.3571850194,0.6827285125,-0.7054935567,-0.605569928,-0.3724177468,0.7263442187,0.2634530458,-1.2828337412,1.0958295509,-10.9390388046,-0.3605359443,0.5052981231,0.054568593,0.3120079581,0.8479480824,1.4838938465,-0.0728788314,-0.1209581674,0.0314346771,-0.1447575155,0.0880135519,-0.3957094408,0.3728232126,1.9078656959,0.0358988439,-0.2472067078,0.5313061895,0.1803475907,0.5123102682,0.3716754479,0.6770297388,0.7794604376,-0.5430250362,0.4977798452,0.8109587098,-1.0560386767,0.8334048941,0.7013166853,0.0269903671,0.5130642176,0.6386871383,0.1485209574,-0.4438587076,0.0130152845,0.0386263636,-1.2470742139,-0.5597915053,0.7263598986,0.2010017429,0.4645683146,-0.2400392797,0.039050263,0.3010626928,-0.1745707091,0.0212720038,-0.2383343524,-0.7029254149,0.7029838382,-0.7923270566,0.1037580487,0.0743750357,0.1814209999,-0.4667694701,-0.3611332625,-1.2357196225,0.2125376056,-0.355800251,-0.6629145769,-0.8879340841,0.8622771971,-0.1033819378,0.7083833931,0.4269799042,-1.1725248239,-0.7955785488,-1.0863347256,0.6349716968,-0.7981828439,-0.7663842907,1.2760863919,-0.3888958244,0.6082370393,-0.7290428972,-0.8075433402,0.4888507056,0.829130839,-0.652940183,0.7850127172,0.3410777234,0.4506878561,0.3214279598,-0.1014469685,0.4507660507,0.4386529312,0.5914242717,-0.469390597,0.3827261581,0.1223994054,-0.6193518232,0.5897205548,-0.5493770287,0.3112967972,0.5739704029,-0.4824482289,-0.7666281995,0.5183205247,0.3079100237,0.6266642698,-1.0686932993,-0.055447666,-15.2225693242,0.2981186454,0.5480833598,0.5823846751,0.4084923966,-0.1034986421,4.2391988868,-0.000251088,-0.516593085,-1.0922849959,3.2866683476,0.4201381013,1.3624430432,-7.9843619635,1.2007025763,-0.5583987656,9.2862559077,-0.5945503101,-1.2325668413,0.6971816851,1.7109078746,2.4688555535,-1.4927653642,-0.6735234475,0.3284476301,-0.3784775037,-0.8353921729,0.5104551566,1.030607748,-0.6554848363,0.7235386382,-0.7258473,-0.7186749352,0.0124913697,-0.0073782904,-1.6149195764,-0.2486664498,1.2726197861,2.3959481078,4.7874521028,-2.649974437,-1.0648737683,-0.4386025252,-0.9772008009,4.5624503872,1.7757765685,-1.4679306023,-4.2875861419,-2.063581271,-0.5878412388,1.0869068437,-0.7151221876,1.7308905808,-3.0455636858,0.3985844371,-1.7379001635,-0.3375356045,2.2960513292,-0.5474358026,2.2769606913,0.1089320628,-0.5103441213,0.9313564283,-0.29585983,5.1652383289,-0.5997850973,0.4892626532,-1.2230871755,-5.3959868526,0.2338054996,0.9070637211,-1.431590274,-2.0797894977,0.1802607174,-0.5998382735,2.5195557185,-0.4855158593,-0.3729387283,-0.8734986551,0.956705178,0.5052662281,-0.0777030248,0.8054483338,-1.3526714319,0.2598108861,-0.087258915,0.764034546,-0.2841947507,1.1999606827,-0.1116293542,-2.768101126,0.1620000499,0.3408912221,1.7276863244,0.226179072,-0.6866157937,-1.4188470585,-0.0154917007,1.2739381426,-0.0593559901,2.0598546349,-8.6642390901,1.6164953184,0.3643830751,-0.0514550968,2.4228991149,1.5151274856,1.3965475972,-1.4922059273,3.7341400641,-1.0930343703,1.1748654566,3.4286325856,0.4756669498,1.1918289706,-0.3674729502,-0.8872478407,2.0202631511,2.7928661618,-1.2558604786,-0.5484045126,0.5309321785,-2.3761294316,-0.4489329648,2.3819513185,-1.2017500005,-3.8101362495,-0.8451129528,-1.8523206221,-0.1131781149,-1.654616398,-1.0174036608,0.1406684116,0.2343463105,-1.7100583459,-1.6583325759,-1.6797233451,-1.3748353551,-0.2761398419,0.0908409871,-0.3855444359,0.4519497025,-4.680632751,-0.7745410975,-4.2203712585,-1.1687246747,0.7454814139,-0.2995444856,0.0573612508,1.993039309,-3.327232875,-1.5004909559,0.2482882876,2.7562806141,0.1193641631,1.6470771176,-3.5042025366,-0.9462081318,1.4575581771,-1.0612147523,-2.5848693179,0.4880571962,0.9391363686,0.8146550314,-2.0719700752,-1.1727830393,-1.4113358956,-0.9032248465,2.5209732265,-0.4069276899,-1.4796141491,1.2959945018,1.5948593656,-1.3582529752,0.3404667274,3.2924856775,-3.0678358194,0.4765710464,0.6496770474,-0.2723948508,2.2956805971,2.1078456683,0.024530092,2.3575531275,-0.0677140173,2.9287185673,0.6999489029,-0.0899074252,0.0487132779,0.1265896107,-1.9874198122,3.5779840931,1.7590318248,0.9548756447,-0.452148611,-0.3438200393,0.5052517523,-1.2014291491,-0.8896634328,0.0394439098,-0.826481989,-2.6468918825,-2.8750110012,0.6883144086,1.4127085453,-2.3086071356,-0.779594185,0.6939370307,-0.964184961,0.5179829388,-1.2920580357,-3.2936709522,-0.3001611158,0.2752936944,-0.1850534143,0.3207006351,1.3003771169,0.8495238454,-0.8459306204,-0.0333979339,-0.866351567,2.7606384585,-0.7021270536,-0.0041108216,0.8927996685,-0.951300399,0.2248962735,-0.3553266165,-4.1964450068,-0.1504784516,0.0427370595,2.9370195482,0.3514372501,-0.3385935652,-0.0468973946,-5.7738781883,-2.6577054912,0.5798682162,-2.7157358537,0.733508556,6.6892731843,1.96969403,-0.6890824101,-0.2736213267,-0.1403474609,-1.6824606883,1.436905604,0.8155732831,0.3254681273,0.001866763,-0.0684553893,-0.7829730115,-0.3781534419,-0.4132472324,0.3114836483,0.7450962773,0.7576159537,-1.8281941899,-0.4369151228,-0.5474828699,-0.5917538755,6.0242094767,-1.0085936523,0.0769105607,-0.4098131555,-1.0653420004,0.4191289526,0.1406273931,-4.0392690445,0.4364631979,-1.2413145164,-0.8555501743,6.7569285813,-0.4692328318,-3.2218978544,-0.1337128313,0.19649648,-0.7253631663,1.1494341998,1.1674075741,0.695261155,0.4807712291,3.5357372379,-0.1695060975,0.7401628373,-2.4019720036,-0.2407977071,0.0152919013,0.9276137283,2.0515177513,5.9704217893,-0.4573838218,-0.5371446962,0.4383374407,-3.0469580529,-3.4591179164,0.1285700365,-1.0420167083,-6.4510965068,-1.9955606149,0.2971431246,-0.3682175538,0.1329716577,-7.8034309139,-0.3240234075,-0.4824237981,1.1545941542,0.0988596428,0.5661699848,1.7540122783,-0.5420553141,-4.3729827268,-0.6832511754,0.1622190321,-4.8136684295,-0.4456562981,-2.1082300688,1.410695365,0.6080851048,0.2545719403,-2.2493054208,-1.4992130354,-0.5772340664,0.3000227925,0.4426326822,1.0709484781,-0.5970805607,-3.2241684913,-0.1307428604,0.6811246756,0.605348202,-3.3357127529,2.3556745765,-6.2828927197,-2.0610031262,-0.2596418652,0.2038756839,1.7989653294,0.4008155584,-0.5512661578,-0.8943358592,1.0758926355,1.3151895437,0.8288157643,2.7612882418,-0.7034663739,0.2201669115,0.8746873685,1.598112747,-1.4339455759,1.405062439,-4.138065852,0.1001748607,0.7133171421,1.2554609776,-2.8513210089,3.5151205224,-2.041087824,-0.8690024624,0.6464221352,2.8125699443,-3.0665846153,0.6799908719,-0.7364399797,-0.6087328416,-1.3455394075,-0.3720820533,2.2793543502,-1.1828194128,0.4361585836,-1.6253629387,-1.8446002135,-1.014775393,-0.3509672462,1.5090434423,5.3895894586,-0.003686875,0.2352085158,2.5465163693,0.3726590389,-1.2078620809,-0.079309198,1.770937762,3.1654769834,-0.5244881435,-1.9089350838,1.87033491,-1.9994584127,1.0279786337,-0.8684291522,1.8751877692,-2.722155568,2.8796145076,4.3622643118,-1.2271838255,-1.8658702804,-0.4247660923,-2.9144331036,-3.6508166362,0.3729383826,-0.6656584118,-1.262481928,-0.4873926415,-0.8251352169,-1.4866624464,3.0333567826,1.4376101943,0.9507186121,-2.899349153,-0.7459119612,-0.2965861239,3.8188327006,-1.5182551106,0.4558866549,-1.1337087367,-1.1830194687,-1.9296079,1.2177673861,2.6010719517,0.7232964273,-1.3498346762,-2.5618035198,-0.3477314602,2.1732272236,-3.7225379425,-1.0648543972,1.0134354408,0.146729578,3.5948363218,2.3865907226,1.1980107274,-2.5649641103,-0.3937554276,-1.626619087,2.2003877901,-0.4055344437,0.9613974166,0.1237159479,2.4126970001,-2.3177259959,0.3375639037,1.3047236146,1.1553358039,2.7233146436,-2.8715215242,1.9149120297,0.8550566837,-0.3652902549,0.1378417869,-2.9120848707,2.1218103731,-2.2063367241,1.6977134698,1.7827449158,0.2301884729,-2.9607011954,-2.7996978641,1.0354323849,1.0051944017,-0.7750442327,-0.4635561672,0.1251455683,-0.8853698657,1.0770040077,0.4187258346,1.9289586309,2.6359707257,0.1272509449,-1.3869277164,0.7312261126,0.1990936757,-2.8596828009,-0.1802740505,3.7486799234,0.6432030123,-2.2434371146,-0.495693565,-1.1619380113,1.3641527032,-1.4227757487,0.4670621321,1.8577701092,-0.95227715,-4.0718020251,0.8451335873,2.050548149,2.9344538077,-0.2286679704,-1.7837174308,1.4652329536,-2.0753705675,2.2177268058,3.5483234485,-0.465914428,-2.0422932731,-2.5166340211,0.310988612,0.2950659427,5.5476783963,0.6154492848,0.5756465797,1.58840427,-1.8494362589,-3.7404089796,-0.6038629257,-2.5900423476,-1.8705002046,0.5769372793,-1.0260880919,-0.3578685589,-0.1613567489,0.3351688667,-2.9104327109,-0.7812887696,0.6596984926,1.1505602234,2.3669390864,1.7590853456,1.4501817855,0.012052427,-0.4040162238,-0.5343275416,-0.2938287719,0.0318901809,-1.2217017624,0.7457614787,4.5404508209,-2.262866019,0.7670120219,-0.6286308367,1.7238456922,0.1820909642,2.515068275,2.3847155121,0.7504099977,5.1619587303,2.0269125576,1.4582248181,1.1600407563,-1.2633051018,3.8910026123,0.2748326997,1.8079979596,0.8971936025,-0.8930723786,-0.442223001,-0.6207255208,0.4745204784,1.6985318511,-0.3951201046,1.0789334494,-0.6321958598,-2.2993078267,-0.6928800141,0.8040625352,1.3426810655,1.1393773165,-0.0142262168,-3.8069194595,1.9103350445,-1.0816694642,-0.8359786057,-5.3077758466,4.6396916065,1.7156784319,1.0234796493,-1.1605574768,-0.322608378,2.4159224629,1.4914059478,2.4247606624,-0.1776523002,2.0394768395,1.1400113336,0.9990962946,-2.7800954679,-2.6649731798,-2.5903270572,0.7833135918,-4.6896572345,0.2401920315,0.5525120992,1.4622628048,-1.2682804096,0.3502648195,-2.9853962245,0.3957914958,-3.3368815307,1.9476255252,0.9539465117,0.7334781236,2.436711645,-1.9914974564,-2.386531984,-0.8582360933,-3.20523326,0.3207606535,-0.2688886337,0.9958069404,-1.3396367953,2.6284021301,0.9090373942,-0.2131331735,0.1233492102,0.3272927923,0.0014202101,-2.7227954157,-1.324636261,0.8594408161,0.3575566534,0.0769707812,0.1979711501,-0.913280085,0.7048238663,1.0015364928,-0.4321671427,0.3590551158,-0.7627576785,-0.2191497797,-0.7872720763,0.9670724484,-0.286940167,-0.4831598067,0.35551996,-0.2570800032,-0.7646777367,0.9690855733,0.1435619497,0.7264514809,-1.2420607881,0.4850688031,1.700277059,-0.0253716944,-0.1960332558,0.7455946418,0.3206417556,1.2421987025,1.1312420452,0.7716173488,-0.8845164611,0.4045037091,0.650509315,0.1792510566,0.3892144651,-0.3806038467,0.6338003936,0.1053298182,2.1931520316,1.8300885902,1.2440104963,-0.2737464782,-1.1379214384,-0.8501266054,-2.1272125936,-0.3439201046,0.4619701785,0.8920751947,0.4511914923,1.1138270466,-0.370207926,0.3073571603,0.1161060809,1.0760019385,-0.7037333312,0.5405088033,0.3159909099,-0.1289555176,-1.7468002302,0.3120643042,-1.2165475455,2.5587086617,0.8025362217,0.7032173785,-0.3906830633,-0.297392755,-0.8076459628,-0.5413127389,0.5614621128,1.5784703249,-0.9753687413,-0.7450657953,0.486779508,-1.6465103531,0.6834582183,0.46390185,-0.9339001783,-0.124823009,-1.4642493316,-0.8448551089,0.9864301085,0.2413283773,-0.4253115899,0.4032946652,0.1402599948,1.2236048454,-1.2842086307,0.2010183746,-0.4594084934,1.075509074,0.4159348794,-0.4366750012,-0.5521684082,-0.5690090713,-0.9834132196,0.5661319325,-2.0374617384,0.0003468628,-2.4372153661,-2.1967473767,-1.7045969615,-0.5997259545,0.3982013556,0.7125361288,-0.9281110527,-1.4637701041,0.3338253694,0.2152729683,0.1239534039,0.8889930013,-2.0354923171,0.5523893363,-0.1090232692,-1.9356946129,-1.6032834891,0.492034167,-0.5428771789,-0.0979339145,-1.0488656571,-0.4283701669,-1.085723064,1.9971023085,1.0627547607,0.0883663974,1.9084519337,-0.6933636503,-0.8294011088,-1.5983188749,-0.0086168907,-0.9776169175,-1.3895076673,-0.3811307603,0.2216555262,0.6824233249,-2.1139465202,-0.3068123193,0.117789532,-1.4835202678,-0.3950807422,-1.4949108574,-0.5312099431,-0.0555919032,-1.0156265974,-0.1125280115,-0.0682791347,0.9410148786,-0.5138464799,-0.8763946256,-1.2868282782,-2.5618714264,0.0269033404,-1.4077945601,1.2059428446,-1.2651127339,-0.8419917881,-0.9389263494,-0.2048067065,-2.1095653478,0.6505193362,-0.7839182191,-0.2442560515,0.7458637345,-1.2831695182,0.089024017,0.5086831647,0.3701475074,0.7494562962,-2.4798502726,1.7524142474,0.6052098638,-0.3658124781,-0.257633636,1.1991228046,-0.5078542244,0.2121630478,-0.0426799157,-0.4146170915,-0.0993814867,-2.3769620182,0.7833675859,3.562371973,-2.7122253492,0.6062553222,-1.78325365,-0.2808269708,1.4266934974,-4.2977885893,0.3960148938,0.896532138,0.0851379108,-2.445540489,4.6404892495,0.2347617334,0.3738998444,0.8278929535,-1.288754941,0.590740905,-0.2155674606,0.2223091727,-3.0329053365,0.5507433404,-1.4252950324,0.7615133942,-1.111632959,-1.0965839272,0.1250196552,-0.6768685183,-0.8839357011,-0.281277958,1.2348224072,-1.8218207215,-0.5961923948,0.8904714819,2.5530190635,-0.5934888179,0.0331378195,0.1992105191,0.5483373076,0.9128215637,0.0927736466,-0.2239608651,0.7607747283,1.2149049314,2.6320132498,-0.143898864,-0.4969653762,-0.0760357785,0.8144940348,-0.6932512658,0.8259032794,-1.1292089452,-0.3808001206,0.151866257,1.4275445211,-0.1115689859,-1.6055383208,-0.0433421129,0.804860333,-1.2206401469,-0.2407585367,2.3861672504,1.7316326793,1.667101481,0.9208319151,0.0116626075,0.0194748458,-0.8040542659,0.4122010587,0.3892614839,-0.8059435291,-1.8811034243,0.0298396251,0.9908548736,-0.8710556365,-0.1865319294,0.4467594651,0.7019475035,-3.1136729909,0.5838493348,0.7253366643,0.423172515,-2.1041952227,0.4224038122,0.7157128535,-0.6596222503,1.0018094959,-0.3927165678,1.2449543324,-0.5019819458,-0.321892026,0.5848301358,-1.6390201781,-3.0998913172,0.4212624632,2.5740025756,-0.1928700799,0.8539921873,0.4302522674,-2.5537589547,0.9766669911,1.2366479658,0.8676711485,-0.6850069896,0.185121407,2.6865638777,-0.0799078623,-1.0580587631,0.4793032608,-0.3680958978,0.8232846759,-0.6419957478,1.5170694884,0.594616226,-0.9452551072,0.058638093,0.896373831,0.3923510608,-2.1253305569,0.2757689628,1.1910218537,-0.5988781535,0.4046901117,0.3672040086,0.8239700267,0.5648248843,0.2578552845,0.8567135334,-2.0534342342,-0.2869084766,-0.5439456749,-0.5912123738,-0.9027469355,-0.4384386632,2.4509086899,0.3194733948,-0.7141370039,-0.8040768913,0.3184197523,0.2179917489,-0.8383623919,0.0079591812,0.9504177663,-0.2734063975,-0.6160640595,-0.566947459,0.9398235461,0.0345991109,1.1638015015,0.0645658863,0.7100871545,0.7497887529,-0.5307634827,-0.1335545191,1.2966488924,-2.3105358867,-0.319473792,0.4258894065,-0.9501043021,-0.6210957795,-0.0790306595,-0.477046583,-0.6967279745,0.72288055,0.3607466478,-0.4030847911,-0.6991583095,-2.049893382,0.0363479996,0.9875508412,0.6690498499,-0.1256891015,-1.3123921804,0.2971336236,0.8885063758,0.7511332506,0.5219570864,3.8860679237,-1.2526522034,-0.7493433746,-0.0516993669,1.2281260087,0.4792907739,0.0466617856,-0.154601537,0.0874634584,-0.1583216495,0.3498932037,-0.2194642374,2.0154746213,-0.5411654222,2.3155063726,0.7058060595,2.3428856727,0.3421624392,1.3694713186,0.8235897147,-1.1844436263,1.2510418494,-0.2494609162,-1.7610573061,-0.3980785786,-0.4704107814,1.2561126914,1.0631475363,-0.1408006257,1.0658457622,-0.2131745074,0.2661236844,-1.0239900696,-0.2981088707,-0.8091837144,-1.1052307068,-0.4268305556,0.0149262264,-0.3247260166,0.3548778416,-0.5431452366,0.1341410107,-0.4198923377,-0.5453727277,-0.105198543,-3.4316458186,-0.3953912733,0.4689117245,-0.0153903312,1.0258863174,-1.3131523626,-0.8901188331,1.2739691906,-0.3042484225,-0.5059325,0.1441396396,-2.695812475,-1.4886811078,-1.4618587419,0.4321338445,0.3601255271,-0.0736175909,1.1427958598,-1.2734064595,0.1983749704,0.0590801583,-0.0885435218,-0.5493675854,0.7215521152,0.2155498273,0.889485487,0.0661306157,-0.4199868538,-1.5977369623,2.3369305265,-0.1885809636,-1.2087964072,-0.7096550671,-0.9952835252,0.5070084921,-0.3407690925,-0.1140086794,-0.0209336471,-0.0985733857,-0.2388327838,2.9446981034,-1.0418451656,0.8084191856,0.3426491606,-0.078801272,-0.585364843,-0.9507968694,-1.9041854948,0.6817733829,-0.3443813823,-0.936981108,0.3374015072,1.6532796476,-0.1062533927,-0.8275950338,0.0514842876,0.1051791444,0.2202987331,0.595876759,1.0856187034,4.5529361111,-0.004269219,0.0625815163,0.1590277728,-0.1076817971,-0.8809607432,1.6205055801,-1.0632613769,-1.2870509547,0.5391124893,1.2026271135,-0.4758168087,2.2345205761,-0.8985333896,-0.1408899082,-1.27934112,0.3445963572,-0.6612964982,-1.7123658103,0.8579738969,-1.1286601985,0.9751367935,-3.1596427454,1.1453884481,0.6913412008,-0.2903142181,0.8575766801,-2.3274054607,-1.0215178806,0.0243132969,-0.2372811021,-1.9236412763,0.664760267,0.8604550248,0.6794146822,0.3638038462,1.3257203209,-0.7737774003,1.1464246209,0.2920588552,-0.1302023777,-3.0978841843,0.8268606525,0.7828688258,0.7751318053,0.813273226,-0.8823031901,-1.1346288891,-0.2493535591,-0.9160623629,0.1410239361,-0.3457550271,0.2486619663,3.6262794082,1.1251785497,0.4684670673,0.9850758694,-0.0879148691,0.8021224419,-0.478189945,0.8069691363,0.6758283055,0.3863784294,0.6343262214,0.2493611753,-0.0880121164,-0.5621417892,0.6721662554,-0.1740609123,-1.2638349934,0.2683129067,0.0573065784,1.5671519839,0.2093221117,-1.0764380022,-0.3229969227,0.0709025056,-0.2773252186,0.1128475656,0.7923776891,1.0099367265,0.1205653958,0.8678951494,-0.366004701,0.0249829443,0.4703344309,-0.0531310677,-0.7257622955,0.0677402098,0.7472420561,0.3497933884,-1.2488750307,1.0906981982,0.1513922655,-1.0387748439,-0.0620459781,-0.423595203,0.5049128381,-0.7508858537,0.4429298639,0.7708689743,-0.869479105,0.6961507487,-0.1720658761,0.1680980281,0.686318203,-1.4083050241,-0.9732817043,0.9259742161,-0.1918824373,0.7017564175,0.9762874349,0.8928566927,-0.6321132849,0.3651891422,0.7227282909,-0.5348627672,0.1123006154,0.8954088943,0.7197813443,0.4950844885,-0.126253131,0.1082739643,-0.7417828871,3.0551717008,0.0197440317,0.766177436,-0.102710131,-0.3989448059,-0.7563472795,0.3948954119,-0.3527201609,-0.6997655728,-0.9148293939,1.2506883247,-0.2661713413,-1.0301204609,-0.6089028849,-0.1876821736,-0.7281824938,0.4751698853,0.6609390189,-2.0848041282,-0.7018078855,0.591187409,-0.5097927227,-0.3388627034,-0.0411065084,0.4832459988,-0.2997829749,-0.2696490337,0.259690097,0.4762393157,0.3934196346,0.0379174792,0.4879894179,-1.2319575561,-0.2042630884,-1.1247155786,-1.1138622394,0.2785939662,0.0355338517,-0.0016949684,-0.3807643708,0.1694354688,-0.7015150812,0.296048419,-0.7184287553,-0.1612782816,0.7914549207,-0.2968959262,-1.1513595556,1.9784015895,0.9731935239,0.1545622463,0.3724685302,-1.1236189647,0.8724285991,0.3224897542,-0.1015034415,-0.8552533821,-0.680198012,0.0852864936,0.0068319314,-0.6060622981,0.8447134453,0.3809106961,-1.172202118,0.657497118,0.5796319177,-0.0638154468,-0.878896978,0.5408161896,-1.5249230104,0.2432156211,0.0404056811,0.8142390937,-0.0881861352,0.7905745608,0.5654274879,0.6427516166,-0.7363347866,-0.2506256757,0.2149176914,1.5314290527,-0.4621915666,-0.9980821826,0.1563525585,-0.585687028,-1.2322221667,0.1215333119,-0.236775688,0.9150534257,0.8464694187,0.1731086527,-0.1398398481,-0.9484899968,-0.5832144033,0.0118214809,-0.7006004761,-0.3098884749,-0.466958964,-1.4749141166,0.4618717272,-0.2248854287,0.8064040873,0.2543602531,-0.4532543853,-0.4264354901,1.3156546239,-0.0524239428,-0.9183454565,0.8898611305,-0.9763201601,0.0247338767,-0.6724795082,-0.0618804124,-1.1143599589,0.2378139533,-0.3771570069,0.8486752554,0.6891253856,0.7243519764,0.0571342342,-0.2808097993,-0.771536407,-0.6420482268,0.9292636321,0.1920395686,-0.2001561948,0.259530526,-0.4807545842,-0.5440260087,-1.0601167747,0.5680499055,-0.4728583783,0.6461650426,-0.235716327,-0.7484041026,0.7199593964,1.0196564326,-0.0540717348,1.2952172053,-0.4706010465,-0.1641923077,-0.5029264955,-0.6449461038,0.3561408889,-0.6464375636,-0.5103659577,1.816184847,-0.1954362852,-0.7101561712,0.4812590228,0.1978890052,-0.3426770242,0.8366823922,-0.80332853,0.4207287753,-0.9755685604,0.0774124207,-0.0843238864,-1.3455257054,1.0684752971,-0.5672043648,-0.8181758179,-0.8233452308,-0.7783105235,-1.3280238609,0.7936547772,-0.8753567218,1.0912785806,0.626605752,-0.2890274965,0.4651314836,0.7120475521,-0.8584024268,-0.273312997,-0.8484955323,0.7306987911,0.0292281511,-0.5275895993,0.3249881101,-0.5056870034,0.6052147185,-0.4605405425,-0.7297449345,-0.1725088083,0.6176992944,-0.129065728,-0.1373132788,-0.4662876903,0.0281613475,0.8958703564,-0.2641285886,0.1879027515,1.7481554091,1.1529384071,-0.0648068942,-0.2918299107,0.0233779001,-0.3783202032,1.6885139761,0.6165203754,0.3002577488,0.8957609278,0.9808352653,-0.1812337128,-0.3874424766,-0.2317760179,0.835306593,0.0264037231,-0.3029547619,0.3592132166,-0.3651566198,-0.0620583224,-1.3835766447,0.2407995992,-0.4045428412,0.3614485271,-0.8459128018,0.6882859421,0.5791872627,-0.5076383274,1.783293873,-0.9706296034,-0.7453356299,0.662998797,1.560084605,-1.3931239688,0.4437858836,-2.4014413738,-0.5734670097,0.1999494134,1.6776635748,1.4396940413,1.962132647,-1.4529188239,0.9753375232,-0.5556345558,0.0792212998,-0.3418333016,1.1921941234,-0.4082079644,0.686221944,1.9470832735,-0.6151290729,-1.096424396,1.2636979177,0.2596911598,-1.2128975866,-0.152366275,0.2753526422,1.0439612382,-0.8426391769,-1.7353964644,-1.2680491609,-0.057399475,0.425613392,-1.3429862688,0.0678867848,-0.1490613948,-0.0674409984,-0.3218664044,1.0202052831,0.0374630447,0.0286829534,0.4695905085,-1.4698654821,-0.9038146797,-0.705287079,3.2032996869,0.7525123691,0.4280048698,1.8168459254,-1.4293323476,-0.0927306823,-1.7297393364,-0.440100867,-0.6427595487,-2.3816976141,-4.0041171311,-2.2291384102,1.9928646139,-1.0731482707,-0.7746792266,-0.4199860329,-0.3979534648,-0.9244449436,1.0235540973,-1.427017578,1.3811282897,-1.2293305163,0.5399804613,-0.4395462426,-0.5372664191,-1.0890706595,0.0690306035,1.0675308965,0.9760897,0.4712558456,-1.6703460295,-1.945833179,-0.1510036704,1.2818441294,2.3203495321,1.247934387,3.141706853,1.1028996538,0.0761620719,0.1255468454,0.5799546265,-1.8606993168,1.2105479707,-0.9653275359,0.1649527534,1.4609637639,1.4104836018,0.4942959289,0.3467607495,0.3251582328,-0.4185341259,0.4299100464,0.2565113962,0.5500921655,2.6449643354,-0.2075389794,-0.8172448397,-0.1501927669,2.2651024692,-0.6277545037,-0.4345794226,0.1300999089,-0.2448068266,-0.8577138687,1.35151858,-0.5132124174,0.0121981462,-1.1894763556,-0.0426727659,-2.58960384,-2.7253738718,0.2152420319,0.5001815026,0.090819491,-1.0023114657,0.7480172893,-1.282483734,-1.8751554872,-0.8206963716,0.5766573849,-1.1829468721,-1.1765419311,0.3629668968
   -0.5307877034,0.2444711366,-0.4284077247,-0.8213359709,0.3305970973,-0.3841207026,0.7026751796,1.241664184,1.0617843609,-1.0454646388,1.2401375879,0.1521652492,1.1167384506,-0.0061954637,-0.0319074658,-0.683150062,0.7096649651,-0.0908310246,0.6515076171,-0.612898558,0.5059624178,0.1148749473,0.7268020852,0.0852137577,-0.7755235981,0.9879533632,-1.5996959215,-1.1546565005,0.6958042182,-0.6899946413,-2.504955518,-0.4253683394,-0.0432631606,0.7201472137,0.3753575477,0.2191324817,0.8437899982,-0.2233081784,1.1725033351,-0.6579173726,-0.1173657725,0.8219524618,0.8574678927,0.2870677011,-0.0979903295,-2.3356024125,-0.6834421271,-0.5954167,0.5970209312,-1.3516972142,1.1425689951,-0.4888327633,0.8214132597,0.9190037814,-0.7269665111,0.5493736233,0.7412887641,2.1950332181,-2.047130395,1.4624300441,-0.1979957464,-0.3841429286,-0.063926493,0.4611737688,-1.6972214034,-0.5174062645,0.5773584166,1.3709312701,-0.1821840968,-0.4494030127,0.5166616941,-0.5298744599,0.177204361,0.3596028535,0.6365220614,0.6405888553,-0.6296159764,1.148483252,-0.9026969459,0.2456650951,0.4935616336,0.3845737095,0.235892606,-2.1417806823,0.7216621463,-0.3143144971,0.5145926046,0.1619590061,0.1783641308,-0.069480639,-0.0886146077,-0.4790831278,0.7761100359,-0.7103779422,-0.5854159146,0.101647645,-0.0522328709,-0.4610552194,-0.1599598538,1.1726214189,0.0205679078,-1.3629282107,0.9711813055,-1.2172386731,-0.9465767146,0.5780180118,-0.0680299713,0.4467578206,-0.261105785,0.3762393988,0.1096471471,0.8774813397,0.5764799848,0.6950695259,0.5984565036,0.2721957143,-0.591683947,-0.4867709684,-0.8031866638,0.4574227384,-0.5688815846,1.0965415253,0.8416996344,-0.23532087,-0.0544662952,-0.3142866802,-0.8659734688,-0.6342217414,-0.3812827994,-0.7413740464,-0.1529740121,-0.7850930627,-0.7837855134,-1.0912964335,0.0951025167,-1.5734339649,-0.6218354194,0.7833241491,-0.2558619817,-0.9394551879,-0.1500521443,1.5666770732,0.6480077164,-0.6882675961,-0.3545386434,-0.0639462371,-1.0761160188,-0.9855234047,-0.8978035422,0.4967752254,0.4606497614,1.116805647,0.6313893677,-0.4275969028,-0.301261951,-1.0487744782,0.6627924581,1.1690551653,-0.7352947625,-0.1517192614,-0.8629706913,-0.9461007026,-0.7444586433,-0.9392254994,1.1891437507,0.9362940354,-0.7275898038,0.8570342296,0.5631591016,0.7376129089,-0.1185492007,0.6851115717,0.4308284959,-0.1948312398,-0.7234455369,0.4280342263,-0.5236264502,0.0241332203,-0.8165922953,-1.5693883075,-1.0695880774,-0.1404252812,0.6313019101,0.5914400096,-0.3449666851,-1.5804596688,0.5124222168,-0.7856855778,0.0264589828,-0.9023642015,0.1116425492,-1.150803472,1.6578336795,-1.0577157686,0.580415369,-0.586836975,0.0095152334,0.436159687,0.4807537395,-0.4936224039,-1.9103727854,-0.5226100297,-1.3611930004,-0.8911161077,0.4669321494,0.0021063307,-0.1695223466,-0.3287750422,-0.1492987216,0.7495426365,0.2155166621,0.0037328911,-1.2145665867,-1.9884250501,-1.3189812635,-0.6699579325,-0.1314563593,-3.369687849,-2.5992621576,0.0426850088,1.5731919256,0.4050346708,0.5855860491,-0.2349083699,0.6304836822,-0.1686133783,0.5740321032,-1.3149052257,0.1301048451,0.0004967447,0.4557987331,-0.4534460297,-0.1272359817,-1.0452673179,0.7378794747,-1.2285849776,-0.3120658598,-0.2871651847,-0.0819336527,-0.1153515383,0.6543464586,0.4729523782,0.5140645059,1.9200964755,0.2756330991,-0.5858127202,-0.257613117,0.9685905012,0.6961972037,0.0078997745,0.2386316704,1.2495560387,-0.830833645,0.2223013601,-0.352007965,-1.157466952,0.0141344483,-0.4868187607,0.498474821,-0.2854314785,-0.748868882,0.024977719,0.4539840566,0.3727383638,-0.2672781513,0.8420702824,-0.3109879889,-0.1934064973,-0.2382964172,-0.4261914735,0.4520427512,0.2884810126,0.9679298015,0.6479449021,-2.3399118397,-1.7750135144,0.0784396807,-0.9267105131,-0.2915737165,-1.4535535789,0.8255931052,0.454422647,0.5673731618,1.3444151858,0.8664116857,-1.7427270161,0.9988928029,-0.4100693553,0.7968992255,0.7022772565,-0.5424264037,-1.3005858542,0.1892703469,0.1652128621,-0.942457524,0.7759681978,0.5220249701,-0.3880979728,0.8620905235,-0.2736655156,-0.9273417729,-0.0372882341,-0.0644712231,0.3910038516,0.0862984555,-0.8787264375,0.440910047,0.001675416,0.4463709572,-0.5268722926,-0.0144295786,0.1788009274,-0.3512105326,0.0118293246,-0.5715342778,-2.6600286703,-0.0128624249,-0.8141164685,0.7267046854,-1.2905379295,-0.5819381425,0.6497912619,1.2661256614,0.8235637056,0.5263681366,0.9302583959,0.0303585875,-1.2552831893,0.1542053624,0.3482612061,-1.1678000757,-0.7879793874,-0.4609874539,0.4023114939,0.4765220307,0.9264608903,-0.9596607062,0.1610009044,-0.891712485,0.2645774559,0.3477474998,1.0724268395,-0.7843591027,-1.0816506004,0.1732947084,0.3345153023,0.6405317259,0.9976960129,-0.8652060991,0.9428430499,-1.9883279517,-0.8440313337,-0.4310790876,-0.8369881897,-0.343091905,1.3579644403,-1.3754136194,-1.1486538338,-0.2446193124,-1.7838778714,-0.7840512187,0.7359064639,-0.9047847929,-1.0827633011,1.7740847134,0.5713670454,0.5621093012,0.8926756592,0.6197079232,0.2179398581,0.536776755,-0.5638916726,0.5200137394,0.4655678512,-1.0252419972,0.2200719531,-0.1237588176,0.2599471047,-0.1229355558,-0.7144001641,1.2198036701,-1.5137607583,0.6884464644,0.5543247755,0.8852049367,-0.2830071211,0.1488599498,-0.725776525,-0.3695963454,-0.584581035,0.2562010633,-0.1714060665,1.1263370317,-0.2853226772,0.989756521,0.1034778594,0.588840814,1.5752154386,0.402760451,-0.0817631402,-1.66550892,1.7310973394,-1.4490311342,0.1682781601,0.9236731189,-1.7682450809,-1.6022638578,0.3433707909,-0.9996217601,-0.057216013,-0.0769726551,0.4614887858,0.7841289669,-0.4442220917,-0.0785742394,-1.0468999425,0.4317387261,0.5319339664,0.2429821226,1.1457048776,-2.1407088216,-1.1025700824,-1.0196120728,0.4672689186,0.7353211158,0.1589900451,1.0691119479,-2.2136222011,1.4098409786,0.5477681668,-0.5825074076,-0.2557294267,-0.2439517407,0.6545237801,-1.6455040809,0.0965047523,-1.0565639822,0.8765431821,0.9532063839,0.1689993889,0.5605491159,-0.8173957654,1.4175853609,-1.813057157,-0.471010914,0.3609038977,0.5501514873,-0.2341748904,-0.33693854,-0.0264006553,-1.9043414301,-0.8853358736,0.3881116967,0.0464267539,2.8863347562,0.1305510142,0.5022398443,0.0103660382,0.4859232934,-1.4894539333,0.3061326631,0.1146529397,0.23379343,-3.2916712037,0.0122694969,-0.0141066101,-0.4910668981,-0.3626262283,-0.8953027487,0.4105020941,0.4378374372,2.2959535752,-0.2728384322,1.783249981,0.9571715218,-0.8454547541,-5.9721280043,1.2527232475,0.8099197612,-1.0388498535,4.5519583001,-0.2938204922,2.630989163,-0.3203931971,-0.1781188452,-0.0482736375,-0.2471172665,-0.0019444052,-0.0642122505,-0.6762340068,-0.0010830777,-1.0715964472,0.6391220093,-1.2584852775,0.4910866524,0.1840716523,0.5710655808,-0.6139158828,2.0457281574,0.9448753463,0.050168877,-0.7783233737,0.6991472682,-0.5341833699,-1.1464739843,-0.9871828233,0.567699091,-0.2571743871,0.9348667912,-0.1635093972,-0.3053815396,0.6575657059,0.3302189777,-2.9949942516,-2.0677031824,-0.1788851904,-0.6545112322,3.0747239698,-2.0308311525,0.6217597933,1.2946877136,-0.5019522246,-0.4225478066,-0.6880255995,-0.858150744,1.8683974341,-0.5882894511,0.3333163199,-1.3327817814,0.3383897299,-0.2849906902,1.3101973061,-0.0909423888,-0.5743819923,0.6628786123,1.5341275558,-0.1879926011,-0.2335590986,1.2495253173,-1.647498532,0.7809830021,0.1428201495,1.2411300117,4.0195022873,0.7588097033,-0.6630662744,0.6875873635,-0.116559028,0.0952192541,-0.1762736221,-0.6453229262,-1.5632015271,0.7085263843,-0.9581091438,-0.8973283112,1.8500748109,-1.325210351,0.524087909,0.9887165871,-0.3316307273,1.2392391997,1.6047039941,0.2261134372,-0.2246696079,0.4077780931,-0.5128626736,0.5634778465,1.2183275124,1.4888566555,0.3220015697,0.2887770774,-0.0629404454,-0.6686650335,-1.7111193592,-0.6564600454,1.1532791089,-0.1457026215,3.7483132551,1.4865803777,-0.360590706,1.3272052614,-0.4561324358,0.3511050733,0.856470699,-0.8143110132,1.1545275051,0.8526573216,-0.521547091,-0.4178677533,-0.3923732253,-1.9675743128,1.1104196669,1.1485278586,0.6572570715,-0.2284422962,-0.1732748908,-0.8368335509,1.5230607751,-1.5455442523,-0.0372136091,0.7883844793,0.0527275704,-0.3714859774,-0.9702565249,0.8329683027,-0.2899131908,0.7365681665,0.6234983188,0.39735969,0.8889335527,0.7084396737,-0.3413135003,-0.6743706724,1.6226422256,0.0355397264,1.532245761,-0.4644509956,-0.2071165514,2.2912933602,0.3098365946,-0.8301460044,0.4820162536,-1.5689504863,-0.0135307419,-0.1714920368,2.1052673803,0.2228014152,1.3893669048,1.2089214896,0.3785805811,-0.421071577,-0.5554853555,0.1953101698,-0.8179839999,0.1209633548,0.7502696035,-0.611080453,-0.4380296552,-0.642243459,-0.9684090381,0.073507041,0.8455319489,-1.8257718069,-0.3966936722,-1.3917208284,0.093335405,-0.7357186908,-0.7110009205,-0.2940274546,1.4421294387,0.7596330318,1.0091537775,-0.396631672,-0.0495361339,-0.7234059815,-0.018298897,-0.2808165859,1.4230760936,-0.8720195647,-0.6651340871,0.7890407784,-0.4676808699,0.8026297647,-0.3371196629,0.918756837,-0.3472149497,-0.1113335233,-1.1938893002,-1.0538515552,1.2365348661,1.4631912291,0.0052456754,1.0821007161,1.2883473684,-0.1246199679,-0.2421677588,-0.1704392075,0.7958372892,0.445147598,-0.383942858,-0.9562512529,0.100599766,-0.5648519384,0.1642891584,-1.6119891859,-0.4322635755,-0.6646540748,0.6127320809,-0.2756762148,0.9557155402,0.4744989997,0.5447589383,-1.1285160733,0.2610326573,0.1916784049,-1.4821587547,0.2455992476,1.6932363153,-0.8234646738,-0.6163185941,-0.4151070421,1.7484501146,0.3694163792,-0.7232219989,0.167670618,-0.8059445355,-1.5427971246,-1.0095719149,-0.1759217349,-0.6387842832,-0.4631371013,-0.5679350271,0.2584808444,0.4365282089,-0.4837406296,0.7236420132,-0.6821489648,-0.1480374806,-0.6625539147,1.247150645,0.5504277812,-0.3321798977,0.3638836286,2.9604896865,-2.4181540951,0.8697229171,1.0434793803,0.2506214419,-0.2345418334,-1.0230973849,-0.847455878,0.6067456633,-0.3237729668,0.1361363043,0.2534324759,-1.4981363899,-0.1042827103,-1.3673696202,0.308634708,0.8358823526,-0.2138419417,-0.2940545826,-0.2117719487,0.2937903995,0.9114077822,0.6531011897,-0.324032888,-0.9914530342,-1.3192732397,-0.2112332957,-0.2635444207,0.7658911247,0.6237624672,-0.3755175179,2.2360205587,-0.2338949478,1.1503041394,0.5777762378,-0.8158039427,1.5947108856,-0.4070623501,-0.3567888416,-0.941861858,-0.678204462,-0.7401268237,-1.7896813572,-8.421478853,-0.199409469,-0.0337529594,0.4329051554,1.4627077938,1.3808629938,-0.9103906652,0.7537954701,-0.3020874647,0.0227965285,0.7743608142,-1.9299227895,1.5244726715,1.0750672887,-0.3841560121,-0.8018230982,0.138074306,-0.0584915522,0.15931997,0.0360668224,-0.0942025588,0.8343514799,-0.365171068,-0.6629873966,0.9071955198,-0.6035134209,-0.8809436613,-0.7474459631,-0.1706529109,-0.4969244033,0.1156178861,0.2821903699,-0.7226077584,-0.2110402961,0.7750447056,-0.6249386028,-0.623609077,-1.4242602436,-2.8844167776,-1.1336928967,-0.9360702652,2.0688921499,0.3542655431,-0.584182844,-1.5844402883,-0.5472801207,-0.7847563532,-0.8464519344,-0.0262044728,0.5254067793,-0.1147345144,-0.7432937641,0.1194170091,-0.588476306,-1.0173198496,-0.2181963466,0.1966667265,0.2798440516,0.325594352,-0.2959674628,1.6657260668,-0.9174415725,1.6999550356,-1.572424092,-0.5834198361,-0.8816982837,-0.9405476008,0.0591693901,0.5966656665,-0.0664469777,1.0513326187,-0.6935166061,0.2660977016,-0.6553774729,-0.9824665257,-0.4298770809,-0.2944093496,-0.9943382952,0.9983988786,0.4086256602,0.6626584893,0.2623692918,1.4591444817,0.8172596702,0.5513780516,-0.3636531624,1.3853506082,2.2561748182,1.7246429776,-2.1897826287,0.8495453634,-0.3367981981,0.9528637145,1.1961058936,-1.8954844118,0.7382329763,0.9228606912,-1.0417549746,-0.2382776844,-0.0844486825,-0.2069020833,0.7733758439,0.5255149471,-0.2074668678,0.3828259506,-0.8139570129,-0.8604894373,0.0183880036,-0.7002999481,0.183434815,1.0576619126,0.0849505503,2.106912234,1.2228684908,1.760375294,0.6280460883,-1.4699339465,-0.9458720224,-0.8386989614,-0.5497952865,-0.2477433827,-1.2631043996,1.2578743321,-0.3004692478,0.5579319309,-0.6473164786,-0.2985778476,-0.4867446108,-1.210415907,0.3456475596,0.6295938572,1.3116963359,-0.9147747005,-0.1808024328,1.0514005053,0.5904806883,-1.0101621791,-0.2430288879,-1.5998628033,-0.0200267902,0.3232995896,-0.9616340973,0.282954901,-0.178585595,-0.6965014454,-0.6961394264,-0.8590904177,0.7267368565,0.5130731434,-0.4144028673,-0.0744387746,1.875298052,-0.0033870303,-0.8136171459,-0.1563648118,-0.5380173352,0.0292656606,0.8732019597,0.3246173744,-0.2565300288,0.1721537733,-1.2281256864,0.8829664294,0.7296915573,0.513437166,-0.9632405666,0.9875995802,1.3793850366,-0.5405557552,-1.1918256991,-0.7930785695,0.8316505356,-0.7224270506,0.0853184201,0.880628819,-0.1123874292,0.3491201451,-0.4164558988,0.0091316677,-0.780097159,0.2391229871,0.1609010152,-0.7204188832,-1.791500798,0.1562891886,0.4205260912,-0.0446817111,0.7656255861,0.0412471972,1.4881875093,-0.1042416433,-0.9755875834,-1.0534060354,-0.0048408906,0.3299777935,-1.8197809345,-1.2942190511,-0.6102041559,-0.2799445266,1.0462782923,0.4923074595,-0.5680333584,0.5563411283,1.3981489587,-0.2121599095,1.0388243434,-0.0818237319,1.4639897189,0.8274333829,-0.3228341327,0.5131569251,-0.1466130642,-0.1272686568,0.4896271555,-0.9371319948,-2.9161629735,0.9001301371,0.1901704834,0.6477921719,-0.9215449709,-0.8199229997,0.9902151672,0.707863999,-1.3599808106,-0.149308958,-0.1163336387,-2.1340052701,-0.1096575186,-0.1132618903,-1.4508946733,0.7040713511,-1.6725222539,-1.149497794,1.2633863041,-0.4332282802,-1.1365288071,-0.5309136776,-0.4321805451,1.2732797572,0.236043848,0.5338142328,0.2018075714,0.4804785152,-1.4043800115,0.1717821083,-1.2619446705,-0.6851107085,-0.0083390473,0.8467050308,-0.3384955146,1.2068153718,0.428998949,-1.027765039,-1.2896418316,1.3132985301,1.4065958717,0.374854287,0.0598630185,1.2583908891,0.433181176,-1.5888130584,-0.7879291835,-0.3093135823,-0.388937066,0.7730347676,0.2299581901,-1.424211928,0.7286380058,-1.5745733446,-0.1722495624,1.2243163062,0.1895487311,1.6453658286,0.3533143243,0.826286873,0.7989389066,-0.110448891,0.4563943287,0.2280505993,-0.3924429117,1.5462479016,-0.5523754752,0.0927679133,-0.5721662872,1.1965772877,1.3201899558,-0.9020838794,2.0396990206,-1.82154201,-0.4977110716,0.2570219834,-0.0236692892,-1.1574654576,-1.0658299101,2.6048435203,-0.041440822,0.1429419488,-0.9589998475,-2.3540738679,0.3222224145,-0.7166513384,-0.561787838,0.9901186832,0.7719247098,1.4805073249,0.8020590815,-0.2791546748,0.3845970813,0.4006736056,0.3115743901,0.8845977881,0.3634977031,0.6559529979,0.8816860081,0.6218423667,-0.2435381194,-1.1703434415,-0.0340411743,-0.453644814,1.3154111055,-0.2992467439,-0.0420250979,-0.3853316283,-0.7507339212,0.3735419217,1.7935533367,-1.3529107531,-0.9841370131,0.5650445814,0.0560255929,0.6691519945,-0.4984889165,0.6415472212,-0.1620542677,-0.853036378,0.1181542921,-0.0333278522,-0.7394676704,0.4646773532,-0.0663265028,-0.2564124375,-1.8767635436,0.8315309799,0.9712180553,0.4699517312,-0.0488862791,2.157071602,0.4492166092,0.0832646169,-1.1835446438,0.3870643884,0.4603592023,-0.8840152357,0.8055607801,-0.7294474743,1.5671511037,-1.1228729043,-0.0315488831,-0.4351754129,0.4860284638,-0.7766361289,0.2533554922,-0.2737483201,0.082749413,0.2728912804,-0.6369574678,-0.7249754361,-1.2327058037,-0.9134636491,0.1235429795,-0.6662479571,0.5685717208,0.7213448162,-0.969697034,-0.1501828649,-1.2068297398,-0.2901973809,-0.210552023,0.7656864272,1.336550851,-0.8303597314,0.5123071135,0.4074032264,1.3217723304,-0.8822321943,-0.7370981733,-0.6474482237,0.2475280305,-0.1654868069,-0.0177326367,-0.6702078834,0.8184697267,-0.5548689803,-0.5207831232,0.3660856244,-0.5567915038,-0.9095376308,0.8084116653,0.0002386217,-0.5716407714,-0.7859900042,-1.0893841115,0.4900350491,-0.3573043861,-1.1006963831,-0.0809574983,-0.5796896914,-0.3988673043,0.1022986635,-0.0541156515,-0.6078587354,-0.7425171431,-0.146099904,1.1379198847,-0.8598556201,-0.2191832607,0.8156559795,-0.6064143785,-0.0771336162,0.1244317151,-0.1215357014,0.3110806537,-0.4851018221,-1.8017364378,0.2620164034,-0.5221823002,0.3260939761,2.7385425214,-0.777398273,-0.5746773551,1.1855351033,0.1021543275,0.7989022805,1.0121532781,0.0162495935,0.048455464,-0.9984313049,0.414951991,-0.4134657833,-0.3825924532,-1.1734329634,-0.3412721929,1.9054979669,-0.1658860566,0.2274153903,0.7317637985,0.0094215487,-1.1720795098,0.877972482,0.9587123551,1.7486093992,0.5549001209,-0.9858178629,-0.568518012,0.9837047065,0.4359082537,-1.5111918137,1.2811362913,-1.493327558,1.1133554963,0.8379910881,0.3684238438,-2.34900492,0.0975366775,-0.1218348256,0.1301815776,0.6085767977,1.0385065187,-1.6708158653,-0.0008471744,0.7920254036,-0.1468763778,-0.4889680885,1.0088786931,-0.8722269352,0.783164608,0.9360981368,0.2715943182,-0.4676666834,-0.0538795528,0.7313281343,0.8768353642,0.2885744593,0.1490837124,0.5253650623,0.4221695472,1.1399502904,-0.8638341878,0.1735545781,-0.4626063755,1.4761885712,0.7670325638,0.7553536311,-0.4274038429,-0.1821141997,0.3153889848,0.1515398032,-0.5855110167,1.0067215523,-0.9947500423,-1.0575429215,-0.388294518,1.193697806,-0.2678732617,-0.7397520766,-0.0736637531,0.2359256592,0.8671191619,0.0250314106,-0.2061505482,1.4183265976,0.0062578051,-0.5474325797,-0.0432106062,0.8368996935,0.9481824476,-0.321774055,-1.2052834767,-0.7467643692,-0.3995594053,-0.4950130517,-0.1382545643,0.3119722061,-0.451680215,-0.0447607603,2.2442324822,0.2659014811,-0.0680985217,-0.4227458765,0.6645111191,-0.1591956841,-1.0397135847,-0.8428193392,-0.4266876589,1.260767345,1.0803681985,-0.062898824,-0.9158738258,-0.4292858299,0.575375262,-0.45071738,1.1213189536,0.600491219,0.8304655268,-1.1386750035,-1.4337116713,0.8461268665,-0.9722292114,0.0792816533,-0.2507314361,1.0738579861,-0.259065084,-0.6122525279,0.4231192219,-0.6417947932,0.5384634735,0.2140024882,-0.9233325913,1.8615005211,0.6848717158,-1.7576525174,-0.1678379851,1.44729371,-0.0780658907,-0.5391708824,0.6773451998,1.7838375073,0.6068565824,-0.4479798631,-0.2975822562,-0.9650357033,-0.3416006855,1.6870103724,1.2147411042,-0.1977033031,0.5114048366,-0.2657112286,0.9139197258,-0.8950893424,-1.1642738972,-2.4230352016,0.0103256095,0.8446257199,0.3843789645,1.0644852662,-1.0106153504,0.0891070428,0.1494584378,0.6047992957,-0.2499714616,-0.4198688689,-0.409826152,0.9731696205,-1.3119241366,0.8976923162,-0.8786623576,-0.2811161946,1.0947198257,-0.9517369675,-1.7972778989,-0.6029165379,0.4516937075,2.1940284807,0.1877186104,1.0067525829,0.9078599641,1.917269399,0.2101907447,-0.3162784197,0.4533074,0.1110790416,-0.4639208696,-0.5089937167,0.8630502918,0.5094044528,-0.4286962506,-0.8030675532,1.1721555265,-0.1799435439,2.3397134657,0.1974566476,-0.4993628187,-0.1155469385,0.3264201246,0.3280370574,-0.6381307297,0.0102771358,-0.6765489198,0.6450841862,0.4979473747,1.0677610037,-0.8069534381,1.0674500146,-0.8257573278,-0.0392759447,0.2539805918,0.181398777,-0.8964280763,0.9094144698,0.0913465694,-0.5993595403,-0.2190404619,-0.3868417213,-0.641570299,1.3045848616,0.0418225164,-0.3884845648,0.5649006765,-0.7978741281,-1.0912642862,-0.4577168888,-0.281120972,0.890338066,0.6517600292,0.0884056151,0.4946851003,-0.4548375214,-0.583035356,-0.2606080323,-0.3113502429,-0.3816860836,0.1804086604,0.4938221029,-0.2941181905,-0.9190678265,0.4159618195,0.9860962938,-0.7146483859,-0.8753249454,-1.9593542872,0.7808478043,-0.6386797849,0.3779480594,-1.0063717309,0.9741562871,0.3360296485,0.7620439564,0.8871721769,-0.4659592185,0.4017183976,0.691881202,0.0901400489,0.7967754039,0.6124752352,-0.4228188893,0.0227247973,-0.4505597853,0.5292268226,-0.2881884078,-0.7468734079,0.0210343363,0.2793946525,0.2874593146,0.3721623652,-1.2122520269,-0.4560134545,0.7938365966,1.3527834313,-2.4705842277,0.1798019891,-0.374884423,-0.8022027539,-0.3792483409,0.5822818497,-0.6044297879,0.8066900704,0.3958167589,-0.9601252352,0.5540115342,-0.0525578873,0.3499330352,0.416386798,-0.827416298,-1.2103435159,0.1859336284,-0.3341362428,0.1971786767,0.9558126729,-0.5121947914,-0.4100073453,0.8462306294,0.3746619473,0.3391714649,-0.0452693725,0.0200796673,-0.341562632,-1.4875323375,0.8919737499,1.0660259335,0.2616762976,1.1376542187,0.3357390467,-0.7029611712,-0.7531680503,0.4735414411,-0.8426763588,-0.3948419894,-0.741277696,0.21362886,-1.0319458105,-0.3355419609,-0.8324865021,0.150077517,-1.1431693602,-0.0762335811,0.2079517011,0.396572514,-0.6126684983,0.6196147348,1.7232031789,0.0102299312,-0.811002767,-0.6134122992,-0.4164474735,1.3537630329,-0.3124065563,-0.1509263546,-0.0773692283,0.4905632968,-0.7009876128,0.7518036088,0.5797729327,0.2898101274,-0.5762064091,0.2061263067,0.0526833172,1.0159065685,-1.36025968,0.3843698951,-0.3882188612,0.153158107,-0.0819698671,-0.4297179709,-0.8025877707,-0.1353953349,-1.0583427644,-0.8858444423,0.7281428429,0.1411408592,0.0022879462,0.2255790658,-0.585708278,-0.1478322754,-0.1799673318,-0.0099998604,0.1198581528,0.7816374867,-0.0188299245,0.9913713851,1.2183094693,0.3047307922,0.9918346659,0.2258095189,0.1080820559,0.9061099162,-0.0172968047,-0.5413935163,-0.0468345668,0.6028900491,0.9986013232,-0.5944692484,-1.0266933322,-0.8088604087,-0.7962066392,-0.4296754967,0.0996213171,-0.3894276542,-0.186154848,-0.9326899166,0.767393009,0.4787378746,-1.1888479713,-1.3656577756,-1.1533839639,-0.0913834633,-0.6665320795,-0.0554596661,-2.2282795303,-1.1907939925,-0.2958601707,-0.6215910608,-1.2258829985,0.015671743,-0.1724795537,0.6819555535,0.1334611648,0.1949328753,1.0659938333,-1.6057470439,1.366842315,1.2382252179,-0.6063416849,0.6697243411,0.0087055226,0.1826519546,0.3738044664,-2.7307868974,-0.4830580141,-0.2177818624,-0.9328467373,-0.3431763672,-2.5998237581,0.1137542024,0.2038745922,-0.2858302712,-0.5326162412,1.0856357668,0.3706924496,1.6526338691,0.01078472,-0.3762532067,-2.2321967713,-0.3511003985,0.6940771151,1.4842718118,-0.4514075188,-0.0050616168,-0.2910583823,-0.0004443015,0.4073687685,1.016576292,-1.0079534586,-0.5439079806,0.9723487076,1.541018247,1.3350646538,-1.2205694999,1.1693446649,-3.2483106018,-1.5176148537,0.1934709938,-0.1510429736,-0.0058866108,-1.284485246,0.5169765698,0.7045723914,-0.001140564,-0.5364987035,1.4397615898,-0.5846329567,-0.8276938643,0.0313920516,0.2815124061,-0.9332202231,0.3586165607,0.1596250887,-0.5205680896,-1.6708355905,-0.1479304597,1.3897115397,-1.0596094607,0.3830992298,-0.3632530235,-1.6748372149,-0.2411219199,0.7330831606,0.8152391348,0.4468454155,-0.7272894886,-0.7480196183,-0.8795844147,-0.0967407507,-0.2676035955,1.6137826392,2.027422573,0.2490578154,0.4926553167,1.0330880917,0.1879265511,-0.6082999968,0.4597869595,0.7298098942,1.1144963729,1.0651746833,-1.0629658746,1.2710958474,-0.1646447331,-1.5843624121,-1.6119598477,-0.3615313513,0.3712956694,0.5925423927,4.1556047285,0.7957278213,-0.0920595931,-0.3454259068,-0.2327302243,-0.6906716229,0.721052218,1.0566823285,0.3937597608,0.4721650445,1.1034833265,0.487195926,1.0538948338,-0.554806303,0.5119157835,-1.8408870331,-0.6244070738,0.0890938155,-1.0329195408,-0.0225333685,0.3184625546,0.7529418603,0.3615285677,-0.0160423285,-0.3175195294,-0.2246924727,0.680310549,0.1216971775,-0.4249644611,0.0565358622,0.5744526888,-0.1691945742,1.2900421462,0.2500041535,1.542589337,-0.7679723856,-0.7937854868,-0.0956548208,-0.8378533844,0.7906537826,0.6870255866,1.0641686719,1.3589456575,-0.1277236806,-1.542236887,-1.2161810848,-0.9635137494,-0.5310358931,-0.3406925436,0.0646820901,-0.2858959069,0.4947094199,1.061132226,-0.7152238406,1.2962037323,-0.9046354301,1.5353778011,-0.5051652532,0.1891734221,0.1452641901,0.0251614277,-0.0824291007,-0.8215557332,-0.4500508017,0.1161787444,0.6477467248,-1.0794261455,0.7009724381,-0.7012164798,0.396637889,1.2417160789,0.0063644609,-0.368935219,0.9602920124,0.9465478784,-0.1866813159,-0.3271156621,-0.4326790975,0.5289787734,0.2551841617,0.1171659923,0.6743150795,-0.3699896437,1.1836286585,-0.2487703643,0.7141176651,1.6843088527,0.6618194862,0.5618282716,-0.7765314476,-0.8610853275,0.3902870596,0.2273479599,-0.6202190653,-1.0564663899,0.7771501901,1.53469211,0.1530086227,0.3881277431,-1.0436365079,0.2711748999,0.6816558529,0.8355631173,0.7505673429,-0.1168019372,-0.7714126298,-0.0813211868,-0.0756301771,0.1935400054,-0.9424345599,-0.1942195008,0.5727456242,1.0359954955,-0.4774181334,-1.3405859749,0.2565482747,0.0380733437,0.5994376695,0.7474909414,-0.3014962467,1.9058456276,0.547794268,-0.3234847016,-0.9128612876,0.8756507252,-0.6675426489,-0.2057405634,1.5018319437,0.1851430891,0.7328086241,0.8648177862,-0.6657998714,-0.4700451131,0.738629541,-2.7373262705,0.6344405709,0.165626269,0.8587482664,-0.4123346292,-0.7653713224,-1.0310323724,-0.2418478354,-1.1632179427,-0.0189098881,-0.6018801484,-1.5537876167,0.3209670193,0.538013997,0.5690830318,-0.7406953347,-0.3947220079,-0.3969765764,0.8918344534,-0.9103780369,1.0734746828,0.0366512066,-0.3762598603,0.5384782352,0.8398165185,1.0288615982,0.5854885486,-0.6596389449,0.6619237189,-0.9096910429,0.6160232066,0.5652558549,-0.2987281483,-0.5599470667,0.7105703408,-0.2244005713,0.3613948675,1.1383469795,0.6185989554,0.4100634568,0.7057832408,-0.7770284552,1.4537090665,0.7416811283,-0.3017640323,0.4679461989,-0.55259457,-0.6462100823,-0.7514194328,-0.436455967,-0.0666841834,0.4084937241,-0.427140753,-0.328908973,1.8770131136,1.1796872611,0.3547276075,1.1584570164,-0.8769195545,-0.283892773,0.5377652056,-1.1584806742,0.6380038581,1.5131335148,-0.8897361833,0.340306836,-0.2927467412,0.6012515219,-0.56946861,0.4240664011,0.2116603057,-0.5996138862,-1.8403098709,0.9351516276,0.2080632969,1.0621888385,1.017723114,0.2333615105,-0.8021268075,0.6149757341,0.4605123814,-0.6993462099,0.6372152102,0.6892716419,-0.2814862455,-1.1208465414,1.1611103552,-0.2817490934,0.6013630148,-0.1096630312,-0.3068263508,-0.2919232711,-0.2266203158,0.2428686081,0.6710527618,-1.0299256944,-0.8773745689,-1.6391219601,-0.6296252721,0.6274767618,-0.4466511626,-0.6993188252,-0.4550287857,-0.5636526709,-0.5893913561,-0.9155902948,-0.7665778095,-1.7738572234,1.4962666659,-0.0095194009,1.3186264626,-0.3571944377,0.0528031965,0.470979644,-0.1078428631,0.2420692304,2.7601228101,-0.7732423717,0.5273544122,-0.4803736168,-2.2357873305,1.5212606952,-0.3399627911,-0.9543199221,-0.1472645579,0.77385466,0.6231052949,0.3659482309,0.4735313677,0.1585314872,0.8276384855,-0.8307575964,0.4627292078,1.1745390188,-0.5909854463,-0.5398847211,-0.3664711876,0.7055783152,-1.3798114173,0.8518749186,-1.0443338756,-0.3661753797,-0.4086510135,0.0262678046,-0.1041974863,-1.6033122131,0.0677438471,-1.3287776257,-0.341858616,-0.5671072458,-1.7206194333,1.2591499983,-1.101570589,-0.834775765,-0.3894336293,-0.6551772913,0.4512803531,-0.7926473146,0.51867002,0.481214894,1.3584288834,-0.4059862217,-0.8799175934,-0.4178199847,1.2182560171,0.1590541291,0.4514473177,0.0048798385,-0.2821321771,0.5026676526,-0.5683408902,-0.0967423845,0.6707352302,0.4306405782,-0.0873421139,2.3762868579,0.0326998534,-0.9093128749,-0.1410924932,-0.0763227522,-0.8216888737,0.6536778426,0.5944284114,0.5012549863,-0.7036503643,-0.5631940509,-0.282618556,0.8876876617,0.4450745334,0.6688135222,-0.1379540979,-1.2784937526,-0.6384239902,-0.0736611838,0.8123833738,0.1984420283,0.4001615297,0.0995307547,0.3179741814,-0.3521598915,0.361891132,0.4565086466,0.5009737742,0.7231747815,-0.0377147321,-0.0009933306,-0.1167304729,-0.5883094756,0.5923907875,-0.8902514791,-0.4816257319,0.8299618012,0.8385753692,0.4951200192,0.1952755996,-0.4625018903,0.9173747514,1.3034180601,0.3076894009,-0.3729737696,0.8930310911,0.447448907,-0.8897273483,0.0515566714,-0.4425805635,-0.5000329019
