encog,BasicNetwork,java,3.3.0,1,1479638043969
[BASIC]
[BASIC:PARAMS]
[BASIC:NETWORK]
beginTraining=0
connectionLimit=0
contextTargetOffset=0,0,0,0,0
contextTargetSize=0,0,0,0,0
endTraining=4
hasContext=f
inputCount=675
layerCounts=11,21,71,81,676
layerFeedCounts=11,20,70,80,675
layerContextCount=0,0,0,0,0
layerIndex=0,11,32,103,184
output=-0.9999999005,-1,-1,-1,-1,-1,-1,-1,0.9999798295,-1,-1,1,0.9999999959,0.9999948788,-1,-0.9999831,1,-1,-0.9303662349,-0.9999982244,-1,-1,0.4214717898,0.9662872688,-0.9999748112,-0.9987319184,-0.8724534173,0.9999999965,-0.9870655114,0.9999721398,0.9512075733,1,0.9999999576,0.9996303889,1,-1,1,0.9995019362,-0.9999944804,-1,0.9999991043,-1,1,1,-1,0.4366976578,-0.9999999953,-0.9999999999,0.9999991671,-1,0.9999998662,1,-0.9999303302,-1,1,-1,0.9999999984,-0.9999742798,-0.9993507803,-0.9999999556,-0.9999976847,0.9999998621,0.9998171574,1,0.9824377623,-0.9999999507,0.9999971827,0.9999986437,-0.9967617784,-1,0.2996622152,0.9999999897,0.999999367,-1,1,-0.9999712273,0.3762108797,-0.9993250094,-1,0.999997133,-1,-0.9997350324,0.999999932,-0.9485162026,-0.9999890461,0.9999891781,-1,0.2944100632,-0.9999999996,0.1111128813,-1,1,-0.9992017469,0.1159929521,0.9995614328,-1,-0.9825239687,0.9999999748,0.9954235603,0.9980936972,-0.9999999994,-0.9999469541,1,-0.9999793919,1,1,1,-0.9999999772,1,1,-0.9999998669,-0.9999834648,0.9999999993,1,-0.999999961,-1,0.9952972096,0.9999034797,0.9999999404,1,-1,1,1,1,-1,-1,1,0.302530824,-0.9999999965,-1,-1,1,0.9182779142,1,1,-0.9999950628,0.9999999927,1,1,1,1,0.9999998165,-1,1,1,0.9999858079,1,-1,-1,1,-1,1,1,-0.947754437,-1,1,-0.9999999996,1,1,1,-0.9999999874,-1,1,-1,0.9977812228,-0.9999978005,-1,0.9896901204,1,0.9999959671,1,-0.7491379599,-1,-1,0.9999999998,-1,0.9999999999,-0.9999804074,-0.9999999999,1,-1,-0.9988574567,1,1,0.631372549,0.631372549,0.7098039216,0.8901960784,0.9294117647,0.9607843137,0.9215686275,0.9529411765,0.968627451,0.9843137255,0.9843137255,0.9921568627,0.9921568627,0.9921568627,0.9921568627,1,1,1,1,1,1,1,1,1,0.9921568627,0.9921568627,0.9921568627,0.9450980392,0.9450980392,0.9529411765,0.9294117647,0.9294117647,0.9450980392,0.968627451,0.968627451,0.968627451,0.7411764706,0.7333333333,0.7882352941,0.3490196078,0.3176470588,0.3882352941,0.0117647059,-0.0431372549,0.0196078431,0.1764705882,0.1450980392,0.2705882353,0.3882352941,0.3803921569,0.4980392157,0.662745098,0.662745098,0.7333333333,0.9921568627,0.9921568627,0.9921568627,0.9921568627,0.9921568627,0.9921568627,0.9921568627,0.9921568627,0.9921568627,1,1,1,0.9921568627,0.9921568627,0.9921568627,0.9137254902,0.9058823529,0.9215686275,0.6235294118,0.6078431373,0.6941176471,0.5058823529,0.4823529412,0.5764705882,0.8039215686,0.7882352941,0.8274509804,0.4431372549,0.4117647059,0.4745098039,-0.0823529412,-0.1137254902,-0.0352941176,-0.0823529412,-0.1215686275,-0.0901960784,-0.0352941176,-0.0509803922,0.0274509804,0.1450980392,0.1607843137,0.2705882353,0.3568627451,0.3803921569,0.5137254902,0.8901960784,0.8980392157,0.9215686275,0.7568627451,0.7568627451,0.8352941176,0.9607843137,0.9607843137,0.968627451,0.9921568627,0.9921568627,0.9921568627,0.9058823529,0.9058823529,0.9137254902,0.662745098,0.6235294118,0.6705882353,0.231372549,0.1764705882,0.262745098,0.0666666667,0.0431372549,0.1294117647,0.2784313725,0.2392156863,0.3411764706,0.2235294118,0.2,0.2941176471,-0.0823529412,-0.1137254902,-0.0509803922,-0.1607843137,-0.1921568627,-0.168627451,-0.1137254902,-0.1215686275,-0.0431372549,-0.0509803922,-0.0352941176,0.0509803922,0.3333333333,0.3568627451,0.4666666667,0.5921568627,0.6156862745,0.7254901961,0.4745098039,0.4745098039,0.5843137255,0.9215686275,0.9137254902,0.937254902,0.9607843137,0.9607843137,0.968627451,0.4666666667,0.4352941176,0.5058823529,-0.0823529412,-0.137254902,-0.0745098039,-0.2784313725,-0.3254901961,-0.2705882353,-0.2078431373,-0.2392156863,-0.1764705882,0.0745098039,0.0352941176,0.1215686275,0.0980392157,0.0274509804,0.0901960784,-0.0901960784,-0.1137254902,-0.0823529412,-0.3254901961,-0.3725490196,-0.3568627451,-0.2941176471,-0.3333333333,-0.2784313725,-0.1137254902,-0.1215686275,-0.0509803922,0.2549019608,0.2470588235,0.3568627451,0.537254902,0.5607843137,0.6784313725,0.2705882353,0.3019607843,0.4039215686,0.7411764706,0.7490196078,0.8117647059,0.7568627451,0.7568627451,0.8274509804,0.0980392157,0.0823529412,0.1843137255,-0.3411764706,-0.3490196078,-0.3019607843,-0.4039215686,-0.4039215686,-0.3647058824,-0.4274509804,-0.4352941176,-0.3490196078,-0.1843137255,-0.231372549,-0.1529411765,-0.0588235294,-0.1058823529,-0.0588235294,-0.0117647059,-0.0588235294,-0.0039215686,-0.4588235294,-0.4901960784,-0.4823529412,-0.2470588235,-0.2862745098,-0.2235294118,-0.0117647059,-0.0509803922,0.0431372549,0.0666666667,0.0274509804,0.1137254902,0.1450980392,0.168627451,0.2705882353,-0.1450980392,-0.1058823529,-0.0274509804,-0.3098039216,-0.2941176471,-0.2156862745,-0.1137254902,-0.1294117647,-0.0666666667,-0.3254901961,-0.3098039216,-0.2549019608,-0.4745098039,-0.4509803922,-0.4196078431,-0.5137254902,-0.4901960784,-0.4588235294,-0.5921568627,-0.6,-0.5137254902,-0.5137254902,-0.537254902,-0.4666666667,-0.0196078431,-0.0352941176,0.0509803922,-0.3098039216,-0.2941176471,-0.231372549,-0.6941176471,-0.6862745098,-0.6470588235,-0.4509803922,-0.4274509804,-0.4352941176,-0.4901960784,-0.4431372549,-0.4352941176,-0.3882352941,-0.3647058824,-0.3490196078,-0.568627451,-0.5450980392,-0.5058823529,-0.5607843137,-0.5607843137,-0.4980392157,-0.5529411765,-0.537254902,-0.4745098039,-0.4352941176,-0.4509803922,-0.4039215686,-0.5764705882,-0.5529411765,-0.5058823529,-0.6862745098,-0.6549019608,-0.6078431373,-0.6470588235,-0.6156862745,-0.568627451,-0.537254902,-0.5529411765,-0.5215686275,-0.5843137255,-0.631372549,-0.6,-0.5137254902,-0.4823529412,-0.4117647059,-0.7647058824,-0.7098039216,-0.6392156863,-0.7176470588,-0.6941176471,-0.6549019608,-0.2235294118,-0.2392156863,-0.3411764706,-0.168627451,-0.1843137255,-0.2941176471,-0.0509803922,-0.1215686275,-0.2,-0.0588235294,-0.0901960784,-0.1843137255,-0.0509803922,-0.1058823529,-0.1921568627,-0.1529411765,-0.137254902,-0.231372549,-0.1764705882,-0.168627451,-0.2470588235,-0.3098039216,-0.2784313725,-0.3254901961,-0.1921568627,-0.2470588235,-0.2862745098,-0.7176470588,-0.7568627451,-0.7019607843,-0.0196078431,-0.137254902,-0.137254902,0.1921568627,0.0588235294,0.0666666667,-0.0509803922,-0.1137254902,-0.168627451,-0.1764705882,-0.1764705882,-0.3176470588,-0.2549019608,-0.2156862745,-0.3647058824,-0.2,-0.1921568627,-0.137254902,-0.0901960784,-0.0666666667,-0.0117647059,-0.0901960784,-0.1058823529,-0.0509803922,-0.5215686275,-0.4980392157,-0.4431372549,-0.5921568627,-0.568627451,-0.5137254902,-0.5921568627,-0.5921568627,-0.5215686275,-0.3960784314,-0.4117647059,-0.3490196078,-0.2235294118,-0.1921568627,-0.1764705882,-0.1058823529,-0.0823529412,-0.137254902,-0.8117647059,-0.8196078431,-0.7882352941,-0.6470588235,-0.7019607843,-0.631372549,-0.5058823529,-0.568627451,-0.4901960784,0.262745098,0.1294117647,0.1137254902,0.1450980392,0.0431372549,-0.0039215686,0.168627451,0.0588235294,0.0117647059,-0.1921568627,-0.2,-0.1215686275,0.0509803922,0.0352941176,0.1294117647,0.2392156863,0.2235294118,0.3176470588,0.4352941176,0.4431372549,0.568627451,0.0823529412,0.1058823529,0.2,-0.168627451,-0.1764705882,-0.1058823529,-0.0901960784,-0.1058823529,-0.0666666667,-0.1450980392,-0.168627451,-0.1607843137,-0.137254902,-0.1921568627,-0.1921568627,-0.8352941176,-0.8823529412,-0.8431372549,-0.6705882353,-0.7803921569,-0.7411764706,-0.7647058824,-0.8352941176,-0.7960784314,0.2549019608,0.0980392157,0.1058823529,0.3098039216,0.168627451,0.168627451,0.2705882353,0.1215686275,0.0980392157,0.1450980392,0.0901960784,-0.0745098039,0.2078431373,0.137254902,-0.0039215686,0.231372549,0.1764705882,0.0274509804,0.2862745098,0.2156862745,0.0823529412,0.3176470588,0.231372549,0.1058823529,0.3647058824,0.2549019608,0.1294117647,0.3882352941,0.2705882353,0.168627451,0.4274509804,0.2941176471,0.2235294118,0.4352941176,0.2862745098,0.231372549,-0.6156862745,-0.6941176471,-0.6705882353,-0.6941176471,-0.8039215686,-0.7725490196,-0.7647058824,-0.8588235294,-0.8352941176,0.3411764706,0.1607843137,0.1215686275,0.4117647059,0.2392156863,0.2,0.3803921569,0.1921568627,0.1529411765,0.4117647059,0.2470588235,0.1529411765,0.4117647059,0.2470588235,0.1607843137,0.2784313725,0.1607843137,0.0274509804,0.3019607843,0.1843137255,0.0431372549,0.4431372549,0.2941176471,0.231372549,0.4352941176,0.2862745098,0.231372549,0.4352941176,0.2784313725,0.2156862745,0.4117647059,0.2549019608,0.2,0.4039215686,0.2392156863,0.1764705882,-0.262745098,-0.3647058824,-0.3568627451,0.0274509804,-0.1294117647,-0.1450980392,-0.6549019608,-0.7333333333,-0.7098039216,0.3960784314,0.2235294118,0.168627451,0.4431372549,0.2549019608,0.2,0.4039215686,0.2156862745,0.168627451,0.3333333333,0.1607843137,0.0352941176,0.3725490196,0.1921568627,0.0901960784,0.4117647059,0.2156862745,0.1137254902,0.4117647059,0.2392156863,0.1529411765,0.4352941176,0.262745098,0.1921568627,0.4274509804,0.2549019608,0.1764705882,0.4274509804,0.2470588235,0.1764705882,0.3960784314,0.2235294118,0.1529411765,0.3803921569,0.2,0.1294117647,0.2078431373,0.0352941176,-0.0196078431,0.2784313725,0.0823529412,-0.0039215686,0.2078431373,0.0274509804,-0.0431372549,0.4117647059,0.231372549,0.1607843137,0.4196078431,0.2392156863,0.1764705882,0.4274509804,0.231372549,0.1764705882,0.4039215686,0.1921568627,0.0980392157,0.4352941176,0.2235294118,0.137254902,0.4196078431,0.2235294118,0.137254902,0.4352941176,0.231372549,0.1450980392,0.4352941176,0.2470588235,0.1607843137,0.4352941176,0.231372549,0.1450980392,0.4274509804,0.2470588235,0.168627451,0.4274509804,0.2549019608,0.1843137255,0.4352941176,0.2549019608,0.1921568627,0.4274509804,0.2470588235,0.1764705882,0.4274509804,0.2470588235,0.1764705882,0.4117647059,0.2156862745,0.137254902,0.4039215686,0.2235294118,0.1450980392,0.4117647059,0.2,0.137254902,0.4039215686,0.2078431373,0.1529411765,0.4274509804,0.231372549,0.1450980392,0.4274509804,0.2078431373,0.1215686275,0.4196078431,0.2078431373,0.1215686275,0.4352941176,0.2392156863,0.1529411765,0.4352941176,0.231372549,0.1450980392,0.4274509804,0.231372549,0.137254902,0.4039215686,0.231372549,0.137254902,0.3803921569,0.2156862745,0.1215686275,0.4274509804,0.2549019608,0.1843137255,0.3725490196,0.2,0.1058823529,0.3960784314,0.2078431373,0.1294117647,0.3725490196,0.1921568627,0.1058823529,0.3647058824,0.1843137255,0.0980392157,0.3960784314,0.1921568627,0.1215686275,0.4039215686,0.2,0.137254902,1
outputCount=11
weightIndex=0,231,1651,7321,61401
weights=##0
##double#61401
   0.5821916978,5.3510589835,10.3325242233,5.9505682698,-6.7334035904,3.4788564992,10.1349137187,6.0971304285,10.6635899833,9.5346972809,11.2017191851,-1.7816955107,-10.7545390217,-13.5673130438,-17.2054346218,-16.6458728613,-4.9944744531,11.6750939454,7.2370952566,-0.3292057578,-6.2637590126,-0.3515882046,0.5362842284,-4.249337595,8.4056541164,-6.1658982976,-1.0624201295,2.4461073406,4.6412395198,8.9584510596,-1.7580061088,4.0270774947,0.6216003785,6.3920568754,-20.9317907326,8.4672598933,1.0439922017,0.9728767788,-3.0996677534,-2.9999358155,-0.3043129563,-50.0497163022,8.8626064627,-11.4764373395,3.1117913413,5.6717785013,10.5611548433,5.2305442912,-1.0522391736,-2.9019968214,5.4758246338,8.2202381702,4.2013615124,10.3851717278,16.5788948819,7.7994721685,0.328003305,3.2344670246,-5.0446141623,0.2264541336,0.7376976269,-0.7258753136,-41.3179657195,2.5391350881,1.1972232727,1.3655526369,-17.2747956157,11.9356055821,0.5265542564,3.5675814564,-1.3107579379,8.9056492636,-0.417033454,13.7559321686,-2.410826092,3.4931429017,12.4274448576,-1.9525678531,-0.0789338054,-0.661554225,5.8357235854,9.2535380237,-0.1095075242,-41.3717939635,-2.3298624856,9.2764708231,-8.4913025725,11.4542980415,11.5242082943,-5.223729462,7.505996426,-5.834248095,5.9950047408,0.0337144855,-6.6324407792,-2.684317093,5.0620497144,8.7730104927,1.4075950005,0.7911512793,8.4711020199,-5.6526497577,-6.1234065582,5.5864272565,-59.2357384327,1.2832580507,0.7207996198,4.5457382599,1.3073678532,19.5424715821,1.1342311656,-4.6961739745,-9.642259886,-12.366768434,1.2594500195,-2.1135005763,2.6724388734,-1.3227738396,15.8094542454,15.8811286111,-0.2388023632,0.4940784757,-2.8385379596,8.7438452319,-1.7048657982,-48.441654556,-6.1766246249,0.3061950713,-29.8461116683,-10.4868406331,29.749597734,9.9698701242,1.5310494102,-9.2968982558,-1.9630550256,7.7804141511,1.4463869615,3.5758798147,4.8821758401,-10.7571826238,20.274718035,-16.5924928069,6.0616342668,7.6656835708,11.279763901,-5.1841991881,-1.4022527229,-7.3667211797,12.878726319,-20.9764526909,3.6047870119,0.7500490029,-7.7365821058,-7.6364601818,-3.5937537203,0.8870755306,1.4013286216,-11.3231524081,-2.9886674355,-3.8575662248,6.2622603812,4.9164247811,3.443530228,-13.3454710326,-4.43335767,6.5351678657,6.0577740219,-50.4999477912,0.7496161232,-0.5808180215,6.7628279975,-3.0824487667,-30.8008848516,-11.0193820819,0.212696284,-2.1881933148,-3.2410582176,-4.0514463182,15.8846658908,-6.2009863009,-4.849487659,-4.3074843956,-11.0576312778,-11.4728932658,-13.9489343711,1.609712539,2.5153739112,4.0156314476,-26.1319541672,-5.3590800646,-9.5724550932,3.8383219725,8.6038204817,-7.6965092257,-7.3391153144,3.5198339469,20.5585241757,4.9970520069,-17.5258772768,-0.2879916345,16.7430532183,13.536300373,9.5522082005,11.2462218215,11.2821998286,1.1999974957,1.0784543654,9.8350624299,6.3449693878,-3.501120089,8.6874445213,-8.6708138235,-8.0879847579,-13.1891416788,8.1645440513,-0.2308295323,-0.1278076921,5.1605497568,-17.0934002416,-6.0780750715,0.5955034803,-6.0656843441,0.4995802454,15.0143447391,22.8311347273,22.8414270587,-3.3999515273,-16.9868065326,-12.866821282,-7.5081096057,-1.2042220269,0.1702546348,5.254701325,0.2306365187,-0.7441065834,0.9215462246,1.6360804142,-0.1898892154,0.484989351,0.1576272519,0.5745896435,-1.0022316256,-1.8631160894,-0.7259688067,-1.7043523115,1.6262060622,1.3239540309,0.823585689,-0.3814554659,1.2312673704,-0.8779686603,-2.9664205048,0.8172058057,0.7821289156,0.9161761002,0.814136199,-2.5876521101,-2.7461074432,-1.0323961,-2.0530035357,-1.9411783491,-1.8982234101,0.5565741451,1.6549638148,2.1656681041,-0.4658744102,2.3290139508,0.8325257055,-0.4687343005,0.3834988906,-0.730727399,-0.6606935464,-1.178114175,-2.1829721973,0.9391203433,0.3505136553,0.7011639719,1.7324606912,-1.0493066551,-2.441622834,-0.4971584286,-1.4220116422,0.5008517373,0.4680801907,-0.5925370209,-0.5879323477,0.6222101768,-2.1676994605,-4.3982644093,-0.8102229586,-0.8967501336,-3.4123499248,-0.4392579622,2.9539477828,-4.4716645055,1.2823051926,0.0849613519,0.1361567989,0.1040535467,-0.617384471,1.4062744763,1.4732134003,2.5133750958,1.8443838722,1.7209157712,1.3222830736,0.4886399102,-0.7444599894,-0.4286385444,-1.5651897358,-0.7579985377,-1.2994461329,0.6651275736,-0.1287462028,1.579057725,0.7760112715,-0.4063408777,0.0982486379,-0.9490686455,-0.0736036293,1.216465463,1.7860650469,0.9585274245,-0.3420462209,2.5175802326,0.6965794768,0.3956401576,-0.7529897244,-0.1061921251,-0.0740777183,-1.8614409172,-1.6116229039,0.3327796597,1.4451254672,-0.3459403768,-0.8621507093,-0.3286746373,1.2885759163,2.4758273336,-0.3834485299,-0.3813289097,-2.7085023913,0.7076542241,0.733015787,0.7826828731,2.9991941917,0.50972177,2.128063954,-2.8925556835,-0.4535749452,-1.8271630178,-0.5229388135,0.1252117994,0.090583125,0.6648010644,0.4010441571,0.7430293199,0.1853847874,0.422419661,-2.1117872245,0.5661213045,-2.8027136179,0.1909163786,3.0184373264,-0.4344208167,0.5861923298,-2.3546005914,-0.2365016745,-1.4381463064,1.5655508121,1.2752143899,-3.422638813,0.9348955202,0.8068256214,0.8398681136,0.4675769769,0.6794431506,0.4184639846,0.4978860955,0.6469149584,0.973448025,-1.1069042038,0.2130529058,0.4026960459,-0.490943982,1.1119249279,0.3640388234,-0.3182662586,-1.623996845,0.5994455383,0.014386585,0.3320007096,-0.4110444351,1.3024223116,0.8369423616,0.7368200792,-0.04065328,1.0407905937,0.5963293659,-0.4837590953,0.5719735997,0.0137884937,-0.1026758297,2.0599847845,-0.2873005481,0.5727202274,0.4733976356,-0.2021937609,-0.4440136297,-0.2126910743,-0.193964327,-0.4243627466,0.6232049903,1.7090746018,-0.3758872496,0.603678001,0.1288836031,1.4360412637,-0.4052518845,0.9098369142,0.3283209509,-0.5696893575,0.7126462209,-0.9385366345,-1.4534547542,-0.1964435256,-0.0034664884,0.6728001553,0.6319530657,-0.935383801,0.6031975237,-0.4688240136,-0.0014250652,-1.0508875534,0.1064294785,-0.3187587765,0.2618222879,-1.1862860856,-1.1864869528,-0.5511223179,-1.8169188887,-0.6449948111,-0.8341537958,0.650292089,1.1385398431,-0.4310510759,0.5659949037,1.2491696335,1.3943080727,0.0257508299,1.5606106402,-0.4544897216,-0.677851547,-0.7214362506,-2.3872116557,-0.9614767712,-0.526229541,-2.6599944436,2.6465921096,2.1164000968,-1.0833715346,-1.5257171256,-0.9632884752,-1.0846778315,0.3846679408,0.6079938629,0.8023559752,0.7750935894,0.7347850792,-0.0610248914,0.6132488709,0.8727082693,2.8693501251,2.2687840686,-1.0285604317,-0.3954429941,1.6843387159,-0.1339132017,-0.436195795,-0.4922037059,-0.6934468494,3.8586649135,-1.4058125292,0.9598515425,-0.6498710499,0.0786828486,0.4139610452,1.2100272846,-0.0125404693,1.6040122905,0.7356578571,1.1413187184,-0.1209312504,-0.2360169833,-1.0615952205,-1.0001893085,-0.624450963,0.9497305349,1.2099540062,-0.8587354128,0.1053266549,0.3412794694,0.1683956082,-3.7056256949,-0.5256375478,-0.5365837469,2.0386061745,-1.2623947518,0.6198190425,0.610142133,-0.9807735242,0.7094803608,-1.5476831801,-2.7591025782,-0.5173291569,0.2246784018,-0.4538265946,-0.284244806,0.7546520113,0.309219183,-0.9277808124,-1.3918475547,-0.0056606837,-0.6850862654,-0.5345930683,0.4808408687,0.836462913,0.8389236593,-1.1622297301,1.559913687,-0.2467050046,0.1160822305,-0.8142349746,0.6807060011,0.288644003,-0.2973574514,1.0830073006,0.324492481,0.3378748226,0.5999564166,0.2543651411,-0.6438617716,0.2745348394,0.761170899,1.6013242679,-0.3064142044,-0.4390104797,0.9912368243,0.386941711,-0.9393490701,1.0040339205,1.1480459867,0.336771266,0.6498380355,0.5497425945,1.0894409183,-0.5576223386,-0.7051598036,0.0871691468,-1.3171196258,-0.6358893339,-0.1035790724,-0.945392124,-0.3331351693,2.4248940127,-0.2735108631,-1.9200304259,0.5246420541,-0.4019089244,-0.3504310792,1.3007541471,-0.3327968203,0.9019026095,0.6959592781,0.1021533229,0.7268045936,-0.3740655421,-0.3866858115,0.5253323715,0.711783385,0.3113581095,-0.0386935055,-0.9971934054,0.3635700796,0.0189348983,-1.4538931251,-0.0498628641,1.2891384744,0.9433204917,-1.2567369275,-0.6148737139,-0.1614713616,-1.0633234921,1.0847112639,1.6095923746,-0.8528842848,-0.6118253086,1.2772471657,0.3842716984,-0.5557390863,-1.4852163038,0.2806888816,1.2370211529,-2.4920613277,0.4432518893,-1.0303456892,2.7989286622,-0.0184035809,0.5802341839,1.664162284,2.0078490938,0.2001872216,0.5395702787,-0.283227246,-0.416127395,0.7932742575,-0.2577558621,0.7391411893,0.1883460934,0.5321767137,1.0876449089,0.9363832552,-3.7138160016,0.0881674071,-1.29357351,0.3328081875,-0.3713031791,-0.5827794699,-0.8338742493,0.632004499,0.5516679943,-0.4462233313,-0.4990764193,-0.0522958729,1.4592085638,-0.0537940944,-0.4382599799,0.1765220754,0.3207164258,-0.2618699772,-0.2310481415,-2.5827934869,-0.4263727461,0.2807716585,-0.2760879493,0.8959959683,-1.5940746456,0.6233065011,-1.0885025353,0.6118969398,-0.2399632509,0.0735154101,-1.15447832,1.3184734662,-1.572087315,1.1201488363,0.2784185073,0.3848111769,0.3101703774,1.3045191934,0.2931084873,-0.1759058937,-0.861761883,-0.0390182455,-0.3146603351,-1.6137232416,-0.4646360219,0.3528758587,0.128968638,-0.9161540752,-0.181143133,-0.7153942124,1.0267374718,-1.7042876023,-0.7086139725,2.079089794,0.60228761,-1.8306636812,-0.4697503663,-0.6071768006,0.4000498296,-0.4509303329,0.7826083376,0.1843703816,0.8724246096,0.8735987783,1.3401779776,1.5130319246,0.7350113333,-0.6940628757,0.5322539715,-1.4047936115,-1.3697103865,-0.4956680731,0.7375202232,0.506061439,-1.446596723,0.8493464095,2.8747046417,-1.0145992425,1.0563118893,-2.2135605322,-0.6333373042,0.2835097858,0.9773539197,-1.6151736924,0.8153662524,-0.4542235154,0.2831680234,0.4501193846,2.5064740652,1.2096125302,0.4895026594,-0.3949052966,2.0218137438,1.1927716282,0.7175308991,1.7447070085,-0.315941061,0.893851722,1.1836933392,1.4097898733,0.5736029361,-2.2005017837,0.6913865841,-1.0049902209,-0.1712417212,-6.3201166409,1.2506260378,-0.3091854302,0.0478986945,-1.616369197,0.8480717248,-0.2318242076,0.1560908376,0.1720674891,0.191209906,0.62739287,-0.5779618261,-0.1685551194,0.1202058318,0.9333285645,0.7456234813,-0.0978535802,0.5951133954,-0.7504116514,-1.1123715782,0.7134778622,-1.6583003938,-0.6517691134,-0.1737337699,0.6454033086,0.2001672257,-1.7662930472,-3.0992869564,0.8169626176,1.5627482046,-0.6628396759,-1.2063012784,-0.1873500796,-0.3003860216,-0.4748418312,-0.5935818752,1.4198975246,0.6616402858,0.4140042467,-2.8033839325,-1.0416212877,0.0387962516,0.3877322762,-0.003928256,1.1972007605,-2.5044176986,-0.6464860235,-0.5053500155,2.4082363102,0.8098884338,1.8033616076,-0.0395865608,-0.1650517654,-1.6539885579,-1.8015793873,-0.8973746857,-0.34518346,0.5504063094,0.2115268286,-0.8983388712,0.1476314659,0.7552451655,0.0075348826,-2.1738986833,-0.0280849655,-0.8059613709,-1.5244469,-1.2200265345,0.1534603542,-0.6147549927,1.479325354,1.6900767497,-0.3209818254,0.8714523435,-1.1269437897,-0.073411559,-1.7475568154,0.4858231696,-1.3228455043,1.2507392321,1.7287845146,-1.8343342833,-1.1126566683,-0.7635657173,0.2331014033,-0.364245233,1.1311714579,0.2680195012,0.3222134513,-0.1715746342,0.9179447521,-1.0002993798,-0.5310810075,-0.5533050835,-1.2081118215,1.3498377382,0.2465119779,0.3143461655,-0.229498503,0.4406891028,-0.2274484477,-0.1856152105,-1.2086193578,0.4383119202,0.5888529093,-0.4902431189,-0.3910935435,-0.5644302839,1.1561730177,0.3653548394,0.5017074291,1.4451320313,-0.2072791747,0.2118973188,-0.4709353608,2.5176279423,0.023759398,-0.290839743,-0.6589956477,-1.0644018098,-1.8766173724,-2.2975996919,0.2489633724,0.8978046685,-0.7055894529,-0.5034922288,-0.9496612446,0.7311693468,0.3140794177,0.3691852618,0.8510875016,0.2924289758,0.968960282,-0.789516415,-0.2437638937,0.5730764244,0.1553890912,0.012542184,0.5170340171,0.204080221,2.2142455943,-0.4796229134,-0.850757487,0.4429927635,-1.0215731659,-0.6436268413,-0.6284601157,0.2545361339,-2.6821219042,0.9946963564,0.4858872618,0.8568433054,-0.7225406807,-1.4669152444,0.5311151954,-1.1323074739,-0.8100168581,-0.7297785438,1.2778994084,-0.4323306579,0.6811749549,-0.2937064936,0.9923450883,1.133655666,0.5293922352,0.2991815895,0.8874658696,-1.2549925823,-0.195903805,-1.07704527,0.6800707332,0.9616050933,0.3973577707,-0.5951940782,-0.4354441602,-1.1971784622,0.2235138276,-1.9123696634,-0.5498409083,0.8040367056,-0.6697218673,-1.3912144203,-0.4662607309,-0.1813790229,0.5130214368,0.7931073822,-0.8861641883,-0.3848585851,1.7464628836,0.2905821243,0.2158870725,-0.9851366274,-1.468011939,1.2351157825,2.6412279675,2.207365395,-0.7669677265,1.0307991286,0.2824099534,0.2704342987,0.1029807507,-0.7022608941,0.7204925527,1.8150941356,0.1843744819,2.3730787606,0.4666417832,0.3632825514,-2.0018136664,0.2264401495,0.4433093021,0.1604152896,-0.0092183337,-1.4432991092,-1.3405340502,-0.8903904768,0.5790671782,3.0961916522,-0.6811271486,-2.0437491864,0.2948518144,-0.0286166078,0.4397480684,-1.7212089785,-0.3019494069,1.0325857667,-0.3354930239,0.494644843,0.7118139804,1.0084844072,-2.1543174194,0.8786480561,-1.1128101541,0.8216515799,0.3923636853,0.9609852669,-0.0854976933,0.185680562,-0.0390829831,2.3344318668,0.9342389586,-0.0982399288,2.160521361,-0.114446988,1.1767917731,-1.3947795822,-0.9286017877,0.7927302512,0.0333288204,-0.5853523182,-0.2012190681,-0.9412109398,-0.1288372933,-0.2450038749,0.1697244674,-0.2894979294,-2.6468887111,-0.2823478704,-0.1294771333,0.2009639574,0.1492863293,-0.3601076948,0.3660632746,-0.8696799522,-0.4284820962,-0.8242662924,1.1667350956,-0.6503096419,-0.630602963,0.9412366721,1.5752870582,1.5954599639,-0.230989074,-1.9118314658,1.4449147709,-0.0896924418,-3.7528796864,-2.0847809722,2.0720846926,1.2975070219,0.6228435295,-0.5699191886,1.0785622635,-1.7069623813,-3.1214466419,-0.5723624816,-0.5143859704,0.4244868222,0.2647484911,0.9043286716,0.993077769,0.0509137882,-0.3726302573,-0.3605513917,-1.0830476614,-0.5969322686,-0.3746421762,0.3639195922,-0.6456948919,-0.215873395,0.1410962181,-1.5841021572,0.1134220169,-1.1286552243,-0.7115804621,-1.4739255417,0.1922956713,-0.0579318512,-0.3241762106,0.7089517532,-0.1679037779,-1.6499052449,-1.0576224954,-1.1235689616,-1.0819455063,-0.5768554847,-0.6905113021,-0.7564373288,-0.5688421552,-0.8694807947,-0.4254468854,-0.689827167,-0.9469567877,1.6555433591,0.6168647697,0.5380341051,0.1591835203,-0.1489287661,0.8415928787,1.9730970705,-1.1093745136,-1.0518706086,-0.5555878107,0.0194423469,0.2941701904,-1.0607029526,-0.4535061913,-0.7906070556,1.4049435962,-0.7671467956,-0.7554471701,0.0564986925,-0.556242428,1.1917377473,0.881723355,0.7349471061,2.6146535491,0.8035652548,-0.168498578,0.793240622,0.3298708374,-0.2585018259,-0.194741842,0.3251117559,0.7691678623,-3.3167232419,1.0976928707,0.064743989,1.1900952587,0.1892469946,1.3902481509,0.7915874985,1.0808548172,0.0514486059,1.1250959325,0.076646816,0.2156493152,-0.6411777583,-0.7065545729,-1.4934017092,-0.4708749674,1.1874636071,-0.4973335681,0.2985433604,-0.4083971906,0.3711197708,1.1042816357,-0.6936287623,-0.3654672827,1.1200393023,-0.3286886538,-0.3030694914,0.7989165415,-1.3330799392,0.9172017074,0.8039907279,-0.7190949592,0.3674833836,-0.8990504693,-0.0255252261,-0.7649981284,0.6211425373,1.0688027516,-0.6866052574,-1.3056201222,-0.4792603973,-1.0510413971,0.9035901815,0.9774166445,-0.8325507767,0.3247018485,0.7522477959,-0.8200096125,0.3036015249,-1.1365489312,0.1965637473,-0.1476201378,-0.3512289446,1.8803782631,1.1444084087,0.6350559168,-0.7131129056,-0.5222654389,0.5953732667,0.2263983523,1.6280432337,1.0636520813,-0.2881885854,-1.8850432415,-1.0184068807,-1.2495070717,-1.8505075768,-0.026983664,0.5178059199,-1.7209991209,-2.5659177731,-0.2802732012,0.3006899658,0.0373831723,-1.1632510368,0.259398841,0.8624239469,-0.6926777768,-0.6793830083,0.67899843,-0.1023151964,0.0552509938,0.3885148782,0.2605203724,1.5517309268,-1.3324184878,1.9924435091,0.1826014291,-0.9017219036,-0.4639338725,0.7317634052,-0.6680527803,0.7738024884,1.0054898061,-0.8969722194,-0.3102109598,0.6242743466,-0.839047843,-0.0614980593,-0.5748351141,-1.6665560709,-0.229101061,0.6433513829,-1.0722763693,0.3189553148,-0.2793675006,-0.4354197357,-0.1372109951,1.0077727773,-1.3048087668,-1.5474378525,1.1698733899,0.4693105288,0.3322213183,0.9605617352,1.4989675812,-0.8938183062,2.2633777855,0.0918059449,-0.4148886342,0.5442233966,-1.0441433428,0.4927688777,-1.4336150065,-1.0460886069,0.3687808466,0.1978872176,-0.3957840313,-0.1160530716,1.2356539986,0.139813455,-0.9340748064,0.4427506525,-0.6278262833,-0.3976659093,-0.1027847271,-0.0125526759,-0.9376752716,0.4084035321,0.7086333056,-0.4399800196,-0.1254835482,-1.3743630585,-0.9005373935,0.0541568282,-0.5557121229,0.3138170309,0.4490082367,-0.6110924519,1.7772686016,-0.2825000328,-0.1537053824,0.1903041374,0.2630366368,-0.8943923977,0.1857094151,0.1848034865,-0.9886044701,-0.391842411,0.0702339803,-0.1648923655,0.7047265701,1.1027092371,-0.8384516967,0.5332831446,-0.492843744,0.3272179586,-0.243369583,0.0979455645,-0.0894620716,0.4619890686,-0.6856365285,0.3390719008,0.8309178185,0.4810333754,-0.7697786993,-0.9059025412,-0.3387757502,-0.3590003563,0.2468881976,0.2962894568,-0.6106164031,-0.6902679645,1.0934358218,-0.1559233686,-0.4421392213,0.2746087468,1.5798795706,0.3218120044,0.2285177499,0.8068501807,0.2174550135,-1.4681340385,-0.086670156,1.5467843529,-0.1687279087,-0.5302421225,-0.5988908233,0.0584849636,1.0826984174,-0.2542922528,-0.5040259299,-0.3644639559,-0.5117338634,0.6837232252,-0.0373825672,-0.3824349489,-0.3530322912,-1.2278305379,-0.8867015345,-0.8931472787,-0.4317520971,-1.1988391436,-2.0700226825,-0.1961781633,0.043008778,-0.6812425342,0.3376375562,-1.5186620827,-0.7151161378,-0.8430941459,-0.9709823014,0.4235725632,0.1070145628,1.0598958926,0.2558022081,-0.9618027399,1.2789353576,0.1686951616,-0.0986104312,-0.4515952717,0.0389612847,-0.4134059179,0.6311971573,0.4891425993,-0.4228628528,-0.0884607371,0.5009401516,0.4854905859,1.1395991842,0.5002100195,0.7384553105,0.60347831,-1.2248832783,-0.3393279867,-0.0893080566,0.4006695607,0.4221741526,0.5368769103,-0.2835914246,-0.3143304142,-0.3229738532,0.8092230773,-0.9931993325,1.1041581605,0.9744742695,-0.566758531,-0.0975438637,-0.838238769,-1.5256478671,0.3001316723,-0.2156822189,0.1371240265,-0.0945451305,1.8004567562,-0.1560076072,0.0185921084,0.4892568773,-0.313768484,-0.916202171,0.3584428433,-0.6833641118,-1.1093420536,-0.2490406087,0.7884143114,0.340559744,0.2958058121,-0.5229157453,0.2976221041,1.706807107,0.0682927953,1.1652774815,0.4906029429,0.5051263438,-2.7872772221,0.1275858538,-0.0447857827,2.0102567546,1.2113118199,-0.9369388328,0.4824809665,0.383299992,-0.4502545706,0.9797261438,0.7399662331,-0.2252792462,-0.4645848155,0.2662345557,1.013207083,-0.0812955998,0.7910581966,-0.241026109,-0.7738030863,0.2694371308,0.1823646725,0.5514767113,-1.063979386,-0.7258279796,0.118186996,-0.8148675883,-0.7892944679,2.5234209134,0.5330371952,1.0685919998,1.1142533238,-0.560298907,-1.2261079833,3.6387821606,-0.9724626612,2.3605656898,-1.1709231459,-1.0387640499,0.2361758027,1.2616786699,-1.5769741147,1.1698494219,0.6347468078,0.7495326587,0.3480506771,0.2789074491,1.2846485642,-1.2994991231,0.5381610714,0.1111881591,1.1805743881,-1.2112256374,2.1375637362,-0.9531142061,0.3926376308,-0.8324698294,-0.8545297798,-2.1645104742,-1.1518722147,-1.1497364307,1.8969721831,0.8324300196,-0.1605236607,-0.0055324955,1.363709088,-0.1264679942,0.7052517928,-0.2239109245,1.9279517958,-0.7160854246,0.3204796445,4.6264211427,-2.1206689229,-0.6896545253,0.9260323767,2.5360989321,0.4393511127,-0.5698210391,0.1512384865,0.5447223914,1.1947346626,-1.1610355615,-1.8531741051,-0.4117971363,-0.6719179119,0.0162351583,0.7675213659,0.5748770042,0.5202306886,1.0210888867,-0.1308309553,0.7484680361,-0.9452486188,-0.5651903411,-0.8115342882,1.0493209568,-0.8888300032,-1.3308742224,0.4101486562,0.7252636931,-2.2674154063,0.6910837199,1.3229942822,-0.0324781569,-0.8170235217,0.0800522422,-1.1225732542,-0.9085726047,-1.2300895713,-0.4721794392,-0.8591095682,1.5331024648,-0.422095815,-1.1817459658,0.2414566531,0.3733331776,0.4971194453,-0.4095517716,0.0245500631,0.614436691,-0.2326739506,-1.7252172355,0.802736964,0.532652447,-0.8178232256,0.9537442405,0.985280449,-0.7556361499,0.8824205513,-0.0917256085,-0.0401023167,0.4256493503,-0.2755683103,0.9922290501,-0.4113791201,0.7896424946,-0.303978566,0.3761776001,-0.4563180758,0.0383083009,0.6257923854,-0.017952444,-3.1268451954,0.7179732926,-1.2072977706,-0.3227619701,-0.6225825061,-0.8187465316,-0.543872969,-1.2890164824,-1.052942698,0.9805366259,-0.2659118472,1.6213653171,-0.152468595,-0.2506070744,-0.7631503407,0.5318808172,0.0670508198,-0.979800204,0.0579133176,0.8702939966,0.0837953607,0.1682119653,-0.516599858,0.2643586965,-1.0416451009,0.4782944814,-0.0622483681,1.1715688215,1.3081278072,0.6906342712,-0.2903564353,0.9737615928,0.554619243,0.5348956944,-1.0430029305,0.0935802429,0.4243538181,1.7889021441,0.8501812799,-0.7770186277,-0.5038983929,-0.4692115974,0.7158458793,-0.2805155399,-0.884212562,0.7971198368,1.6083682486,-0.1264778178,0.017629358,-1.0116581391,-0.9656310019,0.7818888688,0.684240733,0.1104385073,1.0166093171,0.4421196751,-0.4876947296,-0.5815837259,1.3342494611,0.5545013703,-0.7797970184,-0.6201635632,0.7280041567,0.7412818232,-0.9612999522,-0.4781609449,0.9544339859,0.6408546707,0.2218784779,0.5011643811,-0.3259738225,-0.7255879553,0.3033631123,2.7404818746,-1.0983286712,0.9256917509,-1.0760816127,-0.7348156864,-2.0578000786,-1.1395669146,-0.0741269326,-0.8211107278,0.693718987,0.0605960391,0.2317349138,1.412984041,-1.837016396,0.4763077601,1.5158395204,-0.5391770271,1.0603830504,0.4862303742,0.8465631252,0.8253815898,1.8363059898,0.2543789647,0.4097767784,-1.1702977903,0.4857607703,0.1582716021,1.1868797714,-0.8880250092,-0.5941544047,0.9845328516,-0.6617329984,-1.5980559578,-1.4334047422,-0.321327685,0.6040892209,0.5674680733,-0.3924133559,-0.3117525707,-0.2042509334,0.1143559522,2.4341964992,0.1563656899,-1.5425634207,0.1114451297,-0.9666765697,-0.9624944734,-0.1335240608,-0.9572997722,1.3459690625,-1.2579819845,1.1791200018,-1.8522339232,0.4331015376,0.2896399798,-0.0069099861,-1.1866342225,0.8635470506,-0.5115841482,-1.0440265792,-1.1993006187,0.2034888885,0.972000729,1.0386147689,-1.4620757895,-2.041760297,-0.9338956796,-0.2438770486,-0.1871625125,0.6918165027,0.787918903,-0.1006462894,0.7646463874,-0.6963310845,-0.6176493417,-0.4491345105,-1.1688220882,-0.3673673701,0.2550929047,-0.0740824305,0.1485651283,-0.2863233667,0.3581144405,0.3916199198,0.6107060329,0.3943552675,0.5265457484,-0.0620531715,0.8776859297,-1.3478752494,1.3447412108,-0.0906694375,-0.5341352293,0.6166150758,0.0554046502,1.0237842184,-0.4773545811,-1.3794329726,-0.7212172409,-0.595663102,0.8588867736,0.9236354624,0.3466194365,-0.1473372199,0.0381532133,0.9246426586,0.2155346591,-0.3125316402,0.8922666088,-0.6902619031,0.632749457,-1.0509645764,0.457731961,-0.7824842974,-0.3522562007,0.3144796965,0.1038205585,0.8121779232,0.8252355455,-1.6792156851,0.6910709348,-0.1371815291,-1.1598005341,0.4476455645,0.1964118244,0.7848123295,0.268753397,0.4210476483,1.1423811499,-0.2960352388,0.6283715128,0.870408996,0.3145122938,-0.8060378726,-0.0772458955,0.550818823,0.1957789412,0.0579270881,-1.1517712865,0.171189963,0.7767922639,-0.8750169706,0.1058164428,0.0493225861,-1.7743752249,-0.6366708987,0.7000177474,-1.455847219,-0.1661452905,0.3290344418,2.6191912817,0.495566371,0.3307063378,0.1889066926,-0.0671485423,0.4756038304,-0.15764215,-0.753271906,0.1277448736,-0.9981811604,-0.0403559438,0.0250668832,0.6108130495,0.1186188068,0.1288588197,-1.0043664023,-0.6748301661,-1.6757253444,0.7503081077,0.1142282439,-0.2365121734,-1.4946500598,-0.3730675244,0.8569261148,-0.866293262,-0.0764325707,-0.9178843542,0.2932687862,-0.4775869419,0.5766650645,-0.3988414265,-0.2038119445,0.8924774171,-0.4084490647,0.26026075,-0.6948031117,-0.3418650089,0.0040736728,0.4491094405,0.4597189522,-1.1480223401,0.0533835561,1.0744403722,1.0094371874,-0.1027401786,-0.8260783166,-1.4617932305,-0.0179457856,1.0003187149,1.4420540626,1.036171294,0.2871749643,-0.5117051132,-0.3945434839,-0.0904715931,-0.4900791449,-0.9978569374,1.5325091678,-0.3536261885,-0.003880818,-0.0543490812,0.0010331432,0.565731198,-0.838146517,0.497323049,0.2392534699,0.3062110027,-1.9169094561,0.6482641554,-0.7333996492,0.171463058,-0.7112520102,-0.4697257719,-0.713035683,0.4509828468,0.6916168823,0.2879709439,-0.666948761,-0.7122784201,0.6048392858,0.7789784042,1.6065195562,-1.1357551185,-0.2015611992,0.8349868071,-0.1225189133,-0.9006079999,-1.0528779831,-0.4355941867,-0.4686817428,0.0909368786,0.125417392,0.4650636584,-0.4116943483,-0.221899683,-0.5749073869,0.5131851044,-0.4587099967,-0.6616053309,0.8184167689,-0.6767494541,0.7511116713,1.1383267806,0.0809483227,0.6071005863,-0.0729805405,-0.6663873167,0.6029000013,-1.4194786592,-0.400842158,-0.5252986036,0.0083287632,2.4030312935,0.4980759124,0.3995872443,0.1432823059,0.3128496484,-0.6186771014,0.905176562,-0.9533572093,0.0534985756,-0.8329304637,2.2991269299,0.6239270567,-0.9185308393,0.923048517,-1.1821870355,-1.6974323071,-0.0919590794,-0.5886070667,-0.7075266007,-0.6636602127,-0.2930271818,0.8590401358,-0.0674412392,-1.2145872766,0.6978016167,-0.3974228721,0.252999478,-1.0262689353,0.293263591,1.2981315048,-0.5591049517,1.3528018605,-0.8070226474,-0.8006850926,0.0172681696,-0.1621438918,0.3118678396,0.6128756733,-1.2024625709,-0.9215372722,-0.0634471771,0.1586897046,-0.3312290076,0.6623897081,0.5987989984,0.0680997253,-0.741529983,0.6915690744,0.7049302563,-1.0271702754,-0.6653318073,0.2916255515,-0.2622547582,0.7757086057,-0.1889279838,0.9203941713,-0.0711918314,-0.4171270925,0.6593749496,0.4887317206,-0.2049468954,-0.4569664418,0.1251716902,-0.3550120693,-1.0322013957,-0.7254285329,-0.4272504462,-0.2500642843,0.2987788743,-0.8339845456,0.3010986154,-0.7048337341,1.3756169855,0.7849247732,0.16496219,0.7445186938,-0.2317559191,0.1452861171,-0.0184248897,-0.1076704425,-0.1652070116,0.6409639552,0.2688331486,-0.0319126232,-0.4646202089,1.2028234552,0.1960725105,-0.1228255035,0.7454080888,-0.6263464903,0.8241849202,-1.4722178527,-0.9577962938,0.3752888671,0.8418757354,0.9128097868,0.9632951297,-0.9192675968,0.22128245,1.2697378035,1.0616427707,0.3547148039,-0.1350592532,-1.1349459879,0.4036344433,-0.5502737941,-0.06677305,0.5602389577,0.0780451552,-0.464641921,1.6834658292,-0.3425396798,-1.212647633,0.2199036222,0.8093509953,0.8046228292,-0.6078529407,-0.2917911476,-1.6415155754,0.9897582985,2.2689912637,0.1920745525,1.1169034421,-0.0278994325,-0.7758546607,1.2241459301,-1.6004299703,-0.8421675613,-0.1510361651,-0.0465617692,0.979681908,-1.5591864597,-0.1670429721,-0.2636889368,0.6717203589,-1.2321737157,0.2341716735,-0.2829092495,1.4703971854,-0.8275967224,-0.1296908327,0.029438315,1.7006534401,-0.4502021397,0.8663698086,0.1274329414,0.9565253776,-0.5042818446,0.1699226226,-0.2611686003,0.0419861811,-0.0979305583,0.9512873972,-0.1736599464,-0.484845942,-0.4737392611,0.1412890438,1.1357149561,0.1265302603,-0.6089878789,-0.0495176153,-0.1579722194,0.5570727505,-0.5600893266,-1.6411989741,-0.6947425979,1.6963444516,-0.3169336458,1.2929654021,1.0231422223,0.9188910602,-0.9006916908,1.9781180091,0.1907909328,1.1460988653,0.6252977333,-0.0011226353,-0.0549791573,0.8906918769,-0.281848685,0.0839431935,1.0971836048,0.5592666121,-0.546177911,0.1038701165,-0.4669842854,1.1869649861,0.2694069451,-0.5950317319,0.5704321154,2.001555388,0.5920218805,-0.5340117835,-0.151380965,0.3410715475,0.2260440446,-0.8457051273,0.3916501521,0.7715165732,0.2672553909,-0.7797702163,0.0459317482,-0.6999583691,-0.5164368575,-1.6694290009
   0.0050417102,0.5814133659,-1.0531417252,-1.2522533962,-1.2799144366,-0.4031900689,-0.2306793666,0.5231559645,0.0566314477,-0.3804546911,-1.0572600221,-0.7146153787,0.8740797149,-0.2605965977,-0.4829045564,0.1094991252,-0.7088554344,0.6191805715,-0.0992183774,0.5343425075,-0.492197104,-0.5516028582,0.7675343443,0.4731088518,-0.6168174293,1.1652870824,0.983895576,0.8181107861,1.1617859588,0.402025535,0.9316177879,1.4359917418,0.1215848475,0.2825113104,-0.4136529244,0.3433548322,0.4321914678,0.4320160268,-0.407097792,0.1395631004,1.606870928,-0.2722573289,-0.8539020304,-0.3662387414,-1.2007824215,0.4317692798,-0.1326271839,0.2203976817,0.4661755998,0.7512742113,-0.9528733686,1.2967734306,-1.4586560788,-0.4033429804,0.8956855676,0.5783687099,-0.2326431427,0.6683705611,0.3186803217,0.5199115767,0.3229261429,0.2715839942,0.009978862,0.1779208999,-0.488640516,-0.1307746495,0.8978323862,-0.0404166875,0.0372526963,0.0756066104,-1.2738894788,0.5427565751,-0.3368967618,-0.3360242494,-0.1909791568,0.4092151959,-0.3672067815,0.5333725683,-0.1706295845,-0.1364529711,0.9221270897,-0.2650433674,-0.5644139206,-0.7774549743,1.0684058137,-0.1675396599,-0.6797108754,0.6063067526,3.6905218004,-0.6091101897,-1.1898232366,-0.7372513287,0.3856855009,-0.5009277214,0.7189443327,-0.3541786184,0.4888499416,0.0536373477,0.8101661409,-0.1039647101,-0.8460223526,0.5075830495,0.85694869,0.3576368252,0.2544719777,-0.4082266299,0.2595561673,0.519288132,0.6527177504,-0.2766565204,0.972700159,0.4979470188,-0.5773494345,0.9457750051,0.3330213985,-0.2549189979,0.748014898,-0.4096177448,0.1425933686,-0.5670626774,-1.2615422218,-0.1386987105,-0.3513975736,0.6533417214,-1.5701863812,0.3984092951,0.1869661321,0.6852228827,-0.1922276522,-0.6688417442,0.4569729088,0.7564681434,0.5492602883,0.1386021797,-0.9250158232,0.5741643199,1.7557882151,-0.3236033749,0.4749150575,0.8643017391,-0.3152164428,-1.0061261624,1.1483516539,-0.7313479494,-0.8808402687,-0.8411063538,0.1904057492,-1.0100210889,0.435600939,-0.0867341156,-0.2205942297,-0.4413540293,-0.3364166613,0.5200511025,-0.1322729327,1.930822786,0.7495365543,0.4584054367,0.2239270802,0.5681975208,-0.9768594473,0.778632922,0.8902618817,1.294816475,0.0111454505,0.6828533856,0.4306440255,0.5069147285,0.5345612675,-1.8406645107,0.6654667548,-0.3958118234,-0.2177553752,-0.1255171765,1.9571422663,0.4736959375,1.0597773869,0.1220883828,-0.1226395529,-0.4734241376,-0.1664127353,0.11878392,0.8477198418,0.8055332169,-0.7142023232,-0.7241150415,0.4154556043,0.2771516079,0.608131788,-0.0748894229,-0.1404547058,-1.3912069174,-1.1333636446,-1.0359509923,0.4470922032,0.7480419377,1.9101566754,0.3679021732,0.5419612485,-0.0259438845,-0.8657447816,0.7908624675,-0.1121958226,-0.6234057252,-0.4380408767,-0.6573718066,0.3520803645,-0.3711606039,0.1722527149,0.1362990538,0.4816498735,-0.4759616724,-1.3425338767,-0.760277595,0.5991616351,-0.2183965754,0.3930847802,0.1394170459,0.204200299,-0.4019771656,0.225887909,1.3701454425,-1.1403455156,-0.1772786677,0.6088426381,0.1645984409,-0.8213537977,-0.6938286986,-1.1881557025,-1.3349945885,0.0391918241,-1.1129011287,0.4770176934,-0.5933375028,0.040636661,-0.8100289403,-0.6624451113,0.9144986164,-1.5543971317,-0.1215726345,-0.3309750449,-0.1963073444,0.7803182254,-0.4642716149,0.2106759745,0.0253453227,1.1267270993,1.5299388845,0.9313567428,0.9319408543,-0.4946139355,-0.4290571182,-0.4677708822,0.6222814531,-0.6124322316,0.110469805,-0.1945141731,-1.1144979693,-0.6186741751,0.5933720472,-0.9963562741,-0.8388168279,-0.3470870182,-2.0743658618,-0.7312821006,-1.0422343902,1.2801781928,0.2053737704,-0.0693449621,-0.654421742,0.8978000161,0.6788671725,-0.59117269,-0.4107210807,0.2197068636,-0.2606974978,0.478257104,-1.2689015739,0.8210621655,-0.4304641501,-0.6826626109,0.9055005564,0.0850144443,-0.3190541484,-0.0496338001,-0.2659765569,0.7399665715,-0.8452155998,-1.2399127165,-0.5736435276,0.3404052901,0.3358938872,1.3246575738,-0.8538846076,-0.1977598007,-0.4228548951,-0.5766822008,0.9510478486,-1.2347544258,1.5973672874,0.0647923809,-0.8584489997,-0.3959532286,0.2482813817,-0.2463187053,0.1036384281,0.143245543,0.1433674094,-0.276680384,0.9041249242,0.2972651738,0.5213777134,0.1021543126,0.023186743,-0.4931411538,-0.0863778425,-0.8763388576,0.4049839973,-0.550152248,-1.6431831295,1.0002545413,-0.8673389438,0.5641851312,-0.6265289888,-0.6661884832,1.1556699667,-0.4008237769,1.2775806348,1.2738689423,-1.5582720639,-0.7388785096,0.7960257806,0.7709413071,0.5086154364,-2.2816462984,-0.9127132736,-0.0829986921,-0.3590034976,-0.2894091041,-0.3401580086,0.9273478204,-0.0058515839,0.2643920992,0.2165806074,-0.3653243438,-0.5793325213,-0.9484263725,-0.5882643972,0.6347619585,0.2276533697,0.6203526068,1.938897123,-1.0920522485,-1.403624815,-0.8085477716,-0.9302825142,-0.8070266118,-0.3031447988,0.4435688818,0.2686779247,-0.2882225161,0.6816686644,-0.2607777654,-0.7131427177,0.2065474262,-0.1233563717,-0.5830132735,0.0791624941,1.4193913434,0.0200743442,-0.4302717552,2.3271884087,0.9134646298,0.5098419845,-0.3454013127,0.5148752583,0.5251881923,0.7772162967,0.0961763176,-0.6702886169,-0.6859655467,0.8277216661,0.530110529,1.0047158921,-1.0327824736,0.2713726612,0.1207354738,-0.6634862048,-0.4220244792,0.278989121,-0.5878798617,-0.0404538457,-1.3018989683,-1.0546581918,-0.1115047684,1.2794115561,1.5777303417,-0.4975722816,-0.9215237962,0.1124223012,0.8955845035,0.806269006,-0.2250483448,-0.1578777313,0.7957282858,0.3805263329,0.1945959285,0.7865658393,0.0896366525,1.2438793884,1.1093801018,-0.8685918219,0.8501676335,-0.7441179793,0.3557868646,1.1591685882,1.4559062483,0.390052857,0.5023703775,-0.4217120768,0.0594314067,-0.9178680127,0.1451990433,0.5371720231,-0.8231392325,-0.4948670287,-1.1718144179,-0.6525371256,-0.4016410821,-0.407573605,-1.0072588829,-0.5073670748,0.3890140036,1.2137334833,-0.6513636426,0.1570962315,0.5914383559,-0.2606699781,-0.2705670431,-0.0063819874,0.1289241677,-0.2702319107,-0.1103585629,0.2070925213,0.5505042734,-0.3760452907,-0.2533323223,-0.2430501059,-0.7612767193,1.2763289185,-0.2243483997,-0.5339033072,0.072221187,-0.8012821766,1.1213571223,-1.4512101819,0.1764670867,1.7292962244,-0.8827811218,-0.3166540027,-0.7013748931,1.0208162234,0.5766700847,0.5852988395,-1.5180068208,-0.9518605357,-0.1331569571,1.0052206838,-0.1570969782,0.1979117877,0.0437930048,-1.0717524241,0.0900205088,-0.7091593269,0.7832682297,-0.3900237648,-1.0855056443,-0.0269150073,-0.6217351421,-0.1964609634,0.4409369716,-1.9880425092,0.4419259755,0.8040025744,-1.4511937552,-0.7589962853,1.1608146874,-0.4342981971,0.2124913839,0.4577079005,-0.2705665507,-0.1857593236,-0.8431030766,0.5743356623,1.0815436419,1.0959568296,0.1013487232,-0.5293190056,-0.8810100186,1.1022733003,-0.2597185328,-0.4385527619,-0.6307773514,0.1785670778,0.0757788692,-1.7837673571,-1.8378024066,0.4421066191,1.3552886224,0.0040165475,0.5811521437,-0.176779788,-0.1775709024,-0.1215727176,0.2803492356,0.0032555224,0.515012865,-0.4509667275,1.1432567582,0.5548365085,-0.0022413393,-0.0613742628,-0.7133385228,-0.608353209,2.2409599373,-0.8926992693,-0.298901622,-0.498963033,-0.7109583593,-0.0980545568,0.3392476474,0.8195152425,0.3369422661,0.5911087774,-1.0241736707,-1.1414075922,1.3488457088,-0.6816864254,-0.8835628134,-0.3592605554,1.9035937081,0.3533103536,0.524226913,0.1758389741,1.3314487775,-1.8110390604,2.0656693076,0.1486095839,-0.0148100582,-0.3353204455,1.7928840278,-0.3294713998,-0.8618804967,0.3584349988,-1.0418914728,-0.6091731232,-0.6394269074,-2.0423207847,-0.814812695,-0.2173632632,-1.0922340181,0.1616298265,-1.8619320668,-0.4195362331,-0.0637473115,1.0648457179,-0.7369246931,-1.3023727429,0.4488628485,-0.2839537227,-1.6238607279,0.5793187377,0.4319442835,2.8293799116,0.8567180399,0.2316404758,-0.178115887,-0.7500184075,-1.1823192692,0.8713028099,0.2312813818,-0.2691112723,0.7716121238,0.1477207893,-0.0942534981,0.2480364848,-1.1711874034,0.8360209592,-0.1383195736,1.0264278102,-0.4492120151,-0.4801385824,-0.7597754783,-0.7010994819,0.1120560131,0.325826788,0.2188041387,0.8732566744,-1.554772557,0.2824004143,0.833948189,0.6675732437,0.8942191638,-0.4519031005,0.2094603354,0.0605025853,-0.4795205448,-1.3300457939,-0.4728923134,1.27678512,0.1404690113,-1.6925386062,-2.6260023919,0.0837738434,-0.9390273914,0.043147806,1.0387052271,0.0673366439,-2.6606476187,0.0758446972,0.1495255588,-0.459807706,-0.2251704945,-0.7743907677,-0.2829509945,-0.0620693728,-0.3296534861,0.5409874994,1.2041297578,-0.6087159841,0.6989882315,0.0101739734,0.4458352356,-0.1008510471,0.7290321814,-0.7414167091,0.4253583307,0.2654083786,0.2458318609,0.524142898,-0.7714619875,-0.4128634292,-0.4867841481,0.5746156928,0.7805008823,-0.3655312055,-0.7467405107,0.7418589592,0.4830748574,0.285186116,1.1795857781,0.7426092812,0.3355869253,0.0598166492,-0.1841964836,0.2511266413,-0.8226099319,0.5441182077,-0.1687287452,0.197141676,0.8248188366,-0.5679147071,-0.3270607326,0.6510574198,-0.3903908382,0.0301567583,-0.879543189,-1.7452115356,-0.6269400855,-0.8608047391,1.0028104234,-0.9131894615,-0.8351855948,0.8304858875,-0.1020491162,0.8838859142,0.1871445154,-0.423601081,-0.7685228763,-0.0039605431,0.1824068616,0.3616914559,-0.6621932535,-0.0839246199,-0.6170536806,0.4784222972,0.6615770325,-1.6207260698,-0.0503454343,0.5413694068,0.7631187323,0.6075949935,-1.0310012861,0.3717016527,0.9375632368,0.7215197462,-0.355879441,0.2462500861,-0.9281774787,0.866628233,0.487820916,-0.8304517451,0.4563695659,-0.2930835808,-0.2333200428,0.8467669602,2.0684399254,0.3387240436,-0.993751329,-0.3006782748,0.2245738892,1.3314971298,-0.2553181873,0.5957124097,0.582132426,-0.8011967265,0.4212584546,0.1633272223,0.518201553,-0.1789144058,0.7975769413,-0.2646941602,-0.8570401776,0.379982469,-0.0336421372,0.9222437335,-1.3634584599,-0.670412945,-0.7071135484,0.3696087151,0.5288132334,-2.1228447312,0.1010948968,-0.1761044986,0.4932285399,-0.4881530544,-0.0925063441,0.6478805706,0.7186721203,-1.4899396563,0.1648242697,-0.4790562359,-0.2421606444,0.6334540753,-0.5646642197,0.7815205,0.3618262865,-0.2124638782,-1.2239058848,-0.7151109063,-0.6256219289,1.4037126519,-0.8110660581,0.3348088526,0.1910746777,0.8654552195,0.6283340674,0.117155654,0.1790592377,0.9068014448,-0.6603907723,0.593842808,-0.9020211431,-0.458147288,1.3845970719,0.9582385466,0.5518678189,-0.7159752512,-0.8204974378,-0.3158253375,0.3842671209,-0.2921091063,0.7276400679,0.7333892461,0.0443716266,-0.1769217469,0.5882731471,-1.0583083022,0.1898143967,-0.2096634117,-0.7768208682,-0.0442627834,-0.2856238037,-0.1797648506,1.0583954379,0.2929256529,-0.954062763,1.4556387002,0.0424448572,0.0763137671,0.5593978281,-0.5949963131,0.4084310028,-0.8065376038,0.3421418364,-0.9199851386,-0.1140222367,1.07570926,-0.2601501555,0.0763760653,1.1443605933,0.6273857994,-0.863327808,0.254050865,-0.3202098739,-0.7823464809,1.0371742572,0.2796217864,0.6967194315,-0.0576363914,0.3374493794,0.9974715068,-0.4828380019,-0.6869405465,0.5708133611,1.4071676868,-1.026620252,-0.0705431428,0.4616142568,0.2830565765,-0.0888344921,-1.2123535483,0.7829471769,-0.9673434991,0.8198799445,-1.1546098341,-0.0074943057,0.4666397791,-1.0009072007,-0.9249731108,-0.053280904,0.8235029068,-0.5618370771,-1.2487614326,0.4558148538,0.412286308,0.1548403902,-0.6290922182,-0.5779114282,0.5782788729,-0.2635614158,0.8892720847,0.7549029654,-0.2126539442,0.5833886488,0.0988194172,-1.1204480203,-0.954543418,-0.788645352,0.7689167409,-0.508854605,-0.949794003,0.5122558325,-0.4689557302,0.3145239638,-0.2453613592,-1.385646077,-0.9286923988,-1.0145057951,-1.0758000509,-0.2272466437,1.1176698525,0.6854801517,0.7257115545,-0.2005859054,0.5350733726,0.5583084011,0.9159727374,-0.1881897172,0.9266625065,0.4761503638,-0.2871478298,0.0317243167,-1.0596054253,-0.5775448914,-0.2547501033,0.6059588501,-0.2170470997,0.8829488623,0.165810095,-0.0248584379,-0.1312438723,0.4805765001,0.6077108452,0.3434474102,-0.1296764325,-0.124667444,1.0414093915,-0.7817483305,-0.0660105151,1.2657938509,-0.5270960732,0.4297191007,-1.1116808901,-0.7540454435,0.4563896038,0.053832859,0.3948494941,-0.9421933541,-0.1705138629,0.2694937629,0.9555967831,-2.2043489869,-0.8487813359,0.0805084255,-0.3535333918,-0.8242871597,-1.0862162979,0.8436977953,-0.321270031,-0.176797403,0.517709793,-0.1304511017,-0.0288892757,-0.4070043837,-0.0449435716,-0.4684989222,0.1839876192,0.6377844353,0.6295978574,0.144188648,-0.2060211749,-0.1556683046,0.1270827497,1.3961132734,-1.1815002093,1.2660352222,-0.7236009798,-1.0090421794,-0.9315447177,-0.5042189343,-1.0410708415,-0.3959045818,-0.9530036329,0.3975661685,-0.7066325695,0.0500636242,-0.5969065684,-1.0591085136,-0.9929224891,0.9734000242,-0.5215007665,0.5906938447,0.8383819713,-0.089911395,0.5097760756,0.762413073,0.359367527,-0.4023359269,0.4535376654,-0.8623926644,0.4570841594,0.5446186671,-0.9164552046,-0.6420739755,0.3123888708,-0.8688689706,-0.3360911414,0.2938045443,-0.6166498424,-0.172001092,0.5266065455,-0.2081826024,-1.1710941922,-1.207931644,-0.3470413173,1.4585817618,0.2354059991,-0.0435571083,-1.6587042122,-0.3135854861,-1.5134937469,-0.2503233063,-1.366827968,-0.9804922638,-0.3339793629,-0.6498120714,-1.3909864718,0.736186118,3.1655485907,1.8394267924,-1.0390194665,-0.7601369088,-1.3254712955,-0.2733748111,-0.6197290785,-0.0329865817,0.0884431821,-0.6007575918,0.7124499432,0.516956885,0.7941257226,-0.544744287,-0.6277153197,0.7787843524,-0.7763742078,-0.3890713201,0.1381950512,-1.2075108397,0.3849766897,-0.8322762865,0.5057608311,-0.5451353132,-1.8873290394,-0.0719719799,-0.3478672273,-0.0463783368,-0.7430142551,-0.6307791558,-0.8964679008,-0.5888603299,1.0595673928,-1.0520246251,-1.328302012,0.1918574735,0.7612707868,0.7003133492,1.3379963341,-0.1878435782,-0.1526959779,-0.702253729,1.424185871,0.9046296883,-0.8729258334,-0.1717301359,0.7567183472,0.6579061472,-0.2163089279,0.539528073,0.4125644528,-0.9842142641,-0.3654106495,-0.7497923744,-0.0485617877,-0.5388027544,-0.5962757946,-0.7736240224,1.1059725228,0.5716976229,0.9858835558,-0.5187450556,-1.0543616322,1.7485802364,-0.305528329,1.1202700555,0.9183189505,0.0348763523,-0.1895022785,0.164749161,-0.0381821206,0.3990453209,-0.5047622328,0.512241622,-0.8421901013,-0.5356813754,0.7886849773,-0.12712194,2.4581058325,0.712416644,-0.3850959217,-0.3807422323,0.747455655,0.6370139018,0.7982359165,1.2355869051,-1.7808608816,0.2855070184,-0.8591693237,-2.0956248661,-0.1922093402,-0.3334679339,-1.100426942,-0.3557999676,-0.3212450278,-0.8071871176,0.42179228,-0.2785741297,0.6975752246,0.7405879272,-0.1402835057,0.2055748022,0.3374721499,-0.6788880122,0.5521844106,0.1913893894,-0.2730755043,0.2812706451,-0.1862702289,-0.16224637,0.9113697878,0.0166251337,-0.1458418139,0.9989314779,0.4948631051,0.4091377316,-0.7207114508,-0.7220538311,0.5813824921,-0.6294381706,-0.3110029217,0.2281626328,-0.9143574727,0.6325133824,-0.2860312462,-0.776280922,-0.4007611835,0.1386115952,-0.9365065325,-0.6899027696,1.5526862422,-0.0246332621,1.119780332,0.5177549866,0.3644401392,-0.8445397576,-0.8861844948,-0.1151105484,0.1551927216,-1.5496764798,0.7959086628,-0.0027944816,-0.5681035151,-0.2393703814,0.6809483816,0.8840954623,-0.5948780887,0.4974179581,0.7374100506,1.008639074,0.6997038777,-0.3551875954,-0.1487363708,-0.4734550112,-0.2002563852,0.6704342291,-0.4169219493,-0.4294923641,0.0213745184,-1.4443798275,-0.1021951059,0.9759116561,0.0119108982,1.0439702496,0.3892385115,1.6108895101,0.1289538649,0.5010737714,0.6691901549,-0.7482828454,-1.0235676433,-0.9677206844,0.0329826348,-0.7978326855,-0.3045604425,0.5200255544,0.1162736461,0.9418237064,0.5482252578,0.4067553908,-1.3063146098,1.1162760806,-0.6579259163,-0.0221082617,-0.2367648742,-0.6547743778,-1.6285190012,-0.636771948,-0.8467754775,-0.1573633006,0.8520314403,-0.1876375718,-1.6113885035,1.2393842288,-1.1493478171,0.7575150076,0.0227131759,-0.40903865,-0.4101697553,-0.9646624889,-0.4609022395,0.676707066,-0.4281529878,0.4573999344,1.9719059385,1.4775968125,0.3166741153,0.2200941696,-1.3077224853,0.1227892068,1.3051618871,0.2202186741,0.9192485824,0.255576525,-1.6275912521,0.088904735,-0.625757421,1.2149344485,0.3787640925,0.0598100975,-0.0345794031,-0.5041641548,2.1915171258,0.9315418495,0.1304983101,-0.5169701699,1.6672157171,0.4839516407,-0.3492314375,0.9418882212,0.6415801376,-0.63583915,-0.902064691,0.8508219942,-0.0483147363,-0.7456523448,0.448058403,1.9199871095,0.6288907001,0.3421839884,-0.2648003572,-1.7834677669,0.5283895449,-0.7685577976,0.2829245921,0.9654083645,-0.3008231808,0.6542464933,1.5444692837,-0.0147672185,0.4686330866,0.6509357428,0.2724764958,-0.0174823927,0.019894099,0.8855280016,-1.0147548158,-0.2435756029,1.0858607856,-0.0835944509,0.1675052816,-0.3708956266,0.6114635965,0.1617302956,0.8559161647,-0.1296863987,0.9094375621,-0.3367677016,0.2172966592,-0.8935401939,0.634553006,1.1356002062,0.3571573664,-1.1359239,0.7225924369,-0.3902084217,-0.9931650615,-0.7450563932,-0.1498803691,0.9233880454,-0.90585373,0.668285502,-1.1775622244,-0.1845566699,-1.4126086952,0.4955866984,-1.205567608,1.1390524242,1.2565736612,0.3855391608,0.8305285715,-0.3653821007,0.6000709312,1.2971179462,0.5346745112,0.6134738351,0.0334888023,0.2938630241,0.3636379458,0.3163807484,0.446340178,0.3424026914,-1.1911787799,0.0314054253,0.6910519661,-0.6042856335,0.2709567344,1.6498205806,-0.3639745142,1.2995548999,-0.3272549982,-0.6735811302,1.4833558393,0.0343397647,0.3769905343,-0.0801544662,-0.2380181638,-0.5214193671,0.0235240967,0.167891234,0.550204605,-0.8202138502,-0.3157176184,-0.7603333365,-1.388349933,0.2895468369,-0.2828272854,-0.5846623182,-0.2855771487,-0.3362462733,1.2620561443,-1.0763782022,0.5925586664,-0.0494758108,-0.074552984,-0.5009932953,0.4591028185,0.5865958673,0.8004424733,-0.6015234284,0.206304741,0.0099027088,0.299444261,0.3628606703,-0.7939298938,-1.314926068,0.5566517307,0.3871449352,-0.5002052476,0.5178499141,0.4166772893,0.901586427,-0.4846870427,-0.4811760882,0.4720324156,-0.0477883474,0.2398752483,0.6281308725,-1.262473174,0.4139651077,0.7933598027,-0.8963614347,-1.7482452644,0.0930080608,-0.7242612768,0.2478193617,-0.0089639901,-0.9044042749,0.8354706716,-1.3859520189,1.307312367,-0.7940220313,-0.4105128042,0.0208824897,0.0639566671,1.0588217997,0.6217676257,-1.1291132938,0.0556698222,-0.2517020007,0.4543073533,-0.0513059335,0.8398604044,0.45585218,-0.627567255,0.6516660911,0.3046477918,1.2556585133,-0.429576123,-0.5845326694,-0.9898466969,-0.3105986991,0.7423237228,-0.500976059,1.2971685552,0.0417026615,0.6005536808,1.0064259261,-0.2667353591,-0.6565186377,1.3183078908,-1.0719734212,0.240716335,-0.7190678695,-1.2003364742,-1.3401051379,-0.3772221046,-0.4115270819,-1.1410385442,1.1939457455,-0.4618136029,0.3634728922,0.1810848936,1.2698079038,-0.9427818982,-0.1496062433,-0.1159290449,0.2799814887,0.2575290086,-0.078013576,-0.2332310343,0.3039181111,0.6811631179,0.3587385564,-1.7431966318,0.6991363516,-0.3271708482,0.6316182241,-0.405162077,2.4090027796,0.0079350229,0.794666181,-1.0257924401,-0.5143246885,-0.7923425895,-0.0391485222,1.3804528245,0.2839180396,0.7580377677,1.2620820784,0.6379444829,-0.1851636199,0.6474246834,0.242906922,1.0091205945,0.3538277178,0.3169725523,0.951611865,0.822211774,-0.4829084585,0.2223574646,0.7620260974,1.3331280128,0.0245646392,0.5896255975,0.6935595776,0.7561190342,0.5155554251,0.5320332741,-1.404922121,0.3465335746,-0.8707109403,0.0954673322,-0.0261929774,-0.9240867863,-0.8482382728,0.4856607685,1.1799685725,-0.631144708,-0.6460900351,0.6760177561,-0.9276178415,-0.1842711766,-0.1409643259,-0.047074247,-0.7138794992,-1.0120026548,0.510297635,-0.0770107069,0.2563672246,0.7309305612,-0.4604056185,-0.1310877981,-1.0119182368,0.4470510119,-0.3281952664,1.9778006309,1.0635356712,0.8225980905,0.0831448984,0.0794550438,-0.1880595279,-0.91793095,-0.8466683678,1.1020390982,0.8520886243,-0.9477011542,-0.7732110857,0.4372354953,-0.4530844216,0.5905601809,0.6481251948,-1.6176250909,-0.3986116273,0.0518864142,-1.916856707,0.5874280313,0.4359692637,0.2556092947,0.0309508683,-0.3677817385,1.4739976573,0.6289994111,1.1133776938,-0.7696003428,0.4110783526,0.8915319159,-0.5586039496,0.221948283,0.6688100216,0.1205348969,0.393000485,-0.3590556519,-0.1464060905,1.129445532,0.0839108728,0.7086714994,0.6250021354,-0.2995701576,0.7175306674,0.1134446899,-0.0868700393,0.0829175224,-0.6926843194,2.2590022624,-1.2878466419,-0.9652753713,1.5476927788,0.8846762454,0.1788955253,0.7005407822,-0.390629065,-0.3736074867,-1.2120566944,0.387534146,-0.2688021445,0.531949573,-0.2698750186,0.5878342441,0.3882946242,-0.2076441973,-1.6057851631,-0.9620370173,0.8225723283,0.5231171672,1.6397600869,-0.7736654914,0.3344420742,-0.6887186428,-1.0965270941,1.0150768496,0.9072723727,-0.6998219353,-1.2125938787,-1.115707217,1.3701168282,-0.4430475581,0.5724500187,-0.6077714134,-0.0774604549,-1.0590044608,0.511496642,-1.1607676154,0.678007995,-0.8831842822,-1.0724194278,1.0124149674,-0.4249852474,0.8618750321,0.9713446643,-0.2199738743,-0.620792244,0.5003459201,-1.1242552027,-0.3308701617,0.185691719,1.6773455768,-0.7736916599,-0.3948626763,-0.3674694315,0.254384679,-0.2554418751,-1.3804246038,-0.0306738115,-1.1222688413,1.5302973591,0.168678021,1.171434276,0.1868633789,-0.3773803357,0.8108103052,1.1028711952,-0.1433234552,0.9356849122,-0.0429707532,-0.3295178547,-0.869091699,-0.5473732611,0.1546338906,0.8780852264,0.4976418249,0.2320101809,-0.0987956358,-1.1803463552,0.6146161715,-1.4993996357,0.8704394432,-0.3587973868,-0.6190770677,-0.6982666011,-0.2384735889,-0.1247382595,-0.5950921393,0.2476301308,0.968738547,0.6069671032,-1.0594059174,-0.0486712185,0.5643752687,-0.7657279908,0.9238206836,0.3573680296,0.681493097,-0.3158674059,-0.3182833209,1.2685856693,0.1320792167,0.5569383484,0.5263996231,0.480037984,-1.1025725524,0.9927097573,-0.2571500008,0.8424704182,0.818091244,-0.3467720007,0.0667869947,-0.157539051,2.2262923297,0.7056188921,-0.240376609,-0.5178053602,-0.7330194394,0.1612171285,0.2695965229,0.0540758695,-0.8121739851,-0.8170856989,-0.6236767578,-0.3966531721,1.357381214,-0.4615721518,-0.3650591302,-0.7316313004,-0.2662959795,-0.966299817,0.7842718101,-0.963981206,0.404505627,0.5309647446,-0.9786164643,0.007505535,0.1286396428,0.4539414502,-1.3492744388,0.3278594564,-0.6607375888,-0.5991088623,0.0741957778,0.3428596101,0.2459881884,-1.8644434904,0.2377288543,-1.4578420805,-0.1969580668,-0.270126715,-0.5612388165,1.1505125973,-1.3213689276,0.3624064861,-1.1528621463,1.586059198,0.3846650972,-0.2638692342,-0.3713441349,-0.707043242,-1.0537473061,-1.2217768786,-0.4712368224,-0.5107653397,-0.5540737765,-2.0923935097,-0.3657234234,0.3460207082,-0.1057663204,0.614759445,0.5691961214,0.1224851906,0.1633188601,-0.1571193436,0.7984653674,-0.1224729073,1.2073687508,0.335713651,1.0968568455,0.6859284044,-0.5062319522,0.6752355587,-0.610217284,-0.4372735747,-0.3129539101,0.8318317175,-0.5587852365,-0.8850930261,0.9354593056,-0.7288002585,0.6171207981,-0.1530823637,-0.9517746403,-3.4620515441,0.0599855152,0.3832914307,0.1213739773,0.8087869127,1.0945229821,-0.0645570551,1.5619281962,0.1416119225,-0.3293363633,-0.4938326276,0.6563735583,1.5118792275,-0.3000030301,-1.2350220366,1.1346489304,0.5431423368,0.8497527848,-0.0280327721,-0.3028905009,0.9930427181,0.3359065016,0.9467486212,-0.9451308028,0.7513226315,-0.7824831685,-0.092413575,0.1424036256,-0.8657526351,-1.6782027806,0.5586065923,-0.3082996866,0.1948419991,0.8453064665,-0.1236493335,-0.2973766615,0.71357144,0.5319291828,-0.0963293652,-0.3920732155,0.1727926681,0.0605623204,-0.5703367499,0.7803815622,-0.3995007725,0.7969305602,0.2421393299,-0.8252689404,-1.1239923436,-0.9690601673,0.3475571538,-0.1301504545,1.824174967,-1.3733716249,-0.6949793503,-0.5578140707,-0.8258587423,-0.0245617291,0.8137561802,0.6685446313,0.2271749177,1.2581953418,-0.3096027805,-0.7896105643,-0.5688316081,0.1231978374,0.3634828705,-1.1053695832,0.4187299734,-0.9466704432,-0.66185272,-0.2010119885,-0.0859496706,0.0629963134,-0.4064017591,-0.6465179322,0.5002484596,0.5523696205,0.4972305338,-0.408534503,-0.2699281567,-0.9443205313,0.7548599087,0.2753880831,-0.5955205124,0.143043429,0.7979039523,-0.3258679438,-1.2031965681,0.157053042,-0.7949979816,0.2467331908,-1.8153526603,0.006697589,-1.5942323661,0.199150787,-0.1789962336,-1.0127460941,0.0979942135,-1.1047283582,-0.8696269502,0.3054582223,0.1387176046,0.174831529,-0.0182557304,-0.3751578438,-0.5124916198,-0.3561036104,1.4963103846,-0.8912329884,-0.414481385,-1.6802482421,-0.950290913,0.8735908689,0.5734877741,-1.0356203266,0.8236962178,-0.8280329684,-0.4665849003,0.3943989471,0.8423722722,-0.2273264846,-0.1096117379,1.3581306327,0.682237959,-0.5175848446,1.4237190652,0.0220324086,0.7724501417,-0.8009966693,0.6517560464,-0.8851989733,-0.1363409297,-0.6786310096,-0.4419569751,0.7646294212,0.6575709,-0.8538151908,-0.3594944838,0.5067556216,1.3373117338,-0.0006040142,-1.3025230121,0.6219925405,-0.3779325441,0.3233428288,-0.3101562969,-1.4947304501,-0.5621783224,1.7298220887,-0.2993362887,1.0124971807,1.2493098804,0.1732566276,-0.7557356168,-0.2229135277,-1.2337532302,-1.2638697622,-0.604752218,0.0380317189,0.5829856835,-0.9126610177,-1.2872581737,-0.3910413912,0.9382963471,-0.2786310357,-0.3697534123,1.3006157511,-1.5360259076,0.7407816825,-0.4801048493,0.4702005121,-0.3746192148,0.0295220574,1.1349665991,-0.9040456809,-0.783923912,0.5583587269,-0.9340921824,-0.2691837983,0.2268821928,0.6996449669,0.4463117413,-0.716498801,0.5974167226,-0.6155722159,-0.3469846641,0.7215443621,0.4590970645,0.4339401741,1.7643955161,1.1027362182,-0.0670203546,0.9989381618,0.5785364843,1.0004827664,-0.3610124385,-0.0747747091,-0.2049551536,-0.3745277995,1.3161388563,-0.7267113564,0.5187136316,0.3317794079,0.2304511084,0.2151542678,-0.6448129548,-1.0491475244,0.2360812708,-0.0784951728,-1.2980594292,0.9156499936,-0.2328082711,-0.3106966249,-0.4242023356,-1.0965332013,0.8483689207,-1.4229437818,0.7585729942,-0.7161798073,-1.0673890828,-0.851568646,0.5965248704,-0.3809461698,0.080556933,-0.1101622228,1.2463650957,1.2370578381,0.4969089281,0.7648709029,-0.5962265788,0.670608931,0.669921484,-0.219872018,-1.0135378425,0.0529701725,0.3160252428,0.7290666874,0.6484863952,-0.7609492045,0.8434640451,-0.0878942868,-1.0165434495,0.1053330965,-0.0156798073,0.55073302,0.0473765353,0.3114194181,0.060208768,-0.4692793261,-1.1239636097,0.5925703306,0.0143307783,0.238603165,0.2354847884,0.6889598342,0.5175722116,-0.2569481001,-0.2424308171,-0.3713667266,-1.2798949685,-0.9218728514,0.1691147117,0.6810412893,0.0740779733,-0.7046185803,0.3494165771,-0.7414459117,0.7972821572,0.363724756,0.1806084836,0.2426349322,0.876498653,0.1766818145,0.1910980732,0.4313586527,-0.490071267,0.6204345456,-0.2520222422,-0.3680001531,0.4664496224,-0.9406979204,0.7239118837,-0.5568989196,0.543991245,0.478598781,-0.532654752,0.9009259302,-0.3546373372,-0.9240345194,-0.8721546128,0.7825327141,0.4512784718,0.1632801452,0.8316819769,0.5404532847,1.2586091298,1.6867066734,0.4322713772,-0.0358195958,-0.8226703462,0.7941067274,-0.4230952691,-0.6204464119,-0.254798859,1.2373713097,-0.0299366445,-0.4278806014,0.6949967029,-0.3517722505,-0.1750051512,0.4560899194,-0.7232624779,0.1293775558,-0.8954470737,1.1840726183,0.0008592816,0.746158662,-0.2511303963,-0.9607702436,0.7208818303,-1.3167280067,-0.9764530061,-0.1594857558,0.2676631389,-0.3862455077,-0.3257635136,0.5658187534,-0.4702609285,-0.3297855553,0.687349954,-0.5856873896,0.0355417007,-1.0558224062,-0.9053266816,-0.5463550746,-0.0192202667,0.1152252798,-0.4903705255,-1.5780914265
   0.4847306097,-0.8763526682,0.987560832,-0.3789066492,0.9013446145,1.238899928,0.0676116418,1.4101426775,0.1848134478,0.319659776,-1.0842117457,-0.4358555685,-0.0269311729,0.6331333764,0.6090534271,0.4286508944,-0.3214974151,0.4388864409,0.4163533549,0.0935145254,0.8060482575,-0.0518663006,1.8665512251,-0.451263794,-0.2795711677,-0.3679059099,-0.7158611941,0.6195974005,-0.2551773967,-0.6501268127,-0.7935338574,1.8215350886,-0.9949026961,-1.095163358,1.1294734329,0.4677664864,-0.7026521821,-0.2679329594,-0.7214673519,-1.9060832966,-0.3121669317,0.1620511345,-1.0591574151,0.130783625,0.9756326637,0.6981839859,-0.1790795925,-0.5049288679,0.4347071919,-0.512271072,-0.1770133486,0.3827635233,0.2763778549,1.0321893212,-0.1479266008,-0.3765895076,0.9581460789,0.601858088,0.0798960946,2.1425559577,-0.9948302913,-0.1747789282,0.1463198334,-0.4284866207,-0.401672714,0.0542066632,-0.3162008874,0.0622525217,1.110289302,0.8776984122,-0.2160839328,0.7384977894,0.5744558899,-1.0404763662,-0.0481811979,0.057686507,0.7804773825,-0.5241348954,0.3449785872,-0.0858764334,0.4575029792,1.0427074273,1.7602586528,-0.5467553984,0.2275726469,0.8529001276,0.7746262517,-0.1916023651,0.1540180939,0.0829761396,0.554070309,-0.0426316136,0.3058091524,-0.5604281481,-0.2147776798,-0.9272454105,1.8375307614,-0.561056876,-0.799122944,-0.8123319288,1.5649321633,0.4283605285,-0.5356635235,0.174963693,0.0487271455,-1.1966872593,0.2985623365,1.7406220584,0.8647176131,-0.208860995,1.2428185029,-0.6066729944,-0.8662016503,-1.3535510921,1.0026941321,-0.1120459393,0.3068687476,-0.4526314819,1.0337370465,1.0655600561,-0.7475763095,0.8945553194,-0.6137301993,-2.2642249823,1.37724857,-0.3744432273,0.0412853835,2.2213181915,-0.7695274031,-0.7364831752,1.7162665423,0.4612945535,-0.7016049354,1.2202682893,0.2616326152,-1.6381650576,-1.4344805932,1.1563443641,0.5438830763,0.2844672031,-0.5412841767,-1.4467386394,-0.5803478694,0.6547387055,1.1154354505,-1.0439692035,2.3746028086,0.5349917104,0.2172255404,0.8760858205,-0.8685046969,0.1636823272,1.5719997589,-1.7558260815,0.4162518614,0.1666182897,0.3400447168,-0.3171235747,-1.1088422831,-0.922092272,-1.1052870161,-0.1350795429,1.1200050761,0.2647279136,0.3112627064,-0.8379385521,1.3900467446,-0.9434795927,0.8383799655,0.0056343448,-0.3010425706,-0.4169586882,0.7277914633,-0.3278664268,-0.6749525355,0.447597246,0.5607469571,0.7137731764,0.55290254,-0.421533142,-0.4535020674,-0.2766497412,-0.7575831592,-0.5719316522,0.1484014601,-0.6531445493,0.7953801575,-1.0370530439,0.0409567452,-0.3098866698,-0.5500221795,0.311353,-0.3174635774,-0.6946468965,-0.4351039876,-0.5090667638,-0.5938714673,-0.2075212659,1.2381352567,-0.3498507662,-0.7828139107,0.1380505382,-0.1208275501,1.0734824555,0.0696175031,-1.1038039822,-0.4019790588,-0.1648970708,-0.3345775855,-1.1580063161,-1.2056914314,-0.2602434508,-0.6417325936,0.2026049776,0.8904206934,0.395239571,-0.9458162594,0.8251898667,0.870466157,-0.3193252753,0.314852698,-0.614476103,-0.162038652,-1.1876247677,0.2510718353,0.5256569186,-0.0287101926,3.4043945963,0.4728206459,-1.2383822999,-1.2108027153,0.2238642643,-1.1744330514,1.1981129454,0.0653136258,-0.9207291676,-0.7255873401,-1.4413415939,0.1986963039,2.2888917018,0.3640749955,-0.3015662555,-0.3143651837,1.0800375249,0.2910476578,0.7190406162,-1.166707451,0.853228762,-0.4721124926,0.2568044871,0.8841576711,0.9745212292,1.2890166256,0.321743818,0.1083723669,-0.0022512579,0.5464413487,-0.0318943598,-0.1711521047,-0.3190547706,0.8054573387,0.2681588539,-0.2380047256,-1.6974471881,-0.3370147302,-0.7837905457,0.5743961516,-1.0377202358,-0.1127377112,0.357125682,-0.8716263401,0.7739629567,0.1751096864,-0.516263058,0.2074617588,0.5664304623,0.554361996,0.4227070844,0.7265673472,0.2511007056,-0.769647671,1.5152859367,-0.6143370379,-0.0022895983,-1.2782870848,0.0514352362,1.2794079643,0.9028063331,0.3896515177,0.2111339481,0.7443703064,0.1833944448,0.7037505085,-1.2914019794,-1.5172926434,0.9979684214,0.1229266836,0.4488467338,-1.6413429285,-0.7522682652,1.097784698,0.3912787961,0.209286605,-0.1884253993,2.3730484747,-0.7145875271,0.6552441833,1.0552340666,0.2108086325,-0.7692554728,0.2357895052,0.5535344024,0.2742668012,0.7637293569,-0.8004271477,0.5674482965,-0.7051957248,0.6676998138,-0.3044762351,-0.6755830177,-0.1113160494,1.0159992177,-0.0602031193,-0.776934715,-0.630010792,0.1047136812,0.7152285945,-0.3097119656,-0.2090903888,0.4812646023,-1.0729916686,0.9059013148,-0.6133219079,-0.8974274819,-0.6897150538,0.1712859042,-0.5236815122,-0.4949392387,-0.412718967,-0.0233865995,-0.298918897,0.5443708704,0.659687222,-0.5566889447,0.6853992324,0.1530893589,1.0279310031,0.1295563801,-0.5075788525,1.1143510756,0.7702852789,0.5990232858,-0.3236736236,-0.6547576475,-0.8115377612,0.6138344483,1.2586362003,-0.7877267487,-0.9035200885,0.9090540892,-1.9093265716,0.6925917846,-1.370140931,-0.2178308154,-0.8416497756,0.0755601855,-0.1315060694,0.9106574601,-0.3864581604,-1.2951523796,0.2834626942,-0.031152715,0.6044874249,1.0263423907,-0.1043062777,0.2621723144,0.0433587554,0.6271711985,0.7098506614,0.0529792281,0.11212979,-0.7278029204,0.7679490484,0.2598663466,-0.3266492409,-0.4283672896,-0.8027985952,-0.7186631905,0.4448422858,2.2201155042,0.1112963204,-0.8261880371,-0.097341606,0.2903364086,-0.5117013148,0.5430694008,-0.3461084889,-0.5759601818,-0.1304750579,0.0465713,-0.7922461561,-0.4709929691,0.5823220104,1.1251261325,0.0657158333,-0.0008662906,-0.0500651906,-0.7790140864,0.5917776644,-0.5004414514,0.8027227301,-0.5501243394,1.7162584591,-0.8729358216,-0.6666473183,1.9000024386,-1.5554154624,0.3360348919,0.2258889521,0.4131550146,0.9852334035,-1.0998167929,0.1935650724,0.5037739423,0.438192745,-0.158628535,-1.7297319287,0.4357210881,1.1006743548,-0.7469629765,0.209082788,-0.8270640617,-0.9155113606,0.0789025599,-0.5635764123,0.1903846632,-0.8689755824,0.2236149623,-0.7434171642,0.2984245309,-0.6751349717,-0.1555952097,1.1723729638,0.7521311648,0.7956592296,0.6382157867,0.642965088,0.3008241126,0.0818632275,-0.0764920019,0.3297444532,0.3883263498,-0.5868739726,0.7575361527,0.110615721,1.0137780369,0.3808151877,-0.4510537255,0.07865125,-0.3230035877,-1.0322194522,-1.159892693,0.3320710408,0.8338893425,-0.5937120108,0.3229483026,0.7595793627,-0.84534981,0.9668894814,0.8324458359,2.2328857337,0.7769966068,-0.131314333,-0.2609064808,0.4210153115,-0.1540253497,-0.6561989905,-0.349354426,0.3514810396,-0.5821358447,-0.062038125,0.301937713,-0.1904159232,-0.8706101523,-0.5069450534,0.6830688252,-0.2717199363,-0.1083893826,0.1028178122,-0.4967584962,0.1501971253,-1.1196501384,-1.0760264953,-0.0110882354,0.8963650192,0.5294530141,-0.8060661533,-0.5418714035,0.2367319841,-0.9139577188,-0.8864934548,-0.6137780658,-0.7591457496,-0.2026088235,0.4826431069,0.4274999788,0.5487550279,0.0995081264,0.1697573922,0.2201323793,0.301744268,-0.6770665781,-0.7626868438,-1.3680781786,-0.2448764448,-1.1255604562,0.0505249656,0.1555830563,-0.8480709569,-0.3157758876,-0.8545075783,-1.2233830234,-0.3266017588,-0.6371781899,1.276775943,0.2321874755,-0.2669203997,-0.7116665268,0.6736678389,0.3445993768,-0.3782778761,-0.5286676339,0.1493046171,0.7835925783,-1.3872054599,-0.4432286511,0.8205186229,0.3888775451,-0.8767617575,-0.6168324257,0.9962212931,0.9768206443,-0.6593209817,-1.2638463629,-0.5815767511,0.194087285,-0.5962783135,-0.1104513842,0.3061176744,0.4855479905,1.0563324264,1.0945384952,0.5040428069,0.4236388352,-0.6516420813,-1.3782637698,-1.0284933085,0.1742241012,0.0395982221,0.2574540025,0.8032279867,0.1884424727,1.0630938473,0.363671071,-0.7165086268,0.3259012855,0.2834636555,-0.045463098,0.1379748299,-0.4358957863,0.2642644859,-0.5133954152,0.953798283,0.2034541096,0.563264861,-0.9419882909,-0.1885232352,-1.5822530777,1.2337494273,0.3610149019,-0.1825670495,-1.8433513102,-1.4767690568,-0.7092600647,0.0524685802,-0.1863024088,0.6674376327,-0.871376393,0.4254782751,-0.7935399651,-0.0955893118,1.6564361185,-1.5572176358,-0.005070455,-1.1041830606,0.7832865264,-0.0651203746,0.1519506956,-0.5851111223,-0.4569246044,-0.5486891662,-0.1690542167,-0.0066364202,0.3640823932,-1.6322918653,0.5263073589,0.6106458534,-0.8360288667,-0.5592357265,-0.1690548619,0.3873554323,0.5700313925,1.1924444699,0.782862256,-0.8621157487,1.1068909804,0.7520765858,-1.1944717326,-0.5601403803,0.3961519733,-1.0861302504,0.2766712355,-0.0402887594,0.2393471989,1.3897491952,0.0746061368,0.1217006828,0.9770557193,-1.0041651671,0.8407007833,0.4351263535,0.5187263064,-0.0132555064,0.7263416103,-0.480193726,0.5725510414,0.361853198,-0.8142002237,0.6039059159,-0.1942054728,-1.0100012373,-0.8636414199,-0.0124241503,-1.8233170177,0.6134635763,0.6062565046,0.5694274035,0.8010793864,-0.2499255475,0.3384529803,0.6967792662,0.4237348502,-0.8341843254,-0.1686676164,-0.6308170407,0.5521129187,0.2650914614,1.0050276904,0.7650333435,-0.481701849,-0.3464590213,1.6856188916,0.2519256058,0.0972533574,0.5751804023,-0.3237614867,-1.0892624942,0.3000427611,-0.4691773805,1.2008074955,-0.4937335271,-0.1966414902,-0.3814675189,0.7459564785,-0.1999767167,0.349363342,0.343751936,1.2083131844,-0.5348408756,-0.8727619814,-0.8906450205,-0.6967524948,-0.6574378044,0.9142796219,0.8161522131,1.1167414725,0.1695498582,0.5107145838,-0.2393407511,1.3319416732,-0.0860663592,0.7700478116,0.2761760818,-1.0686267932,-1.0263633158,0.2585219528,1.3288306778,-1.3639251929,-0.4248227212,0.5709418358,1.2234013641,0.3811620767,-0.3806214525,-0.5085023968,-0.9867308079,0.7892048783,-1.2156055372,-0.0748023222,-1.1888790133,0.0076269621,-0.9259040434,0.4219459301,-0.5922131828,0.1394215458,-0.4504481234,0.8554195924,1.5098854831,0.0114499655,0.0843285156,0.1544264448,0.7162513117,-0.4352927456,-0.0102168927,0.6522682054,0.2078177375,-0.4044814704,-1.004110359,1.0280287656,-0.5063827995,0.0081367136,0.9651231909,0.8878558136,-1.0317600863,-1.4143908104,-1.1565339377,-0.3442662449,-0.1283767146,0.4598971284,0.825523911,0.2860972526,-0.518035555,-1.1438100996,-1.3366617016,-0.1021581348,1.4090509688,0.8893422003,1.7793347112,-0.5999077166,-1.7717937142,0.0617775727,-1.4169993207,-0.7162593435,1.1179842928,-0.8926444845,-0.1865627944,-0.246099917,-0.436012256,0.5830094139,-0.2260690199,0.3100686218,-0.3302178099,-0.1901983757,0.5495052472,-0.1692492688,0.7339057709,-0.0080069568,-0.6253077273,-0.480792631,0.0307441641,0.9548594016,-0.4242758524,-0.5426947198,-0.653596538,0.634208974,-0.5522826051,0.7576337977,-0.6676767436,-0.4901397893,0.7730916799,0.319965368,-0.5619510411,-0.6460663802,0.6662112217,-0.1117133071,-0.554236603,-0.4066248137,-0.5768841555,-0.8094296667,-0.6361629085,-0.3567498563,-1.0752868645,-1.236525367,-0.5641065003,-0.4207336323,2.4042193193,-0.6626989925,-0.6662151184,-0.4881877798,0.9997536387,-0.3874237216,-1.0505641458,0.6146207195,0.511743089,-0.0187399482,-0.8800795818,0.6279890626,-0.870153577,-1.101103849,-1.170290897,-0.2136844174,0.249971605,-0.666544836,0.9716404265,1.017891731,-0.4764619734,-0.3278419681,0.1188906457,0.1643022239,2.1970572224,-0.1519816788,0.6503945913,-0.4894073616,0.9981800207,0.5375262266,-1.1099902169,-0.6807182804,0.2769944505,1.3160565764,0.2766987032,-0.4665853454,-0.1796153417,0.5562856041,0.4035068479,0.0451804654,-0.4252832239,0.046023573,-0.2600443869,0.7307500205,0.825160407,0.5400788808,0.8715581158,1.0174550387,-0.4241978508,0.4812313658,0.0192179353,0.3795559878,-0.8135118458,-0.0905955179,-0.1587128441,0.0907062336,-0.2366869706,1.3369249064,-0.3703657815,-0.5629710341,1.2928464285,-0.0798907172,-0.0686998793,-2.5320520353,0.9770402597,-1.0547587553,0.2477071809,0.5119316598,0.2454064603,-0.3116104914,-0.638145304,-0.8146905342,1.5703808146,0.5577628314,0.3703524851,0.8631198049,-0.847368088,0.1946217713,0.1234891634,0.545377827,-0.7964105435,-0.3399170691,-0.8178131337,0.5794283571,0.4348578314,-0.740862273,-0.6320548662,-1.2853953139,0.6669512636,1.5370358071,2.1772337564,-0.9994606024,-0.6556181906,-0.2269561445,0.9162910225,-0.3830967782,0.5393272204,-0.8335957548,0.1073303748,-0.3894013807,-0.5314944102,-0.74054261,-0.1297906784,-0.2058610619,0.7374014625,-1.3158267683,-0.1490269924,-0.4679923291,-0.0615726228,-0.8253972082,-0.6640815788,-0.5023127133,-0.3194623985,-0.8655051763,-0.4135258002,-0.9283898238,0.0318427402,-0.2653197976,-0.2704277123,0.7253024431,0.1762915954,0.3857322703,-0.9093637634,-0.7525863673,-0.0735951847,0.2065915618,1.2201614515,0.9061237942,-0.437525395,0.0092862034,-0.2213842386,-0.0605877821,0.6786045668,0.0770411129,-1.080852142,-0.5335952703,0.3059695536,-1.0556068549,-1.1202102276,1.1154580949,0.1900348243,0.3445242997,-0.4433150345,-0.0700826983,0.5324930542,-0.8490098887,-0.7214084574,0.8495119395,-0.0019812158,-0.4607258566,-0.728430213,0.7084010924,0.454752141,1.2349622264,0.5279278918,-0.5291624817,-1.0966841103,-0.7482333212,-0.7248932231,-0.6810215406,2.2157358514,1.0525919469,-1.5174712807,0.2451473265,-1.6143767216,-0.6530803405,-0.066762824,-1.2776466364,0.1528934185,-0.2080399733,-0.6200589344,0.4171578633,0.0262505095,-0.8156546404,-0.3381019724,-0.4379024991,0.5533754685,-1.7701833002,0.0244975554,0.28010004,-0.0192879889,1.5465818161,0.0351937885,-0.3825408854,-0.0235140147,0.8017209611,-0.0348219478,0.7930379294,-0.8210118705,0.6101546114,-0.6482708164,-0.2214759446,0.4877938378,-0.1372787007,-0.6568871542,-1.1113277858,-0.9497669499,0.2210001067,-0.0899581927,-0.4802445493,1.0264670409,-0.0696910858,-1.0154875883,0.9576935515,1.2948682937,-0.4109357726,-0.0355444278,-0.4927416383,-0.7248771212,0.7968989278,0.7975377786,-0.6176445681,-0.5210353968,-1.191657466,0.1281787897,0.2172810615,-1.4289731018,1.2403103582,0.8451709982,0.2959384985,-1.4468471555,-2.0891495823,0.2262966629,0.276040955,0.3519803045,-0.2705356309,-0.1939840945,0.7200642803,-0.5566548319,-0.869659974,-0.2724349829,0.1300085619,-0.9913018702,1.240510885,-0.1635658091,-0.0878031782,-0.5569115951,-0.3275568137,-0.0833537248,-0.4949315004,0.4125363814,-0.2720681474,-0.2314267922,4.1865892201,0.5371540762,0.651036478,0.5558846843,1.1921970211,0.0426810548,-0.5986569406,-0.6940619722,-0.0367935919,-0.1845460005,0.6728947911,0.4952726262,-1.4284955304,0.4502404322,-0.064891609,-0.0564909008,-0.0730700542,-0.7112523365,-0.4532773168,-0.0359561171,-0.923490235,0.2445753161,-1.1681179924,0.8892058047,-0.6300751166,1.1982318125,-1.1734576137,-0.9408916585,0.5275111604,-0.190776508,0.0301641094,-0.1778184582,-0.7881940333,0.1631145893,-1.4220083773,-0.2095591028,-1.0109192498,-0.0760204081,-0.4896507517,-0.2743042158,0.0350284065,0.97671399,-0.2709163046,-0.1785443858,-0.3392875146,-1.0204616884,-0.2891721005,-0.8543641948,0.5501342047,-0.7909129916,-0.4443423049,-0.5899246104,0.1374455206,0.1596836584,0.1055745652,0.7080350215,-0.4269774235,0.5762294711,1.1192970952,-0.6475686684,-1.3092179648,0.2989700503,0.1019181155,-0.4132463869,1.3966868994,-1.0202357297,0.9494793541,-1.2921468869,-0.7992262297,0.0520595945,1.6553144475,-0.4953852356,-0.0682675916,-0.6120352135,0.4868450037,-1.04632477,0.1824246994,0.8339752991,-0.1484538387,0.6553607097,0.243494503,-0.4349432852,0.8054865403,0.2067848572,-0.4239905675,-0.5204007602,0.931364156,0.9309475371,0.1671499975,0.8413105895,-0.6159204448,1.0103295084,0.173990645,0.2276252667,-0.5092235325,-0.3932599316,-0.4077521415,-0.3158940936,-0.7131982894,-1.4111399047,0.7234395653,1.1445327429,0.708678544,-0.4256615175,0.5976006834,-0.7428642015,-0.5674884596,0.9246458644,0.8674194429,-0.4422940918,-0.7547011848,-0.8051604632,0.8178020892,-0.8307886726,0.4749364563,1.0982217123,-0.6442285812,0.812568561,0.7982740201,0.7302015838,-0.5220500518,0.1195959445,0.1912543367,-0.2572952845,0.9454058793,-0.6227562789,0.5825347665,-0.3817939682,-0.6600899623,0.6117419373,0.7886039624,0.4070249982,-0.4001864273,-0.8588301022,-0.7690324958,0.4231278085,-0.3813916458,0.0614573127,-0.7541230944,-1.2600760788,0.6693885183,-0.5725133005,-0.4589665664,-0.5109632073,-0.6897120125,0.3868992657,0.9629726021,0.6931247249,-1.4752554122,-0.8867933571,-0.6922585264,-0.1059286815,-0.5474493153,0.5650910199,-0.1548627592,-0.6036149692,-0.4627798098,-1.2355489561,0.8012847024,-0.1803104119,0.3508223052,-0.6616781567,-0.8251833308,-0.6254920675,0.6529615145,-1.7244986481,0.0241727737,-0.5461243923,-0.8499757787,-0.7612438881,0.5687803159,-0.3202466535,-0.5227967992,0.1367735798,1.3348572459,0.2720865912,0.4385513033,-0.5281361407,-1.1014880119,-0.1972163893,0.7198607155,-0.1618636072,0.845049429,1.5950883004,-0.3422855967,0.7203619787,-0.3311842496,-0.4287297979,-0.7946579518,0.7450536879,-0.783263093,-0.1483881174,0.754515795,0.7904795046,0.6724935351,-1.8521753698,0.4302747821,0.5271114369,0.7926350331,0.9962686086,-0.6341402045,0.250992083,1.2845147664,0.7469869381,0.7001157749,-0.3165556727,-0.82940587,1.9191741326,0.5787815855,0.100227341,-0.8600828729,0.6418215442,-0.8217011168,0.058004327,-0.3275051219,0.9154815057,0.6854744988,1.1049748928,0.2771737645,0.4540151191,-0.250560947,1.1764182646,0.1094180092,0.4414021236,-0.4110769803,0.0001524992,0.5490163443,-0.9282604152,-1.039341463,-0.094349116,0.2402748759,0.0832193842,-0.0343153609,0.0415052923,-0.7363535507,-0.7457846376,-1.1326974487,-0.9129373646,0.7872089905,0.0861520617,0.973321808,0.6093231236,0.4600452783,-0.1587751048,0.654474557,1.0945323297,-1.447393052,-0.2755037846,1.0374290185,-0.4524683923,0.724310735,0.2602586565,-0.7233423846,-0.3191321255,-2.056871116,1.0778482225,0.3946881252,0.7168964481,0.9587607543,0.1524513655,-0.253681219,-0.3169888209,-1.1191511807,-1.3022975227,0.2739429131,0.1221246645,-0.3812103285,-0.7310632845,-0.1600448806,0.4332512404,0.9837271697,1.4376901319,-0.9258479099,0.6938226276,-1.7661688582,-0.5985899994,-0.2323178818,0.6994518188,-0.4301953711,1.5024886266,-1.5966914534,-0.3084464534,1.7220840976,0.4541548115,0.9841829751,0.5037828999,-0.8045880801,1.2987308765,-0.8274348546,1.3822284655,-1.8749951419,-0.461084133,0.0793702877,-0.1356070258,0.5765028144,-0.4863218444,-0.282334718,0.3468018359,1.2151065494,-1.117029221,-0.77719603,-0.6253763047,-1.1009950899,-1.8563038977,-0.2187364426,0.1118131546,1.0676709867,0.7683600076,0.5857646732,0.3108256085,0.8190576533,0.2118230599,-0.1165448375,0.1538143003,-0.0018599931,-0.845737409,0.7454916677,-0.9698340595,0.0192739901,-0.0622003436,-0.4671209383,1.4699871512,0.9086014317,0.7513004656,-3.0609493945,-0.0059058215,0.555631015,-0.2758616624,-0.3025839771,1.8835647651,1.0154336081,-0.4286785824,-0.7022514042,-0.373029558,3.4025869461,0.8527145091,-0.2195523459,-0.0156348557,0.9021571229,0.8102094985,0.2157236961,-0.7497167453,-0.1453264551,-0.1860353773,-0.6156616968,-1.6736248302,-0.4689237122,0.6657759049,-0.4452552167,1.1083423419,-0.1357361884,0.3880088681,-0.3253268528,0.0119720234,0.0542269293,-0.5222956775,-0.6572274157,-0.7508397643,0.3756556841,-0.4463214826,-0.3073049658,-0.2760875397,-0.5505127836,-1.3185421995,-0.4764554198,0.247589984,1.3437063864,-0.3075333016,1.2550466726,1.7076015844,-0.6292442445,0.6951667291,-1.1453379789,0.219345721,0.8477114432,0.4032339317,0.2202958386,-0.9822052072,0.1306938792,2.2056406254,0.3884565008,0.3479555933,-0.1559843507,-0.1502559372,0.612718674,1.37440059,-1.4275414007,-0.5013408914,-0.4355816868,-1.0026018498,0.1776782685,-2.0319112398,-0.0790140845,-0.0731123414,-1.2314952597,-0.4324640318,1.1392825477,-0.3283107745,-1.3145498589,-0.5060442094,-0.8867130127,0.3938039779,-0.35719634,-0.5994004571,0.5852958673,-0.6469333193,-1.0227913861,-1.3132109778,-0.6783858213,-0.189186115,0.1682358186,-0.2408293617,-1.2813680279,-0.3681880968,0.0322477326,0.7591702375,-0.6978606254,-0.295425801,0.8520922093,1.4174195849,-0.208825207,-1.5038472718,-0.266344394,0.1776670602,-0.8804269373,0.7689779465,-1.9917624501,-1.1450715704,0.1652653343,-0.2888984823,0.2446831271,-0.0252105167,-0.2443556363,-0.1830587065,-0.6917243814,-0.832950296,-0.9890131841,0.6358219261,-0.2008697884,-1.4172877328,-0.214436687,-0.5849182485,-0.1498840648,-0.6209642155,0.3124904125,-0.3433375714,0.672474966,-0.6311741072,-0.8923368326,-0.1047443763,-1.5345943754,0.6881736542,-0.7718773813,0.0318375642,0.7414306601,-0.1677230439,-0.9857294388,-0.6923975891,-0.5378789408,-0.3046292923,-1.4581644423,0.8961046584,0.4839869904,-0.2707823253,-0.066156145,-0.6525322388,0.9118115202,0.256606748,-0.007143076,-0.1360919055,-1.6422037929,-0.729054918,-0.075574388,-1.3884707997,0.1686092419,1.3156240135,0.6156012006,0.6674280343,0.0644789311,-0.1301013951,-0.5113590035,0.3444341415,-0.2103314997,1.3045631792,0.7994943173,-0.2906745017,-0.0587691999,0.9406228419,-0.5717363111,0.7645748525,0.394362229,0.7395336376,0.3181607638,-0.7403142948,0.4363883032,0.6478894196,1.1249642875,0.8312779818,-0.0484540778,-0.921301847,-1.0080622034,0.0377625177,-0.0075398553,0.7399836914,-0.9643790841,-0.1524638175,-0.5106499389,0.9340064133,0.2203547517,-0.2872199957,0.0219218245,0.3815836281,0.4324324535,0.5807714693,0.3244937066,-0.632002783,-0.8187291406,0.8309213452,0.6104552434,0.3923232456,-0.8828207838,-0.6985370193,0.1597560578,-0.4032945355,-0.0916221971,-1.0040404853,-0.2919391838,-0.6230829039,-0.7739808078,0.3203575022,0.5837323554,-0.8493477259,0.4789305515,-0.1907166821,0.2541932822,0.5306052504,-0.4037751933,0.1756170536,-0.0157568933,-0.5300712484,0.0792444783,0.9150263873,0.1084729893,-0.2100916506,0.786898418,0.4438453167,-0.7274692807,0.9036642017,-0.6576218863,-1.0557665426,-0.2158367343,0.415558055,-1.2019263217,0.7805120664,-0.4654671235,0.2217508541,0.8663288919,0.8562099915,-0.7279875035,-0.6396105209,-0.7083800077,-0.4587090774,-0.3443924032,0.4158264314,-0.1548722196,-0.4928592891,0.7803071298,1.4519118003,0.5005339402,0.7465494829,-0.0463866454,-0.5967493819,-0.5275650156,-0.4911464469,-1.4753542999,-0.0382598527,0.5145433316,1.0004989287,0.6253493507,-0.8886475648,-0.0903592517,-1.0822990026,0.7022475028,-0.8113161717,-0.9033619851,-0.3199775984,0.9685454051,-0.2906825687,0.0952572409,0.5703955583,0.6995265946,0.8652692204,-0.2525977079,-0.8719470528,-0.6100429808,-0.909220302,-0.44021601,0.2208754641,0.0685991687,0.4258115737,-0.1819451725,0.5703583214,0.6720542028,-0.7418483484,0.6811092925,-0.04974961,0.1187651072,-0.9895419059,0.1024658303,-0.2460349168,-0.178333255,-0.6400821211,-1.0284428592,0.2753641023,-0.6169385172,0.7774484478,0.6926058769,0.9554692535,0.1973268567,-1.3948129447,0.1012455637,0.6364056839,-0.171064579,0.9585977282,0.096331119,0.1034644116,1.0040311937,-0.9466828986,0.651594905,0.3111433937,0.3671383003,-0.9387891528,0.8596065931,0.6488763922,1.1167867206,-0.6932026531,-0.0967947847,-1.0111189765,0.2106610049,0.2553264823,-0.0928893254,-0.3130874006,0.892627866,-0.6055455916,1.2524481596,-0.4481293259,-0.361056238,-0.3722431114,0.702698188,-0.3740972856,-0.8511830348,0.2018236598,-0.9774480259,-0.0235745335,0.9481710995,0.748516387,0.0224570829,1.0595625058,1.0067635871,0.4530098744,-0.4560259073,-0.1783563261,-0.9221022058,0.5092004009,-0.7608635844,1.2163047419,0.7808058109,0.6654115743,-1.4972424943,1.1809884185,-0.4077682238,0.9384738839,-0.6275678023,-0.1914984587,1.2028901421,-0.4671315715,0.9263100225,0.2207971135,-0.8169295536,0.8326689956,0.0467820118,0.619315265,-0.9087398599,0.4724755222,-0.9162170936,0.7076393123,-0.2756867642,0.5424060824,-1.3792235774,1.174920824,-0.0487656369,-0.9853476056,1.1155409462,-0.0164833481,0.7243935178,0.7049402405,-0.0109884002,-1.3367207425,0.4781858909,-0.1015949537,1.0652186858,-0.2248203993,-0.6420907328,-1.1627855421,-0.635420114,0.796175093,-0.2381055335,0.409703042,-1.4936708681,0.0542721626,0.6701996817,0.7225225535,0.6921027417,0.0128366326,-0.2641453328,0.6419753957,0.6447328503,-0.0287464012,0.1872538661,0.0965784379,-0.3566802526,-0.1961956204,-0.8766404817,-0.3813783966,-0.7764779719,0.3021190037,-0.7739789429,-0.0237271917,0.2798104203,0.5747514084,1.1443313412,-0.1129550789,1.1594868124,-0.4971517253,0.7297633275,0.655259465,0.4887598906,-0.6002480119,-0.3172855029,1.217266456,-1.069219481,-0.7194778827,0.8363856847,-0.7436076019,-0.030102684,0.3108552016,-0.548917545,1.4656583997,0.1934487189,-0.0107898002,1.2095928313,0.892690353,0.3348675723,0.4406389162,-0.601769451,0.7944840242,-0.5568357416,-0.869868041,-0.2961059151,-0.5095559829,0.2535181541,-0.6589094755,1.3963096095,0.142806495,0.1083466125,0.3895521943,-1.2642253506,-1.0028269836,-0.16002257,0.462141382,-0.3516167307,-0.2008451139,0.6819486602,-1.0624970046,-0.8995175174,-0.1406483829,0.5395918769,-0.0928686605,-0.3313071163,0.7101241551,-0.8543219728,-0.0264186042,-0.1606949084,0.010126096,-1.1905675833,-0.0191883573,0.9537198544,-0.3940491011,-0.4960645711,-0.1557024659,-0.7897312756,0.6358169931,-0.7388467571,-0.2792887588,-0.3547961996,0.4614244677,0.9493007526,-0.9132862719,-0.2696374532,0.4724056491,0.1842455741,0.1343491782,-1.0470182154,-0.4839497318,-0.8010153662,2.0368984799,-0.871644967,1.1981738927,0.6943468035,-0.4916665834,-1.1952914004,-2.0404629134,-1.5979794901,0.3921715788,0.4330605533,0.2297401371,-0.1205941552,-0.5691853885,0.6335317263,-0.4998549525,0.0729601973,-0.1555687938,-0.0170567905,-0.1562528388,0.8647278465,0.5185269916,-1.3931064986,-0.7190382879,0.1931698332,-0.7242787308,0.5098168663,0.7016813318,1.0089162251,-1.0099468103,-0.3624691991,0.9277564009,0.3347447622,-0.1039077846,0.2038779555,0.0284344858,1.6762364333,1.0141260453,1.8309213091,0.3431083784,1.2485735218,0.4078701613,-0.6670810636,1.03862917,0.1310634482,2.2008966014,-0.7883512069,-0.0851494159,-1.3488779332,-0.2936404269,0.4247100409,-0.6355649457,0.5098768655,0.312642341,0.1236618055,0.6610795384,0.6039028354,-1.0317542253,0.1959938899,0.5401953558,-0.4007443627,-0.2773682023,-0.6674699404,-0.495235739,1.6784469012,-1.2489189751,-1.2739307654,0.9030575418,-0.5053942456,0.0697883111,-0.352447568,0.8480007835,1.7773215935,0.4773334586,-1.0429001735,0.5386866224,0.6188055218,0.88427356,-0.6405647857,0.4471997131,-0.2014835894,0.9987093172,-0.0047814141,1.1110167947,-0.9385528087,-0.2048463968,0.3530456667,-0.7048653133,1.469975587,-0.6684955806,-0.4776707549,-0.463674478,-0.1114722133,1.1663666743,-0.1237626974,1.365310486,-0.2334123474,-0.1553631657,-0.5059625762,0.5216924303,0.03102364,0.7930168232,0.9979255881,-0.7644931437,-0.1238817188,0.8587877187,-0.1449957066,-0.8389532011,0.7347926623,0.5029898601,0.3822894632,-0.0232062817,-0.5127585937,-1.019761761,1.1669627532,0.0666078596,0.4952146747,-0.1982057417,-0.1507740816,-0.8673331114,0.5912131351,1.7387384751,-0.9625510275,-0.6427607531,0.7354323583,-1.0477819071,-0.3797897445,0.926648069,-0.2540799822,-1.0168061867,-0.7321552534,-0.2759954166,-0.5811093447,1.2317028168,-0.9364021839,0.0250003922,0.5564232085,-0.1096594688,-0.1118148134,-1.0210166302,0.4716440951,-0.7844038316,-0.8793871449,-0.2695915285,0.7986395398,1.3928797551,-0.9296085177,-1.3213477975,0.0644893519,-0.6269491848,0.5040920062,1.1026899264,-0.5543034089,0.7076964047,0.2588192503,0.8440721921,0.256866638,0.6028457389,-0.1656069564,-0.397782536,-0.4660151727,0.6786285654,0.9065039448,-0.5759032956,0.3262119492,0.3860123957,0.2581894737,-0.1078982363,-1.2666866484,-0.9761230904,0.1603833844,-0.0396915082,-0.700287049,0.1612854315,0.462171163,0.3406485968,-0.6412013758,0.2420112789,1.1939928062,-0.8572627447,-0.2680086636,-0.4643144255,-0.4642686422,0.8408869463,-1.1299135828,-0.4739681317,0.1706014166,-0.5921766688,0.8998853748,0.6389664459,1.3827615572,-2.2256184442,0.0926022225,-1.7019325381,-0.5552935819,-0.4853964354,-0.3385343678,0.5341620582,0.7230165758,-0.2243635913,-1.3896366025,0.179965534,0.1445571936,0.6920014819,0.5832218338,1.3492671331,-0.0349574837
