encog,BasicNetwork,java,3.3.0,1,1479709165247
[BASIC]
[BASIC:PARAMS]
[BASIC:NETWORK]
beginTraining=0
connectionLimit=0
contextTargetOffset=0,0,0,0,0
contextTargetSize=0,0,0,0,0
endTraining=4
hasContext=f
inputCount=675
layerCounts=11,71,101,121,676
layerFeedCounts=11,70,100,120,675
layerContextCount=0,0,0,0,0
layerIndex=0,11,82,183,304
output=-1,-1,-1,-1,-1,-1,-0.9999897543,-1,0.9999788838,-1,-0.9999999996,0.9073104499,1,-0.9999794623,0.9999987981,1,-0.9999999999,-0.9999999956,0.9999999999,1,1,1,1,-0.9999999974,-0.9998825662,1,-0.7070411381,-1,-0.9995947236,0.9966008652,-0.9999875645,0.9999999786,-1,0.9977443911,-1,-0.999999946,0.9999995288,0.9612748442,1,0.9999987275,-0.9999999991,0.9116181081,0.9533962961,0.895715288,0.9999999362,-0.9999961464,-0.9999999982,-0.9999514694,1,0.9999993377,0.9996601564,0.9968833218,-0.9999999997,-0.9999953334,1,1,0.999999987,0.9999468615,-0.849635712,-0.9998087453,0.9999999809,1,0.9999999998,-0.9988470455,1,-0.9800625888,-0.9926005387,0.9991791687,0.6323529157,-0.9604161335,0.9999996812,-0.999999768,-1,-0.9999999969,0.9999999995,-1,0.949827688,0.8467067326,-1,1,-0.999998584,1,0.9945188355,0.9985424379,0.9999998435,1,0.9999987429,-1,-1,-0.9369161808,-1,0.9999989851,0.9996320563,1,-0.9831146369,0.9787381424,0.9999999999,-0.2526915195,0.9999834821,-0.9999131866,-0.3573821217,0.9919065096,-0.9999999995,-0.9999956961,0.9999998696,-1,-0.9999999981,1,1,0.7532949683,1,0.9999999088,-1,0.9999999995,-0.9999070034,-1,0.9999823213,-0.9999998926,0.9996188769,-1,0.9999873243,-0.9999999999,0.9999967951,-0.9999997954,-0.9995534353,0.9999999977,0.9999997011,-0.9993654397,-0.9999993886,1,0.9995082317,-0.9999999559,0.8784599422,0.9999989063,-1,0.9999991287,-0.9999999942,-0.999781959,0.6799738113,-0.9999997469,0.9988648013,1,0.9999545212,0.9748923829,-0.7184591095,-0.9856460633,0.9981257503,0.9986386434,0.9999802981,-0.999999994,0.9999717144,-1,1,-0.9999996356,0.3480819952,-1,-1,-0.999825121,1,-0.9999983054,0.9999882967,-0.9999526459,-0.9999999964,-0.9980700761,1,1,-0.999999985,-0.9341786599,-0.9999999998,-0.9957947459,0.9999999988,1,-0.9999844681,0.9999999993,-0.9999999982,0.9999993612,-0.9999898783,1,1,-0.9997541861,-1,0.9990761412,1,-1,-0.9999999998,-1,-1,1,-1,1,-1,0.9999170456,0.9999996148,-0.9999999363,-1,-1,-0.9999999967,1,-1,0.9999999851,-1,0.9996178121,-1,1,0.9999999933,0.9999948159,0.9992520465,1,1,-0.9999999975,-1,1,1,-1,1,-0.9999875658,0.9999999809,-1,1,1,0.9999976943,1,0.9999998833,0.9999999991,0.9989468475,1,0.9996931644,-0.9996783632,-1,1,0.9907728787,1,1,-1,1,1,0.9997095978,0.9947497365,0.9999991614,-0.999817939,-0.9999995633,0.999988581,0.9981372686,-0.9999999994,-0.9999999993,-0.9999951565,-0.9999999999,-0.9999645124,-1,-0.9999942972,1,-0.9856104028,1,1,1,0.9053792592,1,0.9999840519,-0.9999999775,0.9999999971,-0.9999999902,1,1,-1,-0.9999999877,0.999999999,0.8025951869,-1,-1,0.5187911132,1,-1,0.9997030507,-1,1,1,1,-1,-1,-0.4022499567,1,1,0.9999999926,1,-0.985353763,-1,-1,0.9999999999,-0.999324544,-1,1,1,0.9999998957,-0.9999999816,0.7506428428,1,0.9999973091,0.9999970438,-0.9994238671,-1,0.9999489991,0.9999932106,-1,1,0.631372549,0.631372549,0.7098039216,0.8901960784,0.9294117647,0.9607843137,0.9215686275,0.9529411765,0.968627451,0.9843137255,0.9843137255,0.9921568627,0.9921568627,0.9921568627,0.9921568627,1,1,1,1,1,1,1,1,1,0.9921568627,0.9921568627,0.9921568627,0.9450980392,0.9450980392,0.9529411765,0.9294117647,0.9294117647,0.9450980392,0.968627451,0.968627451,0.968627451,0.7411764706,0.7333333333,0.7882352941,0.3490196078,0.3176470588,0.3882352941,0.0117647059,-0.0431372549,0.0196078431,0.1764705882,0.1450980392,0.2705882353,0.3882352941,0.3803921569,0.4980392157,0.662745098,0.662745098,0.7333333333,0.9921568627,0.9921568627,0.9921568627,0.9921568627,0.9921568627,0.9921568627,0.9921568627,0.9921568627,0.9921568627,1,1,1,0.9921568627,0.9921568627,0.9921568627,0.9137254902,0.9058823529,0.9215686275,0.6235294118,0.6078431373,0.6941176471,0.5058823529,0.4823529412,0.5764705882,0.8039215686,0.7882352941,0.8274509804,0.4431372549,0.4117647059,0.4745098039,-0.0823529412,-0.1137254902,-0.0352941176,-0.0823529412,-0.1215686275,-0.0901960784,-0.0352941176,-0.0509803922,0.0274509804,0.1450980392,0.1607843137,0.2705882353,0.3568627451,0.3803921569,0.5137254902,0.8901960784,0.8980392157,0.9215686275,0.7568627451,0.7568627451,0.8352941176,0.9607843137,0.9607843137,0.968627451,0.9921568627,0.9921568627,0.9921568627,0.9058823529,0.9058823529,0.9137254902,0.662745098,0.6235294118,0.6705882353,0.231372549,0.1764705882,0.262745098,0.0666666667,0.0431372549,0.1294117647,0.2784313725,0.2392156863,0.3411764706,0.2235294118,0.2,0.2941176471,-0.0823529412,-0.1137254902,-0.0509803922,-0.1607843137,-0.1921568627,-0.168627451,-0.1137254902,-0.1215686275,-0.0431372549,-0.0509803922,-0.0352941176,0.0509803922,0.3333333333,0.3568627451,0.4666666667,0.5921568627,0.6156862745,0.7254901961,0.4745098039,0.4745098039,0.5843137255,0.9215686275,0.9137254902,0.937254902,0.9607843137,0.9607843137,0.968627451,0.4666666667,0.4352941176,0.5058823529,-0.0823529412,-0.137254902,-0.0745098039,-0.2784313725,-0.3254901961,-0.2705882353,-0.2078431373,-0.2392156863,-0.1764705882,0.0745098039,0.0352941176,0.1215686275,0.0980392157,0.0274509804,0.0901960784,-0.0901960784,-0.1137254902,-0.0823529412,-0.3254901961,-0.3725490196,-0.3568627451,-0.2941176471,-0.3333333333,-0.2784313725,-0.1137254902,-0.1215686275,-0.0509803922,0.2549019608,0.2470588235,0.3568627451,0.537254902,0.5607843137,0.6784313725,0.2705882353,0.3019607843,0.4039215686,0.7411764706,0.7490196078,0.8117647059,0.7568627451,0.7568627451,0.8274509804,0.0980392157,0.0823529412,0.1843137255,-0.3411764706,-0.3490196078,-0.3019607843,-0.4039215686,-0.4039215686,-0.3647058824,-0.4274509804,-0.4352941176,-0.3490196078,-0.1843137255,-0.231372549,-0.1529411765,-0.0588235294,-0.1058823529,-0.0588235294,-0.0117647059,-0.0588235294,-0.0039215686,-0.4588235294,-0.4901960784,-0.4823529412,-0.2470588235,-0.2862745098,-0.2235294118,-0.0117647059,-0.0509803922,0.0431372549,0.0666666667,0.0274509804,0.1137254902,0.1450980392,0.168627451,0.2705882353,-0.1450980392,-0.1058823529,-0.0274509804,-0.3098039216,-0.2941176471,-0.2156862745,-0.1137254902,-0.1294117647,-0.0666666667,-0.3254901961,-0.3098039216,-0.2549019608,-0.4745098039,-0.4509803922,-0.4196078431,-0.5137254902,-0.4901960784,-0.4588235294,-0.5921568627,-0.6,-0.5137254902,-0.5137254902,-0.537254902,-0.4666666667,-0.0196078431,-0.0352941176,0.0509803922,-0.3098039216,-0.2941176471,-0.231372549,-0.6941176471,-0.6862745098,-0.6470588235,-0.4509803922,-0.4274509804,-0.4352941176,-0.4901960784,-0.4431372549,-0.4352941176,-0.3882352941,-0.3647058824,-0.3490196078,-0.568627451,-0.5450980392,-0.5058823529,-0.5607843137,-0.5607843137,-0.4980392157,-0.5529411765,-0.537254902,-0.4745098039,-0.4352941176,-0.4509803922,-0.4039215686,-0.5764705882,-0.5529411765,-0.5058823529,-0.6862745098,-0.6549019608,-0.6078431373,-0.6470588235,-0.6156862745,-0.568627451,-0.537254902,-0.5529411765,-0.5215686275,-0.5843137255,-0.631372549,-0.6,-0.5137254902,-0.4823529412,-0.4117647059,-0.7647058824,-0.7098039216,-0.6392156863,-0.7176470588,-0.6941176471,-0.6549019608,-0.2235294118,-0.2392156863,-0.3411764706,-0.168627451,-0.1843137255,-0.2941176471,-0.0509803922,-0.1215686275,-0.2,-0.0588235294,-0.0901960784,-0.1843137255,-0.0509803922,-0.1058823529,-0.1921568627,-0.1529411765,-0.137254902,-0.231372549,-0.1764705882,-0.168627451,-0.2470588235,-0.3098039216,-0.2784313725,-0.3254901961,-0.1921568627,-0.2470588235,-0.2862745098,-0.7176470588,-0.7568627451,-0.7019607843,-0.0196078431,-0.137254902,-0.137254902,0.1921568627,0.0588235294,0.0666666667,-0.0509803922,-0.1137254902,-0.168627451,-0.1764705882,-0.1764705882,-0.3176470588,-0.2549019608,-0.2156862745,-0.3647058824,-0.2,-0.1921568627,-0.137254902,-0.0901960784,-0.0666666667,-0.0117647059,-0.0901960784,-0.1058823529,-0.0509803922,-0.5215686275,-0.4980392157,-0.4431372549,-0.5921568627,-0.568627451,-0.5137254902,-0.5921568627,-0.5921568627,-0.5215686275,-0.3960784314,-0.4117647059,-0.3490196078,-0.2235294118,-0.1921568627,-0.1764705882,-0.1058823529,-0.0823529412,-0.137254902,-0.8117647059,-0.8196078431,-0.7882352941,-0.6470588235,-0.7019607843,-0.631372549,-0.5058823529,-0.568627451,-0.4901960784,0.262745098,0.1294117647,0.1137254902,0.1450980392,0.0431372549,-0.0039215686,0.168627451,0.0588235294,0.0117647059,-0.1921568627,-0.2,-0.1215686275,0.0509803922,0.0352941176,0.1294117647,0.2392156863,0.2235294118,0.3176470588,0.4352941176,0.4431372549,0.568627451,0.0823529412,0.1058823529,0.2,-0.168627451,-0.1764705882,-0.1058823529,-0.0901960784,-0.1058823529,-0.0666666667,-0.1450980392,-0.168627451,-0.1607843137,-0.137254902,-0.1921568627,-0.1921568627,-0.8352941176,-0.8823529412,-0.8431372549,-0.6705882353,-0.7803921569,-0.7411764706,-0.7647058824,-0.8352941176,-0.7960784314,0.2549019608,0.0980392157,0.1058823529,0.3098039216,0.168627451,0.168627451,0.2705882353,0.1215686275,0.0980392157,0.1450980392,0.0901960784,-0.0745098039,0.2078431373,0.137254902,-0.0039215686,0.231372549,0.1764705882,0.0274509804,0.2862745098,0.2156862745,0.0823529412,0.3176470588,0.231372549,0.1058823529,0.3647058824,0.2549019608,0.1294117647,0.3882352941,0.2705882353,0.168627451,0.4274509804,0.2941176471,0.2235294118,0.4352941176,0.2862745098,0.231372549,-0.6156862745,-0.6941176471,-0.6705882353,-0.6941176471,-0.8039215686,-0.7725490196,-0.7647058824,-0.8588235294,-0.8352941176,0.3411764706,0.1607843137,0.1215686275,0.4117647059,0.2392156863,0.2,0.3803921569,0.1921568627,0.1529411765,0.4117647059,0.2470588235,0.1529411765,0.4117647059,0.2470588235,0.1607843137,0.2784313725,0.1607843137,0.0274509804,0.3019607843,0.1843137255,0.0431372549,0.4431372549,0.2941176471,0.231372549,0.4352941176,0.2862745098,0.231372549,0.4352941176,0.2784313725,0.2156862745,0.4117647059,0.2549019608,0.2,0.4039215686,0.2392156863,0.1764705882,-0.262745098,-0.3647058824,-0.3568627451,0.0274509804,-0.1294117647,-0.1450980392,-0.6549019608,-0.7333333333,-0.7098039216,0.3960784314,0.2235294118,0.168627451,0.4431372549,0.2549019608,0.2,0.4039215686,0.2156862745,0.168627451,0.3333333333,0.1607843137,0.0352941176,0.3725490196,0.1921568627,0.0901960784,0.4117647059,0.2156862745,0.1137254902,0.4117647059,0.2392156863,0.1529411765,0.4352941176,0.262745098,0.1921568627,0.4274509804,0.2549019608,0.1764705882,0.4274509804,0.2470588235,0.1764705882,0.3960784314,0.2235294118,0.1529411765,0.3803921569,0.2,0.1294117647,0.2078431373,0.0352941176,-0.0196078431,0.2784313725,0.0823529412,-0.0039215686,0.2078431373,0.0274509804,-0.0431372549,0.4117647059,0.231372549,0.1607843137,0.4196078431,0.2392156863,0.1764705882,0.4274509804,0.231372549,0.1764705882,0.4039215686,0.1921568627,0.0980392157,0.4352941176,0.2235294118,0.137254902,0.4196078431,0.2235294118,0.137254902,0.4352941176,0.231372549,0.1450980392,0.4352941176,0.2470588235,0.1607843137,0.4352941176,0.231372549,0.1450980392,0.4274509804,0.2470588235,0.168627451,0.4274509804,0.2549019608,0.1843137255,0.4352941176,0.2549019608,0.1921568627,0.4274509804,0.2470588235,0.1764705882,0.4274509804,0.2470588235,0.1764705882,0.4117647059,0.2156862745,0.137254902,0.4039215686,0.2235294118,0.1450980392,0.4117647059,0.2,0.137254902,0.4039215686,0.2078431373,0.1529411765,0.4274509804,0.231372549,0.1450980392,0.4274509804,0.2078431373,0.1215686275,0.4196078431,0.2078431373,0.1215686275,0.4352941176,0.2392156863,0.1529411765,0.4352941176,0.231372549,0.1450980392,0.4274509804,0.231372549,0.137254902,0.4039215686,0.231372549,0.137254902,0.3803921569,0.2156862745,0.1215686275,0.4274509804,0.2549019608,0.1843137255,0.3725490196,0.2,0.1058823529,0.3960784314,0.2078431373,0.1294117647,0.3725490196,0.1921568627,0.1058823529,0.3647058824,0.1843137255,0.0980392157,0.3960784314,0.1921568627,0.1215686275,0.4039215686,0.2,0.137254902,1
outputCount=11
weightIndex=0,781,7851,19951,101071
weights=##0
##double#101071
   1.1745077285,-0.6019406251,-1.205552306,1.3434317756,-1.0415450633,-0.0716719386,-0.2781486879,2.9106547482,-0.30051496,-3.6248887307,0.611828491,-0.3934226994,0.3051867342,-3.1654365393,2.5953280348,3.4138184122,0.3849182254,-1.7794631841,-3.4884309154,2.0882579033,-3.4159360455,0.0848077522,-0.1137415374,-1.3819851329,-2.2906867792,-2.8447520619,-1.2762768223,-0.3157692971,2.4063837102,-4.1727237597,5.5442637465,2.6498512223,-1.3527349493,3.9034093612,-1.3810815037,-1.5427809749,1.3288028179,-0.7874773567,-3.7306567948,-1.4144218612,-1.8855629914,0.5548348765,2.1717523534,-2.3229091552,0.4915199875,-0.0763731196,-0.2382692253,-0.2652138878,5.1583948694,-0.6206549154,-1.3239163104,-0.5302554892,0.307661946,-1.1552873323,1.511881751,2.4065960089,-0.2537832749,-3.4964621825,3.039723565,-1.6377322925,-3.7205174967,-1.1283393359,-1.8883345363,-3.8434460306,-0.96133699,2.0948839642,-1.8334854879,-1.4862130612,-1.7496331527,-0.6317371361,-2.0012868643,0.0737907956,-0.0281698855,-6.5241570499,2.6297640301,0.5305290813,-0.782092171,3.4918456424,1.9143978741,-1.8383742803,-1.4546713738,-0.627735189,-0.3795002447,0.6183297837,0.726892607,-3.4413264329,-0.9314811788,-0.1411030594,0.714291574,-0.5821416693,0.2847007894,-0.7123207293,0.3651616447,0.3886245764,-1.025730428,3.1703245217,1.2328994996,-0.1692865893,0.1748923962,-0.9039262316,-0.1476913101,-0.8513546367,-0.3434796915,-0.0931391706,0.1467353337,-0.8699665384,-0.4564792725,5.8041424958,-2.1823460972,-1.1192830765,-0.5914407428,-0.0599765426,0.7766002637,5.5914839303,-0.3447937701,-0.7661862728,-0.6613295397,-0.1683919532,-0.2316475465,-0.4882353876,-0.7175807032,0.0516549649,0.7251024157,0.5051456779,-0.3033398448,0.2605622331,-0.8588031056,2.6013676347,-0.0377608086,1.676229126,-4.8502524668,-0.1288564173,0.9525166766,0.0987431208,-1.0998920806,1.3346059756,2.6770427915,-0.9450415243,0.416921402,-0.8652915712,0.7989246912,-9.9229756885,-0.3894702908,-0.9142055261,-0.6176767938,0.6043495603,0.1881658632,0.0549156197,0.1631205468,-0.7191407287,-0.8257033536,0.3620818268,0.1674280577,-1.5623291186,1.1165985858,1.1408633092,-0.8483926802,-0.5050932309,1.4151128014,0.4975365161,0.5742128149,-0.2400946111,-0.5521138543,0.4598576074,-0.3942518305,-0.2653280471,-0.4474088295,0.0548241155,0.0559244177,-0.374935198,0.4930298564,-0.0279071326,0.6573107563,0.5402763032,-0.7847506259,-0.8475824665,0.4976048342,-0.1881692178,0.2567199303,-1.8365171649,-0.4390313755,0.8155823494,-0.4698307954,0.9950580171,0.1249749157,-0.1559438415,-0.7125062071,0.5511816492,-0.21115262,-0.1094687612,0.3996048798,0.6421988326,-0.4043565263,-0.2798295502,0.8297296531,-0.6489414816,-0.0534543149,-0.378673405,-0.0160462921,-0.0776707194,-0.8499516147,-2.0215671199,0.8653784705,0.753759105,-0.0204825049,-0.2306612705,0.8432555003,1.001755409,-0.5648906651,-0.5069647609,-1.1006940477,-0.2169925613,-11.4997217583,0.836700261,-1.3139598224,-0.8026502645,-0.5329409607,-0.2827559294,0.3535659317,1.047985951,4.347960827,-0.5877027998,-0.5507766856,-2.68560451,0.1044544359,2.5021325302,2.3105263752,-0.72098924,-1.9352620647,0.8449696418,-0.7612444843,-0.8836535799,-0.8563810028,-0.6186384608,-0.8977144981,-6.3022780605,-4.6170591571,0.6220294686,-1.6319895499,1.1375311376,0.2958276912,-8.3287735508,-1.8619722487,0.4911305446,0.753599776,0.0356656865,-3.193371443,-0.577652757,-0.2823044389,0.8637982318,0.0556373083,-0.271625123,-0.8818021273,0.4644538559,-0.7741669174,0.3661186947,0.729581325,-0.7379294616,-1.1568638203,0.5756187151,-0.1348794042,-3.1977641322,-3.8649672635,0.8798829179,-1.1157814901,0.8632047833,1.4408922867,-0.339470773,1.6141339359,-0.1415800656,-0.8325558505,1.6643647359,-0.1941949815,-0.7680888416,0.7524713545,0.7306088301,1.5599749046,-1.5616695,0.2236063468,0.8652529723,-0.5236415241,-4.643956638,-0.0304362918,-18.4922857195,1.4378034425,-0.354951639,0.2221724992,2.279724465,-2.1433182618,-0.2503459809,0.9965758987,-1.3899723762,-5.6477858633,-1.9197471647,3.5138937311,-1.8678445328,0.1307247817,6.810087793,1.6545364589,0.3624959298,0.0760497344,1.0190145281,0.8181648755,3.8317498877,-0.61156815,3.8927508777,-0.4739140756,1.9277537432,6.0204967488,0.5014079909,-1.7222696363,-0.2237928872,-1.2372255679,-3.03824309,-1.9335726279,-1.9833496878,-3.8363779949,-0.0337210461,-3.017644428,6.1942240232,-1.7660071263,-2.49136404,-2.0448361668,1.3503916321,-0.1718247555,0.8569015567,2.8583805756,0.0836031647,-0.8926622894,-1.4034309792,5.0994256507,-3.3544886599,2.9808041069,0.6180156092,-0.262193447,0.8646415735,0.4986224645,-0.0581740945,1.7853950217,0.0535448133,-2.5488297038,-0.7223262213,-0.165567777,0.2849689131,6.6549304685,0.7057177795,0.4196678963,-1.0086168117,0.1006637732,0.5935797009,0.6042541792,-0.9404693437,-0.6401551592,1.2488962346,-7.1242153115,-0.2413771598,-1.1367918353,0.0231323432,-0.3755982551,-0.6399319398,0.4348948045,1.6046112234,-0.7654687657,-0.6167677091,0.5158300374,0.5471059394,-1.2295954817,1.0054044343,1.0854457184,-0.4866902642,1.5351994071,0.9456757464,1.3931719952,0.4179620464,2.6308740587,-0.2822234179,0.727424623,-1.3480126281,-0.8039931552,0.6911729908,0.2488350154,-1.6528002789,-0.4467447405,-0.85707632,-2.0747689582,0.8580001206,-4.0089985263,-2.6331306021,1.172014796,-3.3663133339,-0.7973601929,-0.4378379131,-1.2579971645,-0.9806614487,-2.8248368799,0.0844615782,1.1676587382,0.1656079029,-0.8702955467,-0.029366374,-0.7211593379,-0.2966264376,-0.2614063515,0.6218449449,-1.0410486539,-2.1589765169,-0.310729794,0.5806730968,0.0717345907,-0.4577980685,-0.3242142388,-3.1946333578,0.7277782158,1.1526194912,-3.2758191923,4.4579895704,1.1627655657,4.3638207844,4.3993598916,0.1788882814,0.7155158371,-4.1302692909,3.5556515439,-0.9799638298,0.8671934048,-8.6106151036,-4.2023861531,-2.3848595995,1.2809456682,1.7384620578,0.9496885564,1.6294628215,1.6958152607,3.2081782751,-0.1789698378,4.5756465351,-0.1940521679,-0.8978685009,-2.3514531154,-0.532201151,-0.1969931982,-3.4643895374,0.6176491957,-0.4526875746,3.5694676828,-2.6773975467,-0.0699147041,0.1839980256,-1.0790836864,2.3732458411,2.7210411617,-1.5662672855,2.2576530467,-0.7552378551,-4.1432902601,-0.3019513853,-2.1676689052,-1.0079540125,-3.6477415648,-0.5527312519,1.4267579748,0.5421840783,4.1310888628,-0.1410987767,-0.2211148519,3.5441564635,0.2071831261,0.5909710979,-2.732968931,0.6213328372,2.5693298676,4.2672811303,-2.5552743904,-0.9219709674,-1.4182082969,-2.7876512109,-1.9940020173,3.0317061599,-0.6987069881,-1.1310980617,-0.0082115938,2.0483050726,-0.0280047205,2.3878570074,-1.5344539796,-1.5761957904,2.2457525455,0.9883557827,-2.3419857772,-2.8078316097,-2.6862681849,-1.1868002351,-2.7509799438,0.1537323217,-0.2288906565,-3.1740566506,-0.5450708973,-0.4111870783,-1.2227177518,-0.1303497889,0.1581610943,-0.4521171134,-0.0330959583,0.1852634499,-0.7280528831,-0.1078329608,-0.8978284128,-0.8079510602,-1.1700628496,-0.6975139961,0.4823511923,0.0801030629,0.1349920463,1.2865580568,0.5039851885,0.9267446469,-0.1914149434,0.0533540851,0.3813817722,-0.5816816094,-0.7232579455,0.608921311,-0.5427466249,-0.3438611377,-0.6353823899,0.0511486703,-0.7649311816,-0.3528676306,0.395856541,0.4835917737,-0.6344934598,-0.5830778647,0.4782379958,-0.2410280659,-1.2650999671,0.2494488712,0.3064373449,0.1417691935,-0.210672509,1.0134340427,-0.7900433953,-0.7047951659,0.6379932441,-0.3189339918,0.8772585416,0.6967562611,0.1895850512,-0.8820268561,-0.8122641743,-0.0809355804,-0.6294297711,0.1749969609,-0.9177703737,0.1749015888,-0.1295047204,0.7332878503,-1.5937195268,0.4356151192,0.1919070485,0.3991365662,0.1772150613,0.9345131134,-0.5361536358,0.6553340251,0.4862934249,-0.610430443,0.4230960502,-12.1530893796,0.808676561,-0.5477564279,-1.5463977233,-1.8227541253,-0.4737112669,-0.2528346238,0.7802712476,0.505495611,0.0895509417,0.0844041563,-0.4401389856,0.2771951482,2.7013738141,2.6259255469,1.426519735,-4.1183406725,-0.0087889646,-2.6564191289,0.1036187375,4.2627316734,0.904199219,1.8160692388,-1.5377518129,0.8049871448,-1.576452382,1.3310029077,0.0682818295,1.5939618184,-0.754483497,-0.6278954813,-0.2221751502,3.5842034762,3.0316483711,1.5091767935,2.726216667,0.6151184845,-0.8571191331,-0.7475022447,-0.3157062654,-1.2199816525,-1.4282754691,2.2629055307,-1.3639857152,-2.5980461255,1.1131811768,1.1543652253,3.8416874287,-0.1474122263,1.1447238878,2.6986107606,4.4190236326,-4.5617613463,0.8829679706,2.1475034889,-2.329525391,1.0431503568,2.9296464293,1.348098072,-3.8656434047,-1.0163978909,2.6253053668,-0.3417416051,3.9036486158,4.8647806178,0.5229493362,3.0425923311,-1.4816182423,0.4142609834,-0.2970667602,4.0315640552,-1.8344919135,1.3841988192,-1.2067265596,-3.5367979812,-3.1603561142,-0.3758363955,1.403288674,-1.4624590721,-2.4583490233,-2.136153983,2.478371908,0.6210411562,-0.9535684962,0.4484731801,-1.0143254432,-2.861342872,4.5323819027,0.9619407919,0.0087981075,-3.73324655,-1.6540864887,4.3899149953,-1.5874904125,1.283465316,-3.1611543695,0.0787714962,-0.6228319461,1.8653335422,-2.1185580553,-0.8851428112,4.6808230884,0.001399081,-2.8108183667,-1.6964213145,1.7694174501,-2.4502831226,-4.2503233336,-2.7364440146,-1.2613400271,-0.9813622103,-2.6928354957,-2.6664290949,-3.9399432648,1.628521314,-1.1283211723,-1.1126196434,-0.2027861086,-3.1240937462,-1.9269518617,-0.6909156753,-2.1715725477,-1.666596983,0.8302227195,2.2270346769,3.6298990662,0.9049896174,2.9851130978,0.3392546916,0.0847937319,1.8353992047,-0.8036043249,3.8312859886,-0.3141317776,-1.6903713846,0.8540588937,0.5173699012,-0.1731016307,6.3725760975,1.9248392005,0.5725063663,0.7894681814,-2.8537691588,4.2208190529,-0.3388705789,2.000477111,0.290432261,-1.5226695257,1.070327637,-1.4642394853,-4.5414322421,0.7045886414,-2.3026787616,1.0041579841,-0.9275937036,0.3451213769,1.2494473072,-0.2129872875,0.8765624373,0.4881299433,3.331313976,1.1680132271,-2.7324863619,1.4003913498,-0.6782996069,-1.5089759738,1.169496352,-0.5782329926,2.1906787003,-2.7158323741,-1.482849201,1.4957878835,-1.1323173011,-2.5018834467,-3.4161620367,3.16800164,-3.1347423497,0.148660729,2.0276328468,-2.0137691629,0.3630086567,0.8796941739,-1.6399903358,2.3838594751,-0.2564960212,2.644144788,1.9292554101,-3.1998758169,-3.1774015653,2.1449256954,1.0891999431,-3.5775068975,4.4141799492,-0.0313798939,-1.643902416,1.8491799934,-0.4528927453,1.7322710587,-5.6064494478,-3.2927629349,-0.3034788561,1.5361058124,1.5398086439,-1.9561950969,0.7564039401,-0.0034752066,0.889562109,2.3622707063,-1.1103272536,3.2742758648,0.4695552097,-1.1197570175,-2.0618272263,-0.8193342374,0.0631976379,-0.1468076289,-0.6783654524,0.2023738249,-0.5693084439,-0.5486840368,0.3227216025,-0.1049599726,0.6636156488,0.2968811923,-0.1734730419,-0.2822180972,0.0933996361,0.7814194133,0.92930841,-0.6773012836,0.0454686451,0.0864093928,-0.7531006279,-0.4925299484,-0.2080642974,0.1830701685,-0.3912923488,0.5433633194,-1.234029195,-0.7003722732,0.5988882535,-0.9486113938,0.5895512438,-0.4195627527,-0.3799133821,0.9353671485,-0.4637025838,0.5743540156,0.3669945353,0.758281831,-0.281152468,-0.3006881797,-0.2303915337,0.8051319705,-0.8553404023,0.9227859458,0.9100869164,0.3051266553,-0.2715650718,0.146394829,0.6753164781,0.3863745133,0.1980394182,0.4998250724,0.8631247678,2.0371188615,0.3059264251,-0.3487501274,0.5248307759,-0.1682212185,-1.1273135416,0.199631897,-0.518025218,0.5727358504,0.4425787712,-0.4607403705,0.0253935925,-0.6621141576,0.6116791487,-0.7466109664,0.0494434074,1.0903858869,0.086384728,-0.6038241375,0.1789883434,-0.1484424118,0.1175151844,0.0568647457,-0.1630463447,-0.1071587097,0.7692656645,0.2609664483,-0.2032184477,-0.2109345577,-0.2117701407,-0.8412743135,0.9072346804,0.6573409573,0.6013126109,0.725334265,-0.6231733877,0.2375873703,-0.4949654935,-1.2287832837,0.0174792768,0.7435405033,0.6360027678,-0.9214601611,-0.6128267159,0.9144554922,0.5563703114,-0.625980766,-1.2464750147,0.0717739275,0.2328185433,-0.8712098387,0.2624811756,-1.04347042,0.4829869885,-0.0109288723,-0.9088263933,0.4668369689,-1.6311746826,1.1845309857,-1.1037802815,0.1578381818,0.3832476053,-0.5167394263,-0.6987677919,-1.0504788491,0.5072599155,0.511977823,-0.4534964341,0.9343923602,0.7138365928,-0.0171927995,0.3297118888,1.9483118009,1.4056677891,-1.1689167489,-0.0104607502,-0.6477929762,1.7017513186,1.075263395,1.0094705592,-0.3771840886,-0.0770821383,0.0771568842,0.871707707,0.349941217,0.6868557002,1.3718658448,-1.4809160937,0.0339448984,0.3955239687,0.0165162757,-0.4768697257,-0.889551911,0.0269674356,-0.9176614778,-0.7160325667,-1.0210871999,-0.6603031966,0.2594911961,-1.0599178139,0.186380924,0.7845502503,-0.876420816,-0.9415174934,-1.1650604638,1.4133596558,-0.584252179,0.4247369469,0.653479765,0.1659167425,0.6680260673,1.4567545769,-1.1505251541,0.7974348568,-0.5719621726,0.4779125956,0.4078673354,-0.1778083061,-0.5957967521,-0.059330683,-0.5098056307,-0.8973813173,0.7212849964,-0.8851927724,0.3112638903,-0.5186145376,0.208400501,-0.6527818242,-0.6891865393,-0.6581974438,0.5093610456,-0.8581160422,0.0489999985,0.3817186205,-1.2052482276,1.1997536572,-1.1850146655,-1.2095529002,0.2550668405,0.0317971102,0.1728708341,1.4376544853,-0.4285744723,-0.4531386921,-0.6018180724,0.09939916,0.972086804,0.154111664,0.7570038216,-0.4712418004,5.1947229028,0.8026449314,0.6682622202,-0.454399321,0.0595226935,-1.2623610711,0.3743668475,0.6624514208,0.8150277662,-0.5534019688,0.0139956076,0.3058492882,-0.0753330817,1.3201745941,0.0974832519,-0.5927995574,0.624926237,-1.1986505747,0.6560794066,-0.8861571745,-0.3762166107,-0.9377382795,-0.316657314,0.4259866458,1.4138127436,0.0730456629,0.2478508513,-0.3197878937,-0.5174958758,0.3690647564,-0.8132517333,-1.0398168515,1.2868492322,-0.1322895241,-0.8967970544,-0.791180075,0.2315397326,0.7555141989,-0.5991289515,-0.1141782217,0.2827178695,0.1402175096,-1.0231821207,-1.1072330801,-0.6689271755,0.2930554138,0.6590407008,0.794559446,-0.9163154139,-1.969224932,0.8282680741,1.4610757859,0.3526471302,-0.7920326518,-0.8282659862,-0.1203890342,1.0241928298,0.2875907276,2.0583152775,-0.8805501311,-0.7004860834,-1.429190907,-0.5717790493,0.1235553716,0.984281574,0.3023109536,-0.9874632214,0.2664004912,0.1589344801,0.1163544198,0.74705983,0.3308968156,0.1599387446,1.1145149237,-1.3527642676,0.6232440041,0.1137869829,0.5235390089,0.143302901,-0.6981886035,-1.1177075454,-0.2262632233,-0.2056321252,-0.1977635696,-0.8411193702,-0.8896301186,0.1702683824,0.5835259263,0.5238731034,0.810152832,1.371588726,-0.9416631942,0.590799576,-0.6407003116,-0.2837434225,0.1952028382,0.5160764234,0.1454941075,0.1175342072,-0.3282900023,0.0166025309,1.2514627211,-0.4078562019,0.5328798728,-0.4769935057,1.4598391905,0.7963038752,-0.2045873289,0.0280352186,0.9623018108,-0.0988108472,-0.359084137,-0.6105547956,0.3574666668,-0.306230031,1.0140286249,0.336108769,-1.1028067493,0.9796786662,-1.005231188,1.6529229519,-0.9189511979,-0.8085904014,0.7927383056,-0.2482826323,-2.8466659058,0.8727430086,0.6361569693,0.3739876906,-0.851331526,-0.2641029956,2.2374235094,0.3866841807,1.3053807459,0.6881963274,-0.5154776257,-1.4418713666,-0.4238321844,0.2192767358,-0.4695896816,-1.6816612997,0.109176701,-0.7972531851,0.1047286702,0.1241709995,-0.3852317497,1.0839079737,-0.8478492011,-0.2451072387,0.6544644503,-0.5837057429,0.7228439681,0.0662465098,1.1737123527,0.5393393586,1.2319648468,0.6593413305,-1.4568770647,0.5961961517,1.6904141337,-1.0301578378,-2.1020465906,0.8335335737,-0.5015397546,0.1342989377,0.5615406546,0.6387367101,0.567424766,-0.003670802,0.8239756411,-0.2750795132,0.7593667684,-0.2887013511,-1.0883824204,-1.2252786335,-0.1222284962,-0.5082735633,0.2337363628,0.772038311,0.8606611818,-1.3426343967,0.1431717422,-0.5934212851,0.5528038217,0.2839157894,-0.8251999262,-1.0754217519,-1.7331557165,-0.1746166851,0.9988850058,0.1316831989,1.2679942448,-1.0982031317,1.7427678075,-0.066158575,-0.6744798291,0.8762984592,0.7729128638,0.5369091149,-0.1047203799,0.2736761691,0.5356471456,-1.0636059142,-1.0596053921,-0.8212537238,-0.8793984816,3.0338172777,0.7206027836,0.6432317157,-0.4151752987,0.712887341,-1.2169009839,1.1200381301,1.1837957385,1.2707746069,-0.1399984053,-0.8814809857,0.5513974935,-0.6431872347,-0.6116684926,-0.8191596297,1.5865076376,-0.4310751056,-1.2323559256,-1.1869985455,-0.7201568913,0.6624760485,0.8723339829,0.3079296382,-0.1515412591,1.1907002255,-0.2456565149,0.5252987069,-0.0465543454,1.1618289267,0.5121532396,-1.5802474591,-0.000100756,-0.7875248737,0.8693733915,1.9942618828,-3.5827340734,-0.1351970021,0.5126296424,1.7460224167,0.1404897597,0.3709634687,1.1711199769,1.2647474507,1.7255245592,1.7935327216,-1.7363578402,0.428783928,-0.4471364693,-0.245416573,-0.7525030628,0.0744051052,-0.1514707853,1.4908599796,-0.4752221772,1.3358404491,-1.3473538577,-1.2165367986,2.0086005192,-0.6348602128,0.3078441386,-0.0962004067,-0.6124546382,0.2897993858,1.5566223633,-0.6175996196,1.1986937402,-0.7661616589,-0.100109157,0.0455615135,-4.8643664448,-0.3655710169,-0.068169797,-0.7044503374,0.2477343032,0.4508901781,0.5393011038,-1.3553856961,0.1119977006,-1.2497769975,0.7358934509,0.6522511692,-0.6328387241,-0.7718783186,-3.1656209008,0.0458170935,0.4587053774,0.2811010146,-2.9909197454,-0.8305252979,-0.3384644349,0.995523221,-0.0271722323,-0.2944374984,0.8732939511,0.4238054463,-0.8991362357,0.3437510065,3.9222393075,1.1717021818,0.048935527,0.964631813,-1.4176618042,0.2749324998,0.5817484652,-0.35228344,1.0406572352,0.4290717994,0.7212613009,1.3222396488,0.295540086,0.7451767858,-0.1245750415,-0.5420694929,0.1483489501,0.4130862984,0.1294206053,1.0808691524,2.1947797891,-2.4753269658,1.2227672391,-1.2164361423,0.3299525912,0.2239237928,-1.0456168304,-0.3662670869,-1.190605745,-0.81754223,0.6174516968,0.1964002198,1.070927405,0.3958093452,1.1366608383,0.1384354673,0.24963006,0.82217893,-0.1481681243,-0.4529606347,0.5625523129,-2.0731601236,0.901296296,1.6568739675,0.2870336677,-1.5317201163,-1.0582661224,-0.5165869552,-1.8370142647,1.1866876084,0.5494945626,0.1488270234,-0.4202323715,-1.4799888244,1.8024162908,-0.7115208396,0.3115265426,0.2021338242,-1.1920584239,-0.6670153971,-1.2767939174,0.4804086412,0.3611342743,0.3431793639,0.9430478354,0.0726907892,-0.5981692372,-0.4910703783,0.8761089945,0.8807074572,1.2143885606,-1.7929208727,0.0059112812,1.4185132543,0.9161140137,-1.3562668528,-1.286135832,0.6248049485,-0.3712956858,0.3122609108,-0.7994988521,2.3184893998,-0.4085070601,0.9653172712,0.9649609927,0.9700893055,0.6538457419,-0.4293786316,1.3996085847,-0.2067079131,-0.3622770058,0.3438187235,-0.550775967,-0.2602968706,0.1975494388,1.4564899075,0.3054469465,-1.3726550653,-1.2653212478,0.4573113199,0.3588129592,-2.767185961,-0.914745881,-0.6740510131,0.1260776969,0.8774710407,-0.036358941,-0.0249652751,0.9321761722,-0.6733313786,-0.2941914332,1.9051309482,0.1928869887,-1.1343485498,-1.0843455426,0.1416843561,-0.1645884554,0.8366981086,-0.4527802462,0.2870661796,-1.3860015395,-0.6763268469,1.04923359,-0.0853699487,-1.1495064598,-1.4058068745,-2.1296179939,-0.1008920445,-0.595206884,0.420637427,0.0506104855,0.7926608692,-0.4707867668,-1.9256662938,-0.2624153141,2.0168617576,0.432191761,-1.267694342,-1.2001307373,0.0698413516,1.0449119941,-1.6813487768,0.8846539573,0.766268048,0.8483936189,0.1857854125,0.6102407199,-0.1546422354,-1.0354300143,-0.6329765317,-0.3204140213,-0.0954458933,1.3464117252,0.7302175948,1.2204442137,-1.2568646496,0.6209970025,-0.2129649491,-0.399389734,-0.4057395789,-0.594743269,1.3679655251,0.7111759051,0.4910305698,-0.3475165127,-0.6386515153,0.1570462681,-1.1697681396,0.1139487314,0.7766461188,-0.6077354524,0.2813846919,-2.4128503566,0.9836580926,1.4796722385,-0.4498530271,-0.7178088253,0.4282998622,-0.5544547033,1.1108080522,0.1580855999,-0.294899013,1.1831135043,-0.6180440031,0.5662283462,0.0828426283,-0.6190665689,0.3861107472,0.4879634497,0.3220767946,-0.9149589035,-1.0899208531,0.357322321,0.0325511158,-0.6951831393,-0.4193722573,0.1807865977,-0.008909113,-0.9803391313,0.975102957,0.852432855,0.0819417776,-3.1336496499,-0.5380216218,-0.5885931137,0.1022057337,-0.5158167353,0.2609545391,-1.3801048221,-0.8116895877,-0.6090455854,0.8036223677,-0.2711024647,-0.3234481001,0.8514983981,-0.7159510623,-0.5576508497,-0.2974399965,-0.4673959895,-1.1297501461,0.5105603746,0.6403135403,0.1653235926,-0.6751838654,1.1196702536,0.6231358114,-0.8154519623,0.5129294507,0.3789554081,0.308444306,0.3731519923,0.3859548326,1.1327711245,-0.6523548563,0.8347023336,0.3778749397,-0.713304842,1.0945802015,-0.3194192535,-0.2862125642,-0.9740123122,0.2726622817,-0.8018962308,0.6375840928,1.1077097311,-0.1974832733,0.963880225,0.5032923609,-0.289057719,1.0114778061,-0.4815737361,1.5268565173,-0.7121356829,0.0375413954,-0.3640811633,0.837828011,0.7403455595,-0.3056438298,-1.5295463899,0.8029843156,-1.1048138112,-0.024629488,0.6371891345,-0.2757526207,-0.2754331577,0.2618609596,0.5835200602,-0.4620403451,0.5265593814,0.9204176628,-1.6699470055,0.8919689696,-0.5269558641,-0.9895933636,-0.8164955592,-0.2155232913,-0.5188669682,0.3990819539,-0.1519040636,0.317116665,0.4542889927,0.9293670117,0.1012167374,0.2582887841,-0.0160107982,0.3106572892,-0.0769792993,0.9461625196,0.5827081959,0.4382004099,0.1089068035,-0.7681133574,0.0389605805,0.2227779875,-1.0561693596,-1.2657112461,-0.5636095297,0.3072566242,-0.7460016999,0.82446784,-0.146654228,0.8934599058,-0.5797114584,0.3380322427,-0.2112612477,1.0328798517,0.0514348681,0.9003353453,-2.0762316391,-0.3368368422,0.9979919157,1.2299630756,-0.8110610982,0.6647811443,0.040954463,-0.8509939059,-0.7601421433,0.5039412028,-0.4284977729,-0.0045435889,-0.4073444755,0.7258114426,-0.5078354608,-1.0801832927,0.6089379423,0.1859342716,0.3634767881,0.6031846425,-0.0073673584,0.7297928097,-0.5211931262,0.9876487253,0.1687175242,0.9229352202,-1.6816110438,-0.8146946811,-0.5932371541,0.0265632734,-0.9281177399,-0.1275471063,-0.8238919181,0.6202116625,-0.1261677876,0.0730766653,-0.2795179999,0.8034005673,-0.8911115638,-0.0351243324,0.2468242707,0.2150440695,-1.3661953113,0.8493070788,-1.0217238903,0.5137724507,0.3013745509,-0.9035754572,1.9310934728,-1.2148876366,0.1167289931,-0.3429436994,0.6725034866,-1.3200045669,-0.8995185654,0.9989287116,-0.7527078636,0.0902821434,-1.240482711,0.4282046741,0.1044817303,0.0066643163,1.7253398891,-1.2892459241,0.5871695096,0.4211059739,-0.5884862395,-0.8444944264,2.1042492574,-1.7959745425,-0.1726289651,-1.8255962052,0.6261217011,0.32640529,0.5786830334,-0.2201046197,0.0455885648,-0.5333763558,1.5804641703,0.5193563009,0.1814066802,0.1936271271,-1.3757657359,0.9872886946,0.1025315902,-0.5593430972,-0.3731097221,0.9793590183,-0.4531507835,0.1814088681,-0.12767904,0.8707049736,0.2113098094,-1.1205661368,0.4851687642,-0.4466846844,2.9850260586,-1.1648305132,0.0006448378,-0.0388200849,0.6109388919,-0.4907522222,0.3126677518,-1.4712258739,-0.5892475252,0.2132347938,-0.2661632304,-0.3213308413,0.7445585761,-0.9102070987,0.8833720645,-0.6358497982,-0.3730407852,1.6766707221,-0.2417689924,0.5539878677,-1.1458064765,0.6967104579,0.3243466058,0.4807034904,-0.5815533847,-0.1599040935,-0.1293650767,-0.404576044,0.1662378135,-0.2289816444,0.1581162727,-0.5187753505,-0.1548024009,1.0940942399,-1.8242923728,-0.2385516546,-0.7942703961,0.7682656373,0.7763219268,0.4102823598,1.5802823637,0.1151131012,-0.1449144701,-0.8047499061,-0.7147373308,0.4656898473,-0.860839347,0.3822784863,-0.2999580875,0.3511680337,0.6471195976,0.3175321004,0.9807550227,-0.5662590225,-0.5911692521,0.3278451395,0.5992116216,0.5994760074,-0.325912322,-0.3686312148,0.1957222245,0.5933605547,-0.4791987266,0.2542222826,-0.4466808402,0.4687184334,0.3545220849,-0.1941793458,-0.0551751521,1.021867182,-0.3349875504,0.5714081645,0.1388882384,1.5474808265,0.3895253391,-1.0262296022,0.6616178183,-0.6902836974,-0.9132917122,-0.0371205808,0.0894774734,-0.6176402897,-0.0613049597,-0.435693724,0.2959443574,-1.363397493,0.4396456173,-0.2817154071,-0.6722464963,0.6856196053,0.4048614599,0.3765607296,-1.004348061,-0.7686449366,-0.3765256167,-0.2332036426,-0.8289001519,-0.9740785308,-0.8275835518,-0.8534315995,0.3492273572,2.0211923064,-0.0387293223,0.0395338739,0.0805151857,-0.0237398754,1.6193007632,0.9796102599,-1.4769773494,1.1479154033,-0.2922656662,0.7434670064,0.900133937,1.6033743134,0.8902253341,-0.2799046967,0.8859319252,0.2322969473,-0.6521644521,0.2741975467,-0.7614451038,-0.7565015655,-1.5578278667,-0.3938023406,0.094820801,-0.491027336,0.8028116559,1.1398940865,0.5947791033,0.4014868175,0.7517944096,-0.2224713825,0.7714298156,3.4963686653,-0.2701924981,-1.1886983264,1.8160372119,1.6947422687,0.3744469528,-0.6143489173,-0.4773732671,-0.791049964,-1.760900442,1.1884755336,2.216659429,0.3097360789,1.5114147566,-0.8855569745,-0.1905504015,0.6381550532,1.3466721154,0.8556236649,0.5785549931,0.5407448855,1.4753753899,0.4493466919,-1.6462683412,1.0485604017,-0.2140443068,1.3120149556,-0.6106772344,1.190367018,-1.0671575348,1.0788698689,0.7319761061,-0.8854861399,0.6024996998,0.8289577834,0.7289957863,-1.1581331752,2.5544079013,-0.6988813665,-0.6606414015,-0.5672499034,-2.0747713781,-1.1880723545,-0.6638515583,-0.2791852371,2.3357509828,-0.5940575262,-0.4402489207,0.4167056424,0.2561592957,-2.5155520494,0.0236404073,0.2523471977,0.1476866172,-0.7612556997,0.542510095,0.9249254454,0.1127738416,0.4780905975,-1.1107884546,0.4226971737,-0.4037860979,2.1519994985,0.9907951351,-0.924670115,0.4977151463,0.7440097744,-0.0916219367,-0.5957987142,-0.576494518,-0.4347159117,0.3527447533,0.1843082211,-0.1444006776,-0.50128499,0.1621201284,-0.1201898594,-0.8236023803,-0.0697574729,0.7524928267,-0.5335937086,-0.8921431171,-0.2869119619,0.3616487787,0.0343925463,-0.3198813875,-0.6226593569,-0.2143111545,-0.6398848032,0.4002345165,-1.3593167464,-0.2961216311,1.194372542,1.0681392507,-0.8454950798,-0.0947420594,-0.7500761437,-0.2477793224,0.8912021212,1.4469854689,-1.2598177233,-0.3644566091,-0.4270808759,-1.6218290978,-1.172687682,0.0180252847,0.3563179406,-0.5065274693,0.1334699697,-1.4073324121,-0.6808823828,0.2280404083,-0.8695082194,0.1421557028,0.2857382324,1.731843509,0.0339411626,0.4625355753,1.6039447566,-1.8254276891,1.6529041954,0.0366066638,0.1204135323,-0.3264000949,-1.0446343244,-0.8043755302,0.4953194707,0.4207924706,1.0521401337,1.2873563786,-0.6634426793,1.0516994288,0.9467685277,0.0462954419,0.6233053056,-0.5927519674,0.1747520518,-0.4118076618,0.0290580698,0.3618026626,0.9619654714,-0.0446471015,0.8762081091,0.0504741519,2.073760892,-0.3205500164,0.6088698225,-0.897193604,0.0207412954,-0.8505012845,1.5639467535,-1.7142026367,-0.6238195097,-0.2433076598,-0.5381999392,0.817754525,0.9693399436,-0.9954972891,-0.2698701978,0.5175248666,-0.0710243738,1.0848495636,0.0200925922,-0.7284371543,0.6324540406,0.0953355687,-0.8338866852,0.2787447555,0.608508468,-0.4085504911,5.0345063764,-0.1754337012,1.0631884507,-0.3006368751,-0.9329523119,-0.1562008784,1.5233014145,0.1128449067,-0.7695764536,-0.3415139359,1.1084458517,-0.2478560725,-0.3995052728,-0.9144571103,0.1924379085,1.1100486827,-1.5353235371,-0.1209884096,-0.1533511725,0.6329378208,0.4361501456,0.792443866,0.1069209484,-2.7980637337,-0.1926203259,-0.7273106919,0.2060245224,-0.0396493599,0.715310156,-1.2782712478,-0.1472687072,1.6603409035,-1.1448744664,-0.1676568655,-1.1479430912,-0.2345648832,-0.1682605785,0.1393269165,-0.7181027436,0.6362132991,-0.9493883465,-0.5173882617,-0.6665215454,0.596291893,0.1724765211,-0.6376584125,-0.21622564,-0.1843480399,-0.7155905669,1.8353893776,-0.9749052466,-0.6446976402,-0.2069268982,-1.17635282,0.4938027762,0.6866146255
   0.0405422337,0.5087234028,1.8709477698,-0.2666871709,-0.1481486909,-0.5433158263,0.0032315902,0.294610023,0.3664496455,-0.7849628066,-0.8479898746,0.0232361125,0.3511530847,0.9394893842,0.095401458,-0.4835548163,0.0807353254,-1.3392140344,-0.3008536648,0.533490205,0.2547938258,0.1702355181,-0.1025375363,-0.5632994383,0.6156549658,0.0144516568,-1.0501175363,-0.4462345539,-0.3727318897,0.4661837412,-0.0472231381,0.5399453242,-0.2644577727,0.7057249718,-0.6727581496,-0.6841728495,-0.1589294122,1.0628175194,-0.8781168435,-2.004416944,-0.1881788081,-1.6489276895,-0.1084136349,-0.3870652118,-0.3715324403,-3.4213319309,-0.609884572,0.6549509901,-1.774440084,1.0248022524,0.5561783373,0.2570630312,-0.4840235011,-0.1311174488,0.959645234,-2.3948398201,-1.4669751634,-0.9809201239,-0.7441629298,0.8718343079,0.9790807971,-2.081420369,0.759735765,0.9475428974,0.1939543981,1.3026570889,-0.2999814299,-0.7394852408,0.2888880079,-0.4793355217,-0.6875159001,-1.9423321415,0.9080842199,-0.3693482246,0.6271919958,-0.9477557935,0.6841679361,-0.5028709161,0.3280524033,-0.7025351321,0.5760546203,-0.0000708834,-0.8890346228,0.3855930814,0.4447351115,1.5120643118,-0.4463954052,-0.078491501,-0.0053131401,0.7587704728,0.5487608914,2.2509429723,-0.4595011893,0.274860633,0.0356031548,-0.7937979036,2.1583477737,0.1852706127,0.1340865774,1.0972036635,1.5465760457,0.8780502759,-1.9245525976,-0.4073436357,-0.350342285,-0.1459602412,0.4589924736,-1.4524763771,1.6788541837,-0.1410877951,-1.4049021633,0.0046583747,0.343437876,-0.4515913471,0.5863011499,0.1134401768,-1.0513378368,-0.5910412152,1.4926877075,0.5894760821,-2.1192584111,0.8826089084,0.6883419321,-0.9681181088,0.3068887424,0.9688132474,0.4975722359,-0.3602716898,-0.1803587782,-0.0233796893,0.4103964171,0.0403597045,-1.3320637653,0.7030917524,-0.6810280181,0.7261526146,-0.7437619233,1.2563729259,-0.3370509054,0.503419774,1.1764913031,-0.5783470027,-0.7383984786,-1.1881582758,-0.2256865852,-0.9012512726,-1.4593799632,-0.0973527298,-0.0170527569,-0.2368615434,-1.0362363458,0.6558058918,-1.0803238892,-1.3657776175,0.6754135345,1.8026169588,2.6687089923,-1.980009564,0.9407871218,0.1380125885,-0.5638385116,1.1875737892,-0.0088646382,0.2842378614,0.6025599138,-0.3794488444,-0.8931347497,-1.5636363799,-0.0055657523,0.6691486215,0.9098015241,-0.8902926538,-0.0004802806,-1.4084236988,-0.2572060832,-0.8430226633,-0.3642197828,-0.0389124777,1.446112758,-0.8494266685,-0.0034669481,-0.262972808,-0.6862713302,-0.4748185529,-1.5480957868,1.4619227073,0.3697702299,-0.3856914263,-0.7210337912,-0.3260430544,0.0306626716,0.7374360873,-1.7315248775,-0.3341320885,0.3867160955,-2.2732769824,-1.79311029,0.0295621029,1.4892562844,-1.2037933559,0.1276804925,0.0996905466,0.5015664645,2.1264969191,-0.1362025107,1.5287687428,0.4639504942,0.4060507909,0.6110635296,-0.6284849074,0.7404532229,-0.6532570625,-0.4410688223,0.1340054077,-0.0955936357,-0.2129429757,-1.5499432604,0.8684659692,-0.9955912597,-1.3318868378,-0.8091416311,-1.8056949439,0.8923744878,-0.4773855479,-0.174431557,-1.1086799257,-1.3862798994,-0.0520355738,-0.8056171953,0.0578906489,-1.3599862531,0.0975000065,1.2616159791,-0.2510517019,0.1174358232,-0.3894918314,-0.1229103234,0.7649516209,-2.2792710786,-0.4934237765,1.4980418216,-2.3188837614,-0.6913264069,0.5603757227,0.3422607347,-0.2415237275,-0.1131393864,1.2557828088,0.2677150765,0.3053363567,0.3994735466,-0.1256867198,0.0558726066,-0.8193954914,-0.1760751829,-0.163436489,-0.1506713257,-1.8054943637,-0.4131534396,1.2344699151,0.9882818492,-0.9162931197,-0.089874321,0.0020054105,-0.102065173,0.4285204257,-1.0846584503,-0.9351299837,1.0298207386,-0.7340223171,-0.3877464339,-0.2369900905,0.9753459534,0.3602658671,-0.5708302031,0.0249638565,-0.800596093,-0.2442616792,0.0667692288,-0.7794829172,-1.3328573275,-0.8281855593,-1.0826525142,0.6075188323,1.0473731797,0.0899755237,0.9103475483,-0.9495715693,-1.2711400493,1.1828315566,-0.2781097587,-0.4084756029,0.4502208969,0.49835475,0.4382145633,0.3631291046,0.4860519624,0.4063020673,1.2989437584,-0.4058346651,0.2967133348,0.3401727209,-0.0231172431,0.0319093086,0.4981153277,-1.0438646856,0.5690908828,1.0635679822,1.1239910437,0.3565885091,0.3669612271,-0.6889694434,-1.0262141964,-0.5317712925,-0.4404915157,-0.1091895846,0.0261922144,-0.4492995702,-0.2066718621,0.2541448008,0.472972574,0.7743833578,1.373550042,-0.8906096432,-0.1160845445,-0.3401221325,-0.5983034763,-0.0612857235,0.294312528,0.4185018601,-1.0399629991,-1.1014499341,-0.1045952027,-0.0652405588,-0.3414521982,-0.4050592045,-0.161942271,0.3075726224,-0.7732087471,0.3976812602,0.201504789,-0.6801874818,-0.9538914343,0.4391882509,-0.2935252754,-0.8736280839,-0.3830973147,-0.7518031869,1.2865071897,0.3760321432,-0.6783770068,0.3375024502,-1.9960646051,-0.3973205639,-0.4704821735,0.4115563677,-0.7908484774,3.1660180287,0.5384944089,-1.1257736521,-0.33650574,0.7956884571,-0.3464121752,1.1621452341,-0.7323321837,-0.1182211134,-0.6287694861,0.5823761157,-0.9892359162,-0.0642181913,-0.1063257349,-0.5479279879,-1.069026471,2.4477309611,0.5914545616,0.9191186993,-0.5123886577,-0.8372166862,-0.9206704587,0.3014424589,-1.3169551088,-1.7534936101,0.2503366725,0.6108752433,1.305035823,-0.8463491384,0.7333902954,0.5359120554,-0.9870069555,1.6390901317,1.4806225864,0.9613795082,0.0496580796,-0.518770062,-0.4021634268,-0.8655957181,-0.8430014955,-0.119854401,-0.1257864997,-0.2092203188,0.286185231,0.3990757725,1.004158186,0.4398356625,1.0753868838,-0.5536450289,1.9747300937,-0.4085447944,0.9814397868,1.1295314072,-0.4728139583,0.7258207359,-1.0606349864,-0.6796890999,-1.4119219293,-0.5985404979,1.284403348,-0.4899377539,0.9797598248,0.9805409742,1.4058464096,-0.6469345865,0.111191237,-4.2827276093,-0.0296002386,0.0004896387,-0.0125283164,0.2876662828,0.2379936677,1.1796446144,0.5393855944,0.3722067033,-1.1738022783,-0.2401984568,-0.1592646191,-0.5877982636,1.952098664,-0.342959173,0.17548632,-0.5924110684,-0.2174561659,0.0618477847,-0.4844886996,0.9451158657,0.4276871141,-3.0367072111,-0.2826930204,0.1169914673,-0.7571858914,-4.9448411597,0.3954286898,1.0410115063,-1.1804231258,-0.5675019775,-0.7796474627,-0.1718430526,-0.992944411,0.4732057807,-0.315367862,0.2496424095,0.551781905,0.7128556704,-0.7376914294,-0.8287142572,0.9012522459,0.3360951728,0.4387797204,-0.447014694,0.2376326889,0.2887178308,-0.6655655244,-0.3424505575,-0.2886874686,-0.6078699765,-0.0867619926,0.944128616,-0.8990296884,0.5023878909,-0.8326726083,-1.2888337737,1.2758819768,0.2701695841,0.8289606343,0.8643784234,0.2854747083,0.2729872358,-0.3199119963,-0.2980009302,-0.3124051438,-0.4498320337,-0.6979380036,-0.7948979455,-0.0735148545,0.5025761263,0.3290518542,-0.8107022579,-0.5777561392,0.6442113347,-0.5108588939,-0.6745688091,-0.2661841944,-0.7629463978,-0.2961188795,0.311117187,1.0697669413,-0.2092903039,0.0679357237,0.6937910873,0.8053129243,-0.4987540372,0.2422142191,-0.4950636309,-0.6860214048,0.6731226794,-0.7447246389,-0.6645381688,0.9778828977,0.9024927145,2.0542015156,-0.1577139971,-0.6565578703,0.7476845227,-1.0783164804,-0.1438563392,-0.9961054377,0.6482709992,-0.1144543104,0.5510812459,0.0297619168,0.2144074158,0.7391189557,0.2514175029,0.7526688067,0.1985944399,-0.3631365033,0.3255312693,-0.4845965062,-0.5938836877,0.1459187287,-0.9450780472,0.5967960939,-0.4194862245,0.2683566021,0.0584473662,-1.0360494115,-0.9410123838,0.180516518,0.4940207191,0.8044782628,0.6920103922,-3.3477174462,0.2589524292,-0.3021397716,0.3864529933,-0.2755744694,-0.1613573169,-0.6626807105,0.6523859621,-1.3122665163,0.3739266714,0.4368415437,-1.0233319308,-0.5508312681,0.2786332492,0.6211666602,0.0553307234,-0.0887478165,0.5811579689,0.3637341425,-0.816675216,1.0505709773,-0.9156992247,-0.0414323594,-0.5211836134,0.9031343195,0.0984298872,0.0976650376,-0.6219149055,-0.2432301952,0.5362803156,-0.5084469581,-0.2941547617,-0.8131496401,-0.3161650935,1.151877878,0.7427475956,-0.4236117012,0.5370707071,0.5966641546,0.5737896519,-0.7429032269,0.0397958395,-0.0428271263,-1.1940252825,-0.3918592484,-0.7383501366,-0.1353183274,0.7450619805,-0.752557493,0.4740600386,0.8701492091,-0.2463556427,-0.5290976823,-1.0057512362,0.8393138882,-1.0452644759,0.0202530632,-0.8927484725,0.1371662374,0.0750236585,0.2615266497,-0.6979887289,-0.884258653,-0.5906043818,0.9683661654,-0.5014708924,0.7949930839,-0.6209474673,-0.5628688383,0.2759038405,-0.0955766655,0.0394922097,-0.4778248534,-1.516186306,-1.0067975526,0.3658083742,0.7701399491,0.6806024682,-1.7396821299,0.5069085565,0.4058376044,-0.1171598747,0.8343709246,-1.2082445734,0.3164571492,-0.0749932232,1.1976391502,-0.4320450647,-1.0752567397,-0.0571582101,0.3512715061,-0.2029599497,0.0248367471,-0.596114847,-0.4016718859,0.2951410628,0.1003831628,0.5493246479,-1.1836948692,-0.6754457861,0.3164152313,-1.3328561942,0.1687969759,-0.4569622105,-0.0304134394,-0.2726819663,-0.3850324786,-0.3373257145,-0.1813931496,-0.7695883898,1.4232151349,-1.1177942193,-0.4517604519,0.5444306246,0.1962074639,-0.7616583436,0.1133203616,0.4955088469,0.3895095243,-1.1288348577,0.1686877854,-0.4236713065,0.9184988512,-0.1275783729,0.5045652048,0.1645925357,-0.2112009488,0.0693031978,0.2084480645,0.7341236663,-0.6178257097,0.0630692865,0.573771992,-0.8802187307,1.0932734247,-0.9055749281,0.9440476094,0.0071773971,-0.073571014,-0.9133198371,-0.592988588,0.247571531,-0.230354663,-0.139240714,-1.3913993292,0.161858053,-0.8821510269,0.9492149178,-1.2301252945,-0.9147441639,-0.8730149364,-0.6771985326,-0.8174009566,-0.004066502,0.7912662198,-0.6405660116,0.4533336605,0.9210154046,0.2554877927,-0.1833737692,-0.5082551826,-1.4565840768,-0.9293407987,0.0149529048,0.6422454,-0.9939601099,-0.7519198526,-1.2830655986,-0.8060465666,-0.3720873069,0.6380733634,-0.8803998551,0.2572622318,-0.014556019,-0.2869477231,-0.7863944834,0.694087451,-0.5525068683,1.0646089724,-1.8400258416,-0.3459885223,-0.3854071017,-0.2878198536,0.0409151622,1.0719819284,-0.2888809447,-0.3094533467,-0.9128284077,-0.4591658451,-0.3418604918,0.3418045176,1.108216784,0.9065428498,0.1580427621,0.2978300457,-0.8658624337,2.2252371381,-0.117686008,-1.1629047333,-1.1398725656,-0.0705397317,-0.2912692969,-0.202743572,1.6145875067,0.7802086753,0.3445529848,0.9862946429,-0.6848100471,-0.490611831,-0.6382337059,0.3886666977,-0.6033526141,0.5865405011,-0.9643372236,-1.2429460249,0.2687755261,0.4468284681,0.7227644979,-1.1810931747,-0.5169266667,-0.708144913,-1.5168275058,-0.0052017643,-1.8717062791,0.2562838023,-0.2202400392,-0.399645093,-0.0731125076,-0.7375341369,-0.2835535579,0.370741747,0.9194892132,0.3999631906,0.8684078125,-1.0668017955,0.937046427,0.5720043118,0.5075543641,-0.7095154695,-0.7765240275,0.7363588037,-0.3672449203,-0.0136247831,-0.3260989553,-0.8118446022,-0.7767973149,0.4077476745,0.8367886718,-0.3191994801,0.0130537432,0.9700879981,2.1519295332,-1.6469827831,-1.0996788556,-0.0831345771,-0.0959697084,0.2149336079,-0.2365187705,-0.6516168764,-0.6272454298,0.7757388931,-1.0314803447,-1.3340715615,-0.6323929641,0.5701328193,0.7769533552,-0.1568227533,-0.2633711031,0.5980114852,-0.2354412832,-0.2110305467,-0.0324396479,0.9683993789,-0.0065337373,0.8615505067,-0.4958914036,0.0805105362,0.8019009072,-0.8605197465,-0.5887939192,-0.018851243,0.4543582519,0.1542738964,-0.7142553909,0.0480890551,-1.0923678145,0.420503047,0.8894942471,1.1961733034,-0.5296433171,-0.5366555764,-0.465203397,0.5650198177,0.5813952525,0.8319747079,-0.2703449309,-0.4721974437,-0.1007325857,1.4107757805,-0.4183608961,-1.8918700928,-0.839268592,-0.536037098,1.9760263717,1.5779781474,-0.2037385801,-1.1415776376,0.8328179692,-1.6762410329,-0.0181614172,0.3301987069,1.3860005442,0.4193815732,0.1773374418,-0.9084001206,0.3886974181,-2.632430179,0.1670310525,-0.1332600192,0.8435102078,-0.3311126879,1.3544937883,0.5601003657,0.1233236193,0.6672371191,0.2414858342,-0.3334688607,-1.5925179503,0.2664809201,-0.4719689323,0.8061412614,-1.2546180584,-0.7897618892,-0.1882924009,3.6605774913,1.1745825865,-0.2169588297,0.1667827048,-1.3455452547,0.5278934736,-0.8900524731,-1.1261354491,-3.0772458408,-0.0516034279,-0.7055497245,-0.2004271308,-1.164626557,-0.4878608275,0.8243559703,-1.3489971044,0.6420633371,0.0986205875,-0.7235473847,0.2572805555,-1.3089893696,-1.7968711901,1.1757819569,0.5214625626,1.3525737333,-0.4788332431,-0.8646390175,1.0999504914,1.3967895098,-0.092874661,-0.1282661332,0.5385475004,1.4034063784,-0.0388355889,-1.1470575652,0.8637153775,-0.5058473757,1.0390047687,0.2250245535,0.1132857118,-0.3237669448,-0.748232837,0.0907176929,0.7805747613,0.8460654603,-0.8885889898,-1.0613912815,0.6934576531,0.0854319803,1.2524804691,0.9461746993,-0.3433045778,-0.7964408124,1.9437260301,-1.1313023855,-3.1173710867,0.2576429083,-1.7013852366,-0.9028270512,-0.4825218904,-0.7491888475,-0.1920865246,1.6545636704,1.7235769414,-0.3493456769,-0.0446950725,-0.165630938,1.6675129483,-0.3863921067,0.2830603103,-2.2214687189,-0.2285352331,-0.1351913498,-0.4355829135,0.12145983,0.2328653732,0.4036202807,-1.3776323616,-0.6229596532,0.0476119143,-0.3799422852,0.1829542693,-0.8040810076,-0.4680510067,0.9392085252,-0.3161050052,0.651752102,-0.3873505626,-0.0951526606,0.4976017434,-0.6392268734,-1.3692514128,0.0907214496,0.5991866345,0.876643875,-0.8933634804,0.4602186106,0.5001687418,-0.3898544244,0.4447268276,-1.2168012075,-0.0070328732,-0.2365922234,-0.6462523161,-1.0654820802,1.1279984867,1.1505840211,-0.7731055918,0.6495249158,1.2431401379,-0.1645493175,-0.30149291,0.6367743886,-0.2127830605,-0.8870934939,0.2039646149,0.0500009913,0.1705085723,-0.7246503124,-0.5026947068,0.7765298616,-0.2502551935,-0.8390527678,-0.4638254209,-0.2361669868,0.7520139188,-0.3852400773,0.2620004607,-0.5268894547,-0.8947438761,0.409104338,-0.1055354808,0.0278564,0.5090335721,-0.9402097824,0.052790528,0.2013810245,0.5036694237,0.0550981324,-0.0698844092,-0.9374242588,-0.4093835991,-0.1989951495,0.405183438,0.3365667207,1.7416630714,-0.58987511,-0.1468794664,0.5727577084,-0.9631821644,0.1268893099,-0.874564121,-0.1076238512,0.4689857167,-0.0436273864,0.7219704224,0.168347792,-0.2276310917,-0.5866076858,-0.85142512,0.4295563293,0.3967268958,1.0805553333,-0.0798389327,0.2240209412,-0.7616986351,0.4225172263,0.2890708105,-1.0219115857,0.3622290721,-0.3856424939,2.571700666,-0.8884698995,-0.0710419159,0.5099825601,0.9241356739,-1.0378364183,1.0097766738,-1.1672745813,2.0384143474,0.2843888006,-0.785780835,-0.5105824165,1.0060515915,0.0601758377,-0.299811632,0.166109961,1.3528610873,0.7505407742,0.5437130992,0.5713325578,1.279171022,-1.5721718072,-0.5705363693,-0.6034009921,0.51113346,0.2649255017,0.799514661,-0.2279779519,-0.0936007985,0.7498495842,-0.0065230623,-0.3919441704,-0.0008608128,1.5404896423,0.8082307544,0.2987109059,0.8629054039,-0.2483716618,0.9250946461,-0.6007897932,0.0326876389,-0.9344955334,0.068614336,0.8259483832,-0.1522710536,-0.4269993471,0.3945549895,1.4490337838,0.346033748,-0.7724580382,0.8260798064,-0.1181388723,-0.706991748,0.4630460342,-1.1303328636,-0.5438392652,1.2813262966,-2.2595286341,-0.5384938796,0.8571727123,0.7354320366,0.6510891907,0.8958738223,-0.1463347939,0.9750169389,-0.1456907867,0.3700710956,0.7818492441,-0.3830869602,1.0915406371,-0.8303020413,-0.1198830186,0.3693183972,-0.2947125088,0.7727848208,-1.0423597346,0.1913652154,-0.4052165566,-0.8702135,-0.8890978915,-0.7960162129,0.3945508505,0.5808730824,-3.0493860338,-0.5444492776,0.4022369203,-0.432319303,-1.035537389,-0.1116597611,-0.4674117029,-1.1657900526,0.4413768324,-0.5671917216,0.6340459739,0.0989896093,-0.7279568407,0.8234682,-0.8537766855,1.3492901651,0.5096038356,-1.3463037071,-0.4162209313,-0.0237688307,-0.9342414038,-1.1513008976,-0.5214395728,0.1838101468,0.4821793872,0.1618727941,1.2081172809,0.2670745,0.5437704705,0.6466174888,-0.3334458673,-0.2977008724,0.3112752352,-0.1201889278,0.2278442,0.2919585266,-0.1174996233,0.8827277284,-0.3661277987,0.4457967699,0.7845198516,0.4442807968,-0.6874130481,0.650484459,-0.2608103362,0.8807815441,-0.5989096083,-0.6478987384,-0.2596638558,0.4552679172,0.0655004483,-0.288951602,0.2039550444,1.017350997,-1.2826734037,0.3707908016,-0.0366646518,-0.4561866307,-0.0431292679,-0.9992140363,0.3042445798,0.8795815037,1.3902469659,-0.1668658082,-0.620903136,0.2811226066,0.406128127,0.6825314919,-1.4078725055,-0.2055758634,-0.2363793744,0.3325274446,-0.0538705623,1.0312978879,-0.2459364252,1.6337272053,0.4730546067,1.875758749,-0.0459172892,-0.2254921187,0.2143700252,-0.0627787944,0.1875520271,0.0927496188,-0.4362977758,1.0530986193,-0.2869192939,-1.0724818493,0.759155647,-1.0418608517,0.2792608766,1.0781385844,1.1152456755,1.8089345573,-0.7868653708,-0.2836493434,0.3023305076,0.9425884465,0.8698743704,-0.4015982515,0.3053172711,-0.1561117593,-0.5912161487,0.148607742,0.8176503717,0.2368004997,-0.3920445706,0.2368396252,-1.0796120749,0.5145013884,0.3845026596,0.839093727,2.0083190785,1.1869425696,0.5653996111,-0.4938025658,-0.6393024132,0.1252845819,-0.6701664018,-1.4152917939,-0.4495198606,-0.5102781344,-0.2272818591,0.5030640299,-0.8194061664,-0.9123463777,-0.0860280014,-0.0984170416,-0.2547750148,-2.0779366938,-0.6012044329,0.3621714227,-1.3042789284,0.4452840519,0.8332492196,0.1921985781,0.9891418992,0.735690814,-0.3131860005,0.4344511076,-0.7431648688,0.5202891818,-0.8555892034,-0.0234182059,-0.9234936537,1.0625573351,0.0772475952,0.4826801393,0.1383578768,-1.879095231,0.0416909695,-0.9638800105,-0.1409608455,-0.4431474134,-0.3606809257,-0.0547145366,0.3100104217,-0.5877747998,0.8757339577,-0.5613600066,-0.3533933702,0.1622225799,0.6278626533,0.2268829448,-0.5466029664,0.1864818201,-1.5188533852,-0.183355003,-0.5315659612,-0.3547420943,-0.7439947269,-0.5174857891,0.5760302136,0.4815383967,-0.4347959686,0.7613903082,-0.4346803881,2.368424579,0.483047545,0.6402964978,0.5930902006,-0.0709558889,0.0166306938,-1.2137790771,0.5396342881,-0.7948392592,-0.036861418,0.9228725701,-0.127909525,-0.2419229126,1.1133103139,-0.4042086072,0.1363171849,0.7432577274,-1.9291700045,-1.1265862379,1.3002436244,0.0953619925,-0.6673869454,-1.4457044788,0.1784062384,1.5800870713,1.1471877059,-0.1872552669,0.7705503578,-1.1830274226,-0.1888021865,0.0341072938,0.9719895473,-0.1625791436,-0.4557291661,-1.2025232636,-0.2686490394,0.9403963539,-1.5754442824,-0.4404532006,1.0852294543,-0.8581294413,1.2350215069,-0.909671771,0.3746959666,0.1833698307,0.1242944989,-0.6914592782,-0.3552582638,-0.232160892,0.5772954407,-0.7032045681,-0.5680295974,0.1380009634,-1.1422363921,0.2307003885,-0.5376715455,1.006213587,0.0135235592,-0.1683598224,1.3745663349,0.7039948049,-0.9015796467,-0.7880892262,1.4022954406,0.2116898383,0.1359759955,0.0330061807,-0.4709630586,0.6145165024,0.0954605019,0.3903587903,-0.1925364894,-0.0969267116,0.6784669164,-0.9551948957,-0.7759332117,-0.0752342881,0.0983102606,1.259276045,0.5364312942,-0.6931051363,0.7033787995,0.8215951916,1.2799788714,-0.0696725897,-0.731407163,-0.2811544163,-0.4661203837,-0.2200844775,0.0931953535,0.5339730506,1.3072357733,-2.3820718723,0.0179956422,-0.2770749978,-0.2321951079,-1.1161878619,-0.8024747644,-1.2268859753,-0.5988493674,-2.2823691986,-0.0567154802,-0.7970919354,0.489248325,0.7420878911,-0.3533095616,-0.2710399705,0.2188309041,-0.0403693819,-0.2275206348,-0.3927815231,-1.5696663733,0.7286596669,0.8118719164,1.1208258034,-0.9570710339,1.2899124184,-0.1985987699,0.8053519566,-0.1894180549,1.1550674393,0.3291271579,0.6554470799,-1.1674554289,0.028276987,0.4917055742,0.1407656127,-0.5342817689,-0.4744326601,0.4035773972,-0.5197236372,2.1178224945,-0.7009157023,-0.1660968102,0.9481205572,-1.0657153187,-0.2269716815,0.6965745967,1.3645926799,-0.1356593376,0.3663713131,-0.2448099932,-0.3192557241,0.2238503139,2.9365025779,-0.7094704694,0.1289105521,-0.5272050925,-0.7179764366,-1.2140216318,-0.0271701878,0.986986127,-0.8833030924,0.6954805314,-0.7064763545,1.0537916283,1.3202589437,-0.339377241,-0.1457828929,0.4457975539,0.1064506413,0.4806891716,0.0929612577,-0.8822479866,0.9732351801,-1.1987396962,-0.7317122403,-0.1440288845,-0.500367702,0.3219825528,0.6644355928,-0.4946175743,-0.2487249016,1.0888092316,-0.6180875874,-1.3673873635,-0.5621745345,0.0906915819,-0.554923327,0.253684395,0.7362197361,0.0481526391,-0.7661432926,0.706363421,0.1899451745,0.5898644808,0.4419711895,-0.1232519709,1.7032562771,-0.2291551817,0.9636655166,-0.5223007201,1.0189229045,-0.5260062512,0.8217360509,0.781428698,-0.0604732509,-0.0909769528,-0.8052949107,-1.0527246104,0.410781031,0.1414141949,0.288017788,0.6907478321,1.6086603469,-1.0533299775,0.026493799,-0.3329474304,-0.7719824091,0.1698493233,-1.3685678455,0.8581305918,0.4847425766,1.1531349585,0.0261814615,0.7935907933,0.5285562205,1.3207524299,-1.4407541876,-0.479148196,0.7591740474,1.0631076487,0.1651050141,0.2418417697,0.1587894316,0.5998084703,-0.3528740878,0.4123838533,-0.7905951439,-0.259402707,-0.1182617692,-0.8038551786,1.0630676666,-0.4528145489,1.5796966739,-0.7489312932,0.5055441217,-0.9096851788,0.1067900871,-1.097016355,-2.6713155451,0.9425436277,0.6171440526,-0.4346022651,-0.8313920918,2.0849112024,1.1323891504,-0.1428235709,0.7782299201,0.6815227542,-0.2598612171,0.1070298954,-0.8475710266,0.584165526,-0.3494311985,1.5381282058,-0.376130752,0.3435829199,-0.925865668,0.7837639167,-0.2199329175,-0.20100057,-0.1133305489,0.721682719,-0.798691181,-0.8616750334,0.163323078,1.2607228599,0.8682727645,0.6728885855,0.9916416678,0.5468865936,0.6434439293,0.8112608456,0.9513089665,-0.2415000975,0.2115959806,0.5987600453,0.0586027441,-0.2587323488,1.5852145556,0.989152544,0.7225263322,0.0832387223,0.766974781,1.0509056123,0.3054890809,0.2937649704,0.0188189667,0.0651202017,-0.8047026167,-1.2056591349,0.7883197633,0.8661001537,0.8025091661,0.6045839176,-0.4595836709,-0.5004227229,-0.156550863,0.4264269137,-0.9952238546,-0.2928140346,1.8662150489,0.6283692566,-0.6366973755,-0.637684712,-0.3518335462,0.6193128608,-0.5351075786,-0.7377686197,0.4702540326,-0.615980349,0.5554131891,1.0028811873,-0.489766022,0.3544678612,-0.6096041089,-0.7346933323,-0.5777335992,0.1005820855,1.5790369862,-0.3073766462,0.7123755634,0.216611398,1.4574624683,-0.0794784812,0.365670755,0.4614525494,-1.8755262674,-0.1990503218,-0.3399113082,0.1592915216,-0.0479749968,1.0939158269,0.7717446343,-0.1330852293,-0.2051522707,-0.7193360669,-0.4395580749,-0.2841155825,0.8362385191,0.5506195753,0.3044767332,0.100120298,-0.0219256487,-0.363512071,3.2845031221,-0.8325038558,-0.1690177383,-0.834410462,0.5678284103,0.8690998427,0.6057938659,0.1058926601,0.6739936983,0.5331933881,-0.8699558185,-0.6123020826,0.4233468626,0.5104041807,-0.4505855414,0.7976790883,0.8171635873,0.6290648505,-1.0967640278,-0.341102819,-0.239211141,0.1947417245,0.1863012151,1.586841289,-0.2797721904,1.4211806778,-0.6272648841,-0.4352465912,-0.3914053408,1.0021823872,0.5677548422,0.6151642287,0.6402559522,1.2866536682,0.2154722151,-0.2910172557,-0.4815925292,0.1735463123,-0.2778247682,-0.6372556616,0.5095771762,-0.6190067849,1.0012785251,0.2019797193,0.3650645074,-0.0919746323,-0.4390303319,0.5367981836,0.5682017018,0.2747836634,0.81467547,0.1639234073,1.0257347436,-0.380901758,0.35583591,0.4629324544,0.2287946574,0.4127750851,0.0118352445,0.4430362324,0.6764533593,-0.300960717,0.0225011612,-0.8789376349,1.0197394556,-0.0151552419,-0.1851321006,-0.8898920288,0.1006417407,-0.7779560257,-0.8427064584,-0.2640281144,-0.8099112936,0.7710814601,0.1916665192,0.8657089981,0.0446421759,-0.2830539208,-0.1619938114,-0.975819097,0.4934905153,-0.5689217216,-0.1324212466,-0.7138608162,-0.0371885046,-0.5452941023,0.1486127944,0.7921684407,1.6192102293,0.3512098345,-0.470265563,-1.0951113769,-0.8020071684,0.3629702994,-0.5248000698,-0.1140150723,-0.8334518034,-1.2581889553,1.8489772789,-0.379412441,0.1102102627,1.7999507876,-0.6316831974,0.7632724787,-0.5825700104,-0.2087386338,-0.6728670412,0.5921916346,-0.3522768392,-1.2338877861,0.3811066268,-0.5569041532,-0.6839408403,0.5356781274,0.2178265521,-0.3848966242,0.0787832989,-0.4979800239,0.1099978901,0.389893189,-0.9030860484,-0.1464735325,-1.2302458275,-0.2774974652,-0.5084400293,0.9008336923,-1.0877484974,-0.8604382555,0.2311690474,0.4921160811,0.8079017046,-0.6860761756,-0.6188817529,-0.0763916056,-0.0238334441,-0.147106618,0.6346716541,-1.4111106687,0.7817474567,-0.5517358046,-0.4435861879,0.6328869763,1.0697869469,-0.5194820482,0.8334136751,0.519837871,0.4090289216,0.205554753,0.0972747876,0.8119461062,-2.0391968294,1.4420073981,-0.4570663034,1.3824976249,-0.0640377596,-0.7960551762,-0.3631706772,2.0545924806,-0.555468732,0.8910615187,0.0373498953,0.7461142201,-0.3592142944,0.4659491828,0.1568300588,-0.323164447,-0.85416719,0.4619367036,-0.3885597502,-0.704733816,0.0960969553,0.1805052883,-1.1652611241,-1.0839595827,-1.2686507602,-0.4396061317,-0.7975941399,0.3668790104,-0.3648697315,-1.2796772564,0.9566682218,-0.7745328795,-0.0018768046,0.2562793208,0.4466017222,-0.5238625008,0.1368188319,-0.8980858538,-0.0645695273,0.1748017644,-0.5235097386,-0.3406479315,-0.4044381173,-0.1890776736,0.3225823715,-0.6413937501,1.3003039723,-0.6069627022,-0.4754810468,-0.7058251631,-0.3114497781,-0.0555102388,2.3111278069,-0.4020200662,-0.2312221756,0.581155347,0.0120525408,-0.7441095939,0.5172595107,-0.1041062669,0.2703734696,-0.9998121027,0.0385033106,0.6802930524,1.2878648151,1.3912216886,0.3892700416,-0.8939841225,0.4460490372,-0.7648722062,-0.6053273077,-0.1310094924,-1.1078971372,-1.2074727875,-0.639819614,0.2129618447,-0.5627589065,0.4638780919,0.9542116894,-0.5999064083,-0.4715318325,0.6965320699,0.3159887003,0.3256808862,-0.7231938053,0.0277886366,0.3879233682,-0.9629366429,-0.6826287517,1.569879597,0.3499293571,-1.0874250038,0.7878085717,-0.0308752856,-1.9155913594,-0.457874159,-0.8895905208,0.2088237638,-0.7622539976,-1.1819711673,-0.2117096941,0.8110948417,-0.488777047,-1.0809865985,-0.0649390791,0.5810531724,-0.5005306904,-0.80014197,-1.0204272139,1.6592001713,-0.6875615282,-0.2097885777,-0.8266864242,-0.7382896246,-1.0604776974,-0.8636464913,0.2195697989,-0.4586585944,1.6559470126,-0.803264995,-0.2080283061,-0.7748308743,0.1745684299,-0.2073979479,-0.9706657254,1.3422608554,0.3536482604,-0.3470165261,-0.497012781,-0.9446943283,-0.5833157941,-0.8787254773,0.2816220881,-0.2074238679,-0.2433039457,-1.4187823234,-0.5603488228,1.0772762707,-0.5137649935,-0.4129209908,-1.3281458787,0.3985277721,-2.0964770258,0.7402460285,-0.5718758737,0.2932314316,-0.1083941509,-1.4173276,0.6867537562,0.3073710794,-0.1631905961,0.0478091322,-0.8512499303,1.1916567716,1.1494766989,-0.5443533935,0.419523855,-0.2320194573,-0.9205072508,1.0659746124,0.9628711879,0.0356833665,0.6874309234,-0.5422993952,-0.5217412494,-1.4402318712,0.0295861626,-0.246148106,0.1895740354,0.3794016683,-0.5199885059,-0.8966931461,0.2674658762,0.0598775522,0.0641099665,0.9096470423,2.0384396633,-0.9108142087,-0.1798079765,0.7835876,-0.6795708351,1.0969214881,-0.2441762098,1.2415783793,0.639637612,-0.2453297894,0.1461198953,0.0065949064,0.2354654388,-0.1638664509,0.8043700265,-0.4589105505,-1.1936705424,0.0691193626,-0.2449180749,-0.3992669332,-1.2191868422,0.4152309139,0.8686265243,0.984623767,1.1001348237,-0.2182959128,-1.0093511324,-0.3298944845,0.0530188873,-0.3438869732,-0.0737495618,1.0948913376,-0.5931093005,-1.3392847361,0.3261584718,-1.2036755571,0.2516887661,0.9541007247,-0.7344623193,-0.6402315931,1.2585007028,-0.3394271083,0.8408986431,-0.1806131082,0.1649499018,-1.1674414729,0.4878397934,-0.0271521476,-0.7205173385,1.0278653353,-0.089233092,1.0011165995,-0.791042934,-0.5886185409,1.022925258,-0.4250473738,0.4552321609,0.0786267688,0.8070412601,0.9257504147,0.6398678909
   0.7159397988,0.4535328937,-0.7955638468,1.3322267837,0.5662731999,0.4142892239,0.0831059403,0.960067141,-0.0961556384,0.5621773861,-0.154568666,-0.3833849831,0.939922714,-0.3636879829,0.4416068674,1.0221834592,-0.4220844169,1.2996911143,0.3913691197,-0.8219395308,0.9580375579,0.4308332536,0.2643715945,-0.2547904651,-1.1750502094,-0.3015594637,-0.319758217,1.403857915,0.4685566541,0.7054063337,0.7335698449,-0.4988614003,-0.5465950396,-0.522266148,0.6362679822,-0.18919676,-0.5149370403,0.2031881728,-0.0661428952,-0.2355991018,0.8829806762,-0.5181540883,0.9495597382,0.7091906526,0.206066543,-0.8699016062,0.3553835152,-0.1111751535,-0.1208433959,-0.1797005006,-1.078452382,-0.5374493699,0.4653752453,-1.1458739134,0.2597221758,-1.0045124875,-1.0609072815,1.4329328656,-0.3925383483,0.3833937561,0.1710155318,0.7380672701,-0.1704042294,0.8619929356,-0.7778339367,0.012468954,-0.2278013451,-0.6970683726,0.9986949012,0.3306162412,-1.1890376698,0.1749082321,-0.5085083842,-1.0247044492,-1.3073819933,0.3349293195,-0.4111456992,-1.2882147936,-0.9156026525,0.0362165926,-0.236679889,-0.6869215469,-0.4617010358,0.9446773486,0.3871883328,-1.096724243,-0.9778951122,-0.1530452208,-0.4274298897,0.7367997289,1.2576236163,1.1204852475,0.0913962029,-0.2072087797,-0.3994610375,-0.4495935458,0.7324609808,0.344540167,0.2863372847,-0.4686506903,-1.2310936085,-1.1581620047,0.8363628167,1.2468450756,-0.6969291802,-1.827022009,0.367580836,-0.5034602133,0.7775927827,-1.3498917906,-0.2501917641,0.3888095856,0.7742837962,0.2556650841,-0.1579545762,-0.7257245542,-1.2032211115,0.9399846364,0.1251131331,0.2831929977,0.4840789521,1.4017188665,0.3158294845,-0.1787339883,0.520370837,-0.200101486,0.6132525557,0.0274543933,-0.8684115939,-0.9192752676,1.7261300167,0.3946876557,0.5855724021,-0.0621353262,-1.3010493746,1.0339917826,-0.8478137817,-0.3045913973,-0.2559521527,0.6368793772,-0.0465930597,-1.4453013816,-0.931126774,0.9798784098,-0.6461328251,0.2715202674,0.475968447,-0.4608188868,0.9183089231,-0.113220582,-0.2395943567,-0.4011598229,0.6704966508,-1.1543912242,0.7978032706,0.5179893059,0.947580161,-0.3902150463,-0.1550028874,0.9556707149,-0.0996278484,-0.6733254957,-0.0243228089,-0.5048759493,0.7445265855,0.8768801553,0.3812587009,-1.1303195666,-0.2853703336,-0.2146967054,1.2733318498,-0.3834337326,-0.0414901299,-0.3875909633,1.071210605,1.7043516905,0.3156337642,-0.1180938517,0.3380631377,-0.5725638447,-0.1570124311,0.1418444577,0.3774922078,-0.9355517503,-0.5256826164,0.6587411756,0.9673637455,0.52981009,-0.5502389829,-0.1064350178,1.0722036091,0.3035497491,0.5118835771,1.1657354225,0.1677167651,0.4629726873,-0.5804768589,-0.8011908672,-0.5017060392,-0.0503690638,-0.1528055574,0.3840343644,0.0898409621,-0.3950664336,0.5292801462,0.7739666687,1.3889563853,0.8904472715,-0.132759651,-0.7721256226,0.5009835188,-0.5490227823,-0.6031742185,1.6400095301,0.9302514862,-0.9193038929,-0.6113595411,2.6372911478,-0.8368093,1.8010812992,-1.6528527494,-0.7318905864,-1.3325578189,-1.0111358387,-0.9293361303,-0.0437068638,0.2781670654,-1.1098161118,0.2344201625,0.085691074,1.3021745088,1.196419179,-0.3389658162,-0.9551782259,-0.6304587973,0.1026767599,-0.9156373503,1.2334506663,-0.6990490551,-1.398765693,0.068297701,-0.8255716181,-0.9949944225,-1.3217133062,-0.2520814347,0.1539599301,-0.1395331624,0.1617308764,0.1278309188,0.0676182412,-0.8560201031,0.3878909734,0.2454864809,-0.7833685849,0.2149731738,0.213637769,-0.1125912207,-0.0956381404,0.0399735954,0.7386392259,0.1485385314,1.0380865554,2.9085747829,0.8608137738,-0.313137252,0.8794978487,0.1130701286,-0.1009760404,-0.103925393,-0.6514876374,0.9492695595,0.1006936771,0.3375323066,-0.8964435618,1.448636097,-0.4985200523,0.9656995442,-1.1396831796,0.0809303928,0.1962404086,-0.7326958831,-1.3550822537,-2.857948296,1.7429724562,-2.2159061574,-0.5108532718,-0.6176553931,0.3282270303,-0.4524909517,0.1847364805,-0.0322184266,-0.17554305,-0.6996838747,-0.3709640518,0.7009620947,-0.5109887563,0.0642681647,-0.5486885389,1.417598664,-0.2539846408,0.1334796387,0.2183645484,0.6256862318,0.6440163403,1.3635301063,0.5590615271,-0.3221298845,-2.7366763664,-0.3158105064,-1.0409091119,-0.0473576637,0.8398886304,0.5573197779,0.0270069137,-0.0933451037,-0.5040765384,-0.8572540447,-1.2352167962,0.6436285338,0.9464548127,-0.8450590263,-0.8292198148,0.226292894,0.3728039503,0.5794883063,-0.0383007406,-0.5321885428,-0.4444747065,1.2956732736,0.9200338273,0.1468294612,0.2449342354,0.0546796746,-0.3355479617,0.3788963522,-0.1184172247,-0.1612160788,0.3097981969,-1.2736791049,-1.2929980471,-1.6456593587,-0.7562183065,0.2485492709,-0.3845556314,0.6666563652,0.854223624,0.0987335317,1.9509260104,0.9350865343,0.281548349,-1.0347316599,0.8052527666,-0.2852963897,0.6411646383,1.0081790353,1.2799860855,-0.9465257181,-0.4998390967,-0.157694904,-0.7553427408,0.0969371162,-1.3621243284,0.419183097,-1.4578190929,-0.5977571588,0.6618980787,-0.7344667682,1.339854939,-0.2024928146,-0.988483344,-1.2560489125,1.366660686,-0.6793153172,-0.7383058304,0.5150482078,0.1250616686,0.7864700808,-0.4875070533,-0.3928835181,-1.8375996103,1.1881173112,0.2264278753,-0.896570242,0.7521430308,-1.2763350477,1.8235564925,-0.0799591714,-0.1407858139,0.864420516,0.1901476835,1.5842735108,0.2541221453,0.1254193092,0.221531039,0.199930473,0.8915223324,-0.2214147544,0.434183075,-0.2217104629,-0.8573059534,0.4304752864,-0.3471951942,0.3312108921,-0.5629589859,0.9459448871,0.1845782751,0.6355847118,0.5855379604,1.0170710287,-0.8145881165,0.5852944247,-0.240162214,0.6243767352,1.0388760016,0.5720278392,-0.5945300053,-0.2771017469,-0.1963316259,0.6993332715,-0.3163311809,-0.4555117597,0.084482138,1.1487663253,0.9528311772,-0.2597651734,0.2452767815,0.5097331051,-0.411319485,0.400788077,0.4061901556,1.455168535,0.539811467,1.2172204456,-1.1206716564,2.4987819674,0.434614851,-0.4525624213,0.3521022911,-1.3844349176,0.2935874723,0.3303782639,-0.5495950912,0.4182651617,0.3161594977,0.2705522609,0.822510125,-0.596195217,1.9520630252,0.3494846486,-0.8327527446,0.6186894566,-0.1145427744,-0.8100498455,0.1972028388,1.0223710721,-0.5079644618,-0.5028338564,-0.4313882104,0.2890849472,0.3885446855,-0.194236357,-1.2008594066,1.4591678469,-0.9111432718,-0.0744691717,-0.5293283963,-0.8688325475,-0.3180773271,1.8557394977,1.1055235371,0.0202061305,-1.2741398998,0.3934844579,0.7533066253,-0.753880579,0.9135435891,-1.1648911942,-0.3347777309,-1.9349575263,-1.6631814703,0.2449291519,-1.6879669494,1.7329085471,0.6258050193,-0.5462558554,0.9805647006,-0.1887963601,-0.5740372899,-0.237956187,-0.7701800043,2.1552867588,-0.0033001948,0.8228370968,0.1588640737,-0.5778587054,-2.7994395565,-0.0627674624,-1.3676813401,-0.4585160909,-0.6328467709,-0.7630306107,-0.445526254,1.3881748907,-1.4906984684,-0.4963877802,0.0256330882,0.3799376321,0.8636983691,1.1243810196,-1.3613850109,0.6803133556,0.5236930423,0.2192663255,-0.1517964976,-0.4936322498,-0.8188050056,-0.6927968008,0.7329157601,0.1741939726,1.4783732565,0.8362648365,0.4274016629,2.463974694,0.6120473675,1.0385676124,0.0418671966,0.2895173343,0.6880251866,-0.0982818832,0.9155965085,-1.0429836843,-0.1038667045,0.3383598261,-0.329668667,0.1444571,-0.8618175404,-0.3684619961,-0.2659795193,1.0716825902,0.3831206937,-0.3557681443,-1.3256751556,-0.0605203625,-1.0702155208,0.8007095352,0.2126920721,0.97046889,-1.5109801201,1.0742608795,0.5194645747,-0.8916285905,0.2365092125,-0.6300705733,-0.6874586428,-0.2144882328,0.5692431484,-0.5405083478,-0.1723326826,0.3986630955,0.738202453,0.5341575994,0.2457576216,0.8262126655,0.2685141674,-1.5432860524,-0.822307572,-0.1323531225,-0.5367011358,0.3828492657,1.3343655057,1.1386710606,-0.3848167378,-0.3936092322,-0.9457044461,0.980234416,-0.0654522222,-0.9204278254,-1.0302188521,-0.0311738974,0.3300097104,-0.7452061367,-0.6360378834,-0.3910510792,0.4093418123,-0.7674973273,-0.3839781498,-0.341229868,0.9703107563,-0.34693764,1.5175048259,-0.3991840239,-0.5706023953,0.6142707408,-0.877765448,2.1315528509,-0.2361372584,-0.61851179,0.178905822,-0.7268438245,0.0515965572,-0.4991236022,-0.3289373866,-1.308181947,1.0052247562,-1.476403634,-0.2072961619,0.0117001263,0.4904058509,0.4344084968,1.1329196388,-1.813566366,-0.6970576032,-0.3767594786,-0.3661737296,0.4270871909,0.1722518962,-2.3702203555,0.5691140849,-1.1280579009,0.4611000841,1.0679261345,-0.9743511278,0.4599013107,2.9449920432,0.7082551005,-0.0436776283,0.5263325246,0.8727816647,-1.0047298813,1.0821093978,-0.174467689,-0.5836340652,-1.006028911,-1.3926375063,-0.2284769034,-1.6663124992,-0.516208664,0.061512554,-0.2092862802,-1.7702357252,-0.9173804226,-0.6262983883,0.574707119,0.4500915656,-0.9294606495,0.5717727328,0.8279986111,0.6066849747,0.4509378337,0.4678669206,-0.8419052597,-0.0996711479,-0.1916036011,1.1961004297,0.8619122382,0.7499078188,-0.2873570088,0.0271653536,-0.6931113774,1.1084599852,0.6182237005,-0.2466392503,0.0805430803,0.1598379808,-0.6315520885,0.835381101,-1.1522642196,0.7598930541,0.0631289982,0.238398924,0.0223998802,-0.2682607615,0.2318127104,-0.5190975139,-0.3488445204,-0.1891837729,0.1279511433,-1.272914553,0.0785376777,1.6742879559,-2.5543564913,0.9025545887,0.8394791794,0.6137605431,0.1819764355,0.8899243679,0.1589025779,-0.1862666404,-1.0552080828,0.5237881939,0.9396935869,-0.3873932709,0.9414680497,0.5333660212,1.0361946378,-0.6786784823,0.6033341225,0.8801269782,-1.033100376,-0.8660904262,1.2202104546,-0.5230148867,0.3114471528,0.8845895475,-0.4983339232,0.6460169644,0.3089237834,-0.5607753785,-0.5067059142,-0.1655924559,-2.0857529873,-0.0599800549,0.5164361957,0.2558918584,0.4560210258,0.4776727875,0.5045342415,0.7598351627,-2.086716736,-0.6841705272,0.3072918776,-0.2670684721,1.3231169622,-0.9927971913,-0.0952459838,-0.1115178163,1.403162233,0.1255721061,2.3441451791,-0.9537018393,-0.1175722632,-0.2506169128,0.4844400951,-0.3811793627,-1.0188023739,-2.317015882,0.7553148711,-0.9651348149,1.1720451863,0.4385529469,0.7330924638,0.7829914653,0.5106495672,0.5690456029,0.2489733271,1.404781011,-0.4116470596,-0.8040537662,0.9624495605,0.9609145651,-0.4601413866,-0.6015580574,0.5457407818,0.7574603525,-0.5091021256,0.1636816504,0.6769126937,-0.9826396408,-2.2463599407,-0.4038787409,1.3272326399,-0.9271379092,0.6029330968,0.1668438272,0.2207553964,-0.0334441719,-1.4765131882,-0.0781380704,0.9066870748,0.699140612,0.6494043748,-0.8012893261,-0.4681146723,-0.413528335,0.4204058306,-0.0027424292,0.0664520223,-0.3802222972,-0.5496631696,-0.0015351827,1.6132413503,0.3711198438,-1.4030828973,-2.0256076569,0.1078888949,0.1685948382,-0.2047765851,0.3073839485,-0.5642647985,-0.9936230985,-0.1268246883,0.2934038494,-0.9245825402,-0.8278527905,1.2087286446,-0.469602545,-0.9300444785,-0.387332181,-0.667297201,0.2751458821,0.1611303995,0.5547688545,-0.1837467355,-0.329523299,-0.3072586069,-1.8430632007,-1.1126257827,-0.8598787989,1.2006707269,1.2864189964,-0.0793695675,-1.1001621609,-0.5542171131,-0.52986369,-2.1844916684,-0.3565447293,-0.7804853188,-0.8033121629,-0.0953144789,0.7827377199,-0.3210786007,1.7820990604,-0.7871270822,-1.0630102375,0.419069008,-0.1522528724,-0.5998397599,-0.2773341587,-0.9726293776,-0.8332229682,0.9777199787,0.3221526106,-1.2695940414,-0.2757007238,0.3828550821,-0.9231016538,0.084729299,-0.3359204998,0.4279119588,-0.7294770628,-1.0118309565,0.0279413853,-0.1215558964,-1.5369136214,-0.1972092364,-0.2244028281,0.2186459919,-0.8637165795,-0.9802209836,-1.1787041559,-0.711608483,-0.7464910356,0.8644297159,-1.0046395639,0.0273549941,-1.0277870932,-0.141210484,0.1259409098,0.5832070323,0.3711423847,0.3651094111,0.0049487685,0.489629687,-0.4660584365,-0.8865799485,-1.5659911961,-2.7935131986,-0.4756603581,-0.6457356321,-0.6605587712,0.6041290146,-0.2683397513,0.513532354,-0.8994117276,1.3030467676,-0.6901967461,-0.5186661514,-1.0227737542,-0.0020212438,-0.9856055103,-0.3588494193,-0.2114431923,-1.3671174315,-2.3705283768,0.4571161086,1.0918453332,-0.0842248658,0.0606973154,1.7220657357,0.6545113812,-0.0969049915,-0.7744942367,-0.370359667,1.5016413808,-1.6037692724,0.3907024805,-0.8878858336,-0.1430092496,-1.0210839875,0.5996777929,-0.1381528112,-0.3919194647,-0.0279640352,-0.2768462952,0.3678075088,0.0457029872,-1.4205637212,-0.9833586221,-0.921329854,-0.9529651932,-0.7242613003,-0.0014674206,-0.3067040058,-0.1781350326,-0.3854527175,0.3029964045,-1.1575287751,0.5905203478,-0.5390955987,0.3373486689,0.3472612746,-1.208123209,-0.2289278082,0.4901501245,0.6875024824,-0.4390626193,-3.4717884151,0.56779837,0.0487563761,0.6753553556,0.1671318027,-0.0498163567,-1.289642503,-0.9444493486,1.5126739829,0.4479529399,-0.0557827643,-0.8002229798,-0.8823166721,-0.6133575807,-0.4359258965,-0.6604729916,-1.0300316821,0.8500999628,-1.1076756117,1.0266303126,0.7789872584,-0.4648088388,-0.4635134694,-0.0172447772,0.2977376161,1.0963859179,0.4831191505,1.1089969071,0.3046504688,-0.5211383873,-0.8622287934,0.4678107574,-1.6221311924,0.5968196785,0.971816348,0.9461191753,0.6406845784,-0.2929476687,0.2920119982,-0.0740338589,0.4193530634,-0.1675708523,0.9162233609,-0.601400614,1.5254656739,-0.2255069671,1.1237765999,0.9809570813,0.9754290371,0.7225781294,-0.959629487,-0.8705557593,-0.6513814734,-0.9019355635,-0.3670181366,-0.9316271018,-0.0998261943,0.0780480753,-0.3094850155,-0.5934362742,-0.537728429,0.1302854476,-0.6635434963,0.7709161645,1.4617867619,0.4906889768,0.5676408095,-0.8347209555,-0.4642341914,0.1923360082,-0.5602249609,0.598929842,0.664134321,-0.5721026682,-0.1157806265,-1.0443842324,-0.3495183716,-0.885190755,-0.7432575053,-0.1373611724,0.1303696388,0.5233769745,-0.7695384049,-0.1257384864,-1.0413512039,0.5816023222,0.2020307936,0.761557623,1.0173698448,0.7043398917,-0.3743954781,-0.1051718439,0.0491636421,-0.7438500476,0.0563239183,0.3750362479,-0.0174864571,-0.1724913308,1.2892736433,-0.8625303641,0.9658520794,-2.4909598023,0.8920546006,0.2313535656,0.9259019551,1.4566233348,-0.0212384731,-1.1574775051,0.2198015399,0.0019065269,0.4757418955,2.1349334059,0.5569693521,0.8359679825,0.7986625743,-0.073413951,-0.1800903514,-0.8332859319,0.7195307111,-0.1217155674,-0.2765733133,-0.3377510776,-0.0561153171,-0.1959577705,-0.4960408135,0.5009879651,0.7670258397,1.2329669103,0.2652891772,0.7037480523,-0.6579281252,-0.4172343741,-1.1202542169,1.2172162252,-0.4585868167,-1.300669858,0.9595428058,2.1671206571,-0.7056975136,-0.7972667101,-0.1849555746,0.6542108449,-0.5136672756,-0.9267164437,1.2644249682,0.0624472832,0.8905570426,0.5058787075,-0.7645192056,-0.3287024003,0.5033938556,0.6775103888,0.7676177691,0.3845636688,-0.3040000347,1.0132390795,0.2914161405,-0.2745553767,-0.6888007065,-0.8369142641,0.2495633105,0.3868702853,-0.287714592,-0.2681944449,0.373523687,-0.7971486713,0.4885055245,0.8113138745,0.3637665771,0.4918166123,-1.2974343473,-0.1016080236,1.0101391271,-0.0693470775,-0.0256005932,-0.2198167824,-2.0446264329,-1.1994104284,-0.0734827687,-0.2983993961,0.4685801318,0.7804000067,-1.0238743985,-1.1549575578,0.4630518903,0.2917385147,-0.3043634272,1.0977275537,0.9605309235,1.8398273431,0.3049972445,-1.7640483876,0.4124089915,0.9778025047,-0.7594527628,-0.1743036441,0.5541309104,1.271032922,1.7177273033,-0.1293551824,0.4985391192,0.9328513581,2.4329192877,0.3532504419,0.1229951086,0.2908523619,-0.3479202065,0.8938734106,-0.0804055648,0.3974876677,-1.0130668981,-0.0896579184,-0.6702493798,0.5640105629,-0.5066342622,0.1890385915,-0.7920403022,-0.3442400836,1.0444165274,0.2357683801,0.5772864579,-0.6152584739,-1.1566098614,1.8761687898,0.3421320586,0.0401731697,0.022235225,-2.2796535701,-0.8120471157,-0.4663884776,-0.1795535272,0.4135821025,0.1317004674,0.8391999388,-1.2216962428,-0.0641581536,-0.9472984053,-0.6526975971,-0.8440347449,0.1139344708,-1.2014375191,-0.1568508436,-0.042048497,0.6550497123,0.9007622514,0.7093707527,0.5838390094,-0.1871506786,-0.8246420594,-0.4800069697,-0.0600554734,-0.2230317481,-2.2548320934,-0.4632456993,-0.2578659061,-0.8147526984,-0.2945446974,0.0946886873,0.3954914623,0.1046404321,0.4834695618,0.3037559241,-0.4096077588,0.4045078202,-0.2532499996,-1.0464451348,0.5647663675,0.722959482,0.7663730625,0.7437960192,-1.2483091177,0.8142553967,-0.3500968349,-0.546094727,0.382855888,0.8854374624,-0.6111864228,1.7013176339,0.1689601598,0.3194329375,-1.3385069365,0.2718974931,-0.8851303341,-0.9913271526,-0.6533710476,0.0935551964,-0.2830129272,0.2585262631,0.7263555658,-0.8857129815,0.222323731,1.1898044348,0.1310503884,0.0147289449,0.5676985553,0.2153233518,0.398780975,-2.3325025044,0.2720436792,0.752847881,0.3986902218,0.0468029704,0.1299862657,1.1093309223,1.0320806438,0.3157168792,-0.5949323046,-0.0223375315,-0.7961126274,0.1311087418,-0.1705320171,0.6759802837,-1.5182080076,-1.7384462439,-0.7019337553,-0.4804099684,-0.535100209,-0.5474922682,0.9941400671,-0.1725557484,2.4559830614,0.9073700243,0.2347672567,-1.0903171434,0.2621122127,1.3216782489,-0.0831999148,-0.6598645734,-0.9412872039,0.2751273916,0.2632766546,-0.0617195049,-0.0990013393,1.0541684627,0.0626370514,0.8476579834,0.6944804535,-0.1453249133,0.8136612224,0.3055513871,0.063719416,0.0590315359,0.0756021038,-0.1799554747,-0.1354745967,-0.8688243596,0.2599278371,1.3038110722,0.2446815714,-0.9887384372,-0.5833816938,0.7755407508,0.6673435197,0.0025767323,-0.2775204202,0.6879674056,0.0334533555,-0.6764175392,0.408892946,-3.1599020981,-0.7515279123,0.0577971892,0.3961417425,-1.2718912472,-1.1129148141,1.0039039788,-1.1886020314,-0.5219985289,-0.4727008297,-2.2177502559,-0.6789004891,0.5772928825,0.2989842336,0.5336960684,-0.5611435994,-0.7200362428,-0.8857059698,0.0165300343,-0.7134296975,0.2009569306,-0.2853025036,0.5214782199,2.6314611299,0.4647265852,0.5885545925,0.4681844683,0.5453155324,0.8844792367,0.2044307957,0.4248718929,0.4989280331,-0.4204146066,1.341099238,-0.1640265749,-0.1436464806,-0.5551650377,-0.1539462842,0.1627400089,0.8880157986,0.8370730552,0.0995130977,-1.652648872,0.3268153267,1.0604973112,-0.3486004274,1.8222296717,-0.3238356586,-1.6563135989,-0.5691607874,-0.7850503714,-0.217120514,-1.0351427105,0.4044906182,-0.790195752,-0.334723784,1.3909193634,-0.0887639798,-1.2924651573,0.2151977118,0.6006438873,-0.3059697613,0.1584034328,-0.242795424,0.0760964697,0.2694901375,0.3045006644,0.5180652192,-0.0757115847,-0.9225583077,-1.5270234618,0.979338354,-0.5486602812,-0.6619023516,-0.1955696915,-0.1055522703,-0.5831955225,0.4937878981,-0.2307154816,-1.2182537332,0.5927250947,-0.143886862,-0.9445177829,0.413666334,-0.1626403035,0.4580294938,0.1549881684,0.0849578038,1.1489298644,0.9665270063,-0.8534344056,0.011744387,0.7871524673,0.9453692008,-0.7674308614,0.5727587051,0.4141158722,1.6545985823,-0.1475897172,0.5242450166,0.8761997746,-0.0205052273,-0.4427566641,0.6838970327,0.7667489923,-0.8772182311,0.0458497137,-0.6208298754,0.128721792,-0.920772561,1.1247128087,-0.7520379182,-0.4091437599,-0.9108863073,-1.1265962176,0.9976176224,-0.7340028058,-0.3283276549,2.2152777524,0.7428406742,0.9282735511,0.4332099218,0.3936407086,-0.7143529852,2.8576028159,0.5875671661,0.8654507915,0.396803245,-0.9872876293,-0.1452573851,0.2346154487,-0.1352319743,-0.721703537,0.5162245827,0.0942677979,-0.3470184971,-0.7800001606,0.0277597337,-0.6932426265,0.24520854,-0.9042669152,0.6196629118,-0.6597149556,-0.2939163767,0.2976877676,-0.4157024828,0.0248461323,-2.6526250893,-0.7484137756,0.6078291717,0.5819966878,-0.270581537,-0.3961989195,0.1546397672,0.4528469231,-1.5764241405,0.7705525553,1.2847647805,0.1847150345,-1.9189544286,0.3221832191,-0.7014889043,-0.0038002927,-0.021858768,-0.6137109144,0.4629068498,-0.9364254066,-0.1460499855,0.3419780023,-0.1242705197,0.4925619006,2.1119662749,-1.2140797705,0.9997467635,0.591581885,-0.2115108712,1.9220328761,-0.7125121409,1.3496363388,-1.3186442573,1.0634247124,0.849569254,-1.0912471915,0.0111541729,0.5346913786,0.1427367941,-0.3293597104,-0.6731210038,-0.2910662878,-0.4976345385,0.9450380435,-0.6680693785,1.0680395207,-0.5484301558,-0.658988256,-0.5367219694,-1.7930080675,-2.4177761704,0.569160117,-0.2972172205,0.1219348357,0.1326002348,-0.0787300544,-1.1466787537,-1.1132212757,-0.9664045595,2.3002191499,-0.823491741,-1.7943044147,1.6852921788,0.0172165584,-0.8695367474,-0.3278470476,-0.9789748896,0.225837798,0.6202438708,2.4614060551,0.5934863268,0.0543095491,-0.6611428042,0.8864054141,0.5828813477,0.0961568603,-0.3485808131,-0.9829745277,-0.6054112621,0.8958813852,-0.7922804933,0.0168788465,0.9937955646,-0.0680944564,-1.2707183822,-0.0487495617,1.3253643813,0.0310248627,-1.521606294,-0.8482153691,0.6697769204,2.1839552638,0.3801579171,0.7517949238,1.7161518518,-0.2039328268,-0.249236677,-0.7324473551,-0.372267656,1.9499188497,0.5101190757,0.0746064857,-0.8778632224,-0.2743795059,-0.1694075352,-0.7893537816,0.3935921417,1.0845933275,-0.3978098146,-0.5234780684,-0.4925513594,-0.6837420644,1.350404857,-0.943558387,0.1649987416,-0.4497335289,-0.7075082499,0.0772022118,-0.5605666034,-0.0368210328,0.5129282637,1.0786272301,-0.4718173395,-0.2022526932,-0.2661666585,0.4628396529,-0.5589830432,0.307983788,0.6895873554,-0.6970660196,0.7452516794,-1.0268862607,0.593918549,0.2068705903,0.3031974921,1.0764170078,-0.7670462012,-0.161313704,-0.5458254814,0.9981797437,-1.440855418,-0.0203385364,0.3915051309,-0.9385302833,1.0026132846,-0.5000014581,0.6713869693,0.8372778732,0.141012354,-0.868287169,-0.732183487,-1.011464202,0.1585664112,1.5160829016,0.2433678973,-0.3920982361,-0.2553796369,-0.7974360893,0.1678739531,0.0790889939,1.0332327658,-0.5611185181,-0.2009279658,-0.2694920393,-0.1107331126,-0.823767986,-1.1170353838,0.2404273703,-0.4092364342,-0.7763865471,0.6631935738,-0.5691428225,0.5705305537,-0.8150265016,-0.1414557791,-1.212151271,-0.2528868188,0.4617342517,-0.4759844369,0.0945082694,-0.3161673655,0.9563370018,0.1753955618,-0.404713385,-0.6183053416,0.0632991652,0.4323311629,0.4590132449,1.9918479571,0.8028412053,-0.0658059332,0.1021934023,-0.4808468984,-0.1450091372,0.512409413,-1.260841782,-1.0696758659,0.4322704364,-0.0953399743,1.2275400552,-0.7031111123,-0.7093794845,-1.0081774354,-0.5945272166,0.6694551402,-0.2505001661,-0.4812464834,0.6914425888,-1.1838734728,-0.9426364261,-1.1454070723,1.4338266141,1.8482861351,-0.0398318315,-0.6040218753,-0.6835364082,-0.3984514118,-0.94446602,-1.1406206218,-0.517763263,0.6478096498,-0.7689258865,-0.5900464,0.7460991033,0.8223676015,-0.1886546404,1.3691023334,0.5148344831,-0.4738248626,-0.692916815,-0.6735707152,-0.3966070291,-0.1943284053,-0.9023868347,0.5696759536,-1.1366004321,1.0919618305,-0.9833933092,0.7762798448,-0.5897403396,0.4752859658,-0.4278897669,-0.4798284217,0.3526824786,-1.1225289817,0.4483214744,0.7793655458,-1.0855163349,-0.9644608127,-0.2993717114,0.388935681,0.5227130264,0.5624348488,-0.5395829685,0.4378289829,1.1321970316,0.531678612,-0.2008533468,0.2916316591,1.684594506,0.157104134,0.4380814202,-0.4848499644,-0.6946845378,-1.2040338202,-1.2024683309,0.9082787208,-0.9063181299,0.6183410443,-1.1620194853,-0.5573813608,0.1141759801,0.6011022817,-0.7916865429,-0.8945803558,-0.7392451414,0.6321230894,0.6033105859,-0.8776595173,0.4799565118,0.8527363994,0.4870045191,0.0632429681,-0.15998617,-0.5773898943,-0.225096227,1.3323349115,-0.7685932259,0.607038954,-0.2062061787,0.0883456998,0.7611403946,-0.5938949253,0.06736304,-1.8943249301,-0.8487821962,-0.3749487125,-1.192631784,-0.7624760512,-0.6290848904,0.5684655022,0.7117882892,0.6655022469,1.1536128508,-1.2264469927,0.3604689945,0.8945722425,0.3825862816,-0.5335638337,-0.1196368971,-0.0827166927,2.0241038066,0.1326155261,0.3986100252,-0.399457192,0.9230946445,-0.4462276955,0.3654362419,0.7113585168,0.4802894948,0.1568371316,-0.6453536885,1.2676893332,-0.5422288846,-0.4014704172,0.6240238929,-0.7142539915,1.5340523196,1.1764755493,0.5685089818,0.2143708221,0.0388044839,-0.024225269,-0.3286556241,1.0361541987,-0.0221122244,-0.4281572831,-0.1051890593,-0.1941353211,0.9028229329,0.1864157683,0.1073066808,1.2371286807,-0.8248089975,-0.7576960336,-0.5928591423,0.3819614343,-0.5031269818,0.3732677962,-0.1135873506,0.7905838141,1.1377297187,-1.8907908495,0.8153602946,0.0157875787,-0.3804237234,-0.3488897573,0.4335030866,-0.3619222745,0.2548922101,-0.8341106937,0.2457067396,0.6235061427,0.9141995859,0.3424371666,-0.8167531868,-0.8210558169,-0.9505463381,-0.7172936378,0.1135691907,-1.4313709959,-0.007445064,-0.4782639782,0.0375474584,-0.8056918823,-0.2711388758,-0.6662064458,-0.4422470353,0.856476451,0.3371161658,-0.4608957184,0.5837260849,0.4880689313,0.4844942998,0.8568217416,-0.5959072525,-0.681295124,0.8610094994,-0.6851168041,-0.3368809902,0.1858937141,0.8753965958,-1.0238608659,0.4386949881,0.798264494,-0.7869841283,1.0051047911,-0.476565244,-0.3380276081,-0.2750278159,1.1408218266,0.2938625248,-0.2647129359,2.2453374816,-0.3617144993,-0.202305039,0.8418766951,-0.7704593992,0.2424499479,-0.7037371279,0.3779130496,-1.3679737699,1.0420390875,-0.0345952278,-0.9278147858,0.6874029979,-0.5852751186,0.1366256778,0.1697980347,0.5449615722,0.4332917938,0.7963804493,-0.8145125436,-1.7241472145,-0.4206872555,-0.26016745,0.4630735927,-0.31634605,-1.2581542084,1.1193996068,0.7190105309,0.1989133438,-0.645997491,1.2558024686,0.9915702917,0.7102484533,-0.6366347545,0.3892924371,1.019414382,0.710989328,1.4640656642,-0.0821475598,0.240770199,0.1390280949,0.781323817,-1.5845912508,1.8635262764,-0.1616458211,-0.9728026709,0.016263378,0.4246980446,-0.4464016475,1.6918639258,-0.5455522835,0.0611350949,0.1265976641,1.000781453,1.4754917594,0.5306443623,-0.5258706067,-0.3963304562,0.2844248139,0.7751513935,0.1616490417,-1.1235511954,0.8486465481,-0.382705764,-0.6092793545,0.3404520946,0.0039895451,-0.7209956922,-0.1685244821,-0.6845182303,0.4758396004,-0.5556220404,0.5590314151,0.4095099239,-0.3071835976,-0.3413864367,-0.8350795646,0.1705243274,-0.6940559895,-0.1221278284,0.9037691261,-0.4606846457,-0.6930103908,-0.0828049858,0.3520141213,-0.3865010211,0.0140317166,0.2679544677,-0.6984849188,-0.3137836208,-0.0521615828,-1.05107109,0.2901685743,0.6984949133,0.5646703452,-0.6662784121,1.1895911361,-0.2247307817,0.4914334564,1.0741417349,-0.141657891,0.9910984494,-0.6937086079,0.2238840967,-0.3098092929,-0.5630474937,-0.3623200521,-0.102799324,-0.3707253234,0.4706701933,-0.0740033793,-1.5033352452,0.0224529957,-0.3101426658,0.2786054261,-1.7132600663,0.0342185367,0.1415218984,-0.6073060268,0.4957915751,-1.3006101983,-0.9218342357,0.4713875461,0.7136433884,-0.1188355018,-0.1382760105,-0.5917489881,0.63107767,0.4043498084,0.571112635,0.2451500494,0.5212558001,0.6371603806,0.9045056791,-1.1423850834,0.2146812094,-0.5301108453,-0.518703526,-0.155347927,0.8892991015,-0.4237606394,-0.0468539532,0.6020472088,-0.6779247283,0.3358096394,-0.1165233211,0.4698896427,1.262657639,-0.7346104684,-0.0483935209,0.2835240491,0.1769494992,0.9809579168,0.9782927283,1.2258970825,-0.565523923,-0.4410321961,-1.1677984611,0.5804729976,-2.0558999629,-0.0962966277,0.1639480204,0.755936627,0.9523153383,0.3683800191,-0.8558025093,-0.9016130981,1.4612021521,-1.4444447773,0.8761838067,-0.3442911124,0.1566430354,0.5102647725,-0.3469098426,1.7579609322,0.2022209612,-0.6965515026,0.7502842019,-0.6119162727,-0.4713865477,-0.3196940301,-1.3239557189,-0.3361489122,-0.482257907,-1.1625235982,-0.1464638156,-1.8712921083,0.5549005687,-1.1321998106,-0.5999231614,-1.1118181183,0.698076138,-0.4209229183,-1.8775093839,0.0585009689,-1.5430242992,0.6431290243,-0.5497050337,-1.1621844228,-0.0729467341,-0.6316534071,0.4978138061,-3.3063297381,0.7764227964,0.3860071024,0.0322242097,-1.0786811241,-0.8458365876,-1.1473414573,-0.3638347821,0.5386764809,0.8955238276,-0.9992976066
